svm_type c_svc
kernel_type rbf
gamma 0.0384615
nr_class 2
total_sv 369
rho -8.53806
label -1 1
probA -2.87668
probB 0.020888
nr_sv 184 185
SV
10 1:-0.97656 2:0.99921 3:-0.85352 4:-0.84766 5:0.25 6:-0.35 8:-0.46549 9:0.5 10:-0.3625 11:0.05469 12:-0.35556 13:-0.17222 14:-0.15 15:-0.23333 16:-0.07222 17:-0.98 18:-0.96 19:-0.83 20:-0.66337 21:-0.58416 22:-1 23:-1 24:-1 25:-1 26:-0.79 
10 1:-0.99219 2:0.99996 3:-1 4:-0.86719 5:-1 6:0.13333 7:-1 8:-0.97559 9:-1 10:-0.425 11:-0.03593 12:-0.21667 13:-0.1 14:0.13333 15:0.01667 16:0.08333 17:-0.74 18:-1 19:-0.84 20:-1 21:-0.21782 22:-1 23:-1 24:-1 25:-1 26:-0.69 
10 1:-0.70703 2:0.9957 3:-0.02344 4:-0.38867 5:-0.02969 6:-0.05152 7:0.82409 8:-0.1354 9:0.27734 10:-0.43864 11:-1 12:0.12311 13:-0.06044 14:-0.03289 15:-0.01111 16:0.13644 17:-0.9849 18:-0.96438 19:-0.49455 20:0.1776 21:-0.807 22:-1 23:-1 24:-1 25:-1 26:-0.93 
10 1:-0.98828 2:0.99963 3:-0.91797 4:-0.86328 5:0.4 6:0.16667 7:-1 9:0.5 10:0.5 11:-0.44576 12:0.16667 13:0.25556 14:0.24444 15:0.17778 16:0.3 17:-0.99 18:-1 19:-0.92 20:-0.26733 21:-0.11551 22:-1 23:-1 24:-1 25:-1 26:-0.97 
10 1:-0.99219 2:0.99996 3:-1 4:-0.88477 5:-1 6:-0.01667 7:-1 8:-0.28809 9:-1 10:0.1125 11:-0.03593 12:-0.01667 13:0.21667 14:-0.01667 15:0.03333 16:0.15 17:-0.98 18:-1 19:-0.86 20:-1 21:-0.63366 22:-1 23:-1 24:-1 25:-1 26:-0.81 
10 1:-0.98438 2:0.99921 3:-0.87695 4:-0.86523 5:0.05 6:0.15 7:-0.85938 8:0.41016 9:-0.275 10:0.5 11:-0.56669 12:0.16667 13:0.125 14:0.1 15:0.21667 16:0.10833 17:-0.98 18:-0.92 19:-0.96 20:-0.50495 21:-0.51485 22:-0.8 23:-1 24:-1 25:-1 26:-0.87 
10 1:-0.96094 2:0.97558 3:-0.61328 4:-0.8457 5:-0.175 6:0.31667 7:0.77386 8:1 9:-0.31875 10:-0.275 11:-0.95911 12:0.13 13:0.07667 14:-0.07667 15:0.06 16:-0.01 17:-0.74889 18:-0.9 19:-0.84 20:0.34158 21:-0.71485 22:-0.8 23:-1 24:-1 25:-1 26:-0.69 
10 1:-0.94141 2:0.44333 3:-0.09961 4:-0.87109 5:0.18205 6:0.1 7:-0.10096 8:-0.38965 9:0.08269 10:0.5 11:-0.99761 12:0.34 13:0.27778 14:0.17111 15:0.19333 16:0.04 17:-0.99 18:-0.96 19:-0.96 20:-0.4623 21:-0.88779 22:-0.8 23:-1 24:-1 25:-1 26:-0.85 
10 1:-0.98047 2:0.99921 3:-0.83398 4:-0.86914 5:-0.05556 6:0.11667 7:-0.17904 8:-0.17871 9:0.24167 10:0.5 11:-0.66696 12:-0.09333 13:0.08 14:0.01333 15:0.07333 16:0.03333 17:-0.95 18:-0.90667 19:-0.92 20:0.49175 21:-0.51287 22:-1 23:-1 24:-1 25:-1 26:-0.95 
10 1:-0.99219 2:0.99996 3:-1 4:-0.87891 5:-1 6:0.03333 7:-1 8:0.6416 9:-1 10:-0.425 11:-0.03593 12:0.08333 13:-0.06667 14:0.03333 15:-0.1 16:0.08333 17:-0.98 18:-1 19:-0.88 20:-1 21:0.0198 22:-1 23:-1 24:-1 25:-0.2 26:-0.45 
10 1:-0.94531 2:0.90668 3:-0.41797 4:-0.85547 5:-0.17222 6:0.23333 7:1 8:0.72266 9:0.19375 10:0.5 11:-0.99572 12:-0.09524 13:-0.14048 14:-0.11429 15:-0.14048 16:-0.19286 17:-0.98 18:-0.98 19:-0.9 20:-0.06766 21:-0.83027 22:-1 23:-1 24:-1 25:-1 26:-0.93 
10 1:-0.98438 2:0.99921 3:-0.84375 4:-0.87695 5:0.33333 6:0.05 7:0.19629 8:0.72266 9:0.5 10:0.5 11:-0.56669 12:0.11667 13:0.075 14:0.19167 15:0.19167 16:0.24167 17:-0.98 18:-1 19:-0.94 20:0.39604 21:-0.66337 22:-1 23:-1 24:-1 25:-1 26:-0.96 
10 1:-0.98828 2:1 3:-1 4:-0.83008 5:-1 6:-0.03333 7:-1 8:-0.69531 9:-1 10:-0.375 11:0.39994 12:-0.06667 13:-0.27778 14:-0.03333 15:0.07778 16:-0.05556 17:-0.98889 18:-1 19:-0.76 20:-1 21:0.54455 22:-1 23:-1 24:-1 25:-1 26:-0.67 
10 1:-0.86328 2:0.74101 3:-0.02344 4:-0.74219 5:-0.01889 6:-0.12 7:0.96589 8:1 9:0.18417 10:-0.12 11:-0.99999 12:-0.11048 13:-0.14571 14:-0.03333 15:0.03333 16:-0.09905 17:-0.94753 18:-0.93067 19:-0.744 20:0.09901 21:-0.84611 22:-1 23:-1 24:-1 25:-1 26:-0.91 
9.687229215859087 1:-0.97656 2:0.99687 3:-0.75 4:-0.87695 5:0.06667 6:0.05 7:1 8:-0.64746 9:0.30625 10:0.5 11:-0.75634 12:0.16667 13:-0.00556 14:0.06111 15:0.17222 16:0.11667 17:-0.9 18:-0.94 19:-0.92 20:-0.26733 21:-0.67987 22:-1 23:-1 24:-1 25:-1 26:-0.87 
10 1:-0.78516 2:0.28305 3:-0.02344 4:-0.50781 5:-0.02986 6:0.2 7:0.08907 8:-0.0625 9:-0.33854 10:-0.36071 11:-1 12:0.06121 13:0.02788 14:-0.00061 15:-0.03939 16:0.08848 17:-0.9998 18:-0.84583 19:-0.57714 20:-0.125 21:-0.89163 22:-1 23:-1 24:-1 25:-1 26:-0.74 
10 1:-0.98828 2:0.99963 3:-0.9375 4:-0.85547 5:0.06667 6:0.23333 7:-1 8:-0.4834 9:-0.575 10:0.5 11:-0.44576 12:0.08889 13:0.07778 14:0.17778 15:0.16667 16:0.15556 17:-0.9 18:-0.92 19:-0.9 20:-0.84158 21:-0.61056 22:-0.8 23:-1 24:-1 25:-1 26:-0.97 
10 1:-0.98047 2:0.99843 3:-0.77148 4:-0.87695 5:0.3 6:0.05 7:-0.35352 8:1 9:0.05 10:0.1125 11:-0.66696 12:0.12 13:0.04667 14:0.2 15:0.18 16:0.11333 17:-0.95 18:-0.96 19:-0.96 20:-0.38614 21:-0.51683 22:-1 23:-0.8 24:-1 25:-1 26:-0.66 
10 1:-0.98828 2:0.99963 3:-0.9668 4:-0.85742 5:-0.43333 6:0.21667 7:-1 8:-0.17871 9:0.5 10:0.5 11:-0.44576 12:0.07778 13:-0.02222 15:0.15556 16:0.27778 17:-0.9 18:-1 19:-0.94 20:0.50495 21:-0.29373 22:-1 23:-1 24:-1 25:-1 26:-0.94 
3.539128172381031 1:-0.9375 2:0.98477 3:-0.19531 4:-0.82422 5:0.05641 7:0.26818 8:-0.98177 9:0.08269 10:0.5 11:-0.98834 12:0.07083 13:0.13333 14:0.04583 15:0.13333 16:0.03333 17:-0.995 18:-0.97846 19:-0.93333 20:-0.16527 21:-0.63861 22:-1 23:-1 24:-0.2 25:-1 26:-0.69 
10 1:-0.98438 2:0.99921 3:-0.86914 4:-0.85156 5:0.11667 6:0.26667 7:1 8:0.19629 9:0.5 10:0.5 11:-0.56669 12:0.13333 13:0.14167 14:0.19167 15:0.14167 16:0.15 17:-0.98889 18:-1 19:-0.94 20:0.41584 21:-0.37129 22:-1 23:-1 24:-0.8 25:-1 26:-0.85 
10 1:-0.98828 2:0.99996 3:-0.99609 4:-0.84961 5:-0.93333 6:0.28333 7:-1 8:-0.56934 9:-0.275 10:0.5 11:-0.44576 12:-0.21111 13:-0.08889 14:-0.12222 15:-0.54444 16:-0.47778 17:-0.9 18:-0.88 19:-0.96 20:-0.46535 21:0.12871 22:-1 23:-1 24:-1 25:-1 26:-0.96 
10 1:-0.98828 2:0.99963 3:-0.93555 4:-0.85352 5:0.1 6:0.25 7:-1 8:-0.9209 9:0.5 10:0.5 11:-0.44576 12:0.44444 13:0.23333 14:0.2 15:0.31111 16:0.38889 17:-0.99 18:-1 19:-0.92 20:0.68317 21:-0.47855 22:-0.6 23:-1 24:-1 25:-1 26:-0.78 
10 1:-0.98047 2:0.99843 3:-0.82617 4:-0.88086 5:-0.01111 6:0.01667 7:1 8:0.72266 9:-0.01667 10:-0.275 11:-0.66696 12:0.00667 13:0.12667 15:0.16667 16:0.19333 17:-0.74889 18:-0.96 19:-0.78 20:-0.22772 21:-0.49307 22:-1 23:-1 24:-1 25:-1 26:-0.75 
4.772546891196262 1:-0.94141 2:0.13153 3:-0.02344 4:-0.86328 5:0.29487 6:0.16667 7:0.34428 8:-1 9:0.5 10:0.1125 11:-0.99761 12:0.08 13:0.10667 14:0.27778 15:0.23778 16:0.19333 17:-0.74438 18:-0.98769 19:-0.96 20:0.02056 21:-0.74653 22:-1 23:-1 24:-1 25:-1 26:-0.91 
9.115540761965212 1:-0.98828 2:0.99963 3:-0.92188 4:-0.86914 5:0.33333 6:0.11667 7:-1 8:-0.56934 9:0.5 10:0.5 11:-0.44576 12:0.26667 13:0.23333 14:0.18889 15:0.15556 16:-0.14444 17:-0.9 18:-0.96 19:-0.96 20:-0.70297 21:-0.20132 22:-1 23:-1 24:-1 25:-1 26:-0.94 
10 1:-0.98828 2:0.99963 3:-0.92383 4:-0.86523 5:0.3 6:0.15 7:-1 8:-0.33984 9:0.5 10:0.5 11:-0.44576 12:0.16667 13:0.11111 14:0.2 15:0.33333 16:0.22222 17:-0.99 18:-1 19:-0.96 20:-0.10891 21:-0.30033 22:-1 23:-1 24:-1 25:-1 26:-0.87 
10 1:-0.98047 2:0.99921 3:-0.84375 4:-0.86523 5:-0.11111 6:0.15 7:1 8:-0.33984 9:0.24167 10:0.5 11:-0.66696 12:-0.04667 13:0.00667 14:-0.00667 15:-0.09333 16:-0.03333 17:-0.5 18:-0.94667 19:-0.94 20:-0.24752 21:-0.54059 22:-1 23:-0.8 24:-1 25:-1 26:-0.82 
10 1:-0.95703 2:0.90668 3:-0.35742 4:-0.85742 5:0.21852 6:0.21667 7:0.58632 8:-0.99121 9:0.32778 10:0.1125 11:-0.97626 12:0.14545 13:0.13333 14:0.21818 15:0.25455 16:0.05455 17:-0.7498 18:-0.96889 19:-0.82 20:-0.29153 21:-0.9838 22:-1 23:-1 24:-0.8 25:-1 26:-0.97 
10 1:-0.72266 2:1 3:-0.02344 4:-0.51562 5:-0.06222 6:-0.68205 7:1 8:0.19702 9:0.21778 10:0.01827 11:1 12:-0.00188 13:0.0385 14:-0.2892 15:-0.1108 16:-0.1277 17:-0.94951 18:-0.94044 19:-0.85692 20:-0.17272 21:-0.65249 22:-0.6 23:-0.8 24:-1 25:-1 26:-0.83 
10 1:-0.98828 2:0.99963 3:-0.95312 4:-0.85547 5:-0.2 6:0.23333 7:-1 8:-0.71777 9:-0.275 10:0.5 11:-0.44576 12:-0.02222 13:0.11111 14:0.08889 15:0.18889 16:0.17778 17:-0.99 18:-1 19:-0.94 20:0.10891 21:0.08911 22:-1 23:-0.8 24:-1 25:-1 26:-0.93 
10 1:-0.69531 2:0.94676 3:-0.02344 4:-0.39453 5:-0.14718 6:-0.20513 7:0.05095 8:0.9357 9:-0.19577 10:-0.32115 11:-1 12:-0.02068 13:-0.19451 14:-0.15907 15:-0.027 16:-0.01139 17:-0.95878 18:-0.91877 19:-0.59692 20:0.19391 21:-0.83143 22:-1 23:-0.8 24:-1 25:-1 26:-0.91 
9.426022563815678 1:-0.92188 2:0.99996 3:-0.43945 4:-0.8125 5:-0.2641 6:-0.54286 7:-0.10091 8:0.83789 9:0.32115 10:-0.16429 11:-0.26977 12:-0.12833 13:-0.23333 14:-0.36167 15:0.13167 16:0.16833 17:1 18:-0.92615 19:-0.84571 20:0.40594 21:-0.53564 22:-1 23:-0.6 24:-1 25:-1 26:-0.85 
10 1:-0.98047 2:0.99921 3:-0.84375 4:-0.86914 5:-0.11111 6:0.11667 7:1 8:1 9:0.24167 10:0.5 11:-0.66696 12:0.08 13:0.01333 14:-0.02 15:-0.08 16:-0.1 17:-0.95 18:-0.94667 19:-0.9 20:-0.05611 21:-0.73861 22:-1 23:-1 24:-1 25:-1 26:-0.87 
10 1:-0.98438 2:0.99963 3:-0.97461 4:-0.87695 5:-0.78333 6:0.05 7:0.33691 8:1 9:0.1125 10:0.5 11:-0.56669 12:-0.20833 13:-0.25 14:-0.36667 15:-0.28333 16:-0.21667 17:-0.74 18:-0.84 19:-0.96 20:0.19802 21:-0.5099 22:-1 23:-1 24:-1 25:-1 26:-0.98 
10 1:-0.97656 2:0.99998 3:-0.81055 4:-0.80273 5:0.07778 6:0.12222 7:0.43815 8:1 9:0.5 10:0.5 11:-0.37788 12:0.14444 13:0.11667 14:0.1 15:0.04444 16:0.08333 17:-0.92 18:-0.94667 19:-0.93333 20:-0.37954 21:-0.44884 22:-1 23:-1 24:-1 25:-1 26:-0.73 
10 1:-0.99219 2:0.99996 3:-1 4:-0.86523 5:-1 6:0.15 7:-1 8:1 9:-1 10:0.5 11:-0.03593 12:-0.01667 13:-0.08333 14:0.15 15:0.06667 16:0.13333 17:-0.98 18:-1 19:-0.94 20:-1 21:-0.0495 22:-1 23:-0.8 24:-1 25:-1 26:-0.93 
10 1:-0.98828 2:0.96244 3:-0.9082 4:-0.91211 5:-0.21667 6:0.5 7:1 8:-1 9:0.5 10:0.5 11:-0.81322 12:-0.05556 13:-0.18889 14:0.02222 15:-0.2 16:-0.16667 17:-0.99 18:-1 19:-0.96 20:0.16832 21:-0.53795 22:-1 23:-1 24:-1 25:-1 26:-0.95 
10 1:-0.82422 2:1 3:-0.02344 4:-0.67188 5:-0.06667 6:-0.72 7:0.10548 8:0.39418 9:0.035 10:-0.0575 11:1 12:-0.33185 13:-0.22741 14:-0.35704 15:0.02519 16:0.02963 17:-0.9375 18:-0.9216 19:-0.848 20:0.35762 21:-0.58504 22:-1 23:-0.8 24:-1 25:-1 26:-0.93 
10 1:-0.98047 2:0.99921 3:-0.87109 4:-0.86914 5:0.1 6:-0.25556 7:1 8:0.23242 9:0.4375 10:0.5 11:-0.26373 12:-0.34 13:-0.29333 14:-0.11333 15:-0.22 16:-0.15333 17:-0.95 18:-1 19:-0.93333 20:-0.24752 21:-0.12079 22:-1 23:-1 24:-1 25:-1 26:-0.99 
10 1:-0.98828 2:0.99963 3:-0.92383 4:-0.87109 5:0.3 6:0.1 7:-1 8:-0.23438 9:0.5 10:0.5 11:-0.44576 12:0.22222 13:0.11111 14:0.16667 15:0.38889 16:0.38889 17:-0.9 18:-1 19:-0.94 20:0.16832 21:-0.23432 22:-0.8 23:-0.8 24:-1 25:-1 26:-0.95 
10 1:-0.98047 2:0.99843 3:-0.76562 4:-0.86133 5:0.33333 6:0.18333 7:-0.65365 8:-0.4834 9:-0.01667 10:0.5 11:-0.66696 12:0.16 13:0.34 14:0.27333 15:0.36667 16:0.36 17:-0.9875 18:-1 19:-0.94 20:-0.80858 21:-0.4495 22:-0.8 23:-0.6 24:-1 25:-1 26:-0.85 
10 1:-0.96875 2:1 3:-0.80859 4:-0.76562 5:-0.18333 7:1 8:0.84115 9:-0.48125 10:-0.60625 11:-0.17935 12:-0.325 13:-0.225 14:-0.09167 15:-0.0875 16:0.05 17:-0.98 18:-0.89 19:-0.77 20:0.06436 21:-0.68317 22:-1 23:-1 24:-1 25:-1 26:-0.95 
1.855866112877266 1:-0.98047 2:0.99843 3:-0.80273 4:-0.88477 5:0.12222 6:-0.01667 7:0.44336 8:0.6416 9:-0.20833 10:0.5 11:-0.66696 12:0.09333 13:0.22667 14:0.06667 15:0.02 16:0.04 17:-0.95 18:-0.86667 19:-0.92 20:0.38614 21:-0.8297 22:-0.6 23:-1 24:-1 25:-1 26:-0.69 
10 1:-0.98047 2:0.99843 3:-0.76562 4:-0.85547 5:0.33333 6:0.23333 7:-0.69336 8:1 9:-0.01667 10:0.5 11:-0.66696 12:0.26667 13:0.24 14:0.29333 15:0.14 16:0.23333 17:-0.95 18:-0.94667 19:-0.94 20:-0.50495 21:-0.76238 22:-1 23:-1 24:-1 25:-1 26:-0.92 
7.072964367706925 1:-0.97656 2:0.99998 3:-0.80859 4:-0.83398 5:0.08889 6:-0.05556 7:-0.33138 8:1 9:0.24167 10:-0.275 11:-0.37788 12:0.07778 13:0.05556 14:0.01667 15:0.06667 16:0.18889 17:-0.47 18:-0.90667 19:-0.44 20:0.47195 21:-0.28053 22:-1 23:-1 24:-1 25:-1 26:-0.94 
10 1:-0.98047 2:0.99921 3:-0.83789 4:-0.85938 5:0.38333 6:-0.2 7:0.19629 8:-1 9:0.5 10:-0.275 11:-0.26373 12:-0.36667 13:-0.14 14:0.03333 15:0.00667 16:0.14667 17:-0.5 18:-0.94 19:-0.8 20:0.0396 21:-0.6198 22:-1 23:-1 24:-1 25:-1 26:-0.91 
10 1:-0.98438 2:0.99921 3:-0.86133 4:-0.85938 5:0.18333 6:0.2 7:-0.90234 8:-0.90234 9:0.1125 10:0.5 11:-0.56669 12:0.275 13:0.2 14:0.19167 15:0.18333 16:0.29167 17:-0.98889 18:-1 19:-0.94 20:-0.84158 21:-0.19802 22:-0.2 23:-1 24:-1 25:-1 26:-0.87 
10 1:-0.98047 2:0.99843 3:-0.78516 4:-0.87305 5:0.22222 6:0.08333 7:1 8:-0.90234 9:0.24167 10:-0.0375 11:-0.66696 12:0.14667 14:0.16667 15:0.08667 16:0.07333 17:-0.9875 18:-1 19:-0.92 20:-0.49835 21:-0.92079 22:-0.6 23:-1 24:-1 25:-1 26:-0.97 
10 1:-0.85547 2:0.99999 3:-0.0625 4:-0.70898 5:-0.15789 6:-0.72407 7:0.11281 8:0.24202 9:0.21447 10:-0.08333 11:1 12:0.04234 13:0.02973 14:-0.43333 15:-0.47387 16:-0.32072 17:-0.99639 18:-0.89053 19:-0.81333 20:-0.47994 21:-0.36901 22:-0.8 23:-0.6 24:-1 25:-1 26:-0.84 
9.286266167418104 1:-0.98047 2:0.99843 3:-0.7793 4:-0.88477 5:0.25556 6:-0.01667 7:0.09831 8:0.26562 9:-0.01667 10:0.5 11:-0.66696 12:0.04667 13:0.14 14:0.14667 15:0.27333 16:0.21333 17:-0.95 18:-0.90667 19:-0.92 20:-0.11551 21:-0.64356 22:-1 23:-1 24:-1 25:-1 26:-0.69 
10 1:-0.94141 2:0.6753 3:-0.13477 4:-0.86328 5:0.1359 6:0.16667 7:0.56328 8:-1 9:0.29231 10:0.1125 11:-0.99761 12:0.20444 13:0.14444 14:0.14 15:0.09556 16:0.03778 17:-0.74889 18:-0.97846 19:-0.92 20:-0.06321 21:-0.79934 22:-1 23:-1 24:-1 25:-1 26:-0.97 
10 1:-0.98828 2:0.99963 3:-0.92773 4:-0.85352 5:0.23333 6:0.25 7:-1 8:0.41016 9:-0.275 10:0.5 11:-0.44576 12:-0.01111 13:0.11111 14:0.24444 15:0.23333 16:-0.12222 17:-0.99 18:-0.96 19:-0.94 20:-0.38614 21:-0.11551 22:-1 23:-0.6 24:-1 25:-1 26:-0.93 
10 1:-0.96484 2:0.98766 3:-0.52344 4:-0.8457 5:0.35556 6:-0.12222 7:0.9888 8:0.00195 9:0.5 10:0.04167 11:-0.69155 12:0.06667 13:0.16296 14:0.1963 15:0.17407 16:0.06667 17:-0.99849 18:-0.96667 19:-0.8 20:-0.11551 21:-0.81518 22:-0.8 23:-1 24:-1 25:-1 26:-0.95 
10 1:-0.98047 2:0.99963 3:-0.91797 4:-0.85547 5:-0.3 6:-0.17778 7:0.33691 8:1 9:0.1125 10:0.5 11:-0.26373 12:-0.02 13:-0.04 14:-0.22667 15:-0.18667 16:-0.23333 17:-0.95 18:-1 19:-0.94667 20:-0.37624 21:-0.48911 22:-0.8 23:-0.8 24:-1 25:-1 26:-0.82 
10 1:-0.99219 2:0.99996 3:-1 4:-0.88867 5:-1 6:-0.05 7:-1 8:-0.88184 9:-1 10:-0.325 11:-0.03593 13:0.03333 14:-0.05 15:0.06667 16:-0.03333 17:-0.98889 18:-1 19:-0.92 20:-1 21:-0.65347 22:-1 23:-1 24:-1 25:-1 26:-0.84 
10 1:-0.99219 2:0.99996 3:-1 4:-0.86719 5:-1 6:0.13333 7:-1 8:-0.64746 9:-1 10:-0.45 11:-0.03593 12:0.13333 13:-0.01667 14:0.13333 15:-0.2 17:-0.98 18:-1 19:-0.74 20:-1 21:-0.65347 22:-1 23:-1 24:-0.8 25:-1 26:-0.81 
10 1:-0.99219 2:0.99996 3:-1 4:-0.87305 5:-1 6:0.08333 7:-1 8:-0.12109 9:-1 10:-0.4125 11:-0.03593 12:0.18333 13:0.08333 14:0.08333 15:0.05 16:0.2 17:-0.98 18:-1 19:-0.96 20:-1 21:0.28713 22:-1 23:-1 24:-1 25:-1 26:-0.73 
10 1:-0.96875 2:0.99378 3:-0.63867 4:-0.86719 5:0.02778 6:0.13333 7:0.8138 8:1 9:0.275 10:-0.0375 11:-0.8898 12:0.0375 13:0.00833 14:0.05417 15:-0.05833 16:0.0625 17:-0.74889 18:-0.89333 19:-0.92 20:0.0231 21:-0.70792 22:-1 23:-1 24:-1 25:-1 26:-0.73 
10 1:-0.97656 2:0.99843 3:-0.78125 4:-0.87891 5:-0.06667 6:0.03333 7:1 8:1 9:0.30625 10:-0.275 11:-0.75634 12:-0.05 13:-0.05556 14:-0.03333 15:-0.06667 16:0.03333 17:-0.99889 18:-0.97 19:-0.94 20:-0.11386 21:-0.65677 22:-1 23:-1 24:-1 25:-1 26:-0.58 
10 1:-0.98438 2:1 3:-0.93164 4:-0.82031 5:0.16667 6:0.02222 7:-1 8:-0.99414 9:-0.425 10:-0.45 11:-0.12055 12:0.125 13:0.03333 14:0.05833 15:-0.00833 16:0.125 17:-0.96 18:-0.96 19:-0.8 20:0.20792 21:-0.64356 22:-1 23:-1 24:-0.8 25:-1 26:-0.85 
10 1:-0.98047 2:0.99843 3:-0.77344 4:-0.87695 5:0.28889 6:0.05 7:0.83659 8:-0.99609 9:0.24167 10:0.1125 11:-0.66696 12:0.10667 13:0.16667 14:0.19333 15:-0.02667 16:0.12 17:-0.95889 18:-0.94667 19:-0.94 20:-0.05611 21:-0.66733 22:-1 23:-1 24:-1 25:-1 26:-0.87 
10 1:-0.98438 2:1 3:-0.95117 4:-0.81445 5:-0.16667 6:0.05556 7:-1 8:-0.9974 9:-0.575 10:-0.425 11:-0.12055 12:0.1 13:-0.05833 15:0.00833 16:-0.2 17:-0.99889 18:-0.88 19:-0.93333 20:0.48515 21:0.4604 22:-0.8 23:-1 24:-1 25:-1 26:-0.93 
10 1:-0.98047 2:1 3:-0.93359 4:-0.82812 5:0.13333 6:-0.26667 7:-1 8:0.26888 9:-0.375 10:-0.55 11:0.22404 12:-0.05333 13:-0.13333 14:-0.18667 15:-0.02667 17:-0.91 18:-0.92 19:-0.91 20:-0.66337 21:-0.13663 22:-1 23:-0.6 24:-1 25:-1 26:-0.78 
10 1:-0.85938 2:1 3:-0.06641 4:-0.71289 5:-0.36267 6:-0.55455 7:0.71121 8:0.42511 9:0.085 10:-0.09091 11:-0.38854 12:0.04815 13:-0.03889 14:-0.4213 15:-0.21481 16:-0.15926 17:-0.9516 18:-0.8784 19:-0.82909 20:-0.25069 21:-0.74972 22:-0.8 23:-0.8 24:-1 25:-1 26:-0.9 
10 1:-0.97656 2:0.99687 3:-0.71484 4:-0.85352 5:0.21667 6:0.25 7:-0.21305 8:-0.56934 9:-0.08125 10:-0.275 11:-0.75634 12:0.18333 13:0.14444 14:0.22778 15:0.11667 16:0.1 17:-0.99 18:-0.98 19:-0.86 20:0.24257 21:-0.41584 22:-0.8 23:-1 24:-1 25:-1 26:-0.49 
10 1:-0.98438 2:0.99963 3:-0.92188 4:-0.87305 5:-0.33333 6:0.08333 7:0.5625 8:0.89062 9:0.5 10:0.5 11:-0.56669 12:-0.2 13:-0.15833 14:-0.125 15:-0.175 16:-0.1 17:-0.74 18:-0.96 19:-0.92 20:0.36634 21:-0.51485 22:-1 23:-1 24:-1 25:-1 26:-0.87 
4.636698487824162 1:-0.98828 2:0.99963 3:-0.92578 4:-0.86133 5:0.26667 6:0.18333 7:-1 8:1 9:0.5 10:0.5 11:-0.44576 12:0.18889 13:0.2 14:0.21111 15:0.35556 16:0.2 17:-0.99 18:-1 19:-0.94 20:-0.68317 21:-0.0363 22:-1 23:-1 24:-1 25:-1 26:-0.99 
10 1:-0.98047 2:0.99843 3:-0.75195 4:-0.86328 5:0.41111 6:0.16667 7:-0.38216 9:0.5 10:0.5 11:-0.66696 12:0.21333 13:0.21333 14:0.31333 15:0.22 16:0.32667 17:-0.95 18:-1 19:-0.96 20:0.29373 21:-0.69109 22:-1 23:-1 24:-1 25:-1 26:-0.97 
10 1:-0.98438 2:0.99921 3:-0.87695 4:-0.85352 5:0.05 6:0.25 7:-0.4375 8:-1 9:0.5 10:-0.275 11:-0.56669 12:-0.11667 13:-0.10833 14:0.15 15:0.2 16:0.08333 17:-0.5 18:-0.92 19:-0.82 20:0.16832 21:-0.66337 22:-1 23:-0.8 24:-1 25:-1 26:-0.78 
10 1:-0.92188 2:1 3:-0.49219 4:-0.73047 5:-0.13333 6:-0.54 7:0.83194 8:1 9:-0.0425 10:-0.2275 11:1 12:0.03 13:0.01333 14:-0.33667 15:-0.08667 16:-0.01167 17:-0.99705 18:-0.956 19:-0.868 20:-0.46139 21:-0.51782 22:-0.6 23:-0.4 24:-1 25:-1 26:-0.61 
10 1:-0.98438 2:0.99921 3:-0.89453 4:-0.87109 5:-0.1 6:0.1 7:1 8:0.19629 9:-0.3375 10:-0.425 11:-0.56669 12:0.05833 13:-0.01667 15:-0.1 16:-0.03333 17:-0.99778 18:-0.98 19:-0.96 20:-0.08911 21:-0.78713 22:-1 23:-0.8 24:-1 25:-1 26:-0.96 
10 1:-0.98047 2:0.99843 3:-0.77539 4:-0.87109 5:0.27778 6:0.1 7:1 8:1 9:-0.01667 10:0.5 11:-0.66696 12:0.09333 13:0.16667 14:0.20667 15:0.20667 16:0.13333 17:-0.98889 18:-0.93333 19:-0.94 20:-0.0429 21:-0.57228 22:-1 23:-0.8 24:-0.8 25:-1 26:-0.89 
10 1:-0.96875 2:1 3:-0.76562 4:-0.76367 6:0.00833 7:-0.4681 8:1 9:-0.21875 10:-0.48125 11:-0.17935 12:0.00417 13:-0.00833 14:0.00417 15:-0.0375 16:-0.07083 17:-0.99 18:-0.89 19:-0.9 20:0.47525 21:-0.32673 22:-1 23:-1 24:-1 25:-1 26:-0.81 
10 1:-0.94531 2:1 3:-0.65625 4:-0.83203 5:-0.26667 6:-0.52222 7:-0.50255 8:-0.65358 9:0.20938 10:0.40417 11:-0.00773 12:-0.00714 13:0.04048 14:-0.37619 15:-0.19048 16:-0.27857 17:-0.99868 18:-0.99 19:-0.94667 20:-0.66584 21:-0.48373 22:-0.8 23:-1 24:-1 25:-1 26:-0.79 
10 1:-0.94922 2:0.8225 3:-0.3418 4:-0.85742 5:0.02121 6:0.21667 7:1 8:-0.95215 9:0.21818 10:0.1125 11:-0.99237 12:0.08718 13:0.06923 14:0.05128 15:0.06154 16:-0.10256 17:-0.98111 18:-0.94182 19:-0.96 20:0.08731 21:-0.93145 22:-0.2 23:-0.8 24:-1 25:-1 26:-0.93 
10 1:-0.98047 2:0.99921 3:-0.84375 4:-0.86523 5:-0.11111 6:0.15 7:0.30664 8:-0.4834 9:0.24167 10:0.5 11:-0.66696 12:-0.03333 14:-0.00667 15:-0.01333 16:-0.14 17:-0.98889 18:-1 19:-0.94 20:0.40594 21:-0.90099 22:-0.8 23:-1 24:-1 25:-1 26:-0.93 
10 1:-0.97656 2:0.99687 3:-0.73242 4:-0.88672 5:0.14167 6:-0.03333 7:0.30908 8:0.48535 9:0.1125 10:0.15 11:-0.75634 12:0.13889 13:0.14444 14:0.08333 15:0.06667 16:0.08889 17:-0.98 18:-0.98 19:-0.96 20:0.4802 21:-0.60726 22:-0.8 23:-0.4 24:-1 25:-1 26:-0.98 
3.821270142764822 1:-0.98047 2:0.99843 3:-0.82031 4:-0.875 5:0.02222 6:0.06667 7:-0.25977 8:-0.4375 9:-0.01667 10:0.5 11:-0.66696 12:0.21333 13:0.13333 14:0.04 15:0.10667 16:0.28 17:-0.9875 18:-1 19:-0.96 20:-0.66337 21:-0.60396 22:-1 23:-1 24:-1 25:-1 26:-0.73 
5.343712072880161 1:-0.98047 2:0.99921 3:-0.86328 4:-0.87695 5:-0.22222 6:0.05 7:-0.08398 8:1 9:0.5 10:0.5 11:-0.66696 12:-0.16 13:-0.11333 14:-0.11333 15:-0.07333 16:-0.04667 17:-0.5 18:-0.92 19:-0.94 20:-0.54455 21:-0.67525 22:-0.8 23:-1 24:-1 25:-0.8 26:-0.81 
10 1:-0.43359 2:1 3:-0.02344 4:-0.11328 5:-0.04281 6:-0.69116 7:0.82391 8:0.11051 9:0.00947 10:-0.31429 11:1 12:-0.14046 13:-0.20184 14:-0.26805 15:0.14759 16:0.16897 17:-0.99897 18:-0.93474 19:-0.76735 20:0.13705 21:-0.69582 22:-1 23:-0.4 24:-1 25:-1 26:-0.65 
5.764852820768494 1:-0.83594 2:0.99851 3:-0.02344 4:-0.73047 5:-0.18046 6:-0.64615 7:0.2121 8:0.08774 9:0.01897 10:0.02308 11:-0.22052 12:-0.29365 13:-0.23254 14:-0.3246 15:-0.07698 16:-0.05635 17:-0.96307 18:-0.92276 19:-0.88615 20:0.20587 21:-0.75106 22:-1 23:-0.4 24:-1 25:-1 26:-0.81 
10 1:-0.98828 2:1 3:-1 4:-0.81641 5:-1 6:0.04444 7:-1 8:-0.69076 9:-1 10:-0.51667 11:0.39994 12:-0.04444 13:-0.1 14:0.04444 16:-0.07778 17:-0.95 18:-1 19:-0.82667 20:-1 21:0.65017 22:-1 23:-1 24:-1 25:-1 26:-0.93 
10 1:-0.98438 2:1 3:-1 4:-0.89062 5:-1 6:-0.53333 7:-1 8:1 9:-1 10:-0.15625 11:0.84665 12:-0.20833 13:-0.26667 14:-0.53333 15:0.10833 16:0.09167 17:-0.99 18:-1 19:-0.75 20:-1 21:0.07426 22:-0.8 23:-0.8 24:-1 25:-1 26:-0.91 
1.095271555004869 1:-0.91797 2:0.88593 3:-0.02344 4:-0.79492 5:-0.02407 6:0.16667 7:0.75978 8:-0.10091 9:0.14167 10:-0.275 11:-0.99937 12:0.11905 13:0.05397 14:0.00317 15:0.08095 16:0.05556 17:-0.50994 18:-0.95333 19:-0.52 20:0.16392 21:-0.9538 22:-0.8 23:-0.8 24:-1 25:-1 26:-0.75 
10 1:-0.98047 2:0.99843 3:-0.80469 4:-0.86133 5:0.11111 6:0.18333 7:1 8:1 9:0.24167 10:-0.275 11:-0.66696 12:0.18 13:0.16667 14:0.14 15:0.05333 16:0.16667 17:-0.98889 18:-0.93333 19:-0.94 20:-0.22772 21:-0.53267 22:-0.2 23:-0.4 24:-1 25:-1 26:-0.67 
10 1:-0.98828 2:0.99963 3:-0.92969 4:-0.86328 5:0.2 6:0.16667 7:-1 8:1 9:0.5 10:0.5 11:-0.44576 12:-0.05556 13:-0.05556 14:0.17778 15:0.18889 16:0.18889 17:-0.99 18:-1 19:-0.96 20:0.12871 21:-0.49835 22:-0.8 23:-1 24:-1 25:-1 26:-0.8 
10 1:-0.88281 2:1 3:-0.3457 4:-0.71484 5:-0.34314 6:-0.62564 7:0.89515 8:0.78365 9:-0.05294 10:-0.225 11:1 12:-0.05444 13:-0.07889 14:-0.46556 15:-0.48667 16:-0.22222 17:-0.93991 18:-0.88 19:-0.86769 20:-0.07397 21:-0.48779 22:-0.8 23:-1 24:-1 25:-1 26:-0.96 
6.718373369985833 1:-0.92188 2:1 3:-0.49609 4:-0.67188 5:-0.28333 6:-0.3 7:-0.76497 8:-0.04185 9:0.06875 10:-0.12187 11:0.165 12:0.04127 13:0.00476 14:-0.29206 15:-0.0746 16:-0.05079 17:-0.99682 18:-0.91 19:-0.61 20:-0.68647 21:-0.76238 22:0.8 23:-0.2 24:-1 25:-1 26:0 
2.977606062946655 1:-0.98828 2:0.99963 3:-0.91992 4:-0.86133 5:0.36667 6:0.18333 7:-1 8:-0.23438 9:0.5 10:0.5 11:-0.44576 12:0.35556 13:0.24444 14:0.24444 15:0.3 16:0.27778 17:-0.99 18:-1 19:-0.96 20:-0.82178 21:0.10891 22:-1 23:-0.8 24:-1 25:-1 26:-0.69 
5.560588808626243 1:-0.98047 2:0.99843 3:-0.77539 4:-0.85547 5:0.27778 6:0.23333 7:0.0944 8:-1 9:-0.01667 10:-0.275 11:-0.66696 12:0.11333 13:0.10667 14:0.26 15:0.25333 16:0.08667 17:-0.71 18:-0.89333 19:-0.74 20:0.59076 21:-0.37426 22:-1 23:-1 24:-1 25:-1 26:-0.88 
10 1:-0.95312 2:0.90668 3:-0.37891 4:-0.86133 5:0.06 6:0.18333 7:0.34395 8:1 9:0.37 10:0.5 11:-0.98646 12:0.10556 13:0.11944 14:0.08056 15:0.06389 16:0.05833 17:-0.66 18:-0.96 19:-0.92 20:0.18614 21:-0.84323 22:-1 23:-1 24:-1 25:-1 26:-0.89 
10 1:-0.98828 2:0.99963 3:-0.91992 4:-0.85547 5:0.36667 6:0.23333 7:-1 8:0.33691 9:0.5 10:0.5 11:-0.44576 12:0.18889 13:0.26667 14:0.27778 15:0.1 16:0.25556 17:-0.9 18:-0.96 19:-0.96 20:0.66337 21:-0.46535 22:-1 23:-0.6 24:-1 25:-1 26:-0.95 
10 1:-0.98828 2:0.99996 3:-0.99609 4:-0.85742 5:-0.93333 6:0.21667 7:-1 8:0.33691 9:0.5 10:0.5 11:-0.44576 12:-0.17778 13:-0.11111 14:-0.16667 15:-0.28889 16:0.25556 17:-0.9 18:-0.96 19:-0.92 20:-0.72277 21:-0.65017 22:-1 23:-1 24:-1 25:-1 26:-0.87 
10 1:-0.89844 2:0.99962 3:-0.02344 4:-0.69141 5:0.21905 6:0.05333 7:0.34895 8:-0.74062 9:0.31548 10:-0.395 11:-0.99729 12:0.16795 13:0.05128 14:0.18718 15:0.17692 16:0.09872 17:-0.79543 18:-0.94857 19:-0.648 20:-0.05988 21:-0.83092 22:-1 23:-0.8 24:-1 25:-1 26:-0.84 
10 1:-0.98438 2:1 3:-1 4:-0.77344 5:-1 6:-0.03333 7:-1 8:-0.35612 9:-1 10:-0.55 11:0.84665 12:0.05 13:-0.1 14:-0.03333 15:-0.1 16:-0.06667 17:-0.9 18:-1 19:-0.9 20:-1 21:0.43564 22:-1 23:-1 24:-1 25:-0.8 26:-0.96 
10 1:-0.9375 2:0.99992 3:-0.17578 4:-0.69531 5:0.17222 6:0.3 7:0.06641 8:0.02523 9:-0.16875 10:-0.175 11:-0.91361 12:-0.02083 13:-0.03542 14:0.20417 15:0.06667 16:0.19375 17:-0.9975 18:-0.91 19:-0.93 20:-0.24752 21:-0.77599 22:-0.8 23:-1 24:-1 25:-1 26:-0.97 
10 1:-0.89453 2:1 3:-0.02344 4:-0.625 5:0.085 6:-0.08571 7:-0.2161 8:-0.09542 9:-0.4625 10:-0.59643 11:-0.9044 12:0.03333 13:-0.12716 14:0.04074 15:0.02346 16:-0.08519 17:-0.99268 18:-0.954 19:-0.90286 20:-0.40099 21:-0.85039 22:-1 23:-1 24:-0.8 25:-1 26:-0.87 
10 1:-0.96875 2:0.98766 3:-0.58594 4:-0.86328 5:0.17778 6:0.16667 7:0.67005 8:-0.17871 9:0.0125 10:0.1125 11:-0.8898 12:0.15417 13:0.29583 14:0.175 15:0.16667 16:0.1375 17:-0.94444 18:-0.96 19:-0.96 20:0.0231 21:-0.90842 22:-1 23:-1 24:-1 25:-1 26:-0.93 
10 1:-0.96484 2:1 3:-0.85352 4:-0.67188 5:-0.16667 6:-0.06667 7:0.5319 8:-0.17604 9:-0.575 10:-0.6 11:0.57882 12:-0.2 13:-0.04074 14:-0.1 15:-0.10741 16:-0.03333 17:-0.95889 18:-0.93333 19:-0.91333 20:-0.43234 21:-0.77118 22:-1 23:-0.6 24:-1 25:-1 26:-0.89 
10 1:-0.92969 2:0.13153 3:-0.02344 4:-0.86719 5:0.04167 6:0.13333 7:0.63033 8:1 9:0.25781 10:0.5 11:-0.99959 12:0.08889 13:-0.08148 14:0.05185 15:0.05926 16:-0.06296 17:-0.9864 18:-0.965 19:-0.96 20:0.38738 21:-0.94059 22:-0.6 23:-1 24:-1 25:-0.8 26:-0.89 
10 1:-0.78516 2:0.991 3:-0.02344 4:-0.50195 5:-0.09007 6:0.0625 7:0.51473 8:0.27051 9:0.12447 10:-0.34375 11:-1 12:0.03818 13:0.05515 14:-0.06788 15:0.04667 16:0.02303 17:-0.98604 18:-0.9217 19:-0.765 20:-0.02928 21:-0.88551 22:-0.8 23:-0.8 24:-1 25:-1 26:-0.9 
10 1:-0.87109 2:1 3:-0.02344 4:-0.55273 5:-0.23056 6:-0.15185 7:0.268 8:0.32617 9:-0.31042 10:-0.38889 11:-0.82001 12:-0.19899 13:-0.12626 14:-0.20909 15:-0.12323 16:-0.06465 17:1 18:-0.92667 19:-0.70222 20:0.11304 21:-0.70477 22:-1 23:-1 24:-1 25:-1 26:-0.82 
9.934930067271543 1:-0.98828 2:0.99963 3:-0.93164 4:-0.84766 5:0.16667 6:0.3 7:-1 8:-0.97559 9:-0.275 10:-0.275 11:-0.44576 12:0.15556 13:0.12222 14:0.25556 15:0.14444 16:0.28889 17:-0.9 18:-1 19:-0.8 20:-0.46535 21:0.08911 22:-1 23:-1 24:-1 25:-1 26:-0.89 
10 1:-0.98828 2:0.99996 3:-1 4:-0.87305 5:-1 6:-0.27778 7:-1 8:1 9:-1 10:0.075 11:0.39994 12:-0.18889 13:-0.31111 14:-0.27778 15:-0.31111 16:-0.27778 17:-0.98889 18:-1 19:-0.93333 20:-1 21:0.17492 22:-0.6 23:-0.8 24:-1 25:-1 26:-0.57 
10 1:-0.98828 2:0.99963 3:-0.91992 4:-0.8457 5:0.36667 6:0.31667 7:-1 8:0.33691 9:0.5 10:0.5 11:-0.44576 12:0.32222 13:0.16667 14:0.33333 15:0.24444 16:0.12222 17:-0.9 18:-0.92 19:-0.94 20:0.0099 21:-0.62376 22:-1 23:-1 24:-1 25:-1 26:-0.73 
10 1:-0.98828 2:0.99963 3:-0.92188 4:-0.86328 5:0.33333 6:0.16667 7:-1 8:-0.56934 9:0.5 10:0.5 11:-0.44576 12:0.24444 13:0.17778 14:0.22222 15:0.06667 16:0.31111 17:-0.9 18:-0.92 19:-0.92 20:-0.70297 21:-0.38614 22:-1 23:-1 24:-0.8 25:-0.8 26:-0.96 
10 1:-0.94922 2:0.99902 3:-0.4043 4:-0.79883 5:0.01667 6:0.14444 7:0.52344 8:-0.03451 9:-0.24 10:-0.36667 11:-0.93997 12:-0.08974 13:0.04872 14:0.04615 15:0.04615 16:-0.0641 17:-0.5 18:-0.956 19:-0.88 20:-0.0297 21:-0.89337 22:-1 23:-1 24:-1 25:-1 26:-0.97 
10 1:-0.98438 2:0.99921 3:-0.83398 4:-0.87305 5:0.41667 6:0.08333 7:-0.4375 8:-0.4375 9:0.5 10:0.5 11:-0.56669 12:0.13333 13:0.125 14:0.25 15:0.175 16:0.19167 17:-0.98 18:-0.96 19:-0.96 20:-0.44554 21:-0.57426 22:-1 23:-1 24:-1 25:-0.8 26:-0.87 
10 1:-0.98438 2:0.99921 3:-0.86523 4:-0.87695 5:0.15 6:0.05 7:0.06348 8:1 9:0.1125 10:0.5 11:-0.56669 12:0.20833 13:0.075 14:0.1 15:0.225 16:0.14167 17:-0.98889 18:-1 19:-0.96 20:0.21782 21:-0.5396 22:-1 23:-1 24:-1 25:-0.8 26:-0.9 
10 1:-0.95703 2:1 3:-1 4:-0.34766 5:-1 6:0.01212 7:-1 8:-0.13711 9:-1 10:-0.57727 11:1 12:-0.20606 13:-0.08788 14:0.01212 15:0.06667 16:-0.01818 17:-0.9416 18:-1 19:-0.82182 20:-1 21:0.30693 22:-1 23:-0.8 24:-1 25:-1 26:-0.87 
10 1:-0.98438 2:0.99921 3:-0.88281 4:-0.87305 6:0.08333 7:1 8:-0.68359 9:-0.0375 10:0.5 11:-0.56669 12:0.15833 13:0.18333 14:0.04167 15:-0.09167 16:-0.04167 17:-0.98889 18:-0.92 19:-0.94 21:-0.68317 22:-0.8 23:-1 24:-1 25:-1 26:-0.53 
10 1:-0.98828 2:0.99996 3:-0.99609 4:-0.85938 5:-0.93333 6:0.2 7:-1 8:-0.98438 9:0.5 10:0.5 11:-0.44576 12:-0.13333 13:-0.07778 14:-0.17778 15:-0.12222 16:-0.13333 17:-0.9 18:-0.92 19:-0.96 20:-0.92079 21:-0.26073 22:-1 23:-0.6 24:-1 25:-1 26:-0.96 
10 1:-0.97266 2:0.99378 3:-0.62109 4:-0.85547 5:0.29333 6:0.23333 7:1 8:0.72266 9:0.19 10:0.1125 11:-0.83142 12:0.22857 13:0.10476 14:0.27619 15:0.06667 16:0.2 17:-0.96222 18:-0.96 19:-0.8 20:-0.19604 21:-0.62659 22:-1 23:-1 24:-1 25:-0.8 26:-0.65 
10 1:-0.98828 2:0.99963 3:-0.91797 4:-0.84766 5:0.4 6:0.3 7:-1 8:-0.52734 9:0.5 10:0.5 11:-0.44576 12:0.17778 13:0.21111 14:0.33333 15:0.27778 16:0.37778 17:-0.99 18:-1 19:-0.92 20:0.52475 21:-0.27393 22:-1 23:-1 24:-1 25:-1 26:-0.81 
9.567208109818633 1:-0.92969 2:0.13153 3:-0.02344 4:-0.85352 5:0.10417 6:0.25 7:1 8:-0.98438 9:0.40312 10:0.5 11:-0.99959 12:-0.08704 13:0.07778 14:0.12037 15:-0.01111 16:0.03148 17:-0.98926 18:-0.975 19:-0.94 20:-0.22525 21:-0.9868 22:-1 23:-0.8 24:-1 25:-1 26:-0.99 
2.440973209242443 1:-0.98828 2:0.99963 3:-0.9668 4:-0.84766 5:-0.43333 6:0.3 7:-1 8:-0.9375 9:-0.275 10:-0.275 11:-0.44576 12:0.18889 13:-0.23333 14:0.05556 15:0.08889 16:0.08889 17:-0.9 18:-0.64 19:-0.74 20:-0.34653 21:-0.72277 22:-1 23:-1 24:-1 25:-1 26:-0.91 
10 1:-0.98047 2:0.99921 3:-0.8457 4:-0.85938 5:-0.12222 6:0.2 7:-0.10872 8:1 9:0.5 10:0.5 11:-0.66696 12:-0.22 13:0.00667 14:0.00667 15:-0.04 16:-0.05333 17:-0.95 18:-0.96 19:-0.94 20:0.35314 21:-0.68713 22:-1 23:-1 24:-1 25:-0.8 26:-0.93 
10 1:-0.98438 2:0.99921 3:-0.86523 4:-0.86328 5:0.15 6:0.16667 7:1 8:1 9:0.5 10:0.5 11:-0.56669 12:0.09167 13:0.08333 14:0.15833 15:0.09167 16:-0.04167 17:-0.98 18:-0.98 19:-0.94 20:-0.11881 21:-0.4901 22:-1 23:-1 24:-1 25:-0.8 26:-0.95 
6.111738857631593 1:-0.98828 2:0.99996 3:-0.99609 4:-0.85742 5:-0.93333 6:0.21667 7:-1 8:-0.98438 9:0.5 10:0.5 11:-0.44576 12:-0.2 13:-0.14444 14:-0.16667 15:-0.11111 16:-0.11111 17:-0.9 18:-0.92 19:-0.9 20:0.68317 21:-0.51155 22:-0.8 23:-0.6 24:-1 25:-1 26:-0.75 
10 1:-0.98047 2:0.99843 3:-0.81055 4:-0.87305 5:0.07778 6:0.08333 7:1 8:0.89062 9:-0.01667 10:0.5 11:-0.66696 12:-0.06667 13:-0.01333 14:0.08 15:0.13333 16:0.12667 17:-0.98889 18:-0.98667 19:-0.92 20:-0.0033 21:-0.58812 22:-1 23:-1 24:-1 25:-0.8 26:-0.43 
10 1:-0.98438 2:0.99963 3:-0.91406 4:-0.85352 5:-0.26667 6:0.25 7:0.48535 8:1 9:0.5 10:0.5 11:-0.56669 12:0.05 13:-0.01667 14:-0.00833 15:-0.075 16:-0.04167 17:-0.98 18:-0.98 19:-0.92 20:0.23762 21:-0.32673 22:-0.8 23:-0.8 24:-1 25:-1 26:-0.69 
10 1:-0.72266 2:1 3:-0.02344 4:-0.52734 5:-0.26593 6:-0.68974 7:0.50494 8:0.50114 9:0.13833 10:0.10962 11:1 12:0.14601 13:0.10235 14:-0.42113 15:-0.31221 16:-0.30563 17:-0.99871 18:-0.96267 19:-0.84462 20:-0.08647 21:-0.66727 22:-0.4 23:-1 24:-1 25:-1 26:-0.85 
10 1:-0.98828 2:0.99963 3:-0.91797 4:-0.86133 5:0.4 6:0.18333 7:-1 8:1 9:0.5 10:0.5 11:-0.44576 12:0.26667 13:0.23333 14:0.25556 15:0.23333 16:0.21111 17:-0.99 18:-1 19:-0.94 20:0.0297 21:-0.11551 22:-1 23:-1 24:-1 25:-1 26:-0.99 
9.38244242590757 1:-0.98828 2:0.99963 3:-0.91992 4:-0.85938 5:0.36667 6:0.2 7:-1 8:-0.98438 9:0.5 10:0.5 11:-0.44576 12:0.16667 13:0.23333 14:0.25556 15:0.26667 16:0.14444 17:-0.99 18:-1 19:-0.92 20:0.72277 21:-0.35314 22:-1 23:-1 24:-1 25:-1 26:-0.95 
10 1:-0.73438 2:1 3:-0.02344 4:-0.51953 5:-0.16452 6:-0.77838 7:-0.2028 8:0.08267 9:0.275 10:-0.02568 11:1 12:-0.24608 13:-0.21324 14:-0.49853 15:-0.41225 16:-0.45196 17:-0.98688 18:-0.94323 19:-0.82595 20:-0.58352 21:-0.4106 22:-0.6 23:-1 24:-1 25:-1 26:-0.79 
3.651633285389149 1:-0.98438 2:0.99963 3:-0.92773 4:-0.87891 5:-0.38333 6:0.03333 7:1 8:-0.97559 9:0.5 10:0.5 11:-0.56669 12:-0.01667 13:-0.09167 14:-0.175 15:-0.125 16:-0.025 17:-0.74 18:-0.98 19:-0.92 20:0.30693 21:-0.69802 22:-0.6 23:-1 24:-1 25:-0.8 26:-0.95 
10 1:-0.98047 2:0.99921 3:-0.91016 4:-0.85742 5:-0.48889 6:0.21667 7:1 8:-0.80859 9:0.5 10:0.5 11:-0.66696 12:-0.28 13:-0.03333 14:-0.20667 15:-0.06 16:-0.08667 17:-0.95 18:-0.96 19:-0.96 20:-0.14191 21:-0.82574 22:-1 23:-0.6 24:-1 25:-1 26:-0.93 
10 1:-0.98438 2:0.99921 3:-0.87305 4:-0.87109 5:0.08333 6:0.1 7:-0.68359 8:0.48535 9:-0.0375 10:0.5 11:-0.56669 12:0.13333 13:0.15 14:0.09167 15:-0.11667 16:-0.025 17:-0.74 18:-0.86 19:-0.92 20:0.52475 21:-0.40099 22:-1 23:-0.4 24:-0.8 25:-1 26:-0.75 
10 1:-0.98438 2:1 3:-0.95117 4:-0.83008 5:-0.16667 6:-0.03333 7:-1 8:-0.46029 9:-0.625 10:-0.49167 11:-0.12055 12:-0.26667 13:-0.275 14:-0.06667 15:-0.14167 16:-0.04167 17:-0.90889 18:-0.96 19:-0.90667 20:-0.60396 21:-0.70792 22:-0.4 23:-1 24:-1 25:-1 26:-0.81 
10 1:-0.98438 2:1 3:-0.9375 4:-0.82812 5:0.06667 6:-0.02222 7:-1 8:-0.46029 9:-0.625 10:-0.49167 11:-0.12055 12:0.01667 13:-0.05 15:-0.03333 16:0.00833 17:-0.90889 18:-0.96 19:-0.90667 20:-0.10891 21:-0.33663 22:-1 23:-0.8 24:-1 25:-1 26:-0.97 
10 1:-0.98828 2:1 3:-1 4:-0.83398 5:-1 6:-0.05556 7:-1 8:-0.56185 9:-1 10:-0.575 11:0.39994 12:-0.03333 13:-0.11111 14:-0.05556 15:-0.12222 16:-0.04444 17:-0.95 18:-1 19:-0.93333 20:-1 21:0.0033 22:-0.8 23:-1 24:-1 25:-0.8 26:-0.69 
10 1:-0.75391 2:1 3:-0.02344 4:-0.3418 5:-0.04375 6:-0.25111 7:0.75878 8:0.43331 9:-0.35469 10:-0.64333 11:-0.99662 12:-0.12646 13:-0.04444 14:-0.09312 15:-0.1619 16:-0.06667 17:-0.98679 18:-0.88333 19:-0.824 20:0.01361 21:-0.75955 22:-0.8 23:-1 24:-1 25:-1 26:-0.95 
10 1:-0.95703 2:1 3:-0.68359 4:-0.70508 5:-0.1 6:0.00667 7:-0.17988 8:1 9:-0.49167 10:-0.515 11:-0.09374 12:-0.05152 13:-0.13636 14:-0.05152 15:-0.05758 16:-0.02727 17:-0.96712 18:-0.93333 19:-0.824 20:0.53465 21:-0.45635 22:-1 23:-1 24:-0.8 25:-1 26:-0.93 
10 1:-0.98047 2:1 3:-1 4:-0.77344 5:-1 6:-0.22667 7:-1 8:0.92734 9:-1 10:-0.59 11:1 12:-0.22 13:-0.32667 14:-0.22667 15:-0.31333 16:-0.24 17:-0.96222 18:-1 19:-0.72 20:-1 21:-0.1604 22:-1 23:-1 24:-1 25:-1 26:-0.97 
2.222107104682735 1:-0.98047 2:0.99999 3:-0.89258 4:-0.80859 5:-0.08333 6:0.08889 7:1 8:-0.82357 9:-0.275 10:-0.39167 11:-0.26373 12:0.12667 13:-0.08667 14:0.02 15:0.09333 16:-0.04 17:-0.50889 18:-0.96 19:-0.62667 20:0.35644 21:-0.8495 22:-1 23:-1 24:-1 25:-1 26:-0.47 
10 1:-0.98828 2:0.99963 3:-0.91602 4:-0.85742 5:0.43333 6:0.21667 7:-1 8:1 9:0.5 10:0.5 11:-0.44576 12:0.14444 13:0.21111 14:0.28889 15:0.12222 16:0.23333 17:-0.99 18:-1 19:-0.96 20:0.16832 21:-0.12211 22:-0.8 23:-1 24:-1 25:-1 26:-0.98 
10 1:-0.98047 2:0.99843 3:-0.80273 4:-0.85352 5:0.12222 6:0.25 7:-0.25326 8:-0.96484 9:0.5 10:0.5 11:-0.66696 12:0.34667 13:0.16667 14:0.17333 15:0.25333 16:0.32 17:-0.98889 18:-1 19:-0.96 20:-0.23432 21:-0.62772 22:-1 23:-1 24:-1 25:-1 26:-0.75 
10 1:-0.98438 2:0.99921 3:-0.86133 4:-0.87695 5:0.18333 6:0.05 7:-0.17871 8:0.80566 9:0.1125 10:0.5 11:-0.56669 12:-0.04167 13:0.10833 14:0.11667 15:0.15833 16:-0.08333 17:-0.98 18:-0.94 19:-0.94 20:-0.63366 21:-0.64851 22:-0.6 23:-1 24:-1 25:-1 26:-0.93 
6.398625417729992 1:-0.98828 2:0.99963 3:-0.91602 4:-0.86133 5:0.43333 6:0.18333 7:-1 8:-0.75 9:0.5 10:0.5 11:-0.44576 12:0.2 13:0.34444 14:0.26667 15:0.3 16:0.3 17:-0.99 18:-1 19:-0.94 20:-0.12871 21:-0.52475 22:-1 23:-0.4 24:-1 25:-1 26:-0.77 
7.611459300539208 1:-0.98828 2:0.99963 3:-0.92188 4:-0.87109 5:0.33333 6:0.1 7:-1 8:-0.88184 9:0.5 10:-0.275 11:-0.44576 12:0.22222 13:0.24444 14:0.17778 15:0.13333 16:0.15556 17:-0.99889 18:-1 19:-0.96 20:0.70297 21:-0.38614 22:-0.6 23:-1 24:-1 25:-1 26:-0.66 
10 1:-0.6875 2:1 3:-0.02344 4:-0.43555 5:-0.12148 6:-0.72476 7:0.64794 8:0.37355 9:0.15556 10:-0.12714 11:1 12:-0.37333 13:-0.37667 14:-0.38542 15:0.04083 16:0.01708 17:-0.98638 18:-0.96356 19:-0.76457 20:0.23564 21:-0.55347 22:-1 23:-0.8 24:-1 25:-1 26:-0.69 
10 1:-0.84375 2:0.99815 3:-0.02344 4:-0.6543 5:-0.00707 6:-0.15714 7:0.91031 8:0.0426 9:0.1947 10:-0.34286 11:-0.99994 12:0.04417 13:-0.05167 14:-0.03333 15:-0.015 16:-0.04417 17:-0.9375 18:-0.87273 19:-0.70286 20:0.10351 21:-0.87822 22:-1 23:-1 24:-1 25:-1 26:-0.97 
10 1:-0.87891 2:0.99995 3:-0.14062 4:-0.75391 5:-0.22807 6:-0.65 7:-0.21428 8:-0.09229 9:0.21447 10:-0.0625 11:0.62912 12:-0.13978 13:-0.10968 14:-0.3914 15:0.02366 16:0.03226 17:-0.99318 18:-0.94947 19:-0.79667 20:0.3309 21:-0.66081 22:-0.8 23:-0.6 24:-1 25:-1 26:-0.73 
10 1:-0.98047 2:0.99999 3:-0.87109 4:-0.79297 5:0.1 6:0.17778 7:1 8:-0.96875 9:0.1125 10:-0.275 11:-0.26373 12:0.17333 13:0.16 14:0.14667 15:0.21333 16:0.14 17:-0.26 18:-0.78 19:-0.61333 20:0.07921 21:-0.72673 22:-1 23:-1 24:-1 25:-1 26:-0.4 
10 1:-0.98828 2:0.99963 3:-0.93555 4:-0.86914 5:0.1 6:0.11667 7:-1 8:1 9:0.5 10:0.5 11:-0.44576 12:0.11111 13:0.06667 14:0.11111 15:0.11111 16:0.18889 17:-0.9 18:-1 19:-0.94 20:-0.34653 21:-0.60396 22:-0.8 23:-1 24:-1 25:-1 26:-0.9 
10 1:-0.91016 2:1 3:-0.44922 4:-0.72656 5:-0.27692 6:-0.53333 7:-0.45015 8:-0.55165 9:-0.09038 10:-0.1 11:0.69067 12:0.13478 13:0.08551 14:-0.38841 15:-0.06377 16:-0.0029 17:-0.99742 18:-0.94154 19:-0.812 20:-0.42117 21:-0.68145 22:-0.6 23:-0.6 24:-1 25:-1 26:-0.73 
10 1:-0.96094 2:0.95199 3:-0.42969 4:-0.86914 5:0.21667 6:0.11667 7:1 8:1 9:0.00313 10:-0.275 11:-0.95911 12:-0.05333 13:0.07333 14:0.19667 15:0.08333 16:-0.00667 17:-0.99868 18:-0.975 19:-0.96 20:-0.18812 21:-0.75446 22:-1 23:-1 24:-1 25:-1 26:-0.94 
10 1:-0.97656 2:0.99687 3:-0.7168 4:-0.87305 5:0.20833 6:0.08333 7:1 8:-0.4375 9:0.1125 10:0.5 11:-0.75634 12:0.28333 13:0.21667 14:0.16667 15:0.07778 16:0.02222 17:-0.99889 18:-0.98 19:-0.94 20:-0.19307 21:-0.78218 22:-1 23:-1 24:-1 25:-1 26:-0.87 
10 1:-0.96875 2:0.98766 3:-0.54102 4:-0.85938 5:0.30556 6:0.2 7:0.94017 8:0.19629 9:0.37083 10:0.5 11:-0.8898 12:0.0125 13:0.00833 14:0.27917 15:0.12083 16:0.27083 17:-0.74889 18:-0.91333 19:-0.96 20:0.0462 21:-0.80941 22:-0.8 23:-0.8 24:-1 25:-1 26:-0.82 
10 1:-0.77734 2:-0.5617 3:-0.02344 4:-0.54297 5:-0.09667 6:0.11429 7:0.24322 8:0.85054 9:-0.0175 10:-0.275 11:-1 12:0.03626 13:0.02281 14:-0.07076 15:-0.02281 16:0.0152 17:-0.61684 18:-0.896 19:-0.75429 20:-0.01743 21:-0.83255 22:-1 23:-1 24:-1 25:-1 26:-0.81 
10 1:-0.98828 2:0.99963 3:-0.92188 4:-0.875 5:0.33333 6:0.06667 7:-1 8:1 9:0.5 10:-0.3875 11:-0.44576 12:0.05556 13:0.11111 14:0.15556 15:0.16667 16:0.05556 17:-0.99 18:-0.96 19:-0.92 20:-0.36634 21:-0.64356 22:-0.8 23:-0.8 24:-1 25:-1 26:-0.97 
10 1:-0.65625 2:1 3:-0.02344 4:-0.41211 5:-0.06303 6:-0.69596 7:0.61306 8:0.01819 9:0.06318 10:-0.05152 11:1 12:-0.20114 13:-0.14167 14:-0.30038 15:-0.05795 16:-0.08636 17:-0.98103 18:-0.93673 19:-0.82788 20:0.2468 21:-0.64041 22:-1 23:-0.8 24:-1 25:-1 26:-0.81 
10 1:-0.98828 2:0.99996 3:-1 4:-0.87891 5:-1 6:-0.31111 7:-1 8:0.42643 9:-1 10:-0.39167 11:0.39994 12:-0.27778 13:-0.37778 14:-0.31111 15:-0.3 16:-0.33333 17:-0.5 18:-1 19:-0.66667 20:-1 21:-0.10231 22:-1 23:-0.8 24:-1 25:-1 26:-0.81 
10 1:-0.90625 2:0.9976 3:-0.02344 4:-0.77734 5:-0.10833 6:-0.05 7:0.32403 8:-0.02555 9:0.38375 10:-0.5 11:-0.99902 12:0.15 13:-0.04167 14:-0.09861 15:0.07222 16:0.08194 17:-0.18 18:-0.956 19:-0.79 20:-0.01584 21:-0.82591 22:-1 23:-0.8 24:-1 25:-1 26:-0.93 
10 1:-0.92969 2:0.96991 3:-0.07031 4:-0.79492 5:0.05778 6:0.16667 7:0.75214 8:-0.3418 9:0.22167 10:-0.275 11:-0.99633 12:-0.00741 13:0.02407 14:0.07593 15:0.1 16:0.18148 17:-0.99729 18:-0.95733 19:-0.86667 20:0.07591 21:-0.79868 22:-1 23:0.4 24:-1 25:-1 26:-0.9 
10 1:-0.80078 2:0.99988 3:-0.02344 4:-0.67383 5:-0.16275 6:-0.67255 7:0.27263 8:0.02673 9:-0.03015 10:-0.17059 11:0.47526 12:-0.05359 13:-0.11242 14:-0.33268 15:0.08627 16:0.05425 17:-0.94102 18:-0.96824 19:-0.84941 20:0.29586 21:-0.74879 22:-0.6 23:-0.6 24:-1 25:-1 26:-0.42 
10 1:-0.98438 2:0.99921 3:-0.85547 4:-0.875 5:0.23333 6:0.06667 7:0.80566 8:1 9:0.5 10:0.5 11:-0.56669 12:0.20833 13:0.26667 14:0.15 15:0.15833 16:0.05833 17:-0.98 18:-0.96 19:-0.92 20:-0.37624 21:-0.41089 22:-0.8 23:-1 24:-1 25:-0.6 26:-0.73 
10 1:-0.98047 2:0.99921 3:-0.83203 4:-0.875 5:-0.04444 6:0.06667 7:0.98698 8:-0.06152 9:0.24167 10:0.5 11:-0.66696 12:-0.1 13:0.00667 15:-0.04667 16:-0.07333 17:-0.95 18:-0.93333 19:-0.96 20:-0.15512 21:-0.61584 22:-1 23:-1 24:-1 25:-1 26:-0.75 
10 1:-0.98438 2:0.99921 3:-0.85352 4:-0.87109 5:0.25 6:0.1 7:0.06348 8:0.48535 9:0.5 10:0.5 11:-0.56669 12:0.19167 13:0.2 14:0.175 15:0.13333 16:0.125 17:-0.98 18:-0.98 19:-0.92 20:-0.09901 21:-0.62871 22:-1 23:-1 24:-1 25:-1 26:-0.95 
2.110845682384989 1:-0.98828 2:0.99996 3:-0.99609 4:-0.87109 5:-0.93333 6:0.1 7:-1 8:-0.52734 9:-0.7 10:0.5 11:-0.44576 12:-0.14444 13:-0.18889 14:-0.24444 15:-0.18889 16:-0.18889 17:-0.9 18:-0.8 19:-0.94 20:0.58416 21:-0.32673 22:-1 23:-1 24:-1 25:-1 26:-0.88 
10 1:-0.98047 2:0.99843 3:-0.79297 4:-0.88672 5:0.17778 6:-0.03333 7:1 8:0.5625 9:-0.01667 10:0.5 11:-0.66696 12:0.16 13:0.21333 14:0.09333 15:0.1 16:0.18667 17:-0.98889 18:-0.96 19:-0.9 20:0.0495 21:-0.51683 22:-1 23:-1 24:-1 25:-1 26:-0.97 
10 1:-0.98828 2:0.99963 3:-0.94141 4:-0.85352 6:0.25 7:-1 8:-0.60938 9:0.5 10:0.5 11:-0.44576 12:0.37778 13:0.37778 14:0.16667 15:0.25556 16:0.31111 17:-0.99 18:-0.96 19:-0.94 20:-0.44554 21:-0.78878 22:-0.8 23:-0.8 24:-1 25:-1 26:-0.73 
10 1:-0.9375 2:0.99996 3:-0.19531 4:-0.78711 5:0.14444 6:-0.09167 7:0.57403 8:1 9:0.30625 10:-0.5 11:-0.91361 12:0.10625 13:0.19167 14:0.08542 15:0.09167 16:0.25208 17:-0.98988 18:-0.96667 19:-0.82 20:-0.27558 21:-0.70916 22:-1 23:-1 24:-1 25:-1 26:-0.97 
10 1:-0.97656 2:0.99843 3:-0.79102 4:-0.84766 5:-0.10833 6:0.3 7:-0.34977 8:1 9:0.5 10:-0.275 11:-0.75634 12:0.11667 13:0.03889 14:0.02778 15:0.1 16:-0.02222 17:-0.9 18:-0.98 19:-0.88 20:-0.41089 21:-0.63696 22:-1 23:-1 24:-1 25:-1 26:-0.97 
10 1:-0.98828 2:1 3:-1 4:-0.83398 5:-1 6:-0.05556 7:-1 8:-0.11523 9:-1 10:-0.40833 11:0.39994 12:0.02222 13:0.12222 14:-0.05556 15:0.06667 16:0.13333 17:-0.98889 18:-1 19:-0.90667 20:-1 21:0.38614 22:-0.8 23:-0.6 24:-1 25:-1 26:-0.96 
10 1:-0.96484 2:1 3:-1 4:-0.48828 5:-1 6:-0.02963 7:-1 8:-0.9809 9:-1 10:-0.525 11:1 12:0.10741 13:0.11481 14:-0.02963 15:0.06667 16:0.04444 17:-0.9898 18:-1 19:-0.93333 20:-1 21:0.29593 22:-1 23:-1 24:-1 25:-1 26:-0.98 
10 1:-0.98047 2:0.99843 3:-0.80859 4:-0.87305 5:0.08889 6:0.08333 7:1 8:0.41016 9:-0.01667 10:0.5 11:-0.66696 12:-0.10667 13:-0.12667 14:0.08667 15:0.23333 16:0.12 17:-0.95 18:-0.89333 19:-0.92 20:0.42574 21:-0.42178 22:-1 23:-1 24:-0.8 25:-0.8 26:-0.93 
10 1:-0.98828 2:0.99963 3:-0.91797 4:-0.86328 5:0.4 6:0.16667 7:-1 8:-0.28809 9:0.5 10:0.5 11:-0.44576 12:0.2 13:0.36667 14:0.24444 15:0.4 16:0.2 17:-0.99 18:-1 19:-0.92 20:-0.30693 21:-0.79538 22:-1 23:-1 24:-1 25:-1 26:-0.74 
10 1:-0.96875 2:0.99994 3:-0.67188 4:-0.84766 5:0.12 6:-0.13333 7:0.26816 8:-0.8724 9:0.035 10:0.24167 11:-0.59397 12:0.10417 13:0.20833 14:0.025 15:0.13333 16:0.02083 17:-0.99444 18:-0.992 19:-0.93333 20:-0.11683 21:-0.82426 22:-1 23:-1 24:-0.8 25:-1 26:-0.8 
10 1:-0.91406 2:0.78513 3:-0.02344 4:-0.8125 5:0.13519 6:-0.2 7:0.08191 8:1 9:0.15556 10:0.0375 11:-0.99685 12:0.16061 13:0.14545 14:0.07424 15:0.03939 16:0.00758 17:-0.9998 18:-0.96444 19:-0.86 20:-0.32563 21:-0.89559 22:-0.4 23:-1 24:-1 25:-1 26:-0.83 
10 1:-0.99219 2:0.99996 3:-1 4:-0.8418 5:-1 6:0.35 7:-1 8:-0.85938 9:-1 10:0.5 11:-0.03593 12:0.3 13:0.31667 14:0.35 15:0.33333 16:0.13333 17:-0.98 18:-1 19:-0.96 20:-1 21:-0.24752 22:-1 23:-0.8 24:-1 25:-1 26:-0.98 
1.743249104230451 1:-0.97656 2:0.99843 3:-0.79492 4:-0.8457 5:-0.125 6:0.31667 7:-0.06966 8:-0.80859 9:-0.16875 10:0.325 11:-0.75634 12:-0.1 13:-0.06667 14:0.02222 15:-0.12778 16:0.02778 17:-0.98 18:-0.96 19:-0.92 20:0.51485 21:-0.71617 22:-1 23:-1 24:-1 25:-1 26:-0.48 
10 1:-0.80859 2:0.99997 3:-0.02344 4:-0.68359 5:-0.03838 6:-0.6625 7:0.35851 8:0.30286 9:0.21818 10:0.09688 11:0.27116 12:-0.15238 13:-0.21633 14:-0.24218 15:-0.10612 16:0.03333 17:-0.95406 18:-0.96727 19:-0.805 20:-0.18032 21:-0.73207 22:-0.8 23:-0.8 24:-1 25:-1 26:-0.87 
10 1:-0.73438 2:1 3:-0.02344 4:-0.51953 5:-0.0227 6:-0.60952 7:1 8:-0.40379 9:0.04202 10:-0.03095 11:0.23486 12:-0.15735 13:-0.13578 14:-0.20392 15:0.03186 16:0.08873 17:-0.97803 18:-0.9634 19:-0.79238 20:0.25047 21:-0.74432 22:-1 24:-1 25:-1 26:-0.75 
10 1:-0.9375 2:0.98477 3:-0.02344 4:-0.79492 5:0.29231 6:0.16667 7:1 8:0.14844 9:0.32115 10:-0.01667 11:-0.98834 12:0.09375 13:0.24583 14:0.26875 15:0.21458 16:0.35208 17:-0.94347 18:-0.89846 19:-0.78667 20:-0.01599 21:-0.84777 22:-1 23:-1 24:-1 25:-1 26:-0.96 
9.614185867564455 1:-0.96875 2:0.99994 3:-0.66797 4:-0.82617 5:0.13333 6:-0.01111 7:0.04043 8:-0.22982 9:0.035 10:-0.475 11:-0.59397 12:0.14167 13:0.00833 14:0.07917 15:0.175 16:0.02917 17:-0.97111 18:-0.912 19:-0.70667 20:0.16436 21:-0.53465 22:-1 23:-1 24:-1 25:-1 26:-0.79 
0.6092846237617531 1:-0.99219 2:0.99996 3:-1 4:-0.87891 5:-1 6:0.03333 7:-1 9:-1 10:-0.425 11:-0.03593 12:-0.01667 13:-0.01667 14:0.03333 15:0.1 16:0.08333 17:-0.74 18:-1 19:-0.6 20:-1 21:-0.60396 22:-1 23:-0.8 24:-1 25:-1 26:-0.39 
10 1:-0.40625 2:0.99977 3:-0.02344 4:-0.02344 5:-0.02274 6:-0.08696 7:0.66862 8:0.55938 9:0.09574 10:-0.31413 11:-1 12:0.10724 13:0.04474 14:-0.03246 15:-0.03202 16:0.00921 17:-0.9965 18:-0.97488 19:-0.7287 20:-0.02709 21:-0.86308 22:-0.8 23:-0.8 24:-1 25:-1 26:-0.95 
4.696486879249314 1:-0.43359 2:-1 3:-0.02344 4:-0.16797 5:0.16955 6:-0.21111 7:0.4485 8:0.18883 9:0.01634 10:-0.30833 11:-1 12:0.02874 13:0.15977 14:0.1223 15:0.16161 16:0.04805 17:-0.97848 18:-0.95244 19:-0.67333 20:0.08786 21:-0.87777 22:-1 23:-1 24:-1 25:-1 26:-0.85 
10 1:-0.98047 2:0.99921 3:-0.87695 4:-0.85742 5:0.05 6:-0.18889 7:1 8:-0.36719 9:-0.275 10:-0.275 11:-0.26373 12:0.08 13:0.16 14:-0.09333 15:-0.02 16:-0.19333 17:-0.5 18:-0.98 19:-0.76 20:-0.06931 21:-0.32277 22:-0.8 23:-0.8 24:-1 25:-1 26:-0.77 
10 1:-0.94141 2:0.99613 3:-0.27148 4:-0.80469 5:0.03611 6:0.11111 7:0.93253 8:-0.92969 9:0.17708 10:-0.275 11:-0.97948 12:0.11556 13:0.04444 14:0.05111 15:-0.02 16:0.07778 17:-0.99849 18:-0.96667 19:-0.85333 20:-0.0495 21:-0.66337 22:-1 23:-0.8 24:-1 25:-1 26:-0.87 
10 1:-0.74609 2:0.99999 3:-0.02344 4:-0.57031 5:-0.11982 6:-0.7381 7:0.54863 8:0.30583 9:0.10203 10:-0.16429 11:1 12:-0.41692 13:-0.33795 14:-0.38615 15:-0.02103 16:0.08615 17:-0.79736 18:-0.94378 19:-0.73857 20:-0.04255 21:-0.57289 22:-1 23:-0.6 24:-1 25:-1 26:-0.91 
10 1:-0.97656 2:0.99999 3:-0.875 4:-0.83594 5:0.06667 6:-0.3 7:-0.17871 8:1 9:0.1125 10:-0.2875 11:0.05469 12:0.00556 13:-0.01111 14:-0.17778 15:-0.05556 16:-0.14444 17:-0.18 18:-0.92 19:-0.63 20:0.45545 21:-0.48515 22:-0.4 23:-1 24:-1 25:-0.6 26:-0.87 
-9.202824188939045 1:-0.99219 2:0.99996 3:-1 4:-0.86133 5:-1 6:0.18333 7:-1 8:-0.38965 9:-1 10:0.5 11:-0.03593 12:0.31667 13:-0.03333 14:0.18333 15:0.25 16:0.11667 17:-0.98 18:-1 19:-0.94 20:-1 21:-0.43564 23:-1 24:-1 25:-0.8 26:-0.75 
-3.685192789903983 1:-0.96484 2:1 3:-0.66406 4:-0.71094 5:0.14667 6:0.23333 7:-0.90273 8:-0.16276 9:0.345 10:-0.275 11:-0.29428 12:-0.05556 13:0.05556 14:0.18519 15:0.32963 16:0.18889 17:-0.16222 18:-0.936 19:-0.7 20:0.2198 21:-0.47195 22:-1 23:-0.6 24:-1 25:-1 26:-0.89 
-10 1:-0.9375 2:1 3:-0.43164 4:-0.7207 5:-0.03 6:-0.20556 7:1 8:-0.0125 9:0.035 10:-0.14583 11:-0.23973 12:-0.13958 13:-0.20208 14:-0.09583 15:-0.03125 16:0.0375 17:-0.9 18:-0.908 19:-0.90667 20:0.29109 21:-0.5099 22:-1 23:-0.4 24:-1 25:-1 26:-0.65 
-1.946268831288066 1:-0.97656 2:0.99998 3:-0.80859 4:-0.78711 5:0.08889 6:0.21111 7:0.85352 8:1 9:-0.01667 10:0.5 11:-0.37788 12:0.21667 13:0.06111 14:0.15 15:-0.02222 16:0.08333 17:-0.95889 18:-0.92 19:-0.93333 20:0.52475 21:-0.35314 22:-1 23:-1 24:-1 25:-1 26:-0.98 
-10 1:-0.94922 2:1 3:-0.40625 4:-0.7832 5:0.26667 6:-0.26 7:-0.5204 8:1 9:0.20938 10:0.19 11:-0.32409 12:0.21026 13:0.19487 14:0.0641 15:-0.1 16:-0.03077 17:-0.8 18:-0.965 19:-0.856 20:0.58663 21:-0.58568 22:-0.6 23:-1 24:-1 25:-1 26:-0.89 
-10 1:-0.97656 2:0.99687 3:-0.72656 4:-0.86914 5:0.16667 6:0.11667 7:1 8:0.72266 9:-0.08125 10:-0.275 11:-0.75634 12:0.03889 13:-0.07778 14:0.15 15:0.14444 16:0.09444 17:-0.75 18:-0.97 19:-0.94 20:-0.39604 21:-0.75578 22:-1 23:-0.8 24:-1 25:-1 26:-0.9 
-10 1:-0.97266 2:1 3:-0.80078 4:-0.78906 5:0.13333 6:-0.1 7:-0.00326 8:-0.64274 9:-0.11667 10:-0.35 11:-0.06324 12:-0.04286 13:-0.01905 15:0.1 16:0.21905 17:-0.90889 18:-0.93333 19:-0.76 20:0.10231 21:-0.13154 22:-1 23:-0.8 24:-1 25:-1 26:-0.99 
-10 1:-0.96875 2:0.99994 3:-0.63281 4:-0.76953 5:0.25333 6:0.31111 7:-0.47656 8:1 9:0.385 10:-0.01667 11:-0.59397 12:0.24583 13:0.16667 14:0.275 15:0.1375 16:0.275 17:-0.995 18:-0.96 19:-0.96 20:-0.44554 21:-0.56436 22:-1 23:-1 24:-1 25:-1 26:-0.93 
-10 1:-0.96094 2:0.99988 3:-0.58984 4:-0.79102 6:0.18889 7:0.4641 8:-0.25586 9:0.16786 10:0.5 11:-0.77751 12:0.19333 13:0.15 14:0.05667 15:0.21 16:0.02333 17:-0.9975 18:-0.98857 19:-0.96 20:0.23904 21:-0.88119 22:-0.6 23:-1 24:-1 25:-1 26:-0.93 
-10 1:-0.96875 2:0.99994 3:-0.67383 4:-0.77734 5:0.11333 6:0.26667 7:-0.37441 8:1 9:-0.335 10:-0.01667 11:-0.59397 12:0.02917 13:0.15417 14:0.17083 15:0.08333 16:-0.05 17:-0.9971 18:-0.976 19:-0.93333 20:-0.10099 21:-0.60644 22:-1 23:-1 24:-1 25:-1 26:-0.91 
-10 1:-0.98047 2:0.99999 3:-0.84766 4:-0.80273 5:0.3 6:0.12222 7:-0.9209 8:-0.875 9:0.1125 10:0.24167 11:-0.26373 12:0.12667 13:0.17333 14:0.19333 15:0.1 16:0.05333 17:-0.99778 18:-1 19:-0.93333 20:-0.83168 21:-0.89307 22:-0.2 23:-1 24:-1 25:-1 26:-0.87 
-10 1:-0.96484 2:0.99988 3:-0.5332 4:-0.79492 5:0.32778 6:0.16667 7:-0.05879 8:-0.94531 9:0.24167 10:0.24167 11:-0.69155 12:0.27778 13:0.13704 14:0.27407 15:0.15556 16:0.34074 17:-0.98889 18:-0.94 19:-0.94667 20:0.21782 21:-0.55116 22:-1 23:-1 24:-1 25:-1 26:-0.85 
-10 1:-0.95312 2:1 3:-0.59961 4:-0.76367 5:-0.14583 6:0.00833 7:0.07031 8:0.26107 9:0.1125 10:0.30625 11:-0.62043 12:-0.06667 13:-0.00556 14:-0.09444 15:0.10833 16:0.12222 17:-0.85556 18:-0.935 19:-0.94 20:-0.10891 21:-0.71287 22:-1 23:-0.6 24:-1 25:-1 26:-0.87 
-10 1:-0.98047 2:0.99999 3:-0.83594 4:-0.78711 5:0.4 6:0.21111 7:-0.88184 8:-0.32357 9:0.5 10:0.24167 11:-0.26373 12:0.16 13:0.30667 14:0.28667 15:0.32 16:0.31333 17:-0.95889 18:-1 19:-0.86667 20:-0.57426 21:-0.75446 22:-1 23:-1 24:-1 25:-1 26:-0.89 
-10 1:-0.98828 2:1 3:-1 4:-0.8125 5:-1 6:0.06667 7:-1 8:-0.97201 9:-1 10:-0.375 11:0.39994 12:0.03333 13:-0.13333 14:0.06667 15:-0.15556 16:-0.05556 17:-0.98889 18:-1 19:-0.93333 20:-1 21:-0.47855 22:-1 23:-0.8 24:-1 25:-1 26:-0.84 
-10 1:-0.97656 2:0.99998 3:-0.79492 4:-0.79688 5:0.16667 6:0.15556 7:-0.95638 8:-0.97656 9:-0.01667 10:0.5 11:-0.37788 12:0.27222 13:0.13889 14:0.16111 15:0.15 16:0.04444 17:-0.95889 18:-0.94667 19:-0.93333 20:0.74917 21:-0.07921 22:-1 23:-1 24:-1 25:-1 26:-0.96 
-10 1:-0.91016 2:1 3:-0.33008 4:-0.66211 5:-0.32745 6:-0.03889 7:0.522 8:-0.50124 9:-0.03529 10:-0.05833 11:-0.89214 12:-0.26087 13:-0.23768 14:-0.25217 15:-0.28551 16:-0.13768 17:-0.95938 18:-0.88471 19:-0.86 20:-0.09959 21:-0.75635 22:-0.8 23:-1 24:-1 25:-1 26:-0.83 
-10 1:-0.96094 2:1 3:-0.86914 4:-0.73047 5:-0.25556 6:-0.34286 7:1 8:-0.15141 9:-0.01667 10:-0.275 11:0.90075 12:-0.22667 13:-0.34667 14:-0.31667 15:-0.27333 16:-0.3 17:-0.6 18:-0.92 19:-0.55429 20:0.33993 21:0.01386 22:-0.8 23:-0.8 24:-1 25:-1 26:-0.33 
-10 1:-0.98828 2:0.99963 3:-0.91797 4:-0.85938 5:0.4 6:0.2 7:-1 8:-0.98438 9:0.5 10:0.5 11:-0.44576 12:0.43333 13:0.34444 14:0.26667 15:0.16667 16:0.46667 17:-0.99889 18:-1 19:-0.96 20:0.24752 21:-0.82838 22:-1 23:-1 24:-1 25:-1 26:-0.89 
-10 1:-0.98047 2:1 3:-0.92383 4:-0.82617 5:-0.35 6:-0.01111 7:1 8:-0.86914 9:0.5 10:0.24167 11:-0.26373 12:0.04 13:-0.05333 14:-0.14667 15:-0.03333 16:-0.00667 17:-0.95 18:-0.96 19:-0.89333 20:-0.39604 21:0.08119 22:0.2 23:0.2 24:-1 25:-1 26:-0.81 
-10 1:-0.98047 2:0.99999 3:-0.8457 4:-0.80078 5:0.31667 6:0.13333 7:-0.95215 8:0.0332 9:-0.275 10:0.5 11:-0.26373 12:0.3 13:0.22 14:0.20667 15:0.39333 16:0.09333 17:-0.71 18:-0.88 19:-0.92 20:-0.67327 21:-0.64356 22:-1 23:-1 24:-1 25:-1 26:-0.85 
-7.85122482862263 1:-0.97656 2:0.99998 3:-0.79883 4:-0.77344 5:0.14444 6:0.28889 7:0.41992 8:-0.96029 9:0.5 10:0.24167 11:-0.37788 12:0.15556 13:0.03333 14:0.21667 15:0.28333 16:0.32222 17:-0.95889 18:-0.97333 19:-0.89333 20:-0.64356 21:-0.92739 22:-1 23:-0.8 24:-1 25:-1 26:-0.81 
-10 1:-0.96484 2:0.99988 3:-0.64258 4:-0.77148 5:0.01667 6:0.3 7:0.57923 8:1 9:-0.01667 10:0.24167 11:-0.69155 12:0.11852 13:0.01852 14:0.11111 15:0.17407 16:-0.08148 17:-0.95 18:-0.89333 19:-0.8 20:0.34983 21:-0.69417 22:-1 23:-1 24:-1 25:-1 26:-0.99 
-10 1:-0.97656 2:0.99999 3:-0.84375 4:-0.78516 5:-0.11111 6:0.22222 7:1 8:1 9:-0.01667 10:0.5 11:-0.37788 12:-0.00556 13:-0.05 14:0.05556 15:-0.00556 16:0.07222 17:-0.99778 18:-0.96 19:-0.96 20:0.30693 21:-0.65347 22:-1 23:-0.8 24:-1 25:-1 26:-0.96 
-10 1:-0.96875 2:0.99998 3:-0.7793 4:-0.77539 5:-0.05833 6:-0.04167 7:1 8:1 9:0.1125 10:0.30625 11:-0.17935 12:-0.15833 13:-0.05417 14:-0.05 15:-0.09167 16:-0.10417 17:-0.99 18:-0.97 19:-0.92 20:-0.31683 21:-0.73267 22:-0.8 23:-0.6 24:-1 25:-1 26:-0.95 
-10 1:-0.96484 2:0.99997 3:-0.68555 4:-0.79688 5:-0.10556 6:0.15556 7:0.75 8:0.04753 9:0.5 10:0.5 11:-0.69155 12:-0.05556 13:-0.01481 14:-0.01852 15:-0.04815 16:0.06667 17:-0.94306 18:-0.94 19:-0.96 20:0.10891 21:-0.83938 22:-1 23:-1 24:-1 25:-1 26:-0.93 
-10 1:-0.99219 2:0.99996 3:-1 4:-0.86719 5:-1 6:0.13333 7:-1 8:1 9:-1 10:0.5 11:-0.03593 12:0.26667 13:0.28333 14:0.13333 15:0.3 16:0.18333 17:-0.98 18:-1 19:-0.94 20:-1 21:-0.10891 22:-1 23:-1 24:-1 25:-1 26:-0.75 
-10 1:-0.95703 2:0.99951 3:-0.43164 4:-0.78125 5:0.2125 6:0.24444 7:0.96286 8:0.37174 9:0.20938 10:0.5 11:-0.84837 12:0.10606 13:0.08182 14:0.22121 15:0.15152 16:0.17273 17:-0.995 18:-0.975 19:-0.97333 20:-0.22525 21:-0.57516 22:-1 23:-1 24:-1 25:-1 26:-0.87 
-10 1:-0.98438 2:1 3:-0.93359 4:-0.81641 5:0.13333 6:0.04444 7:-1 8:-0.61133 9:0.5 10:-0.11667 11:-0.12055 12:0.26667 13:0.2 14:0.06667 15:0.10833 16:-0.01667 17:-0.87 18:-0.88 19:-0.93333 20:-0.94059 21:-0.62871 22:-0.4 23:-1 24:-1 25:-1 26:-0.52 
-10 1:-0.95312 2:1 3:-0.71484 4:-0.75977 5:-0.18889 6:-0.31667 7:0.89902 8:1 9:0.37083 10:-0.14583 11:0.22642 12:-0.36944 13:-0.20556 14:-0.25278 15:-0.16111 16:-0.23611 17:0.94 18:-0.92 19:-0.81333 21:-0.50165 22:-1 23:-1 24:-1 25:-1 26:-0.89 
-10 1:-0.94922 2:0.99805 3:-0.35156 4:-0.75195 5:0.10667 6:0.41111 7:-0.25996 8:-0.42969 9:0.19 10:0.5 11:-0.93997 12:0.04103 13:0.23846 14:0.17692 15:0.17436 16:0.07179 17:-0.9975 18:-0.98 19:-0.96 20:-0.45149 21:-0.8035 22:-1 23:-1 24:-1 25:-1 26:-0.99 
-10 1:-0.89844 2:1 3:-0.02344 4:-0.63672 5:0.22167 6:0.03333 7:0.12859 8:0.26751 9:0.0575 10:0.02083 11:-0.97688 12:0.07051 13:0.10513 14:0.17821 15:0.07564 16:0.30769 17:-0.9994 18:-0.952 19:-0.86 20:-0.43465 21:-0.85301 22:-0.8 23:-1 24:-1 25:-1 26:-0.88 
-10 1:-0.94531 2:0.99951 3:-0.49609 4:-0.76172 5:-0.14 6:0.01667 7:1 8:-0.05013 9:0.2675 10:0.30625 11:-0.79765 12:-0.23571 13:-0.10714 14:-0.09524 15:-0.07857 16:0.01429 17:-0.82 18:-0.956 19:-0.89 20:-0.09703 21:-0.76521 22:-1 23:-0.8 24:-1 25:-1 26:-0.93 
-10 1:-0.97266 2:0.99997 3:-0.72266 4:-0.78711 5:0.18333 6:0.21111 7:-0.3431 8:1 9:0.1625 10:-0.275 11:-0.48844 12:0.20476 13:0.17619 14:0.19524 15:0.11429 16:0.15714 17:-0.9939 18:-1 19:-0.96 20:-0.13861 21:-0.56436 22:-1 23:-1 24:-1 25:-1 26:-0.96 
-10 1:-0.98828 2:1 3:-1 4:-0.8418 5:-1 6:-0.1 7:-1 8:0.83073 9:-1 10:-0.01667 11:0.39994 12:-0.25556 13:0.01111 14:-0.1 15:0.01111 16:0.16667 17:-0.5 18:-1 19:-0.72 20:-1 21:0.13531 22:-1 23:-1 24:-1 25:-1 26:-0.92 
-10 1:-0.96094 2:0.99988 3:-0.58984 4:-0.80859 6:0.08889 7:0.25502 8:-0.38281 9:0.38929 10:0.24167 11:-0.77751 12:0.08333 13:0.19333 14:0.02667 15:0.01667 16:-0.04667 17:-0.95816 18:-0.97143 19:-0.93333 20:0.30127 21:-0.52475 22:-0.8 23:-1 24:-1 25:-1 26:-0.75 
-10 1:-0.96484 2:0.99997 3:-0.7207 4:-0.76758 5:-0.04667 6:-0.00833 7:1 8:-0.70964 9:-0.18 10:0.30625 11:-0.29428 12:0.07037 13:-0.08148 14:-0.02963 15:-0.02593 16:0.05185 17:-0.9096 18:-0.888 19:-0.9 20:-0.12871 21:-0.26073 22:-1 23:-1 24:-0.8 25:-1 26:-0.83 
-1.735927456631485 1:-0.98828 2:1 3:-1 4:-0.82031 5:-1 6:0.02222 7:-1 8:-0.94531 9:-1 10:-0.11667 11:0.39994 12:0.05556 13:0.12222 14:0.02222 15:-0.02222 16:0.07778 17:-0.9875 18:-1 19:-0.92 20:-1 21:-0.84158 22:-0.8 23:-0.8 24:-1 25:-1 26:-0.98 
-10 1:-0.97656 2:0.99998 3:-0.79492 4:-0.81641 5:0.16667 6:0.04444 7:-0.83594 8:1 9:0.14167 10:0.06667 11:-0.37788 12:-0.16111 13:0.07778 14:0.10556 15:0.10556 16:0.17778 17:-0.9575 18:-0.96 19:-0.93333 20:-0.66337 21:-0.67327 22:-1 23:-1 24:-1 25:-0.8 26:-0.82 
-10 1:-0.97656 2:0.99998 3:-0.81445 4:-0.79297 5:0.05556 6:0.17778 7:-0.26302 8:0.67253 9:0.24167 10:0.24167 11:-0.37788 12:0.20556 13:0.21111 14:0.11667 15:0.1 16:-0.00556 17:-0.92 18:-0.96 19:-0.86667 20:0.65017 21:-0.27393 22:-1 23:-0.8 24:-1 25:-1 26:-0.83 
-10 1:-0.98047 2:0.99999 3:-0.87695 4:-0.80273 5:0.05 6:0.12222 7:-0.71777 8:-0.95052 9:0.1125 10:-0.01667 11:-0.26373 12:-0.06667 13:-0.05333 14:0.09333 15:0.16 16:-0.16667 17:-0.5 18:-0.94 19:-0.88 20:0.39604 21:-0.2198 22:-1 23:-1 24:-1 25:-1 26:-0.82 
-8.315076363418768 1:-0.94531 2:1 3:-0.60352 4:-0.68359 5:-0.24815 6:0.08 7:0.66797 8:-0.16348 9:-0.21389 10:-0.15 11:-0.43627 12:-0.01905 13:-0.12857 14:-0.13095 15:-0.13095 16:-0.13571 17:-0.90972 18:-0.90222 19:-0.872 20:-0.12871 21:-0.58699 22:-1 23:-1 24:-1 25:-1 26:-0.85 
-9.457312836155268 1:-0.99219 2:0.99996 3:-1 4:-0.84961 5:-1 6:0.28333 7:-1 8:1 9:-1 10:0.5 11:-0.03593 12:0.31667 13:0.18333 14:0.28333 15:0.18333 16:0.28333 17:-0.98 18:-1 19:-0.96 20:-1 21:0.08911 22:-1 23:-1 24:-0.2 25:-0.2 26:-0.73 
-10 1:-0.96094 2:1 3:-0.69141 4:-0.78906 5:0.05333 6:-0.28 7:0.7916 8:1 9:0.035 10:-0.335 11:0.02286 12:0.06667 13:-0.04333 14:-0.11333 15:-0.09 16:-0.05333 17:-0.9971 18:-0.968 19:-0.904 20:0.23564 21:-0.39604 22:-1 23:-1 24:-1 25:-1 26:-0.87 
-10 1:-0.98438 2:1 3:-0.99609 4:-0.8125 5:-0.93333 6:0.06667 7:-1 8:-0.58529 9:0.5 10:-0.375 11:-0.12055 12:-0.3 13:-0.25833 14:-0.18333 15:-0.21667 16:-0.20833 17:-0.87 18:-0.92 19:-0.85333 20:-0.54455 21:-0.14356 22:-1 23:-0.8 24:-1 25:-1 26:-0.73 
-8.531263014954174 1:-0.98438 2:1 3:-0.93555 4:-0.78516 5:0.1 6:0.22222 7:-1 8:0.47852 9:-0.275 10:0.5 11:-0.12055 12:0.225 13:0.25 14:0.19167 15:0.16667 16:0.24167 17:-0.99889 18:-1 19:-0.90667 20:-0.84158 21:-0.00495 22:-1 23:-1 24:-1 25:-1 26:-0.91 
-10 1:-0.875 2:0.99925 3:-0.02344 4:-0.66211 5:-0.00267 6:-0.17619 7:0.50639 8:-0.02744 9:0.283 10:0.16786 11:-0.99362 12:0.06667 13:0.05729 14:-0.04063 15:0.06042 16:-0.02604 17:-0.97015 18:-0.9776 19:-0.94286 20:0.14376 21:-0.70359 22:-0.8 23:-1 24:-1 25:-1 26:-0.95 
-4.75565774149181 1:-0.98438 2:1 3:-1 4:-0.81641 5:-1 6:-0.21667 7:-1 8:1 9:-1 10:-0.025 11:0.84665 12:-0.29167 13:-0.25833 14:-0.21667 15:-0.06667 16:-0.20833 17:-0.99 18:-1 19:-0.85 20:-1 21:0.07921 22:-1 23:-1 24:-1 25:-1 26:-0.31 
-4.865718821959988 1:-0.99219 2:0.99996 3:-1 4:-0.85156 5:-1 6:0.26667 7:-1 8:-0.83496 9:-1 10:0.5 11:-0.03593 12:-0.28333 13:-0.31667 14:0.26667 15:0.13333 16:0.01667 17:-0.98 18:-1 19:-0.94 20:-1 21:-0.51485 22:-1 23:-1 24:-1 25:-1 26:-0.87 
-10 1:-0.97656 2:0.99999 3:-0.86133 4:-0.8125 5:0.18333 6:-0.2 7:-0.98438 8:1 9:0.1125 10:-0.08125 11:0.05469 12:0.09444 13:0.07778 14:-0.07222 15:-0.06111 16:0.01111 17:-0.18 18:-0.88 19:-0.83 20:-0.08911 21:-0.51155 22:-0.4 23:-1 24:-1 25:-1 26:-0.72 
-10 1:-0.98047 2:1 3:-0.92383 4:-0.80273 5:0.3 6:-0.15833 7:-1 8:-0.70394 9:0.5 10:0.0375 11:0.22404 12:-0.08667 13:-0.06667 14:-0.06667 15:0.02667 16:0.23333 17:-0.9064 18:-1 19:-0.94 20:-0.92079 21:-0.46535 22:-1 23:-1 24:-0.8 25:-1 26:-0.93 
-10 1:-0.97266 2:0.99999 3:-0.83789 4:-0.78711 5:-0.30833 6:0.21111 7:0.88411 8:0.0918 9:0.1125 10:-0.275 11:-0.48844 12:-0.17143 13:-0.08571 14:-0.08571 15:-0.15238 16:-0.07619 17:-0.96 18:-0.87 19:-0.90667 20:0.0099 21:-0.8133 22:-1 23:-1 24:-1 25:-1 26:-0.69 
-10 1:-0.94531 2:0.99998 3:-0.33789 4:-0.74805 5:0.13 6:0.075 7:0.08151 8:0.96403 9:0.2675 10:-0.275 11:-0.79765 12:0.10238 13:0.04524 14:0.11429 15:0.02381 16:0.0619 17:-0.9676 18:-0.956 19:-0.92 20:-0.50099 21:-0.66195 22:-1 23:-1 24:-0.8 25:-0.8 26:-0.95 
-10 1:-0.71484 2:1 3:-0.02344 4:-0.39062 5:-0.28954 6:-0.52727 7:0.64806 8:0.33942 9:0.0402 10:-0.21023 11:0.08698 12:0.021 13:0.01096 14:-0.36119 15:-0.17078 16:-0.14018 17:-0.9884 18:-0.92314 19:-0.72545 20:-0.09726 21:-0.74068 22:-1 23:-0.8 24:-1 25:-1 26:-0.88 
-6.333991686502513 1:-0.94531 2:0.99999 3:-0.43359 4:-0.73242 5:0.07407 6:-0.08667 7:0.85764 8:1 9:0.06944 10:-0.12 11:-0.43627 12:0.09286 13:0.12143 14:0.01667 15:0.15238 16:0.18571 17:-0.9994 18:-0.98222 19:-0.96 20:-0.19032 21:-0.60255 22:-0.8 23:-0.2 24:-1 25:-1 26:-0.75 
-10 1:-0.92188 2:0.99996 3:-0.22852 4:-0.69531 5:0.01282 6:-0.25714 7:1 8:-0.04706 9:0.33654 10:0.05714 11:-0.26977 12:-0.145 13:-0.1 14:-0.08167 15:-0.05333 16:-0.04667 17:-0.97639 18:-0.96 19:-0.90286 20:-0.04341 21:-0.72079 22:-1 23:-0.2 24:-1 25:-1 26:-0.73 
-10 1:-0.95312 2:0.99951 3:-0.36719 4:-0.76172 5:0.35 6:0.01667 7:0.93188 8:1 9:0.40312 10:0.5 11:-0.62043 12:-0.01389 13:0.01667 14:0.23889 15:0.06389 16:0.11944 17:-0.9875 18:-0.985 19:-0.94 20:-0.16089 21:-0.73762 22:-1 23:-1 24:-1 25:-1 26:-1 
-10 1:-0.96484 2:0.99994 3:-0.66211 4:-0.76758 5:-0.03889 6:0.32222 7:1 8:-0.74805 9:0.32083 10:0.24167 11:-0.69155 12:0.07407 13:0.24815 14:0.08148 15:0.03333 16:0.18148 17:-0.9924 18:-0.99333 19:-0.90667 20:-0.22112 21:-0.90099 22:-1 23:-1 24:-1 25:-1 26:-0.98 
-10 1:-0.97656 2:0.99998 3:-0.83008 4:-0.80273 5:-0.03333 6:0.12222 7:-0.20247 8:-0.95117 9:0.24167 10:0.24167 11:-0.37788 12:0.07778 13:0.15556 14:0.04444 15:0.02778 16:0.22222 17:-0.995 18:-1 19:-0.96 20:-0.0231 21:-0.9505 22:-0.8 23:-1 24:-1 25:-1 26:-0.99 
-10 1:-0.98047 2:1 3:-0.93555 4:-0.80273 5:0.1 6:-0.15833 7:-1 8:-0.58268 9:0.5 10:-0.08125 11:0.22404 12:-0.08667 13:-0.28 14:-0.10667 15:-0.13333 16:-0.11333 17:-1 18:-0.96 19:-0.87 20:-0.9604 21:-0.56436 22:-1 23:-1 24:-1 25:-1 26:-0.99 
-10 1:-0.96484 2:0.99988 3:-0.57227 4:-0.78125 5:0.21667 6:0.24444 7:1 8:0.97721 9:0.5 10:0.5 11:-0.69155 12:0.2 13:0.25926 14:0.22593 15:0.06296 16:0.07037 17:-0.99849 18:-0.94667 19:-0.90667 20:-0.24422 21:-0.79978 22:-1 23:-1 24:-1 25:-1 26:-0.97 
-10 1:-0.98438 2:1 3:-1 4:-0.79883 5:-1 6:-0.14167 7:-1 8:1 9:-1 10:-0.275 11:0.84665 12:-0.125 13:-0.14167 14:-0.14167 15:-0.11667 16:-0.16667 17:-0.98 18:-1 19:-0.67 20:-1 21:0.06931 22:-1 23:-1 24:-1 25:-1 26:-0.49 
-10 1:-0.96094 2:0.99975 3:-0.48438 4:-0.77344 5:0.25714 6:0.28889 7:0.15495 8:-0.89388 9:0.38929 10:0.24167 11:-0.77751 12:0.09667 13:0.14667 14:0.26667 15:0.22667 16:0.32 17:-0.95816 18:-0.98286 19:-0.92 20:-0.40594 21:-0.90297 22:-1 23:-1 24:-0.4 25:-1 26:-0.75 
-10 1:-0.96875 2:0.99998 3:-0.78125 4:-0.81055 5:-0.25333 6:0.07778 7:0.76406 8:1 9:0.035 10:-0.275 11:-0.59397 12:-0.16667 13:-0.14167 14:-0.12917 15:-0.12917 16:-0.07917 17:0.25 18:-0.808 19:-0.92 20:0.23168 21:-0.60891 22:-1 23:0.2 24:-1 25:-1 26:-0.66 
-10 1:-0.91797 2:1 3:-0.40234 4:-0.67969 5:-0.21538 6:-0.31667 7:0.4852 8:0.43942 9:-0.05962 10:-0.17812 11:0.04792 12:-0.15079 13:-0.17937 14:-0.25397 15:-0.15873 16:-0.19048 17:-0.95889 18:-0.95077 19:-0.885 20:-0.04189 21:-0.65394 22:-1 23:-0.8 24:-1 25:-1 26:-0.91 
-10 1:-0.98438 2:1 3:-0.92969 4:-0.81055 5:0.2 6:0.07778 7:-1 8:-0.21289 9:0.5 10:-0.275 11:-0.12055 12:0.05833 13:0.06667 14:0.10833 15:0.15833 16:-0.09167 17:-0.90889 18:-1 19:-0.89333 20:-0.08911 21:-0.10891 22:-1 23:-1 24:-0.8 25:-1 26:-0.63 
-10 1:-0.93359 2:0.99996 3:-0.14844 4:-0.75977 5:0.21111 6:-0.18 7:0.19863 8:0.69883 9:0.1125 10:0.19 11:-0.73826 12:-0.05294 13:0.11176 14:0.09608 16:0.02941 17:-0.83988 18:-0.93 19:-0.888 20:0.35314 21:-0.63658 22:-1 23:-1 24:-1 25:-1 26:-0.64 
-10 1:-0.92969 2:0.99998 3:-0.31641 4:-0.74414 5:-0.10256 6:-0.12667 7:0.27264 8:-0.00879 9:0.32115 10:-0.12 11:-0.81668 12:-0.14259 13:-0.09074 14:-0.10926 15:-0.07593 16:-0.12037 17:0.21562 18:-0.97231 19:-0.856 20:0.05712 21:-0.55996 22:-1 23:-1 24:-1 25:-1 26:-0.87 
-10 1:-0.96094 2:1 3:-1 4:-0.64844 5:-1 6:-0.4 7:-1 8:-0.27595 9:-1 10:-0.4125 11:1 12:-0.38333 13:-0.40333 14:-0.4 15:-0.43333 16:-0.39333 17:-0.9576 18:-1 19:-0.9 20:-1 21:0.29505 22:-1 23:-1 24:-1 25:-1 26:-0.87 
-10 1:-0.98438 2:1 3:-0.92383 4:-0.80469 5:0.3 6:0.11111 7:-1 8:-0.54232 9:-0.275 10:0.24167 11:-0.12055 12:0.13333 13:0.26667 14:0.15833 15:0.3 16:0.275 17:-0.9075 18:-0.92 19:-0.93333 20:-0.52475 21:-0.69307 22:-1 23:-0.8 24:-1 25:-1 26:-0.41 
-10 1:-0.65234 2:1 3:-0.02344 4:-0.37109 5:-0.41354 6:-0.57067 7:1 8:0.12408 9:0.05469 10:-0.304 11:-0.46239 12:-0.45281 13:-0.35206 14:-0.45768 15:-0.01948 16:-0.07079 17:-0.98648 18:-0.93375 19:-0.7136 20:0.05848 21:-0.67249 22:-1 23:-1 24:-1 25:-1 26:-0.87 
-10 1:-0.98438 2:1 3:-0.93359 4:-0.80078 5:0.13333 6:0.13333 7:-1 8:-0.79427 9:0.5 10:0.24167 11:-0.12055 12:0.175 13:0.16667 14:0.13333 15:0.3 16:0.00833 17:-0.99889 18:-1 19:-0.93333 20:0.9604 21:0.06436 22:-0.8 23:-1 24:-1 25:-1 26:-0.99 
-10 1:-0.99219 2:0.99996 3:-1 4:-0.87891 5:-1 6:0.03333 7:-1 8:-0.33984 9:-1 10:-0.275 11:-0.03593 12:0.25 13:0.11667 14:0.03333 15:-0.23333 16:0.05 17:-0.98 18:-1 19:-0.94 20:-1 21:-0.06931 22:-0.8 23:-0.8 24:-1 25:-1 26:-0.65 
-10 1:-0.95312 2:0.99951 3:-0.39453 4:-0.78125 5:0.29167 6:-0.06667 7:0.37497 8:-0.06901 9:0.40312 10:0.5 11:-0.62043 12:0.10278 13:0.06389 14:0.17222 15:0.02222 16:0.10278 17:-0.9898 18:-0.99 19:-0.94 20:0.35891 21:-0.78218 22:-1 23:-1 24:-1 25:-1 26:-0.87 
-5.405316395786183 1:-0.98828 2:1 3:-1 4:-0.82617 5:-1 6:-0.01111 7:-1 8:0.76823 9:-1 10:-0.375 11:0.39994 12:0.05556 13:0.01111 14:-0.01111 15:0.17778 16:0.17778 17:-0.98889 18:-1 19:-0.89333 20:-1 21:-0.30033 22:-0.8 23:-0.8 24:-1 25:-1 26:-0.75 
-10 1:-0.97656 2:0.99998 3:-0.8125 4:-0.80273 5:0.06667 6:0.12222 7:0.44596 8:0.80924 9:-0.13333 10:-0.01667 11:-0.37788 12:0.18889 13:0.3 14:0.09444 15:0.31111 16:0.21111 17:-0.95889 18:-0.97333 19:-0.85333 20:0.16172 21:-0.60066 22:-0.8 23:-0.8 24:-1 25:-1 26:-0.73 
-10 1:-0.88281 2:0.99925 3:-0.02344 4:-0.67773 5:0.1 6:0.1 7:0.28521 8:-0.35098 9:0.004 10:0.03 11:-0.99974 12:0.15444 13:0.10444 14:0.1 15:-0.01444 16:0.09889 17:-0.98419 18:-0.9376 19:-0.928 20:-0.1905 21:-0.93201 22:-1 23:-0.8 24:-1 25:-1 26:-0.81 
-1.807981424207519 1:-0.98047 2:1 3:-0.92188 4:-0.7832 5:0.33333 6:-0.075 7:-1 8:1 9:0.5 10:-0.275 11:0.22404 12:0.08667 13:-0.01333 14:0.00667 15:0.02 16:0.23333 17:-0.9064 18:-0.92 19:-0.96 20:-0.52475 21:-0.08911 22:-1 23:-1 24:-1 25:-1 26:-0.89 
-10 1:-0.98047 2:1 3:-0.93359 4:-0.7793 5:0.13333 6:-0.05833 7:-1 8:0.89193 9:0.5 10:0.1125 11:0.22404 12:-0.02 13:-0.05333 14:-0.02 15:-0.06 16:0.02 17:-0.99 18:-1 19:-0.9 20:0.92079 21:-0.38218 22:-0.6 23:-1 24:-1 25:-1 26:-0.96 
-10 1:-0.99219 2:0.99996 3:-1 4:-0.86719 5:-1 6:0.13333 7:-1 8:-0.90234 9:-1 10:0.1125 11:-0.03593 12:0.23333 14:0.13333 16:0.26667 17:-0.98 18:-1 19:-0.92 20:-1 21:0.44554 22:-1 23:-1 24:-1 25:-1 26:-0.76 
-10 1:-0.98438 2:1 3:-0.93164 4:-0.79688 5:0.16667 6:0.15556 7:-1 8:-0.48372 9:0.5 10:-0.01667 11:-0.12055 12:0.25 13:0.075 14:0.15833 15:0.05833 16:-0.03333 17:-0.9075 18:-0.96 19:-0.94667 20:0.9802 21:-0.26733 22:-0.8 23:-1 24:-1 25:-1 26:-0.9 
-10 1:-0.75 2:1 3:-0.02344 4:-0.49023 5:0.01987 6:-0.275 7:0.55468 8:0.65771 9:0.19423 10:-0.38958 11:-1 12:0.00052 13:-0.05521 14:-0.03542 15:-0.11875 16:0.0151 17:-0.9288 18:-0.94923 19:-0.83333 20:0.05027 21:-0.87655 22:-0.8 23:-1 24:-1 25:-1 26:-0.73 
-10 1:-0.97656 2:0.99998 3:-0.77148 4:-0.78125 5:0.3 6:0.24444 7:0.90039 8:-0.97461 9:0.24167 10:0.24167 11:-0.37788 12:0.14444 13:0.07778 14:0.27222 15:0.17778 16:0.16111 17:-0.99778 18:-1 19:-0.94667 20:-0.06931 21:-0.85149 22:-1 23:-0.8 24:-1 25:-1 26:-0.98 
-10 1:-0.98047 2:0.99999 3:-0.86523 4:-0.80664 5:0.15 6:0.1 7:-0.99902 8:1 9:0.1125 10:0.24167 11:-0.26373 12:0.20667 13:0.08667 14:0.12 15:0.15333 16:0.16667 17:-0.99778 18:-1 19:-0.96 20:-0.51485 21:-0.33861 22:-1 23:-1 24:-0.8 25:-1 26:-0.87 
-10 1:-0.94922 2:0.99988 3:-0.58594 4:-0.79297 5:-0.11667 6:-0.29333 7:0.85599 8:0.5834 9:0.40312 10:0.19 11:-0.32409 12:-0.22308 13:-0.21282 14:-0.18462 15:-0.07692 16:-0.05128 17:0.22 18:-0.97 19:-0.832 20:0.14109 21:-0.75781 22:-1 23:-0.8 24:-1 25:-1 26:-0.89 
-10 1:-0.96875 2:0.99997 3:-0.70508 4:-0.79688 5:0.25833 6:-0.13333 7:0.83773 8:0.72461 9:-0.08125 10:0.1125 11:-0.17935 12:0.05 13:0.13333 14:0.0625 15:0.0875 16:0.27917 17:-0.19 18:-0.92 19:-0.86 20:-0.28218 21:-0.59901 22:-1 23:-0.8 24:-1 25:-1 26:-0.57 
-10 1:-0.94922 2:1 3:-0.48633 4:-0.72461 5:-0.02593 6:0.175 7:0.20171 8:0.84505 9:0.24167 10:0.1125 11:-0.71534 12:0.01282 13:0.0641 14:0.0359 15:0.08974 16:-0.12564 17:-0.99196 18:-0.96889 19:-0.96 20:-0.19692 21:-0.76847 22:-0.8 23:-1 24:-1 25:-0.6 26:-0.9 
-10 1:-0.97266 2:0.99998 3:-0.7832 4:-0.78516 5:-0.075 6:0.22222 7:0.92904 8:-0.24544 9:0.5 10:-0.01667 11:-0.48844 12:-0.11905 13:0.03333 14:0.05238 15:-0.02857 16:0.00476 17:-0.42 18:-0.95 19:-0.77333 20:0.13861 21:-0.34371 22:-1 23:-1 24:-1 25:-1 26:-0.72 
-10 1:-0.97266 2:0.99997 3:-0.70898 4:-0.80078 5:0.24167 6:0.13333 7:-0.09456 8:1 9:0.1125 10:0.24167 11:-0.48844 12:0.19048 13:0.01905 14:0.19524 15:0.1619 16:0.04286 17:-0.98889 18:-0.99 19:-0.92 20:-0.04455 21:-0.36634 22:-0.8 23:-1 24:-1 25:-1 26:-0.88 
-10 1:-0.96094 2:1 3:-0.57422 4:-0.73047 5:0.21111 6:0.15 7:-0.44063 8:-0.63346 9:0.1125 10:-0.15625 11:-0.4072 12:0.01 13:0.07667 14:0.18667 15:0.06 16:0.07667 17:-0.99889 18:-0.94667 19:-0.9 20:-0.52475 21:-0.61584 22:-1 23:-0.6 24:-1 25:-1 26:-0.99 
-10 1:-0.96484 2:0.99998 3:-0.79688 4:-0.79492 5:-0.42222 6:0.16667 7:-0.20592 8:-0.85742 9:-0.325 10:0.5 11:-0.69155 12:-0.11852 13:-0.14815 14:-0.22593 15:0.01111 16:-0.14815 17:-0.94306 18:-0.83333 19:-0.93333 20:0.06601 21:-0.66337 22:-1 23:-1 24:-1 25:-0.8 26:-0.87 
-10 1:-0.98047 2:0.99999 3:-0.88867 4:-0.79492 5:-0.05 6:0.16667 7:-0.99609 8:-0.85742 9:-0.425 10:0.5 11:-0.26373 12:0.28 13:0.20667 14:0.08 15:-0.05333 16:0.08667 17:-0.99639 18:-0.92 19:-0.93333 20:0.68317 21:0.09307 22:-0.8 23:-1 24:-1 25:-1 26:-0.95 
-10 1:-0.81641 2:1 3:-0.02344 4:-0.45312 5:0.1781 6:-0.22222 7:-0.16482 8:0.22615 9:0.21214 10:-0.24167 11:-0.95003 12:0.00284 13:0.05532 14:0.07589 15:-0.03262 16:0.0695 17:-0.98949 18:-0.94857 19:-0.87 20:-0.1587 21:-0.67727 22:-0.8 23:-1 24:-1 25:-1 26:-0.81 
-10 1:-0.96875 2:0.99997 3:-0.68555 4:-0.78711 5:0.07333 6:0.21111 7:-0.12148 8:-0.58529 9:0.19 10:0.5 11:-0.59397 12:0.3125 13:0.15833 14:0.125 15:0.09583 16:0.05833 17:-0.9971 18:-0.984 19:-0.96 20:-0.11683 21:-0.77228 22:-1 23:-1 24:-1 25:-1 26:-0.99 
-10 1:-0.98438 2:1 3:-0.94336 4:-0.79688 5:-0.03333 6:0.15556 7:-1 8:1 9:-0.275 10:0.24167 11:-0.12055 12:0.05833 13:0.25833 14:0.10833 15:0.29167 16:0.29167 17:-0.90889 18:-0.88 19:-0.92 20:0.30693 21:-0.22772 22:-1 23:-0.8 24:-1 25:-1 26:-0.9 
-10 1:-0.98438 2:0.99921 3:-0.88672 4:-0.86328 5:-0.03333 6:0.16667 7:-0.38965 8:-0.88184 9:-0.5 10:-0.425 11:-0.56669 12:0.04167 13:0.04167 14:0.06667 15:-0.08333 16:0.025 17:-0.98889 18:-0.9 19:-0.9 20:-0.21782 21:-0.64851 22:-0.6 23:-1 24:-1 25:-1 26:-0.97 
-10 1:-0.62109 2:-0.67544 3:-0.02344 4:-0.30273 5:0.20522 6:-0.15 7:0.46105 8:0.23283 9:0.30211 10:0.26071 11:-1 12:0.09072 13:0.0732 14:0.15395 15:0.1866 16:0.01546 17:-0.9731 18:-0.96386 19:-0.88 20:0.02016 21:-0.82525 22:-0.6 23:-1 24:-1 25:-1 26:-0.91 
-10 1:-0.69922 2:-0.97684 3:-0.02344 4:-0.39258 5:-0.01569 6:0.15185 7:0.54837 8:1 9:0.26397 10:0.3 11:-1 12:0.15108 13:0.16883 14:0.0039 15:-0.05411 16:0.10303 17:-0.97572 18:-0.95471 19:-0.92444 20:0.20268 21:-0.88916 22:-0.8 23:-1 24:-1 25:-1 26:-0.83 
-10 1:-0.33203 2:-1 3:-0.02344 4:-0.02344 5:0.10545 6:0.03889 7:0.39907 8:-0.79853 9:0.28578 10:0.04444 11:-1 12:0.06959 13:0.18869 14:0.09844 15:0.14581 16:0.01949 17:-0.99371 18:-0.95503 19:-0.88444 20:-0.10762 21:-0.81507 22:-1 23:-1 24:-0.8 25:-1 26:-0.87 
-10 1:-0.94141 2:0.99805 3:-0.32617 4:-0.76367 5:0.04545 6:0.00833 7:0.51502 8:1 9:0.28864 10:0.30625 11:-0.86414 12:0.18667 13:0.14889 14:0.03556 15:0.05333 16:0.08 17:-0.9949 18:-0.98182 19:-0.9 20:-0.10711 21:-0.72673 22:-0.2 23:-1 24:-1 25:-1 26:-0.87 
-10 1:-0.96484 2:0.99988 3:-0.52344 4:-0.78516 5:0.35556 6:0.22222 7:-0.31484 8:-0.92708 9:0.37083 10:0.5 11:-0.69155 12:0.3037 13:0.14815 14:0.31111 15:0.2037 16:0.26296 17:-0.9875 18:-0.97333 19:-0.96 20:0.34653 21:-0.56216 22:-1 23:-1 24:-1 25:-1 26:-0.95 
-10 1:-0.96875 2:0.99994 3:-0.67969 4:-0.78125 5:0.09333 6:0.24444 7:0.68301 8:1 9:0.035 10:0.5 11:-0.59397 12:-0.05 13:0.04167 14:0.15 15:0.025 16:0.08333 17:-0.9971 18:-0.928 19:-0.96 20:-0.6396 21:-0.77723 22:-1 23:-1 24:-1 25:-1 26:-0.87 
-10 1:-0.97656 2:0.99998 3:-0.83789 4:-0.80273 5:-0.07778 6:0.12222 7:1 8:1 9:-0.01667 10:-0.01667 11:-0.37788 12:0.00556 13:0.22222 14:0.02222 15:0.17778 16:0.26667 17:-0.92 18:-0.90667 19:-0.88 20:0.19472 21:-0.47855 22:-0.8 23:-0.8 24:-1 25:-1 26:-0.79 
-10 1:-0.63281 2:1 3:-0.02344 4:-0.23828 5:0.07048 6:-0.45833 7:0.80137 8:-0.00102 9:0.20214 10:-0.24792 11:-0.9845 12:-0.10106 13:-0.18121 14:-0.06454 15:-0.11028 16:-0.10248 17:-0.96792 18:-0.976 19:-0.815 20:-0.07723 21:-0.75226 22:-1 23:-1 24:-1 25:-1 26:-0.64 
-10 1:-0.94141 2:0.99805 3:-0.27344 4:-0.7793 5:0.12727 6:-0.05833 7:-0.04865 8:1 9:0.35909 10:0.5 11:-0.86414 12:0.01778 13:0.17333 14:0.07778 15:0.18667 16:0.32667 17:-0.97222 18:-0.97091 19:-0.94 20:-0.18992 21:-0.71881 22:-1 23:-1 24:-1 25:-1 26:-0.95 
-10 1:-0.96875 2:0.99997 3:-0.69141 4:-0.77344 5:0.31667 6:-0.03333 7:-0.12109 8:-0.43945 9:-0.08125 10:0.1125 11:-0.17935 12:-0.025 13:0.04583 14:0.14167 15:0.1125 16:0.29167 17:-0.91 18:-0.98 19:-0.88 20:-0.28713 21:-0.76733 22:-0.8 23:-1 24:-1 25:-1 26:-0.87 
-10 1:-0.98438 2:1 3:-0.95703 4:-0.80859 5:-0.26667 6:0.08889 7:-1 8:-0.97461 9:-0.275 10:-0.275 11:-0.12055 12:0.10833 13:0.03333 15:-0.025 16:-0.09167 17:-0.99889 18:-0.96 19:-0.94667 20:-0.38614 21:0.42574 22:-1 23:-1 24:-1 25:-1 26:-0.99 
-10 1:-0.90234 2:1 3:-0.02344 4:-0.68945 5:0.16875 6:-0.41111 7:0.73098 8:0.24761 9:0.16094 10:-0.05 11:0.01731 12:-0.02133 13:0.024 14:-0.04 15:0.056 16:0.09333 17:-0.99196 18:-0.9675 19:-0.82667 20:0.19678 21:-0.67525 22:-0.8 23:-0.6 24:-1 25:-1 26:-0.57 
-10 1:-0.93359 2:0.99998 3:-0.34961 4:-0.73633 5:-0.14615 6:0.125 7:0.89959 8:-0.89404 9:0.14231 10:0.1125 11:-0.9475 12:-0.01176 13:0.00588 14:-0.08235 15:-0.00784 16:-0.18039 17:-0.99078 18:-0.94769 19:-0.96 20:0.01752 21:-0.95923 22:-1 23:-1 24:-1 25:-1 26:-0.67 
-6.579418082176185 1:-0.9375 2:0.99999 3:-0.3457 4:-0.7168 5:0.01515 6:-0.03333 7:0.39105 8:0.29941 9:0.14773 10:0.035 11:-0.64629 12:-0.0125 13:0.00833 15:-0.01458 16:0.07292 17:-0.82222 18:-0.94909 19:-0.912 20:0.15392 21:-0.63861 22:-0.6 23:-1 24:-1 25:-1 26:-0.93 
-10 1:-0.97656 2:0.99999 3:-0.85352 4:-0.8125 5:0.25 6:-0.2 7:0.06348 8:0.77409 9:-0.275 10:0.30625 11:0.05469 12:0.02778 13:-0.08889 14:-0.05 15:0.03333 16:0.02222 17:-0.9 18:-0.92 19:-0.91 20:0.47525 21:-0.35974 22:-1 23:-0.8 24:-1 25:-1 26:-0.85 
-10 1:-0.92969 2:0.99985 3:-0.07617 4:-0.71094 5:0.12619 6:0.23333 7:0.85582 8:-0.33008 9:0.38929 10:0.1125 11:-0.96916 12:0.03333 13:0.21852 14:0.15 15:0.17407 16:0.23889 17:-0.9896 18:-0.98857 19:-0.92 20:-0.06506 21:-0.84378 22:-1 23:-1 24:-1 25:-0.6 26:-0.97 
-10 1:-0.97266 2:0.99997 3:-0.71484 4:-0.80078 5:0.21667 6:0.13333 7:-0.76514 8:0.32031 9:0.30625 10:0.5 11:-0.48844 12:0.25238 13:0.21429 14:0.18095 15:0.14762 16:0.07619 17:-0.99889 18:-0.98 19:-0.96 20:-0.56931 21:-0.80481 22:-1 23:-1 24:-1 25:-1 26:-0.97 
-10 1:-0.83594 2:1 3:-0.40234 4:-0.48828 5:-0.60769 6:-0.45417 7:1 8:-0.04988 9:-0.07596 10:-0.29375 11:1 12:-0.14127 13:-0.09762 14:-0.54921 15:-0.43968 16:-0.65794 17:-0.9487 18:-0.88923 19:-0.7375 20:-0.25438 21:-0.74305 22:-1 23:-1 24:-1 25:-1 26:-0.66 
-10 1:-0.97656 2:1 3:-0.99609 4:-0.79688 5:-0.93333 6:-0.30667 7:-1 8:-0.10781 9:-0.275 10:0.035 11:0.58703 12:-0.45 13:-0.33333 14:-0.41111 15:-0.40556 16:-0.22222 17:-0.9975 18:-0.52 19:-0.784 20:-0.38614 21:-0.52805 22:-1 23:-1 24:-1 25:-1 26:-0.83 
-10 1:-0.96875 2:0.99994 3:-0.72461 4:-0.79688 5:-0.06 6:0.15556 7:0.40293 8:-0.27344 9:0.035 10:0.24167 11:-0.59397 12:0.15417 13:0.12083 14:0.02083 15:0.075 16:0.08333 17:-0.93222 18:-0.912 19:-0.92 20:0.2 21:-0.42822 22:-0.8 23:-1 24:-1 25:-1 26:-0.75 
-10 1:-0.95312 2:0.99951 3:-0.44727 4:-0.76758 5:0.04815 6:0.32222 7:0.86252 8:0.5 9:0.41389 10:0.24167 11:-0.90226 12:0.06389 13:-0.01389 14:0.11667 15:0.11111 16:0.20833 17:-0.95556 18:-0.93778 19:-0.88 20:-0.13091 21:-0.78713 22:-1 23:-1 24:-1 25:-0.8 26:-0.79 
-6.543775523825031 1:-0.98438 2:1 3:-0.92773 4:-0.78906 5:0.23333 6:0.2 7:-1 8:-0.35091 9:0.5 10:0.24167 11:-0.12055 12:0.34167 13:0.175 14:0.20833 15:0.13333 16:0.23333 17:-0.87 18:-1 19:-0.92 20:0.20792 21:0.16337 22:-1 23:-1 24:-1 25:-1 26:-0.87 
-2.971174790025257 1:-0.96875 2:0.99994 3:-0.6875 4:-0.78906 5:0.06667 6:0.2 7:0.83535 8:1 9:0.19 10:0.24167 11:-0.59397 12:0.225 13:0.0875 14:0.11667 15:0.24167 16:0.18333 17:-0.99639 18:-0.976 19:-0.96 20:-0.17228 21:-0.60891 22:-0.8 23:-0.6 24:-1 25:-1 26:-0.87 
-10 1:-0.94141 2:1 3:-0.62305 4:-0.74609 5:-0.35667 6:-0.13333 7:0.93275 8:1 9:-0.1975 10:-0.335 11:-0.5445 12:-0.30889 13:-0.27111 14:-0.28222 15:-0.28 16:-0.29778 17:-0.88222 18:-0.808 19:-0.816 20:-0.01584 21:-0.65413 22:-1 23:-1 24:-1 25:-1 26:-0.63 
-10 1:-0.92578 2:1 3:-0.2207 4:-0.69727 5:0.02308 6:-0.13889 7:0.13234 8:0.81152 9:0.24231 10:-0.14583 11:-0.5719 12:0.07193 13:0.06842 14:-0.02807 15:0.08772 16:0.09825 17:-0.85556 18:-0.95385 19:-0.88667 20:0.25514 21:-0.57165 22:-0.8 23:-0.2 24:-1 25:-1 26:-0.75 
-10 1:-0.98047 2:0.99999 3:-0.86914 4:-0.82031 5:0.11667 6:0.02222 7:0.26562 8:-0.0931 9:0.5 10:-0.01667 11:-0.26373 12:0.11333 13:0.06667 14:0.06 15:0.06667 16:0.08 17:-0.95889 18:-1 19:-0.93333 20:-0.64356 21:-0.30297 22:-0.6 23:-1 24:-1 25:-1 26:-0.81 
-10 1:-0.95312 2:1 3:-0.6543 4:-0.74023 5:-0.2625 6:0.10833 7:1 8:-0.76774 9:0.01562 10:-0.08125 11:-0.62043 12:-0.05 13:-0.03056 14:-0.13889 15:-0.04722 16:-0.07222 17:-0.86556 18:-0.875 19:-0.88 20:0.16832 21:-0.5066 22:-0.8 23:-1 24:-1 25:-1 26:-0.89 
-10 1:-0.96484 2:0.99999 3:-0.87109 4:-0.80859 5:-0.45 6:-0.34667 7:1 8:0.8668 9:-0.08125 10:-0.025 11:0.13988 12:-0.35556 13:-0.42593 14:-0.39259 15:-0.30741 16:-0.5037 17:-0.88222 18:-0.91 19:-0.848 20:-0.08416 21:-0.34653 22:-1 23:-0.8 24:-1 25:-1 26:-0.97 
-10 1:-0.94531 2:0.99999 3:-0.39062 4:-0.76758 5:0.04 6:-0.00833 7:0.9895 8:1 9:0.035 10:-0.275 11:-0.79765 12:0.14762 13:0.11667 14:0.02619 15:0.12857 16:0.05238 17:-0.98 18:-0.96 19:-0.88 20:0.06535 21:-0.66478 22:-0.6 23:-0.8 24:-1 25:-1 26:-0.81 
-10 1:-0.91406 2:1 3:-0.04102 4:-0.72656 5:0.02292 6:-0.22222 7:0.58148 8:-0.32077 9:0.20625 10:-0.01667 11:-0.83458 12:0.04394 13:0.04697 14:-0.04394 15:0.08182 16:0.13485 17:-0.74 18:-0.9525 19:-0.84667 20:0.14109 21:-0.67507 22:-0.8 23:-1 24:-1 25:-1 26:-0.93 
-10 1:-0.96875 2:0.99378 3:-0.64844 4:-0.83594 6:0.4 7:1 8:-0.68359 9:0.37083 10:0.5 11:-0.8898 12:0.05417 13:0.00417 14:0.1 15:-0.02083 16:0.09583 17:-0.94444 18:-0.97333 19:-0.92 20:-0.20462 21:-0.91089 22:-1 23:-1 24:-1 25:-1 26:-0.97 
-10 1:-0.94531 2:0.99999 3:-0.44141 4:-0.75195 5:0.05926 6:-0.15333 7:0.66737 8:0.90664 9:0.24167 10:0.19 11:-0.43627 12:0.16429 13:0.15952 14:-0.01667 15:0.12857 16:0.07619 17:-0.95262 18:-0.95556 19:-0.896 20:0.07371 21:-0.78925 22:-0.4 23:-1 24:-1 25:-1 26:-0.84 
-10 1:-0.99219 2:0.99996 3:-1 4:-0.85156 5:-1 6:0.26667 7:-1 8:-0.96484 9:-1 10:0.5 11:-0.03593 12:0.26667 13:0.16667 14:0.26667 15:0.3 16:0.16667 17:-0.98 18:-1 19:-0.92 20:-1 21:0.44554 22:-1 23:-0.8 24:-1 25:-1 26:-0.91 
-10 1:-0.98047 2:0.99999 3:-0.87305 4:-0.8125 5:0.08333 6:0.06667 7:0.80566 8:-0.95247 9:0.1125 10:0.24167 11:-0.26373 12:0.14 13:0.21333 14:0.07333 15:0.12667 16:0.03333 17:-0.95 18:-0.92 19:-0.92 20:-0.33663 21:0.13663 22:-1 23:-1 24:-1 25:-1 26:-0.94 
-10 1:-0.96875 2:0.99994 3:-0.65039 4:-0.7793 5:0.19333 6:0.25556 7:0.25879 8:-0.91602 9:0.035 10:0.24167 11:-0.59397 12:0.125 13:0.1625 14:0.21667 15:0.19583 16:0.1125 17:-0.99849 18:-0.984 19:-0.94667 20:0.28713 21:-0.42079 22:-0.8 23:-0.8 24:-1 25:-1 26:-0.95 
-3.179610857866427 1:-0.98047 2:1 3:-0.91992 4:-0.77734 5:0.36667 6:-0.05 7:-1 8:1 9:0.5 10:0.30625 11:0.22404 12:0.11333 13:-0.04667 14:0.03333 15:0.06667 16:-0.05333 17:-0.91 18:-1 19:-0.91 20:0.0099 21:-0.39802 22:-1 23:-1 24:-1 25:-1 26:-0.75 
-10 1:-0.98828 2:1 3:-1 4:-0.82617 5:-1 6:-0.01111 7:-1 8:-0.78451 9:-1 10:-0.375 11:0.39994 12:-0.11111 13:-0.11111 14:-0.01111 15:0.02222 16:0.03333 17:-0.5 18:-1 19:-0.82667 20:-1 21:-0.43234 22:-0.8 23:-0.6 24:-1 25:-1 26:-0.69 
-10 1:-0.96875 2:1 3:-0.83594 4:-0.77539 5:-0.3 6:-0.04167 7:0.50065 8:0.15674 9:0.35625 10:-0.3875 11:-0.17935 12:-0.125 13:-0.11667 14:-0.17083 15:-0.22917 16:-0.22917 17:-0.9864 18:-0.98 19:-0.9 20:0.23762 21:-0.59653 22:-1 23:-1 24:-1 25:-1 26:-0.95 
-10 1:-0.94922 2:1 3:-1 4:-0.74609 5:-1 6:-0.66667 7:-1 8:0.66228 9:-1 10:-0.26154 11:1 12:-0.64872 13:-0.65128 14:-0.66667 15:-0.68462 16:-0.65128 17:-0.5 18:-1 19:-0.84923 20:-1 21:0.19573 22:-0.8 23:-1 24:-1 25:-1 26:-0.96 
-7.485376851764553 1:-0.98828 2:1 3:-1 4:-0.83398 5:-1 6:-0.05556 7:-1 8:-0.03125 9:-1 10:0.14167 11:0.39994 12:-0.22222 13:-0.15556 14:-0.05556 15:0.04444 16:0.11111 17:-0.9875 18:-1 19:-0.93333 20:-1 21:-0.20792 22:-1 23:0.8 24:-1 25:-1 26:-0.85 
-6.709157351214786 1:-0.95312 2:1 3:-0.76172 4:-0.66406 5:-0.18667 6:-0.18095 7:0.80723 8:-0.13756 9:-0.275 10:-0.40357 11:0.66547 12:-0.01389 13:-0.09722 14:-0.18333 15:-0.025 16:0.05278 17:-0.9975 18:-0.864 19:-0.84571 20:0.33465 21:-0.4604 22:-0.4 23:-0.4 24:-1 25:-1 26:-0.09 
-10 1:-0.59766 2:-0.23401 3:-0.02344 4:-0.21484 5:0.06477 6:-0.10667 7:0.56568 8:0.87714 9:0.19375 10:-0.26833 11:-1 12:0.04401 13:0.1055 14:0.03981 15:-0.01327 16:0.10227 17:-0.92886 18:-0.965 19:-0.768 20:0.06256 21:-0.83466 22:-1 23:-1 24:-1 25:-1 26:-0.91 
-10 1:-0.91797 2:0.99999 3:-0.02344 4:-0.71094 5:0.1625 6:-0.01333 7:-0.0448 8:0.20801 9:0.40312 10:0.345 11:-0.9542 12:0.11111 13:0.17937 14:0.12063 15:0.20794 16:0.14921 17:-0.9975 18:-0.98 19:-0.912 20:-0.43441 21:-0.83498 22:-1 23:-0.8 24:-1 25:-1 26:-0.98 
-10 1:-0.92188 2:0.99992 3:-0.16602 4:-0.73828 5:-0.05111 6:-0.10667 7:0.77405 8:1 9:0.44833 10:0.035 11:-0.92388 12:0.075 13:0.03 14:-0.065 15:0.035 16:-0.11333 17:-0.97062 18:-0.97333 19:-0.832 20:-0.15248 21:-0.81188 22:-0.6 23:-1 24:-1 25:-1 26:-0.81 
-10 1:-0.98438 2:1 3:-0.99609 4:-0.80664 5:-0.93333 6:0.1 7:-1 8:-0.45052 9:0.5 10:-0.11667 11:-0.12055 12:-0.225 13:-0.18333 14:-0.15833 15:-0.26667 16:-0.25 17:-0.9975 18:-1 19:-0.96 20:-0.54455 21:-0.34158 22:-0.8 23:-1 24:-1 25:-1 26:-0.75 
-8.71886428402585 1:-0.92188 2:0.99999 3:-0.05273 4:-0.69336 5:0.07778 6:0.04667 7:0.87959 8:0.35117 9:0.18333 10:0.345 11:-0.92388 12:0.06167 13:0.10167 14:0.07 15:0.12 16:0.055 17:-0.97062 18:-0.976 19:-0.92 20:-0.2264 21:-0.7703 22:-1 23:-1 24:-0.8 25:-1 26:-0.96 
-10 1:-0.98047 2:1 3:-0.93164 4:-0.77539 5:0.16667 6:-0.04167 7:-1 8:-0.76172 9:0.5 10:-0.08125 11:0.22404 12:-0.02 13:0.04667 15:0.09333 16:0.1 17:-0.91 18:-1 19:-0.83 20:-0.84158 21:-0.68317 22:-1 23:-1 24:-1 25:-0.8 26:-0.89 
-7.968014491121457 1:-0.97656 2:1 3:-0.99609 4:-0.7793 5:-0.93333 6:-0.24667 7:-1 8:1 9:0.5 10:0.5 11:0.58703 12:-0.38889 13:-0.37778 14:-0.36111 15:-0.31111 16:-0.38333 17:-0.9075 18:-0.96 19:-0.928 20:-0.70297 21:-0.51485 22:-1 23:-1 24:-1 25:-1 26:-0.97 
-10 1:-0.98438 2:1 3:-0.95312 4:-0.79883 5:-0.2 6:0.14444 7:-1 8:-0.12044 9:-0.575 10:0.24167 11:-0.12055 12:0.09167 13:0.21667 14:0.05833 15:0.06667 16:0.18333 17:-0.99889 18:-0.88 19:-0.92 20:-0.80198 21:-0.57921 22:-1 23:-1 24:-1 25:-0.8 26:-0.66 
-10 1:-0.89844 2:0.99981 3:-0.02344 4:-0.70117 5:0.03667 6:-0.15 7:0.17422 8:0.93958 9:0.1125 10:-0.14583 11:-0.97688 12:0.05385 13:0.07436 14:-0.00641 15:0.02692 16:0.01026 17:-0.74556 18:-0.946 19:-0.88667 20:-0.21584 21:-0.81569 22:-0.8 23:-1 24:-1 25:-1 26:-0.71 
-10 1:-0.95312 2:1 3:-0.44727 4:-0.74609 5:0.17917 6:0.08333 7:0.77703 8:-0.90104 9:0.40312 10:0.1125 11:-0.62043 12:0.16667 13:0.14167 14:0.14722 15:0.17778 16:0.18333 17:-0.99889 18:-0.965 19:-0.96 20:-0.14604 21:-0.82178 22:-1 23:-1 24:-1 25:-1 26:-0.79 
-10 1:-0.98047 2:0.99999 3:-0.86523 4:-0.78711 5:0.15 6:0.21111 7:-0.97559 8:1 9:0.5 10:0.24167 11:-0.26373 12:0.36667 13:0.30667 14:0.18667 15:0.18667 16:0.14 17:-0.7475 18:-0.96 19:-0.96 20:-0.45545 21:-0.50891 22:-0.8 23:-1 24:-1 25:-1 26:-0.87 
-10 1:-0.93359 2:0.99992 3:-0.21875 4:-0.74023 5:0.11111 6:-0.11333 7:0.34996 8:-0.43613 9:0.30625 10:0.035 11:-0.73826 12:0.02549 13:-0.06863 14:0.0451 15:0.09608 16:0.10588 17:-0.9721 18:-0.96667 19:-0.928 20:-0.11881 21:-0.82411 22:-1 23:-1 24:-1 25:-1 26:-0.94 
-10 1:-0.97266 2:0.99998 3:-0.79492 4:-0.79492 5:-0.125 6:0.16667 7:1 8:1 9:0.23125 10:0.24167 11:-0.48844 12:-0.04286 13:-0.07619 15:-0.01905 16:-0.05714 17:-0.9075 18:-0.94 19:-0.96 20:-0.30693 21:-0.62376 22:-1 23:-1 24:-1 25:-1 26:-0.98 
-10 1:-0.96094 2:1 3:-0.64062 4:-0.75 5:0.02222 6:0.06667 7:1 8:0.83984 9:0.01667 10:-0.275 11:-0.4072 12:0.08 13:-0.04667 14:0.04 15:-0.06667 16:-0.19333 17:-0.99 18:-0.94 19:-0.93 20:0.0033 21:-0.63564 22:-1 23:-1 24:-1 25:-1 26:-0.97 
-7.195169476656035 1:-0.98828 2:1 3:-1 4:-0.81445 5:-1 6:0.05556 7:-1 8:-0.78711 9:-1 10:-0.275 11:0.39994 12:0.03333 13:0.03333 14:0.05556 15:0.13333 16:0.13333 17:-0.98889 18:-1 19:-0.94667 20:-1 21:0.18812 22:-1 23:-1 24:-1 25:-0.8 26:-0.93 
-1.570321226558554 1:-0.97656 2:0.99999 3:-0.85547 4:-0.79688 5:0.23333 6:-0.13333 7:-0.4375 8:1 9:-0.275 10:0.30625 11:0.05469 12:-0.22222 13:-0.03889 14:-0.01111 15:-0.02222 16:-0.00556 17:-0.74 18:-0.68 19:-0.93 20:0.50495 21:-0.48845 22:-0.6 23:-0.6 24:-1 25:-1 26:-0.91 
-10 1:-0.98828 2:0.99996 3:-1 4:-0.85742 5:-1 6:-0.18889 7:-1 8:-0.4707 9:-1 10:0.24167 11:0.39994 12:-0.17778 13:-0.22222 14:-0.18889 15:-0.18889 16:-0.13333 17:-0.98889 18:-1 19:-0.86667 20:-1 21:-0.30693 22:-1 23:-0.6 24:-1 25:-1 26:-0.97 
-1.379497329219318 1:-0.99219 2:0.99996 3:-1 4:-0.84961 5:-1 6:0.28333 7:-1 8:-0.9209 9:-1 10:0.5 11:-0.03593 12:0.28333 13:0.11667 14:0.28333 15:0.13333 16:0.36667 17:-0.98 18:-1 19:-0.94 20:-1 21:-0.77228 22:-1 23:-1 24:-1 25:-1 26:-0.72 
-10 1:-0.99219 2:0.99996 3:-1 4:-0.90039 5:-1 6:-0.15 7:-1 8:-0.33984 9:-1 10:-0.425 11:-0.03593 12:-0.11667 13:-0.11667 14:-0.15 15:0.03333 16:-0.01667 17:-0.98889 18:-1 19:-0.92 20:-1 21:0.12871 22:-0.8 23:-0.8 24:-1 25:-1 26:-0.81 
-10 1:-0.96484 2:0.99988 3:-0.59961 4:-0.75586 5:0.13889 6:0.38889 7:-0.68171 8:-0.8457 9:0.5 10:0.5 11:-0.69155 12:0.18889 13:0.18148 14:0.22222 15:0.28519 16:0.35556 17:-0.94444 18:-0.97333 19:-0.94667 20:0.67987 21:-0.47195 22:-1 23:-1 24:-1 25:-1 26:-0.93 
-10 1:-0.98047 2:0.99999 3:-0.85938 4:-0.80078 5:0.2 6:0.13333 7:-0.60938 8:-0.54427 9:0.5 10:-0.01667 11:-0.26373 12:0.35333 13:0.32 14:0.16 15:0.18 16:0.34 17:-0.9875 18:-0.94 19:-0.94667 20:-0.48515 21:-0.67129 22:-1 23:-1 24:-1 25:-1 26:-0.97 
-10 1:-0.98828 2:1 3:-1 4:-0.83398 5:-1 6:-0.05556 7:-1 8:-0.71289 9:-1 10:-0.01667 11:0.39994 12:-0.02222 13:-0.22222 14:-0.05556 15:-0.34444 16:-0.24444 17:-0.98889 18:-1 19:-0.82667 20:-1 21:0.74257 22:-1 23:-1 24:-1 25:-1 26:-0.93 
-10 1:-0.98047 2:0.99999 3:-0.86133 4:-0.79883 5:0.18333 6:0.14444 7:-0.52734 8:0.27148 9:-0.275 10:0.24167 11:-0.26373 12:0.14 13:0.00667 14:0.16 15:0.23333 16:0.16667 17:-0.71 18:-0.86 19:-0.88 20:0.64356 21:-0.54851 22:-0.6 23:-1 24:-1 25:-0.8 26:-0.96 
-10 1:-0.94141 2:1 3:-0.41211 4:-0.70312 5:0.00333 6:0.01333 7:0.31215 8:-0.50488 9:0.2875 10:0.08 11:-0.5445 12:0.02444 13:0.03333 14:0.00667 15:0.04889 16:0.07333 17:-0.9975 18:-0.972 19:-0.84 20:-0.05743 21:-0.51815 22:-1 23:-0.8 24:-1 25:-1 26:-0.72 
-2.498141872422079 1:-0.96094 2:1 3:-1 4:-0.57812 5:-1 6:-0.28 7:-1 8:0.03136 9:-1 10:-0.425 11:1 12:-0.11 13:-0.17667 14:-0.28 15:-0.17 16:-0.07333 17:-0.18 18:-1 19:-0.512 20:-1 21:0.27723 22:-0.4 23:-1 24:-1 25:-1 26:-0.55 
-10 1:-0.80859 2:0.99999 3:-0.02344 4:-0.52734 5:0.16228 6:-0.26667 7:0.8765 8:0.8142 9:0.34145 10:-0.32955 11:-0.99806 12:-0.02109 13:0.06259 14:0.06599 15:0.13741 16:-0.03129 17:-0.98182 18:-0.96316 19:-0.73091 20:-0.07191 21:-0.79794 22:-1 23:-1 24:-1 25:-1 26:-0.82 
-10 1:-0.95312 2:1 3:-0.54492 4:-0.74609 5:0.10952 6:-0.13333 7:-0.71717 8:0.21777 9:-0.28929 10:-0.515 11:-0.20958 12:-0.02222 13:-0.13056 14:0.00833 15:-0.03056 16:0.02222 17:-0.99188 18:-0.91429 19:-0.704 20:0.68034 21:-0.66172 22:-1 23:-0.6 24:-1 25:-1 26:-0.87 
-5.556655542721211 1:-0.97656 2:1 3:-1 4:-0.73633 5:-1 6:-0.25 7:-1 8:0.79512 9:-1 10:-0.43333 11:1 12:-0.30556 13:-0.25556 14:-0.25 15:-0.25556 16:-0.27222 17:-0.74 18:-1 19:-0.8 20:-1 21:0.09901 22:-0.8 23:-1 24:-1 25:-1 26:-0.71 
-10 1:-0.95703 2:0.99951 3:-0.44727 4:-0.80859 5:0.17917 6:0.08889 7:0.98772 8:-0.5306 9:0.20938 10:-0.275 11:-0.84837 12:-0.01212 13:-0.01818 14:0.15455 15:0.05758 16:0.23939 17:-0.92 18:-0.945 19:-0.89333 20:-0.0099 21:-0.63096 22:-1 23:-1 24:-1 25:-1 26:-0.85 
-10 1:-0.98828 2:0.99963 3:-0.94141 4:-0.86523 6:0.15 7:-1 8:1 9:0.5 10:0.5 11:-0.44576 12:0.32222 13:0.17778 14:0.1 15:0.31111 16:0.16667 17:-0.90889 18:-0.88 19:-0.92 20:0.9604 21:-0.35314 22:-1 23:-0.4 24:-1 25:-1 26:-0.87 
-10 1:-0.97656 2:0.99998 3:-0.7793 4:-0.79297 5:0.25556 6:0.17778 7:-0.44727 8:-0.17122 9:-0.01667 10:-0.01667 11:-0.37788 12:0.16111 13:0.26111 14:0.21667 15:0.15 16:0.13333 17:-0.95889 18:-0.96 19:-0.93333 20:0.14851 21:-0.57096 22:-1 23:-0.8 24:-1 25:-1 26:-0.87 
-3.514736625297166 1:-0.97266 2:0.99999 3:-0.86328 4:-0.79102 5:-0.22222 6:-0.10833 7:1 8:0.59049 9:0.24167 10:0.30625 11:-0.06324 12:-0.11429 13:-0.10952 14:-0.15714 15:-0.02857 16:-0.11905 17:-0.87 18:-0.97333 19:-0.93 20:0.14851 21:-0.39463 22:-0.6 23:-1 24:-1 25:-1 26:-0.89 
-10 1:-0.94531 2:1 3:-0.45508 4:-0.72461 5:0.03333 6:-0.06 7:-0.11355 8:1 9:0.15556 10:0.19 11:-0.43627 12:-0.01429 13:-0.05238 15:-0.11667 17:-0.96778 18:-0.86667 19:-0.912 20:-0.28933 21:-0.71853 22:-0.8 23:-1 24:-1 25:-1 26:-0.67 
-10 1:-0.98438 2:1 3:-0.91406 4:-0.82031 5:0.46667 6:0.02222 7:-1 8:1 9:0.5 10:0.5 11:-0.12055 12:-0.08333 13:0.13333 14:0.13333 15:0.29167 16:0.25 17:-0.96 18:-1 19:-0.93333 20:0.30693 21:-0.5297 22:-1 23:-0.8 24:-1 25:-1 26:-0.95 
-0.3280650764834564 1:-0.57031 2:0.71613 3:-0.02344 4:-0.2168 5:0.12588 6:-0.60686 7:0.83695 8:0.19748 9:0.25428 10:-0.19485 11:1 12:-0.12606 13:-0.14 14:-0.10061 15:0.12424 16:0.17242 17:-0.98873 18:-0.97526 19:-0.76118 20:-0.01511 21:-0.71071 22:-1 23:-0.8 24:-1 25:-1 26:-0.93 
-10 1:-0.98438 2:1 3:-0.94141 4:-0.79883 6:0.14444 7:-1 8:-0.98242 9:-0.275 10:0.24167 11:-0.12055 12:0.25833 13:0.275 14:0.10833 15:0.21667 16:0.26667 17:-0.9975 18:-1 19:-0.96 20:0.34653 21:0.38119 22:-0.8 23:-1 24:-1 25:-1 26:-0.87 
-10 1:-0.97656 2:0.99998 3:-0.76562 4:-0.78711 5:0.33333 6:0.21111 7:-0.35352 8:0.59049 9:0.5 10:-0.275 11:-0.37788 12:0.17222 13:0.10556 14:0.27222 15:0.21111 16:0.13889 17:-0.99639 18:-1 19:-0.85333 20:-0.24752 21:-0.57756 22:-1 23:-1 24:-1 25:-1 26:-0.93 
-10 1:-0.89062 2:0.99981 3:-0.02344 4:-0.67188 5:0.19275 6:0.12 7:0.82924 8:-0.56484 9:0.43261 10:-0.12 11:-0.99916 12:0.0881 13:0.05 14:0.17976 15:0.17024 16:0.00595 17:-0.99633 18:-0.97913 19:-0.928 20:-0.00732 21:-0.82461 22:-1 23:-1 24:-1 25:-1 26:-0.94 
-10 1:-0.93359 2:0.99232 3:-0.15625 4:-0.76758 5:0.02857 6:0.32222 7:0.17021 8:-0.94857 9:0.5 10:0.24167 11:-0.99344 12:0.11765 13:0.02745 14:0.08039 15:0.24314 16:0.32157 17:-0.9971 18:-0.97143 19:-0.92 20:-0.40453 21:-0.88352 22:-1 23:-0.8 24:-1 25:-1 26:-0.93 
-10 1:-0.95703 2:0.99988 3:-0.60547 4:-0.78711 5:-0.0381 6:-0.09167 7:0.49833 8:0.81429 9:0.41786 10:0.1125 11:-0.51666 12:0.01212 13:-0.05152 14:-0.05758 15:-0.00909 16:-0.04545 17:-0.9675 18:-0.96 19:-0.88 20:0.44272 21:-0.79298 22:-1 23:-1 24:-1 25:-1 26:-0.96 
-6.257881070999463 1:-0.97656 2:0.99999 3:-0.86328 4:-0.80273 5:0.16667 6:-0.15833 7:1 8:0.5109 9:0.1125 10:-0.08125 11:0.05469 12:0.01667 13:-0.02778 14:-0.05 15:-0.06667 16:-0.07778 17:-0.18 18:-1 19:-0.83 20:0.25743 21:-0.31683 22:-1 23:-1 24:-1 25:-1 26:-0.96 
-10 1:-0.96094 2:0.99975 3:-0.55664 4:-0.79883 5:0.08095 6:0.14444 7:0.98372 8:-0.0599 9:-0.05357 10:0.5 11:-0.77751 12:0.21667 13:0.21333 14:0.1 15:0.24667 16:0.28333 17:-0.99705 18:-0.99429 19:-0.94667 20:-0.06931 21:-0.81386 22:-0.6 23:-0.8 24:-1 25:-1 26:-0.99 
-10 1:-0.98438 2:1 3:-1 4:-0.82227 5:-1 6:-0.24167 7:-1 8:1 9:-1 10:-0.425 11:0.84665 12:-0.16 13:-0.1 14:-0.26 15:-0.2 16:-0.18667 17:-0.99 18:-1 19:-0.87 20:-1 21:-0.00495 22:-1 23:-0.4 24:-1 25:-1 26:-0.97 
-10 1:-0.98438 2:1 3:-0.92188 4:-0.76953 5:0.33333 6:0.31111 7:-1 8:-0.4349 9:0.5 10:0.5 11:-0.12055 12:0.175 13:0.28333 14:0.31667 15:0.29167 16:0.325 17:-0.99889 18:-0.96 19:-0.93333 20:0.0297 21:0.16832 22:-1 23:0.4 24:-1 25:-1 26:-0.85 
-10 1:-0.96875 2:1 3:-0.93359 4:-0.77344 5:0.13333 6:-0.44762 7:-1 8:-0.71828 9:-0.275 10:-0.05357 11:1 12:-0.35417 13:-0.34167 14:-0.375 15:-0.30417 16:-0.25833 17:-0.8875 18:-0.8 19:-0.85714 20:0.40594 21:-0.76238 22:-0.6 23:-1 24:-1 25:-0.8 26:-0.8 
-4.419490677186395 1:-0.95312 2:1 3:-0.66602 4:-0.76172 5:-0.05 6:-0.32222 7:0.37083 8:0.15215 9:0.1125 10:0.0625 11:0.22642 12:-0.12778 13:-0.20833 14:-0.18611 15:-0.15 16:-0.06389 17:0.94 18:-0.9 19:-0.84 20:0.25413 21:-0.4802 22:-1 23:-0.6 24:-0.8 25:-1 26:-0.53 
-10 1:-0.98828 2:1 3:-1 4:-0.83398 5:-1 6:-0.05556 7:-1 8:-0.98763 9:-1 10:-0.275 11:0.39994 12:0.06667 13:0.1 14:-0.05556 15:0.23333 16:0.2 17:-0.95 18:-1 19:-0.92 20:-1 21:-0.37954 22:-1 23:-0.8 24:-0.8 25:-1 26:-0.73 
-10 1:-0.96094 2:0.99988 3:-0.5918 4:-0.79297 5:-0.00476 6:0.17778 7:1 8:0.49023 9:-0.05357 10:-0.01667 11:-0.77751 12:-0.08333 13:0.05667 14:0.05 15:0.15333 16:0.04333 17:-0.9975 18:-0.96 19:-0.94667 20:-0.10608 21:-0.79208 22:-0.8 23:-0.8 24:-1 25:-1 26:-0.87 
