svm_type c_svc
kernel_type rbf
gamma 0.0384615
nr_class 2
total_sv 2001
rho -11.9053
label -1 1
probA -2.42034
probB 0.3002
nr_sv 1010 991
SV
10 1:-0.99219 2:0.99996 3:-1 4:-0.88281 5:-1 7:-1 8:-0.99902 9:-1 10:-0.275 11:-0.03593 12:-0.11667 13:-0.1 15:0.08333 16:0.15 17:-0.98 18:-1 19:-0.64 20:-1 22:-1 23:-0.8 24:-1 25:-1 26:-0.97 
10 1:-0.97656 2:0.99921 3:-0.85352 4:-0.84766 5:0.25 6:-0.35 8:-0.46549 9:0.5 10:-0.3625 11:0.05469 12:-0.35556 13:-0.17222 14:-0.15 15:-0.23333 16:-0.07222 17:-0.98 18:-0.96 19:-0.83 20:-0.66337 21:-0.58416 22:-1 23:-1 24:-1 25:-1 26:-0.79 
10 1:-0.99219 2:0.99996 3:-1 4:-0.86719 5:-1 6:0.13333 7:-1 8:-0.97559 9:-1 10:-0.425 11:-0.03593 12:-0.21667 13:-0.1 14:0.13333 15:0.01667 16:0.08333 17:-0.74 18:-1 19:-0.84 20:-1 21:-0.21782 22:-1 23:-1 24:-1 25:-1 26:-0.69 
10 1:-0.70703 2:0.9957 3:-0.02344 4:-0.38867 5:-0.02969 6:-0.05152 7:0.82409 8:-0.1354 9:0.27734 10:-0.43864 11:-1 12:0.12311 13:-0.06044 14:-0.03289 15:-0.01111 16:0.13644 17:-0.9849 18:-0.96438 19:-0.49455 20:0.1776 21:-0.807 22:-1 23:-1 24:-1 25:-1 26:-0.93 
10 1:-0.98438 2:0.99921 3:-0.85352 4:-0.85938 5:0.25 6:0.2 7:-0.68359 8:-1 9:0.5 10:-0.275 11:-0.56669 12:0.04167 13:0.25 14:0.225 15:0.13333 16:0.325 17:-0.74889 18:-1 19:-0.86 20:-0.78218 21:-0.86139 22:-1 23:-1 24:-1 25:-1 26:-0.95 
3.54530351024601 1:-0.89062 2:1 3:-0.24609 4:-0.76953 5:-0.28519 6:-0.60667 7:0.24701 8:0.59714 9:-0.01667 10:0.045 11:0.10365 12:-0.32143 13:-0.5 14:-0.4 15:-0.22619 16:-0.16548 17:-0.86444 18:-0.92444 19:-0.908 20:0.12871 21:-0.73975 22:-1 23:0.6 24:-1 25:-1 26:-0.87 
5.934062667697944 1:-0.98828 2:1 3:-1 4:-0.88281 5:-1 6:-0.33333 7:-1 8:-1 9:-1 10:-0.275 11:0.39994 12:-0.34444 13:-0.11111 14:-0.33333 15:0.03333 16:0.28889 17:-0.5 18:-1 19:-0.57333 20:-1 21:-0.24752 22:-1 23:-0.8 24:-1 25:-1 26:-0.87 
10 1:-0.99219 2:0.99996 3:-1 4:-0.88477 5:-1 6:-0.01667 7:-1 8:-0.28809 9:-1 10:0.1125 11:-0.03593 12:-0.01667 13:0.21667 14:-0.01667 15:0.03333 16:0.15 17:-0.98 18:-1 19:-0.86 20:-1 21:-0.63366 22:-1 23:-1 24:-1 25:-1 26:-0.81 
10 1:-0.98438 2:0.99921 3:-0.87695 4:-0.86523 5:0.05 6:0.15 7:-0.85938 8:0.41016 9:-0.275 10:0.5 11:-0.56669 12:0.16667 13:0.125 14:0.1 15:0.21667 16:0.10833 17:-0.98 18:-0.92 19:-0.96 20:-0.50495 21:-0.51485 22:-0.8 23:-1 24:-1 25:-1 26:-0.87 
10 1:-0.99219 2:0.99996 3:-1 4:-0.87891 5:-1 6:0.03333 7:-1 8:0.6416 9:-1 10:-0.425 11:-0.03593 12:0.08333 13:-0.06667 14:0.03333 15:-0.1 16:0.08333 17:-0.98 18:-1 19:-0.88 20:-1 21:0.0198 22:-1 23:-1 24:-1 25:-0.2 26:-0.45 
10 1:-0.94531 2:0.90668 3:-0.41797 4:-0.85547 5:-0.17222 6:0.23333 7:1 8:0.72266 9:0.19375 10:0.5 11:-0.99572 12:-0.09524 13:-0.14048 14:-0.11429 15:-0.14048 16:-0.19286 17:-0.98 18:-0.98 19:-0.9 20:-0.06766 21:-0.83027 22:-1 23:-1 24:-1 25:-1 26:-0.93 
10 1:-0.98438 2:0.99921 3:-0.84375 4:-0.87695 5:0.33333 6:0.05 7:0.19629 8:0.72266 9:0.5 10:0.5 11:-0.56669 12:0.11667 13:0.075 14:0.19167 15:0.19167 16:0.24167 17:-0.98 18:-1 19:-0.94 20:0.39604 21:-0.66337 22:-1 23:-1 24:-1 25:-1 26:-0.96 
10 1:-0.98828 2:1 3:-1 4:-0.83008 5:-1 6:-0.03333 7:-1 8:-0.69531 9:-1 10:-0.375 11:0.39994 12:-0.06667 13:-0.27778 14:-0.03333 15:0.07778 16:-0.05556 17:-0.98889 18:-1 19:-0.76 20:-1 21:0.54455 22:-1 23:-1 24:-1 25:-1 26:-0.67 
10 1:-0.98828 2:0.99963 3:-0.9375 4:-0.85547 5:0.06667 6:0.23333 7:-1 8:-0.4834 9:-0.575 10:0.5 11:-0.44576 12:0.08889 13:0.07778 14:0.17778 15:0.16667 16:0.15556 17:-0.9 18:-0.92 19:-0.9 20:-0.84158 21:-0.61056 22:-0.8 23:-1 24:-1 25:-1 26:-0.97 
10 1:-0.98047 2:0.99843 3:-0.77148 4:-0.87695 5:0.3 6:0.05 7:-0.35352 8:1 9:0.05 10:0.1125 11:-0.66696 12:0.12 13:0.04667 14:0.2 15:0.18 16:0.11333 17:-0.95 18:-0.96 19:-0.96 20:-0.38614 21:-0.51683 22:-1 23:-0.8 24:-1 25:-1 26:-0.66 
3.157302111129263 1:-0.97656 2:0.99843 3:-0.76758 4:-0.87891 5:0.32222 6:-0.31111 7:1 8:1 9:0.24167 10:0.24167 11:-0.37788 12:-0.1 13:0.03889 14:0.00556 15:0.04444 16:0.07778 17:-0.95889 18:-1 19:-0.86667 20:-0.35974 21:-0.74917 22:-0.8 23:-0.6 24:-1 25:-1 26:-0.85 
10 1:-0.94922 2:0.90668 3:-0.31055 4:-0.86133 5:0.0697 6:0.18333 7:0.19308 8:1 9:0.21818 10:0.5 11:-0.99237 12:0.0641 13:0.10256 14:0.08718 15:0.02564 16:0.08205 17:-0.99729 18:-0.98182 19:-0.96 20:-0.24032 21:-0.8751 22:-1 23:-1 24:-1 25:-1 26:-0.97 
10 1:-0.98828 2:0.99963 3:-0.9668 4:-0.85742 5:-0.43333 6:0.21667 7:-1 8:-0.17871 9:0.5 10:0.5 11:-0.44576 12:0.07778 13:-0.02222 15:0.15556 16:0.27778 17:-0.9 18:-1 19:-0.94 20:0.50495 21:-0.29373 22:-1 23:-1 24:-1 25:-1 26:-0.94 
9.363845337869998 1:-0.9375 2:0.98477 3:-0.19531 4:-0.82422 5:0.05641 7:0.26818 8:-0.98177 9:0.08269 10:0.5 11:-0.98834 12:0.07083 13:0.13333 14:0.04583 15:0.13333 16:0.03333 17:-0.995 18:-0.97846 19:-0.93333 20:-0.16527 21:-0.63861 22:-1 23:-1 24:-0.2 25:-1 26:-0.69 
10 1:-0.98438 2:0.99921 3:-0.86914 4:-0.85156 5:0.11667 6:0.26667 7:1 8:0.19629 9:0.5 10:0.5 11:-0.56669 12:0.13333 13:0.14167 14:0.19167 15:0.14167 16:0.15 17:-0.98889 18:-1 19:-0.94 20:0.41584 21:-0.37129 22:-1 23:-1 24:-0.8 25:-1 26:-0.85 
10 1:-0.98828 2:0.99996 3:-0.99609 4:-0.84961 5:-0.93333 6:0.28333 7:-1 8:-0.56934 9:-0.275 10:0.5 11:-0.44576 12:-0.21111 13:-0.08889 14:-0.12222 15:-0.54444 16:-0.47778 17:-0.9 18:-0.88 19:-0.96 20:-0.46535 21:0.12871 22:-1 23:-1 24:-1 25:-1 26:-0.96 
10 1:-0.98828 2:0.99963 3:-0.93555 4:-0.85352 5:0.1 6:0.25 7:-1 8:-0.9209 9:0.5 10:0.5 11:-0.44576 12:0.44444 13:0.23333 14:0.2 15:0.31111 16:0.38889 17:-0.99 18:-1 19:-0.92 20:0.68317 21:-0.47855 22:-0.6 23:-1 24:-1 25:-1 26:-0.78 
10 1:-0.98047 2:0.99921 3:-0.84375 4:-0.86523 5:-0.11111 6:0.15 7:1 8:-0.33984 9:0.24167 10:0.5 11:-0.66696 12:-0.04667 13:0.00667 14:-0.00667 15:-0.09333 16:-0.03333 17:-0.5 18:-0.94667 19:-0.94 20:-0.24752 21:-0.54059 22:-1 23:-0.8 24:-1 25:-1 26:-0.82 
10 1:-0.72266 2:1 3:-0.02344 4:-0.51562 5:-0.06222 6:-0.68205 7:1 8:0.19702 9:0.21778 10:0.01827 11:1 12:-0.00188 13:0.0385 14:-0.2892 15:-0.1108 16:-0.1277 17:-0.94951 18:-0.94044 19:-0.85692 20:-0.17272 21:-0.65249 22:-0.6 23:-0.8 24:-1 25:-1 26:-0.83 
10 1:-0.98828 2:0.99963 3:-0.95312 4:-0.85547 5:-0.2 6:0.23333 7:-1 8:-0.71777 9:-0.275 10:0.5 11:-0.44576 12:-0.02222 13:0.11111 14:0.08889 15:0.18889 16:0.17778 17:-0.99 18:-1 19:-0.94 20:0.10891 21:0.08911 22:-1 23:-0.8 24:-1 25:-1 26:-0.93 
10 1:-0.69531 2:0.94676 3:-0.02344 4:-0.39453 5:-0.14718 6:-0.20513 7:0.05095 8:0.9357 9:-0.19577 10:-0.32115 11:-1 12:-0.02068 13:-0.19451 14:-0.15907 15:-0.027 16:-0.01139 17:-0.95878 18:-0.91877 19:-0.59692 20:0.19391 21:-0.83143 22:-1 23:-0.8 24:-1 25:-1 26:-0.91 
10 1:-0.98438 2:0.99963 3:-0.97461 4:-0.87695 5:-0.78333 6:0.05 7:0.33691 8:1 9:0.1125 10:0.5 11:-0.56669 12:-0.20833 13:-0.25 14:-0.36667 15:-0.28333 16:-0.21667 17:-0.74 18:-0.84 19:-0.96 20:0.19802 21:-0.5099 22:-1 23:-1 24:-1 25:-1 26:-0.98 
10 1:-0.97656 2:0.99998 3:-0.81055 4:-0.80273 5:0.07778 6:0.12222 7:0.43815 8:1 9:0.5 10:0.5 11:-0.37788 12:0.14444 13:0.11667 14:0.1 15:0.04444 16:0.08333 17:-0.92 18:-0.94667 19:-0.93333 20:-0.37954 21:-0.44884 22:-1 23:-1 24:-1 25:-1 26:-0.73 
10 1:-0.99219 2:0.99996 3:-1 4:-0.86523 5:-1 6:0.15 7:-1 8:1 9:-1 10:0.5 11:-0.03593 12:-0.01667 13:-0.08333 14:0.15 15:0.06667 16:0.13333 17:-0.98 18:-1 19:-0.94 20:-1 21:-0.0495 22:-1 23:-0.8 24:-1 25:-1 26:-0.93 
10 1:-0.98047 2:0.99921 3:-0.87109 4:-0.86914 5:0.1 6:-0.25556 7:1 8:0.23242 9:0.4375 10:0.5 11:-0.26373 12:-0.34 13:-0.29333 14:-0.11333 15:-0.22 16:-0.15333 17:-0.95 18:-1 19:-0.93333 20:-0.24752 21:-0.12079 22:-1 23:-1 24:-1 25:-1 26:-0.99 
10 1:-0.98047 2:0.99843 3:-0.76562 4:-0.86133 5:0.33333 6:0.18333 7:-0.65365 8:-0.4834 9:-0.01667 10:0.5 11:-0.66696 12:0.16 13:0.34 14:0.27333 15:0.36667 16:0.36 17:-0.9875 18:-1 19:-0.94 20:-0.80858 21:-0.4495 22:-0.8 23:-0.6 24:-1 25:-1 26:-0.85 
10 1:-0.96875 2:1 3:-0.80859 4:-0.76562 5:-0.18333 7:1 8:0.84115 9:-0.48125 10:-0.60625 11:-0.17935 12:-0.325 13:-0.225 14:-0.09167 15:-0.0875 16:0.05 17:-0.98 18:-0.89 19:-0.77 20:0.06436 21:-0.68317 22:-1 23:-1 24:-1 25:-1 26:-0.95 
10 1:-0.98047 2:0.99843 3:-0.76562 4:-0.85547 5:0.33333 6:0.23333 7:-0.69336 8:1 9:-0.01667 10:0.5 11:-0.66696 12:0.26667 13:0.24 14:0.29333 15:0.14 16:0.23333 17:-0.95 18:-0.94667 19:-0.94 20:-0.50495 21:-0.76238 22:-1 23:-1 24:-1 25:-1 26:-0.92 
10 1:-0.98438 2:0.99921 3:-0.86133 4:-0.85938 5:0.18333 6:0.2 7:-0.90234 8:-0.90234 9:0.1125 10:0.5 11:-0.56669 12:0.275 13:0.2 14:0.19167 15:0.18333 16:0.29167 17:-0.98889 18:-1 19:-0.94 20:-0.84158 21:-0.19802 22:-0.2 23:-1 24:-1 25:-1 26:-0.87 
10 1:-0.98047 2:0.99963 3:-0.94336 4:-0.88086 5:-0.51667 6:-0.32222 7:1 8:0.14518 9:-0.275 10:0.24167 11:-0.26373 12:-0.14667 13:-0.15333 14:-0.4 15:-0.35333 16:-0.32667 17:-0.98889 18:-0.88 19:-0.94667 20:-0.0297 21:-0.31485 22:-1 23:-1 24:-1 25:-1 26:-0.77 
10 1:-0.98047 2:0.99999 3:-0.85938 4:-0.87109 5:0.2 6:-0.26667 7:0.12891 8:1 9:-0.275 10:-0.10833 11:-0.26373 12:0.09333 13:0.04667 14:-0.08 15:0.12 16:0.02 17:-0.5 18:-0.88 19:-0.88 20:0.52475 21:-0.49307 22:-1 23:-1 24:-0.8 25:-0.2 26:-0.48 
10 1:-0.94141 2:0.6753 3:-0.13477 4:-0.86328 5:0.1359 6:0.16667 7:0.56328 8:-1 9:0.29231 10:0.1125 11:-0.99761 12:0.20444 13:0.14444 14:0.14 15:0.09556 16:0.03778 17:-0.74889 18:-0.97846 19:-0.92 20:-0.06321 21:-0.79934 22:-1 23:-1 24:-1 25:-1 26:-0.97 
10 1:-0.98828 2:0.99963 3:-0.92773 4:-0.85352 5:0.23333 6:0.25 7:-1 8:0.41016 9:-0.275 10:0.5 11:-0.44576 12:-0.01111 13:0.11111 14:0.24444 15:0.23333 16:-0.12222 17:-0.99 18:-0.96 19:-0.94 20:-0.38614 21:-0.11551 22:-1 23:-0.6 24:-1 25:-1 26:-0.93 
10 1:-0.96484 2:0.98766 3:-0.52344 4:-0.8457 5:0.35556 6:-0.12222 7:0.9888 8:0.00195 9:0.5 10:0.04167 11:-0.69155 12:0.06667 13:0.16296 14:0.1963 15:0.17407 16:0.06667 17:-0.99849 18:-0.96667 19:-0.8 20:-0.11551 21:-0.81518 22:-0.8 23:-1 24:-1 25:-1 26:-0.95 
10 1:-0.98047 2:0.99963 3:-0.91797 4:-0.85547 5:-0.3 6:-0.17778 7:0.33691 8:1 9:0.1125 10:0.5 11:-0.26373 12:-0.02 13:-0.04 14:-0.22667 15:-0.18667 16:-0.23333 17:-0.95 18:-1 19:-0.94667 20:-0.37624 21:-0.48911 22:-0.8 23:-0.8 24:-1 25:-1 26:-0.82 
10 1:-0.99219 2:0.99996 3:-1 4:-0.88867 5:-1 6:-0.05 7:-1 8:-0.88184 9:-1 10:-0.325 11:-0.03593 13:0.03333 14:-0.05 15:0.06667 16:-0.03333 17:-0.98889 18:-1 19:-0.92 20:-1 21:-0.65347 22:-1 23:-1 24:-1 25:-1 26:-0.84 
10 1:-0.99219 2:0.99996 3:-1 4:-0.86719 5:-1 6:0.13333 7:-1 8:-0.64746 9:-1 10:-0.45 11:-0.03593 12:0.13333 13:-0.01667 14:0.13333 15:-0.2 17:-0.98 18:-1 19:-0.74 20:-1 21:-0.65347 22:-1 23:-1 24:-0.8 25:-1 26:-0.81 
10 1:-0.99219 2:0.99996 3:-1 4:-0.87305 5:-1 6:0.08333 7:-1 8:-0.12109 9:-1 10:-0.4125 11:-0.03593 12:0.18333 13:0.08333 14:0.08333 15:0.05 16:0.2 17:-0.98 18:-1 19:-0.96 20:-1 21:0.28713 22:-1 23:-1 24:-1 25:-1 26:-0.73 
10 1:-0.96875 2:0.99378 3:-0.63867 4:-0.86719 5:0.02778 6:0.13333 7:0.8138 8:1 9:0.275 10:-0.0375 11:-0.8898 12:0.0375 13:0.00833 14:0.05417 15:-0.05833 16:0.0625 17:-0.74889 18:-0.89333 19:-0.92 20:0.0231 21:-0.70792 22:-1 23:-1 24:-1 25:-1 26:-0.73 
10 1:-0.98438 2:1 3:-0.95117 4:-0.81445 5:-0.16667 6:0.05556 7:-1 8:-0.9974 9:-0.575 10:-0.425 11:-0.12055 12:0.1 13:-0.05833 15:0.00833 16:-0.2 17:-0.99889 18:-0.88 19:-0.93333 20:0.48515 21:0.4604 22:-0.8 23:-1 24:-1 25:-1 26:-0.93 
10 1:-0.85938 2:1 3:-0.06641 4:-0.71289 5:-0.36267 6:-0.55455 7:0.71121 8:0.42511 9:0.085 10:-0.09091 11:-0.38854 12:0.04815 13:-0.03889 14:-0.4213 15:-0.21481 16:-0.15926 17:-0.9516 18:-0.8784 19:-0.82909 20:-0.25069 21:-0.74972 22:-0.8 23:-0.8 24:-1 25:-1 26:-0.9 
10 1:-0.98438 2:0.99963 3:-0.92188 4:-0.87305 5:-0.33333 6:0.08333 7:0.5625 8:0.89062 9:0.5 10:0.5 11:-0.56669 12:-0.2 13:-0.15833 14:-0.125 15:-0.175 16:-0.1 17:-0.74 18:-0.96 19:-0.92 20:0.36634 21:-0.51485 22:-1 23:-1 24:-1 25:-1 26:-0.87 
10 1:-0.98047 2:0.99843 3:-0.75195 4:-0.86328 5:0.41111 6:0.16667 7:-0.38216 9:0.5 10:0.5 11:-0.66696 12:0.21333 13:0.21333 14:0.31333 15:0.22 16:0.32667 17:-0.95 18:-1 19:-0.96 20:0.29373 21:-0.69109 22:-1 23:-1 24:-1 25:-1 26:-0.97 
10 1:-0.98828 2:0.99996 3:-0.99609 4:-0.87109 5:-0.93333 6:0.1 7:-1 8:-0.95215 9:-0.275 10:-0.0375 11:-0.44576 12:-0.24444 13:-0.05556 14:-0.24444 15:-0.33333 16:-0.21111 17:-0.90889 18:-0.72 19:-0.92 20:-0.44554 21:-0.94059 22:-1 23:-1 24:-1 25:-1 26:-0.49 
10 1:-0.98438 2:0.99921 3:-0.87695 4:-0.85352 5:0.05 6:0.25 7:-0.4375 8:-1 9:0.5 10:-0.275 11:-0.56669 12:-0.11667 13:-0.10833 14:0.15 15:0.2 16:0.08333 17:-0.5 18:-0.92 19:-0.82 20:0.16832 21:-0.66337 22:-1 23:-0.8 24:-1 25:-1 26:-0.78 
8.779038505890149 1:-0.92188 2:1 3:-0.49219 4:-0.73047 5:-0.13333 6:-0.54 7:0.83194 8:1 9:-0.0425 10:-0.2275 11:1 12:0.03 13:0.01333 14:-0.33667 15:-0.08667 16:-0.01167 17:-0.99705 18:-0.956 19:-0.868 20:-0.46139 21:-0.51782 22:-0.6 23:-0.4 24:-1 25:-1 26:-0.61 
10 1:-0.98828 2:0.99963 3:-0.93164 4:-0.86523 5:0.16667 6:0.15 7:-1 8:-0.68359 9:0.5 10:0.5 11:-0.44576 12:0.27778 13:0.21111 14:0.15556 15:0.07778 17:-0.99 18:-1 19:-0.92 20:0.9604 21:0.13531 22:-1 23:-1 24:-1 25:-0.8 26:-0.98 
10 1:-0.96875 2:1 3:-0.76562 4:-0.76367 6:0.00833 7:-0.4681 8:1 9:-0.21875 10:-0.48125 11:-0.17935 12:0.00417 13:-0.00833 14:0.00417 15:-0.0375 16:-0.07083 17:-0.99 18:-0.89 19:-0.9 20:0.47525 21:-0.32673 22:-1 23:-1 24:-1 25:-1 26:-0.81 
10 1:-0.94531 2:1 3:-0.65625 4:-0.83203 5:-0.26667 6:-0.52222 7:-0.50255 8:-0.65358 9:0.20938 10:0.40417 11:-0.00773 12:-0.00714 13:0.04048 14:-0.37619 15:-0.19048 16:-0.27857 17:-0.99868 18:-0.99 19:-0.94667 20:-0.66584 21:-0.48373 22:-0.8 23:-1 24:-1 25:-1 26:-0.79 
10 1:-0.98047 2:0.99921 3:-0.84375 4:-0.86523 5:-0.11111 6:0.15 7:0.30664 8:-0.4834 9:0.24167 10:0.5 11:-0.66696 12:-0.03333 14:-0.00667 15:-0.01333 16:-0.14 17:-0.98889 18:-1 19:-0.94 20:0.40594 21:-0.90099 22:-0.8 23:-1 24:-1 25:-1 26:-0.93 
10 1:-0.98047 2:0.99843 3:-0.82031 4:-0.875 5:0.02222 6:0.06667 7:-0.25977 8:-0.4375 9:-0.01667 10:0.5 11:-0.66696 12:0.21333 13:0.13333 14:0.04 15:0.10667 16:0.28 17:-0.9875 18:-1 19:-0.96 20:-0.66337 21:-0.60396 22:-1 23:-1 24:-1 25:-1 26:-0.73 
10 1:-0.98047 2:0.99921 3:-0.86328 4:-0.87695 5:-0.22222 6:0.05 7:-0.08398 8:1 9:0.5 10:0.5 11:-0.66696 12:-0.16 13:-0.11333 14:-0.11333 15:-0.07333 16:-0.04667 17:-0.5 18:-0.92 19:-0.94 20:-0.54455 21:-0.67525 22:-0.8 23:-1 24:-1 25:-0.8 26:-0.81 
10 1:-0.83594 2:0.99851 3:-0.02344 4:-0.73047 5:-0.18046 6:-0.64615 7:0.2121 8:0.08774 9:0.01897 10:0.02308 11:-0.22052 12:-0.29365 13:-0.23254 14:-0.3246 15:-0.07698 16:-0.05635 17:-0.96307 18:-0.92276 19:-0.88615 20:0.20587 21:-0.75106 22:-1 23:-0.4 24:-1 25:-1 26:-0.81 
10 1:-0.98047 2:0.99963 3:-0.91797 4:-0.86719 5:-0.53333 6:0.13333 7:-0.21029 8:-0.06152 9:0.24167 10:0.5 11:-0.66696 12:-0.37333 13:-0.20667 14:-0.26667 15:-0.29333 16:-0.32 17:-0.95 18:-0.86667 19:-0.92 20:-0.45215 21:-0.60792 22:-1 23:-1 24:-1 25:-1 26:-0.91 
10 1:-0.97656 2:0.99921 3:-0.8457 4:-0.87305 5:0.31667 6:-0.45833 7:-0.06152 8:1 9:0.2125 10:0.5 11:0.05469 12:-0.16667 13:-0.21667 14:-0.2 15:-0.08889 16:-0.12778 17:-0.98 18:-0.98 19:-0.92 20:0.21782 21:-0.38944 22:-1 23:-1 24:-1 25:-1 26:-0.69 
10 1:-0.98828 2:1 3:-1 4:-0.81641 5:-1 6:0.04444 7:-1 8:-0.69076 9:-1 10:-0.51667 11:0.39994 12:-0.04444 13:-0.1 14:0.04444 16:-0.07778 17:-0.95 18:-1 19:-0.82667 20:-1 21:0.65017 22:-1 23:-1 24:-1 25:-1 26:-0.93 
10 1:-0.98438 2:1 3:-1 4:-0.89062 5:-1 6:-0.53333 7:-1 8:1 9:-1 10:-0.15625 11:0.84665 12:-0.20833 13:-0.26667 14:-0.53333 15:0.10833 16:0.09167 17:-0.99 18:-1 19:-0.75 20:-1 21:0.07426 22:-0.8 23:-0.8 24:-1 25:-1 26:-0.91 
10 1:-0.98828 2:0.99996 3:-1 4:-0.87109 5:-1 6:-0.26667 7:-1 8:0.90299 9:-1 10:-0.275 11:0.39994 12:-0.25556 13:-0.28889 14:-0.26667 15:-0.05556 17:-0.95 18:-1 19:-0.49333 20:-1 21:-0.0363 22:-1 23:-1 24:-1 25:-1 26:-0.8 
10 1:-0.98047 2:0.99843 3:-0.80469 4:-0.86133 5:0.11111 6:0.18333 7:1 8:1 9:0.24167 10:-0.275 11:-0.66696 12:0.18 13:0.16667 14:0.14 15:0.05333 16:0.16667 17:-0.98889 18:-0.93333 19:-0.94 20:-0.22772 21:-0.53267 22:-0.2 23:-0.4 24:-1 25:-1 26:-0.67 
6.566149082262018 1:-0.88281 2:1 3:-0.3457 4:-0.71484 5:-0.34314 6:-0.62564 7:0.89515 8:0.78365 9:-0.05294 10:-0.225 11:1 12:-0.05444 13:-0.07889 14:-0.46556 15:-0.48667 16:-0.22222 17:-0.93991 18:-0.88 19:-0.86769 20:-0.07397 21:-0.48779 22:-0.8 23:-1 24:-1 25:-1 26:-0.96 
10 1:-0.92188 2:1 3:-0.49609 4:-0.67188 5:-0.28333 6:-0.3 7:-0.76497 8:-0.04185 9:0.06875 10:-0.12187 11:0.165 12:0.04127 13:0.00476 14:-0.29206 15:-0.0746 16:-0.05079 17:-0.99682 18:-0.91 19:-0.61 20:-0.68647 21:-0.76238 22:0.8 23:-0.2 24:-1 25:-1 26:0 
10 1:-0.95312 2:0.90668 3:-0.37891 4:-0.86133 5:0.06 6:0.18333 7:0.34395 8:1 9:0.37 10:0.5 11:-0.98646 12:0.10556 13:0.11944 14:0.08056 15:0.06389 16:0.05833 17:-0.66 18:-0.96 19:-0.92 20:0.18614 21:-0.84323 22:-1 23:-1 24:-1 25:-1 26:-0.89 
10 1:-0.98828 2:0.99963 3:-0.91992 4:-0.85547 5:0.36667 6:0.23333 7:-1 8:0.33691 9:0.5 10:0.5 11:-0.44576 12:0.18889 13:0.26667 14:0.27778 15:0.1 16:0.25556 17:-0.9 18:-0.96 19:-0.96 20:0.66337 21:-0.46535 22:-1 23:-0.6 24:-1 25:-1 26:-0.95 
10 1:-0.98828 2:0.99996 3:-0.99609 4:-0.85742 5:-0.93333 6:0.21667 7:-1 8:0.33691 9:0.5 10:0.5 11:-0.44576 12:-0.17778 13:-0.11111 14:-0.16667 15:-0.28889 16:0.25556 17:-0.9 18:-0.96 19:-0.92 20:-0.72277 21:-0.65017 22:-1 23:-1 24:-1 25:-1 26:-0.87 
1.595976385155238 1:-0.89844 2:0.99962 3:-0.02344 4:-0.69141 5:0.21905 6:0.05333 7:0.34895 8:-0.74062 9:0.31548 10:-0.395 11:-0.99729 12:0.16795 13:0.05128 14:0.18718 15:0.17692 16:0.09872 17:-0.79543 18:-0.94857 19:-0.648 20:-0.05988 21:-0.83092 22:-1 23:-0.8 24:-1 25:-1 26:-0.84 
10 1:-0.98438 2:1 3:-1 4:-0.77344 5:-1 6:-0.03333 7:-1 8:-0.35612 9:-1 10:-0.55 11:0.84665 12:0.05 13:-0.1 14:-0.03333 15:-0.1 16:-0.06667 17:-0.9 18:-1 19:-0.9 20:-1 21:0.43564 22:-1 23:-1 24:-1 25:-0.8 26:-0.96 
10 1:-0.9375 2:0.99992 3:-0.17578 4:-0.69531 5:0.17222 6:0.3 7:0.06641 8:0.02523 9:-0.16875 10:-0.175 11:-0.91361 12:-0.02083 13:-0.03542 14:0.20417 15:0.06667 16:0.19375 17:-0.9975 18:-0.91 19:-0.93 20:-0.24752 21:-0.77599 22:-0.8 23:-1 24:-1 25:-1 26:-0.97 
10 1:-0.96875 2:0.98766 3:-0.58594 4:-0.86328 5:0.17778 6:0.16667 7:0.67005 8:-0.17871 9:0.0125 10:0.1125 11:-0.8898 12:0.15417 13:0.29583 14:0.175 15:0.16667 16:0.1375 17:-0.94444 18:-0.96 19:-0.96 20:0.0231 21:-0.90842 22:-1 23:-1 24:-1 25:-1 26:-0.93 
10 1:-0.96484 2:1 3:-0.85352 4:-0.67188 5:-0.16667 6:-0.06667 7:0.5319 8:-0.17604 9:-0.575 10:-0.6 11:0.57882 12:-0.2 13:-0.04074 14:-0.1 15:-0.10741 16:-0.03333 17:-0.95889 18:-0.93333 19:-0.91333 20:-0.43234 21:-0.77118 22:-1 23:-0.6 24:-1 25:-1 26:-0.89 
10 1:-0.78516 2:0.991 3:-0.02344 4:-0.50195 5:-0.09007 6:0.0625 7:0.51473 8:0.27051 9:0.12447 10:-0.34375 11:-1 12:0.03818 13:0.05515 14:-0.06788 15:0.04667 16:0.02303 17:-0.98604 18:-0.9217 19:-0.765 20:-0.02928 21:-0.88551 22:-0.8 23:-0.8 24:-1 25:-1 26:-0.9 
10 1:-0.98828 2:0.99996 3:-1 4:-0.87305 5:-1 6:-0.27778 7:-1 8:1 9:-1 10:0.075 11:0.39994 12:-0.18889 13:-0.31111 14:-0.27778 15:-0.31111 16:-0.27778 17:-0.98889 18:-1 19:-0.93333 20:-1 21:0.17492 22:-0.6 23:-0.8 24:-1 25:-1 26:-0.57 
10 1:-0.98828 2:0.99963 3:-0.91992 4:-0.8457 5:0.36667 6:0.31667 7:-1 8:0.33691 9:0.5 10:0.5 11:-0.44576 12:0.32222 13:0.16667 14:0.33333 15:0.24444 16:0.12222 17:-0.9 18:-0.92 19:-0.94 20:0.0099 21:-0.62376 22:-1 23:-1 24:-1 25:-1 26:-0.73 
10 1:-0.98828 2:0.99963 3:-0.92188 4:-0.86328 5:0.33333 6:0.16667 7:-1 8:-0.56934 9:0.5 10:0.5 11:-0.44576 12:0.24444 13:0.17778 14:0.22222 15:0.06667 16:0.31111 17:-0.9 18:-0.92 19:-0.92 20:-0.70297 21:-0.38614 22:-1 23:-1 24:-0.8 25:-0.8 26:-0.96 
10 1:-0.98438 2:0.99921 3:-0.83398 4:-0.87305 5:0.41667 6:0.08333 7:-0.4375 8:-0.4375 9:0.5 10:0.5 11:-0.56669 12:0.13333 13:0.125 14:0.25 15:0.175 16:0.19167 17:-0.98 18:-0.96 19:-0.96 20:-0.44554 21:-0.57426 22:-1 23:-1 24:-1 25:-0.8 26:-0.87 
10 1:-0.98438 2:0.99921 3:-0.86523 4:-0.87695 5:0.15 6:0.05 7:0.06348 8:1 9:0.1125 10:0.5 11:-0.56669 12:0.20833 13:0.075 14:0.1 15:0.225 16:0.14167 17:-0.98889 18:-1 19:-0.96 20:0.21782 21:-0.5396 22:-1 23:-1 24:-1 25:-0.8 26:-0.9 
10 1:-0.95703 2:1 3:-1 4:-0.34766 5:-1 6:0.01212 7:-1 8:-0.13711 9:-1 10:-0.57727 11:1 12:-0.20606 13:-0.08788 14:0.01212 15:0.06667 16:-0.01818 17:-0.9416 18:-1 19:-0.82182 20:-1 21:0.30693 22:-1 23:-0.8 24:-1 25:-1 26:-0.87 
10 1:-0.98438 2:0.99921 3:-0.88281 4:-0.87305 6:0.08333 7:1 8:-0.68359 9:-0.0375 10:0.5 11:-0.56669 12:0.15833 13:0.18333 14:0.04167 15:-0.09167 16:-0.04167 17:-0.98889 18:-0.92 19:-0.94 21:-0.68317 22:-0.8 23:-1 24:-1 25:-1 26:-0.53 
10 1:-0.98828 2:0.99996 3:-0.99609 4:-0.85938 5:-0.93333 6:0.2 7:-1 8:-0.98438 9:0.5 10:0.5 11:-0.44576 12:-0.13333 13:-0.07778 14:-0.17778 15:-0.12222 16:-0.13333 17:-0.9 18:-0.92 19:-0.96 20:-0.92079 21:-0.26073 22:-1 23:-0.6 24:-1 25:-1 26:-0.96 
10 1:-0.97266 2:0.99378 3:-0.62109 4:-0.85547 5:0.29333 6:0.23333 7:1 8:0.72266 9:0.19 10:0.1125 11:-0.83142 12:0.22857 13:0.10476 14:0.27619 15:0.06667 16:0.2 17:-0.96222 18:-0.96 19:-0.8 20:-0.19604 21:-0.62659 22:-1 23:-1 24:-1 25:-0.8 26:-0.65 
10 1:-0.98828 2:0.99963 3:-0.91797 4:-0.84766 5:0.4 6:0.3 7:-1 8:-0.52734 9:0.5 10:0.5 11:-0.44576 12:0.17778 13:0.21111 14:0.33333 15:0.27778 16:0.37778 17:-0.99 18:-1 19:-0.92 20:0.52475 21:-0.27393 22:-1 23:-1 24:-1 25:-1 26:-0.81 
10 1:-0.98828 2:0.99996 3:-0.99609 4:-0.87109 5:-0.93333 6:0.1 7:-1 8:-0.06152 9:0.5 10:0.5 11:-0.44576 12:-0.14444 13:-0.16667 14:-0.24444 15:-0.24444 16:-0.11111 17:-0.9 18:-1 19:-0.96 20:0.70297 21:-0.17492 22:-0.8 23:-1 24:-1 25:-1 26:-0.93 
10 1:-0.98438 2:0.99921 3:-0.86523 4:-0.86328 5:0.15 6:0.16667 7:1 8:1 9:0.5 10:0.5 11:-0.56669 12:0.09167 13:0.08333 14:0.15833 15:0.09167 16:-0.04167 17:-0.98 18:-0.98 19:-0.94 20:-0.11881 21:-0.4901 22:-1 23:-1 24:-1 25:-0.8 26:-0.95 
10 1:-0.98828 2:0.99996 3:-0.99609 4:-0.85742 5:-0.93333 6:0.21667 7:-1 8:-0.98438 9:0.5 10:0.5 11:-0.44576 12:-0.2 13:-0.14444 14:-0.16667 15:-0.11111 16:-0.11111 17:-0.9 18:-0.92 19:-0.9 20:0.68317 21:-0.51155 22:-0.8 23:-0.6 24:-1 25:-1 26:-0.75 
10 1:-0.98438 2:0.99963 3:-0.91406 4:-0.85352 5:-0.26667 6:0.25 7:0.48535 8:1 9:0.5 10:0.5 11:-0.56669 12:0.05 13:-0.01667 14:-0.00833 15:-0.075 16:-0.04167 17:-0.98 18:-0.98 19:-0.92 20:0.23762 21:-0.32673 22:-0.8 23:-0.8 24:-1 25:-1 26:-0.69 
10 1:-0.72266 2:1 3:-0.02344 4:-0.52734 5:-0.26593 6:-0.68974 7:0.50494 8:0.50114 9:0.13833 10:0.10962 11:1 12:0.14601 13:0.10235 14:-0.42113 15:-0.31221 16:-0.30563 17:-0.99871 18:-0.96267 19:-0.84462 20:-0.08647 21:-0.66727 22:-0.4 23:-1 24:-1 25:-1 26:-0.85 
10 1:-0.98828 2:0.99963 3:-0.91992 4:-0.85938 5:0.36667 6:0.2 7:-1 8:-0.98438 9:0.5 10:0.5 11:-0.44576 12:0.16667 13:0.23333 14:0.25556 15:0.26667 16:0.14444 17:-0.99 18:-1 19:-0.92 20:0.72277 21:-0.35314 22:-1 23:-1 24:-1 25:-1 26:-0.95 
10 1:-0.98438 2:0.99963 3:-0.92773 4:-0.87891 5:-0.38333 6:0.03333 7:1 8:-0.97559 9:0.5 10:0.5 11:-0.56669 12:-0.01667 13:-0.09167 14:-0.175 15:-0.125 16:-0.025 17:-0.74 18:-0.98 19:-0.92 20:0.30693 21:-0.69802 22:-0.6 23:-1 24:-1 25:-0.8 26:-0.95 
10 1:-0.98047 2:0.99921 3:-0.91016 4:-0.85742 5:-0.48889 6:0.21667 7:1 8:-0.80859 9:0.5 10:0.5 11:-0.66696 12:-0.28 13:-0.03333 14:-0.20667 15:-0.06 16:-0.08667 17:-0.95 18:-0.96 19:-0.96 20:-0.14191 21:-0.82574 22:-1 23:-0.6 24:-1 25:-1 26:-0.93 
10 1:-0.98438 2:0.99921 3:-0.87305 4:-0.87109 5:0.08333 6:0.1 7:-0.68359 8:0.48535 9:-0.0375 10:0.5 11:-0.56669 12:0.13333 13:0.15 14:0.09167 15:-0.11667 16:-0.025 17:-0.74 18:-0.86 19:-0.92 20:0.52475 21:-0.40099 22:-1 23:-0.4 24:-0.8 25:-1 26:-0.75 
10 1:-0.98828 2:1 3:-1 4:-0.83398 5:-1 6:-0.05556 7:-1 8:-0.56185 9:-1 10:-0.575 11:0.39994 12:-0.03333 13:-0.11111 14:-0.05556 15:-0.12222 16:-0.04444 17:-0.95 18:-1 19:-0.93333 20:-1 21:0.0033 22:-0.8 23:-1 24:-1 25:-0.8 26:-0.69 
10 1:-0.75391 2:1 3:-0.02344 4:-0.3418 5:-0.04375 6:-0.25111 7:0.75878 8:0.43331 9:-0.35469 10:-0.64333 11:-0.99662 12:-0.12646 13:-0.04444 14:-0.09312 15:-0.1619 16:-0.06667 17:-0.98679 18:-0.88333 19:-0.824 20:0.01361 21:-0.75955 22:-0.8 23:-1 24:-1 25:-1 26:-0.95 
10 1:-0.95703 2:1 3:-0.68359 4:-0.70508 5:-0.1 6:0.00667 7:-0.17988 8:1 9:-0.49167 10:-0.515 11:-0.09374 12:-0.05152 13:-0.13636 14:-0.05152 15:-0.05758 16:-0.02727 17:-0.96712 18:-0.93333 19:-0.824 20:0.53465 21:-0.45635 22:-1 23:-1 24:-0.8 25:-1 26:-0.93 
10 1:-0.98047 2:1 3:-1 4:-0.77344 5:-1 6:-0.22667 7:-1 8:0.92734 9:-1 10:-0.59 11:1 12:-0.22 13:-0.32667 14:-0.22667 15:-0.31333 16:-0.24 17:-0.96222 18:-1 19:-0.72 20:-1 21:-0.1604 22:-1 23:-1 24:-1 25:-1 26:-0.97 
9.419229262989649 1:-0.98828 2:0.99963 3:-0.91602 4:-0.85742 5:0.43333 6:0.21667 7:-1 8:1 9:0.5 10:0.5 11:-0.44576 12:0.14444 13:0.21111 14:0.28889 15:0.12222 16:0.23333 17:-0.99 18:-1 19:-0.96 20:0.16832 21:-0.12211 22:-0.8 23:-1 24:-1 25:-1 26:-0.98 
10 1:-0.98047 2:0.99843 3:-0.80273 4:-0.85352 5:0.12222 6:0.25 7:-0.25326 8:-0.96484 9:0.5 10:0.5 11:-0.66696 12:0.34667 13:0.16667 14:0.17333 15:0.25333 16:0.32 17:-0.98889 18:-1 19:-0.96 20:-0.23432 21:-0.62772 22:-1 23:-1 24:-1 25:-1 26:-0.75 
6.330093295176275 1:-0.97656 2:0.99921 3:-0.85938 4:-0.88281 5:-0.2 6:-0.33333 7:-0.90169 8:1 9:0.5 10:0.24167 11:-0.37788 12:-0.26111 13:-0.27778 14:-0.26667 15:-0.35 16:-0.37222 17:-0.92 18:-0.94667 19:-0.96 20:0.51815 21:-0.37294 22:-1 23:-1 24:-1 25:-1 26:-0.73 
10 1:-0.98438 2:0.99921 3:-0.86133 4:-0.87695 5:0.18333 6:0.05 7:-0.17871 8:0.80566 9:0.1125 10:0.5 11:-0.56669 12:-0.04167 13:0.10833 14:0.11667 15:0.15833 16:-0.08333 17:-0.98 18:-0.94 19:-0.94 20:-0.63366 21:-0.64851 22:-0.6 23:-1 24:-1 25:-1 26:-0.93 
10 1:-0.98828 2:0.99963 3:-0.91602 4:-0.86133 5:0.43333 6:0.18333 7:-1 8:-0.75 9:0.5 10:0.5 11:-0.44576 12:0.2 13:0.34444 14:0.26667 15:0.3 16:0.3 17:-0.99 18:-1 19:-0.94 20:-0.12871 21:-0.52475 22:-1 23:-0.4 24:-1 25:-1 26:-0.77 
10 1:-0.98047 2:0.99921 3:-0.85547 4:-0.87109 5:0.23333 6:-0.26667 7:1 8:0.97135 9:0.5 10:0.5 11:-0.26373 12:-0.04667 13:-0.06667 14:-0.06667 15:-0.06667 16:-0.03333 17:-0.95 18:-0.94 19:-0.89333 20:0.27723 21:-0.46931 22:-1 23:-0.8 24:-1 25:-1 26:-0.74 
10 1:-0.98828 2:0.99963 3:-0.92188 4:-0.87109 5:0.33333 6:0.1 7:-1 8:-0.88184 9:0.5 10:-0.275 11:-0.44576 12:0.22222 13:0.24444 14:0.17778 15:0.13333 16:0.15556 17:-0.99889 18:-1 19:-0.96 20:0.70297 21:-0.38614 22:-0.6 23:-1 24:-1 25:-1 26:-0.66 
3.203151588701791 1:-0.6875 2:1 3:-0.02344 4:-0.43555 5:-0.12148 6:-0.72476 7:0.64794 8:0.37355 9:0.15556 10:-0.12714 11:1 12:-0.37333 13:-0.37667 14:-0.38542 15:0.04083 16:0.01708 17:-0.98638 18:-0.96356 19:-0.76457 20:0.23564 21:-0.55347 22:-1 23:-0.8 24:-1 25:-1 26:-0.69 
10 1:-0.84375 2:0.99815 3:-0.02344 4:-0.6543 5:-0.00707 6:-0.15714 7:0.91031 8:0.0426 9:0.1947 10:-0.34286 11:-0.99994 12:0.04417 13:-0.05167 14:-0.03333 15:-0.015 16:-0.04417 17:-0.9375 18:-0.87273 19:-0.70286 20:0.10351 21:-0.87822 22:-1 23:-1 24:-1 25:-1 26:-0.97 
10 1:-0.87891 2:0.99995 3:-0.14062 4:-0.75391 5:-0.22807 6:-0.65 7:-0.21428 8:-0.09229 9:0.21447 10:-0.0625 11:0.62912 12:-0.13978 13:-0.10968 14:-0.3914 15:0.02366 16:0.03226 17:-0.99318 18:-0.94947 19:-0.79667 20:0.3309 21:-0.66081 22:-0.8 23:-0.6 24:-1 25:-1 26:-0.73 
10 1:-0.98047 2:0.99999 3:-0.87109 4:-0.79297 5:0.1 6:0.17778 7:1 8:-0.96875 9:0.1125 10:-0.275 11:-0.26373 12:0.17333 13:0.16 14:0.14667 15:0.21333 16:0.14 17:-0.26 18:-0.78 19:-0.61333 20:0.07921 21:-0.72673 22:-1 23:-1 24:-1 25:-1 26:-0.4 
10 1:-0.98828 2:0.99963 3:-0.93555 4:-0.86914 5:0.1 6:0.11667 7:-1 8:1 9:0.5 10:0.5 11:-0.44576 12:0.11111 13:0.06667 14:0.11111 15:0.11111 16:0.18889 17:-0.9 18:-1 19:-0.94 20:-0.34653 21:-0.60396 22:-0.8 23:-1 24:-1 25:-1 26:-0.9 
10 1:-0.98047 2:0.99921 3:-0.85352 4:-0.875 5:-0.16667 6:0.06667 7:1 8:-1 9:0.24167 10:0.1125 11:-0.66696 12:-0.07333 13:-0.06667 14:-0.07333 15:-0.13333 16:-0.04 17:-0.74889 18:-0.98667 19:-0.94 20:0.07591 21:-0.5802 22:-1 23:-1 24:-1 25:-1 26:-0.97 
10 1:-0.91016 2:1 3:-0.44922 4:-0.72656 5:-0.27692 6:-0.53333 7:-0.45015 8:-0.55165 9:-0.09038 10:-0.1 11:0.69067 12:0.13478 13:0.08551 14:-0.38841 15:-0.06377 16:-0.0029 17:-0.99742 18:-0.94154 19:-0.812 20:-0.42117 21:-0.68145 22:-0.6 23:-0.6 24:-1 25:-1 26:-0.73 
10 1:-0.98047 2:0.99921 3:-0.87695 4:-0.88086 5:0.05 6:-0.32222 7:-0.83496 8:0.35612 9:-0.0375 10:0.24167 11:-0.26373 12:0.02 13:-0.06 14:-0.17333 15:-0.18 16:-0.11333 17:-0.95 18:-0.94 19:-0.93333 20:0.51485 21:-0.29109 22:-0.2 23:-1 24:-1 25:-1 26:-0.64 
10 1:-0.97656 2:0.99843 3:-0.80469 4:-0.87305 5:0.11111 6:-0.27778 7:-0.51758 8:0.5651 9:-0.01667 10:0.14167 11:-0.37788 12:-0.05 13:-0.07778 14:-0.08333 15:0.12778 16:0.00556 17:-0.99639 18:-1 19:-0.90667 20:-0.50495 21:-0.82838 22:-1 23:-1 24:-1 25:-0.8 26:-0.91 
10 1:-0.98828 2:0.99331 3:-1 4:-0.91602 5:-1 6:-0.52222 7:-1 8:1 9:-1 10:-0.39167 11:0.39994 12:-0.52222 13:-0.52222 14:-0.52222 15:-0.53333 16:-0.54444 17:-0.5 18:-1 19:-0.72 20:-1 21:0.37294 22:-0.6 23:-1 24:-1 25:-1 26:-0.53 
7.533984858422408 1:-0.98828 2:0.99963 3:-0.92969 4:-0.86133 5:0.2 6:0.18333 7:-1 8:-0.99121 9:0.5 10:-0.275 11:-0.44576 12:0.28889 13:0.1 14:0.18889 15:0.17778 16:0.08889 17:-0.75 18:-0.92 19:-0.84 20:0.92079 21:-0.68977 22:-1 23:-1 24:-1 25:-0.8 26:-0.67 
10 1:-0.96875 2:0.98766 3:-0.54102 4:-0.85938 5:0.30556 6:0.2 7:0.94017 8:0.19629 9:0.37083 10:0.5 11:-0.8898 12:0.0125 13:0.00833 14:0.27917 15:0.12083 16:0.27083 17:-0.74889 18:-0.91333 19:-0.96 20:0.0462 21:-0.80941 22:-0.8 23:-0.8 24:-1 25:-1 26:-0.82 
7.177336103086303 1:-0.98828 2:0.99963 3:-0.92578 4:-0.86914 5:0.26667 6:0.11667 7:-1 8:-0.4375 9:0.5 10:-0.0375 11:-0.44576 12:0.25556 13:0.2 14:0.16667 15:0.25556 16:0.15556 17:-0.99889 18:-1 19:-0.88 20:-0.92079 21:-0.49835 22:-1 23:-1 24:-1 25:-1 26:-0.4 
10 1:-0.65625 2:1 3:-0.02344 4:-0.41211 5:-0.06303 6:-0.69596 7:0.61306 8:0.01819 9:0.06318 10:-0.05152 11:1 12:-0.20114 13:-0.14167 14:-0.30038 15:-0.05795 16:-0.08636 17:-0.98103 18:-0.93673 19:-0.82788 20:0.2468 21:-0.64041 22:-1 23:-0.8 24:-1 25:-1 26:-0.81 
10 1:-0.98828 2:0.99996 3:-1 4:-0.87891 5:-1 6:-0.31111 7:-1 8:0.42643 9:-1 10:-0.39167 11:0.39994 12:-0.27778 13:-0.37778 14:-0.31111 15:-0.3 16:-0.33333 17:-0.5 18:-1 19:-0.66667 20:-1 21:-0.10231 22:-1 23:-0.8 24:-1 25:-1 26:-0.81 
10 1:-0.98047 2:0.99921 3:-0.83203 4:-0.875 5:-0.04444 6:0.06667 7:0.98698 8:-0.06152 9:0.24167 10:0.5 11:-0.66696 12:-0.1 13:0.00667 15:-0.04667 16:-0.07333 17:-0.95 18:-0.93333 19:-0.96 20:-0.15512 21:-0.61584 22:-1 23:-1 24:-1 25:-1 26:-0.75 
10 1:-0.98438 2:0.99921 3:-0.85352 4:-0.87109 5:0.25 6:0.1 7:0.06348 8:0.48535 9:0.5 10:0.5 11:-0.56669 12:0.19167 13:0.2 14:0.175 15:0.13333 16:0.125 17:-0.98 18:-0.98 19:-0.92 20:-0.09901 21:-0.62871 22:-1 23:-1 24:-1 25:-1 26:-0.95 
10 1:-0.98828 2:0.99996 3:-0.99609 4:-0.87109 5:-0.93333 6:0.1 7:-1 8:-0.52734 9:-0.7 10:0.5 11:-0.44576 12:-0.14444 13:-0.18889 14:-0.24444 15:-0.18889 16:-0.18889 17:-0.9 18:-0.8 19:-0.94 20:0.58416 21:-0.32673 22:-1 23:-1 24:-1 25:-1 26:-0.88 
10 1:-0.98828 2:0.99963 3:-0.94141 4:-0.85352 6:0.25 7:-1 8:-0.60938 9:0.5 10:0.5 11:-0.44576 12:0.37778 13:0.37778 14:0.16667 15:0.25556 16:0.31111 17:-0.99 18:-0.96 19:-0.94 20:-0.44554 21:-0.78878 22:-0.8 23:-0.8 24:-1 25:-1 26:-0.73 
10 1:-0.9375 2:0.99996 3:-0.19531 4:-0.78711 5:0.14444 6:-0.09167 7:0.57403 8:1 9:0.30625 10:-0.5 11:-0.91361 12:0.10625 13:0.19167 14:0.08542 15:0.09167 16:0.25208 17:-0.98988 18:-0.96667 19:-0.82 20:-0.27558 21:-0.70916 22:-1 23:-1 24:-1 25:-1 26:-0.97 
10 1:-0.97656 2:0.99843 3:-0.79102 4:-0.84766 5:-0.10833 6:0.3 7:-0.34977 8:1 9:0.5 10:-0.275 11:-0.75634 12:0.11667 13:0.03889 14:0.02778 15:0.1 16:-0.02222 17:-0.9 18:-0.98 19:-0.88 20:-0.41089 21:-0.63696 22:-1 23:-1 24:-1 25:-1 26:-0.97 
10 1:-0.98828 2:1 3:-1 4:-0.83398 5:-1 6:-0.05556 7:-1 8:-0.11523 9:-1 10:-0.40833 11:0.39994 12:0.02222 13:0.12222 14:-0.05556 15:0.06667 16:0.13333 17:-0.98889 18:-1 19:-0.90667 20:-1 21:0.38614 22:-0.8 23:-0.6 24:-1 25:-1 26:-0.96 
10 1:-0.96484 2:1 3:-1 4:-0.48828 5:-1 6:-0.02963 7:-1 8:-0.9809 9:-1 10:-0.525 11:1 12:0.10741 13:0.11481 14:-0.02963 15:0.06667 16:0.04444 17:-0.9898 18:-1 19:-0.93333 20:-1 21:0.29593 22:-1 23:-1 24:-1 25:-1 26:-0.98 
10 1:-0.96875 2:0.99994 3:-0.67188 4:-0.84766 5:0.12 6:-0.13333 7:0.26816 8:-0.8724 9:0.035 10:0.24167 11:-0.59397 12:0.10417 13:0.20833 14:0.025 15:0.13333 16:0.02083 17:-0.99444 18:-0.992 19:-0.93333 20:-0.11683 21:-0.82426 22:-1 23:-1 24:-0.8 25:-1 26:-0.8 
10 1:-0.91406 2:0.78513 3:-0.02344 4:-0.8125 5:0.13519 6:-0.2 7:0.08191 8:1 9:0.15556 10:0.0375 11:-0.99685 12:0.16061 13:0.14545 14:0.07424 15:0.03939 16:0.00758 17:-0.9998 18:-0.96444 19:-0.86 20:-0.32563 21:-0.89559 22:-0.4 23:-1 24:-1 25:-1 26:-0.83 
10 1:-0.99219 2:0.99996 3:-1 4:-0.8418 5:-1 6:0.35 7:-1 8:-0.85938 9:-1 10:0.5 11:-0.03593 12:0.3 13:0.31667 14:0.35 15:0.33333 16:0.13333 17:-0.98 18:-1 19:-0.96 20:-1 21:-0.24752 22:-1 23:-0.8 24:-1 25:-1 26:-0.98 
10 1:-0.97656 2:0.99843 3:-0.79492 4:-0.8457 5:-0.125 6:0.31667 7:-0.06966 8:-0.80859 9:-0.16875 10:0.325 11:-0.75634 12:-0.1 13:-0.06667 14:0.02222 15:-0.12778 16:0.02778 17:-0.98 18:-0.96 19:-0.92 20:0.51485 21:-0.71617 22:-1 23:-1 24:-1 25:-1 26:-0.48 
10 1:-0.80859 2:0.99997 3:-0.02344 4:-0.68359 5:-0.03838 6:-0.6625 7:0.35851 8:0.30286 9:0.21818 10:0.09688 11:0.27116 12:-0.15238 13:-0.21633 14:-0.24218 15:-0.10612 16:0.03333 17:-0.95406 18:-0.96727 19:-0.805 20:-0.18032 21:-0.73207 22:-0.8 23:-0.8 24:-1 25:-1 26:-0.87 
10 1:-0.73438 2:1 3:-0.02344 4:-0.51953 5:-0.0227 6:-0.60952 7:1 8:-0.40379 9:0.04202 10:-0.03095 11:0.23486 12:-0.15735 13:-0.13578 14:-0.20392 15:0.03186 16:0.08873 17:-0.97803 18:-0.9634 19:-0.79238 20:0.25047 21:-0.74432 22:-1 24:-1 25:-1 26:-0.75 
10 1:-0.9375 2:0.98477 3:-0.02344 4:-0.79492 5:0.29231 6:0.16667 7:1 8:0.14844 9:0.32115 10:-0.01667 11:-0.98834 12:0.09375 13:0.24583 14:0.26875 15:0.21458 16:0.35208 17:-0.94347 18:-0.89846 19:-0.78667 20:-0.01599 21:-0.84777 22:-1 23:-1 24:-1 25:-1 26:-0.96 
10 1:-0.99219 2:0.99996 3:-1 4:-0.87891 5:-1 6:0.03333 7:-1 9:-1 10:-0.425 11:-0.03593 12:-0.01667 13:-0.01667 14:0.03333 15:0.1 16:0.08333 17:-0.74 18:-1 19:-0.6 20:-1 21:-0.60396 22:-1 23:-0.8 24:-1 25:-1 26:-0.39 
10 1:-0.40625 2:0.99977 3:-0.02344 4:-0.02344 5:-0.02274 6:-0.08696 7:0.66862 8:0.55938 9:0.09574 10:-0.31413 11:-1 12:0.10724 13:0.04474 14:-0.03246 15:-0.03202 16:0.00921 17:-0.9965 18:-0.97488 19:-0.7287 20:-0.02709 21:-0.86308 22:-0.8 23:-0.8 24:-1 25:-1 26:-0.95 
10 1:-0.97656 2:0.99999 3:-0.875 4:-0.83594 5:0.06667 6:-0.3 7:-0.17871 8:1 9:0.1125 10:-0.2875 11:0.05469 12:0.00556 13:-0.01111 14:-0.17778 15:-0.05556 16:-0.14444 17:-0.18 18:-0.92 19:-0.63 20:0.45545 21:-0.48515 22:-0.4 23:-1 24:-1 25:-0.6 26:-0.87 
10 1:-0.98828 2:0.99963 3:-0.94531 4:-0.86914 5:-0.06667 6:0.11667 7:-1 8:1 9:-0.275 10:0.5 11:-0.44576 12:-0.21111 13:0.13333 14:0.05556 15:0.14444 16:0.18889 17:-0.9 18:-0.84 19:-0.96 20:-0.12871 21:-0.57756 22:-1 23:-0.8 24:-1 25:-1 26:-0.96 
10 1:-0.92969 2:0.98477 3:-0.12695 4:-0.76758 5:0.14615 6:-0.20667 7:0.72531 8:1 9:0.32115 10:-0.12 11:-0.81668 12:0.00741 13:0.15185 14:0.04815 15:-0.00741 16:0.00185 17:0.3 18:-0.92923 19:-0.72 20:0.10434 21:-0.70627 22:-1 23:-1 24:-1 25:-1 26:-0.97 
10 1:-0.98047 2:0.99843 3:-0.7832 4:-0.87305 5:0.23333 6:0.08333 7:1 8:1 9:0.5 10:0.5 11:-0.66696 12:0.06 13:0.09333 14:0.17333 15:0.22 16:0.16667 17:-0.5 18:-0.96 19:-0.94 20:0.0363 21:-0.49307 22:-1 23:-1 24:-1 25:-1 26:-0.93 
10 1:-0.98828 2:0.99963 3:-0.94336 4:-0.86328 5:-0.03333 6:0.16667 7:-1 8:1 9:-0.275 10:0.5 11:-0.44576 12:0.2 13:0.17778 14:0.1 15:0.1 16:-0.15556 17:-0.99 18:-1 19:-0.94 20:0.08911 21:-0.10891 22:-0.8 23:-1 24:-1 25:-1 26:-0.87 
10 1:-0.98828 2:0.99963 3:-0.92969 4:-0.85938 5:0.2 6:0.2 7:-1 8:-0.33984 9:0.5 10:0.5 11:-0.44576 12:0.38889 13:0.36667 14:0.2 15:0.37778 16:0.24444 17:-0.9 18:-0.96 19:-0.92 20:0.44554 21:0.0297 22:-0.6 23:-1 24:-1 25:-1 26:-0.81 
10 1:-0.98047 2:0.99843 3:-0.81836 4:-0.86328 5:0.03333 6:0.16667 7:0.19206 8:-0.71777 9:-0.01667 10:0.5 11:-0.66696 12:0.12667 13:0.10667 14:0.08667 15:0.21333 16:0.21333 17:-0.5 18:-0.82667 19:-0.9 20:0.43234 21:-0.29901 22:-1 23:-0.6 24:-1 25:-1 26:-0.31 
10 1:-0.94922 2:0.90668 3:-0.33984 4:-0.85938 5:0.02424 6:0.2 7:1 8:-1 9:0.28864 10:0.1125 11:-0.99237 12:0.05128 13:0.07179 14:0.05128 15:-0.05641 16:-0.00256 17:-0.7016 18:-0.96 19:-0.92 20:0.31053 21:-0.75019 22:-1 23:-1 24:-1 25:-0.8 26:-0.89 
10 1:-0.88281 2:0.99999 3:-0.02344 4:-0.64062 5:0.06377 6:-0.12381 7:-0.01281 8:0.33789 9:0.39891 10:-0.51071 11:-0.98002 12:0.06222 13:0.13333 14:0.02 15:0.09222 16:0.17556 17:-0.98279 18:-0.96174 19:-0.88 20:0.13991 21:-0.63036 22:-1 23:-1 24:-1 25:-1 26:-0.9 
10 1:-0.98828 2:0.99963 3:-0.92969 4:-0.85352 5:0.2 6:0.25 7:-1 8:-0.06152 9:0.5 10:0.5 11:-0.44576 12:-0.07778 13:-0.12222 14:0.23333 15:0.08889 16:0.17778 17:-0.99 18:-1 19:-0.92 20:0.88119 21:-0.71617 22:-0.8 23:-1 24:-1 25:-1 26:-0.73 
10 1:-0.97266 2:0.99687 3:-0.73828 4:-0.86523 5:-0.10667 6:0.15 7:1 8:1 9:0.345 10:0.1125 11:-0.83142 12:0.00952 13:0.09524 14:-0.03333 15:-0.0381 16:0.06667 17:-0.96222 18:-0.96 19:-0.94 20:-0.23564 21:-0.84724 22:-1 23:-1 24:-1 25:-0.8 26:-0.96 
10 1:-0.98828 2:0.99963 3:-0.92578 4:-0.84961 5:0.26667 6:0.28333 7:-1 8:-0.17871 9:0.5 10:0.5 11:-0.44576 12:0.21111 13:0.28889 14:0.27778 15:0.2 16:0.3 17:-0.99 18:-1 19:-0.92 20:0.38614 21:-0.78218 22:-0.8 23:-1 24:-1 25:-1 26:-0.88 
10 1:-0.94922 2:0.6753 3:-0.17773 4:-0.86328 5:0.27576 6:0.16667 7:0.71463 8:1 9:0.44773 10:0.5 11:-0.99237 12:0.17179 13:0.28205 14:0.25897 15:0.17692 16:0.18462 17:-0.98938 18:-0.98545 19:-0.92 20:-0.44374 21:-0.85529 22:-0.8 23:-1 24:-1 25:-1 26:-0.93 
10 1:-0.73047 2:0.99308 3:-0.02344 4:-0.57617 5:0.02182 6:-0.48333 7:0.66956 8:0.80174 9:0.19818 10:-0.18571 11:-0.99999 12:-0.11546 13:-0.02271 14:-0.08068 15:0.13913 16:0.1314 17:-0.97464 18:-0.96291 19:-0.89143 20:0.06859 21:-0.79997 22:-1 23:-0.8 24:-1 25:-1 26:-0.79 
2.061702614174342 1:-0.69141 2:1 3:-0.02344 4:-0.52539 5:-0.27589 6:-0.74688 7:-0.11932 8:0.1192 9:0.10426 10:0.07891 11:1 12:-0.28565 13:-0.34599 14:-0.46667 15:0.00717 16:-0.01983 17:-0.99521 18:-0.93617 19:-0.87125 20:0.49526 21:-0.63955 22:-1 23:-0.4 24:-1 25:-1 26:-0.79 
10 1:-0.91016 2:1 3:-0.52344 4:-0.75195 5:-0.26061 6:-0.64722 7:0.17649 8:0.69348 9:-0.13409 10:-0.15208 11:1 12:-0.06667 13:-0.01304 14:-0.46232 15:-0.22464 16:-0.29275 17:-0.87738 18:-0.87273 19:-0.84 20:-0.63996 21:-0.50581 22:-0.6 23:-1 24:-1 25:-1 26:-0.45 
10 1:-0.99219 2:0.99996 3:-1 4:-0.88867 5:-1 6:-0.05 7:-1 8:-0.83496 9:-1 10:-0.45 11:-0.03593 12:0.11667 13:0.05 14:-0.05 15:0.13333 16:0.13333 17:-0.98 18:-1 19:-0.9 20:-1 21:0.0396 22:-0.4 23:-0.8 24:-1 25:-1 26:-0.46 
10 1:-0.98828 2:1 3:-1 4:-0.88672 5:-1 6:-0.35556 7:-1 8:-0.85156 9:-1 10:-0.275 11:0.39994 12:-0.3 13:-0.3 14:-0.35556 15:-0.23333 16:-0.13333 17:-0.9875 18:-1 19:-0.68 20:-1 21:0.52475 22:-0.6 23:0.8 24:-1 25:-1 26:0 
10 1:-0.97656 2:1 3:-1 4:-0.80273 5:-1 6:-0.43889 7:-1 8:0.61934 9:-1 10:-0.47917 11:1 12:-0.38333 13:-0.25 14:-0.43889 15:-0.32222 16:-0.32778 17:-0.93556 18:-1 19:-0.86667 20:-1 21:-0.0198 22:-1 23:-1 24:-0.8 25:-1 26:-0.49 
10 1:-0.92578 2:0.88593 3:-0.02344 4:-0.77148 5:0.10625 6:0.3 7:0.40956 8:-0.61458 9:0.1125 10:0.24167 11:-0.99795 12:0.11404 13:0.10351 14:0.13684 15:0.18596 16:0.13509 17:-0.9975 18:-0.98 19:-0.96 20:-0.49876 21:-0.94164 22:-0.6 23:-0.8 24:-1 25:-1 26:-0.82 
10 1:-0.98047 2:0.99921 3:-0.87305 4:-0.87695 5:0.08333 6:-0.3 7:-0.06152 8:0.29167 9:-0.0375 10:0.24167 11:-0.26373 12:-0.05333 13:-0.16 14:-0.14667 15:-0.01333 16:-0.06 17:-0.95 18:-0.98 19:-0.92 20:-0.27723 21:-0.44554 22:-1 23:-0.2 24:-1 25:-1 26:-0.57 
10 1:-0.97266 2:0.99843 3:-0.78516 4:-0.85938 5:-0.26667 6:0.2 7:1 8:-0.52734 9:0.035 10:0.5 11:-0.83142 12:-0.23333 13:-0.18095 14:-0.13333 15:-0.15714 16:0.00952 17:-0.9896 18:-0.976 19:-0.92 20:-0.44554 21:-0.73975 22:-0.6 23:-1 24:-1 25:-0.8 26:-0.93 
10 1:-0.97656 2:0.99921 3:-0.84375 4:-0.85938 5:0.33333 6:-0.4 7:-0.85938 8:1 9:0.5 10:0.1125 11:0.05469 12:-0.12222 13:-0.16667 14:-0.15556 15:-0.17222 16:-0.16111 17:-0.90889 18:-1 19:-0.92 20:0.16832 21:-0.23762 22:-1 23:-0.8 24:-1 25:-1 26:-0.99 
10 1:-0.98828 2:0.99963 3:-0.92969 4:-0.85742 5:0.2 6:0.21667 7:-1 9:0.5 10:-0.275 11:-0.44576 12:0.1 13:0.07778 14:0.21111 15:0.01111 16:0.1 17:-0.9 18:-0.96 19:-0.92 20:0.60396 21:-0.57756 22:-1 23:-1 24:-1 25:-0.6 26:-0.73 
10 1:-0.98828 2:0.99963 3:-0.92188 4:-0.85352 5:0.33333 6:0.25 7:-1 8:0.72266 9:0.5 10:0.5 11:-0.44576 12:0.31111 13:0.3 14:0.27778 15:0.05556 16:0.24444 17:-0.99 18:-1 19:-0.94 20:0.10891 21:-0.40594 22:-0.6 23:-1 24:-1 25:-1 26:-0.91 
10 1:-0.85938 2:1 3:-0.34375 4:-0.61328 5:-0.37778 6:-0.63333 7:0.64719 8:0.6344 9:-0.15278 10:-0.14583 11:1 12:0.07685 13:0.03333 14:-0.50556 15:-0.24074 16:-0.2963 17:-0.99778 18:-0.95111 19:-0.84667 20:-0.31133 21:-0.49395 22:-0.8 23:-1 24:-1 25:-1 26:-0.81 
10 1:-0.97656 2:0.99998 3:-0.76758 4:-0.82617 5:0.32222 6:-0.01111 7:1 8:-0.40951 9:-0.01667 10:0.24167 11:-0.37788 12:0.13889 13:0.25 14:0.15556 15:0.05556 16:0.21667 17:-0.9575 18:-0.96 19:-0.88 20:0.08911 21:-0.46205 22:-1 23:-1 24:-1 25:-1 26:-0.84 
10 1:-0.875 2:0.99997 3:-0.02344 4:-0.66992 5:0.17917 6:-0.29583 7:0.07783 8:1 9:0.1125 10:-0.05937 11:-0.94878 12:0.08854 13:0.05104 14:0.06042 15:0.04062 16:0.13542 17:-0.99885 18:-0.975 19:-0.9 20:-0.14356 21:-0.80879 22:-1 23:-1 24:-1 25:-0.2 26:-0.59 
10 1:-0.97656 2:0.99998 3:-0.7832 4:-0.84766 5:0.23333 6:-0.13333 7:0.78125 8:1 9:0.24167 10:-0.575 11:-0.37788 12:0.05 14:0.05 15:0.06667 16:-0.02778 17:-0.95889 18:-0.89333 19:-0.78667 20:0.30693 21:-0.42574 22:-0.8 23:-1 24:-1 25:-1 26:-0.9 
10 1:-0.98828 2:1 3:-1 4:-0.8457 5:-1 6:-0.12222 7:-1 8:1 9:-1 10:-0.49167 11:0.39994 12:0.04444 13:0.01111 14:-0.12222 15:-0.06667 16:-0.13333 17:-0.98889 18:-1 19:-0.85333 20:-1 21:0.12211 22:-0.8 23:-0.8 24:-1 25:-1 26:-0.75 
10 1:-0.99219 2:0.99996 3:-1 4:-0.88281 5:-1 7:-1 8:-0.17871 9:-1 10:-0.375 11:-0.03593 12:-0.08333 13:-0.33333 15:-0.01667 16:-0.06667 17:-0.98 18:-1 19:-0.88 20:-1 21:-0.39604 22:-1 23:-1 24:-0.8 25:-1 26:-0.83 
10 1:-0.96875 2:0.99378 3:-0.64844 4:-0.85938 5:0.2 6:-0.2 7:-0.63926 8:-0.13607 9:0.035 10:0.24167 11:-0.59397 12:0.02917 13:-0.1 14:0.05 15:0.05 16:0.11667 17:-0.97111 18:-0.944 19:-0.92 20:-0.18416 21:-0.83416 22:-1 23:-0.8 24:-1 25:-1 26:-0.67 
10 1:-0.98047 2:0.99921 3:-0.87695 4:-0.87109 5:-0.3 6:0.1 7:1 8:1 9:-0.01667 10:0.5 11:-0.66696 12:-0.29333 13:-0.19333 14:-0.14 15:-0.08667 16:-0.21333 17:-0.5 18:-0.82667 19:-0.96 20:0.09571 21:-0.55248 22:-1 23:-1 24:-1 25:-1 26:-0.93 
10 1:-0.98828 2:0.99996 3:-0.99609 4:-0.84961 5:-0.93333 6:0.28333 7:-1 9:0.5 10:0.5 11:-0.44576 12:-0.12222 13:-0.13333 14:-0.12222 15:-0.21111 16:-0.22222 17:-0.9 18:-0.92 19:-0.96 20:-0.90099 21:-0.24752 22:-1 23:-1 24:-1 25:-1 26:-0.88 
0.8648456891115928 1:-0.98438 2:0.99963 3:-0.93359 4:-0.88281 5:-0.43333 7:-0.68359 8:1 9:-0.275 10:0.5 11:-0.56669 12:-0.275 13:-0.225 14:-0.21667 15:-0.325 16:-0.44167 17:-0.74 18:-0.94 19:-0.92 20:-0.30693 21:-0.64851 22:-1 23:-1 24:-1 25:-1 26:-0.33 
10 1:-0.95703 2:0.95199 3:-0.40039 4:-0.86133 5:0.13704 6:0.18333 7:0.83008 8:-0.17871 9:0.5 10:0.1125 11:-0.97626 12:0.11515 13:0.03333 14:0.14545 15:0.1697 16:0.1 17:-0.98938 18:-0.98667 19:-0.94 20:0.0099 21:-0.72097 22:-0.8 23:-1 24:-1 25:-1 26:-0.95 
10 1:-0.92578 2:1 3:-0.44141 4:-0.80664 5:-0.13333 6:-0.5875 7:0.42191 8:-0.23441 9:0.21818 10:0.17188 11:0.2823 12:0.15965 13:0.09649 14:-0.32456 15:-0.22632 16:-0.09123 17:-0.98202 18:-0.93091 19:-0.83 20:-0.16292 21:-0.62793 22:-0.8 23:-1 24:-1 25:-1 26:-0.91 
10 1:-0.98828 2:0.99996 3:-0.99609 4:-0.84961 5:-0.93333 6:0.28333 7:-1 8:-0.68359 9:-0.275 10:0.5 11:-0.44576 12:-0.22222 13:-0.23333 14:-0.12222 15:-0.15556 16:-0.14444 17:-0.99 18:-0.96 19:-0.92 20:0.88119 21:-0.26073 22:-0.8 23:-1 24:-1 25:-0.8 26:-0.79 
10 1:-0.98047 2:0.99921 3:-0.84375 4:-0.86328 5:-0.11111 6:0.16667 7:1 8:0.80566 9:0.5 10:0.1125 11:-0.66696 12:0.21333 13:-0.00667 15:-0.04 16:0.06667 17:-0.99639 18:-1 19:-0.96 20:-0.12871 21:-0.49703 22:-0.8 23:-1 24:-1 25:-1 26:-0.87 
10 1:-0.98828 2:0.99963 3:-0.93555 4:-0.86133 5:0.1 6:0.18333 7:-1 8:-0.98438 9:-0.275 10:0.5 11:-0.44576 12:0.18889 13:0.22222 14:0.15556 15:0.06667 16:0.14444 17:-0.99 18:-1 19:-0.96 20:0.9802 21:-0.08911 22:-1 23:-1 24:-1 25:-0.8 26:-0.73 
10 1:-0.97656 2:0.99999 3:-0.85547 4:-0.84766 5:-0.17778 6:-0.13333 7:0.95768 8:0.91862 9:0.24167 10:-0.275 11:-0.37788 12:-0.01111 13:0.02778 14:-0.15556 15:-0.23333 16:-0.2 17:-0.95889 18:-0.97333 19:-0.81333 20:-0.12211 21:-0.54785 22:-0.8 23:-0.6 24:-1 25:-1 26:-0.43 
10 1:-0.98047 2:0.99921 3:-0.875 4:-0.87305 5:-0.28889 6:0.08333 7:1 8:1 9:-0.01667 10:0.5 11:-0.66696 12:-0.29333 13:-0.2 14:-0.14 15:-0.08 16:-0.11333 17:-0.98889 18:-0.94667 19:-0.96 20:-0.27393 21:-0.54455 22:-1 23:-0.8 24:-1 25:-1 26:-0.91 
10 1:-0.98438 2:0.99921 3:-0.86914 4:-0.87109 5:0.11667 6:0.1 7:0.97754 8:-0.38965 9:0.5 10:-0.275 11:-0.56669 12:-0.08333 13:0.09167 14:0.10833 15:0.15 16:0.21667 17:-0.74889 18:-0.88 19:-0.92 20:-0.45545 21:-0.74752 22:-0.8 23:-0.6 24:-1 25:-1 26:-0.72 
10 1:-0.98828 2:0.99963 3:-0.92578 4:-0.86523 5:0.26667 6:0.15 7:-1 8:-0.98438 9:0.5 10:-0.275 11:-0.44576 12:0.25556 13:0.16667 14:0.18889 15:0.18889 16:0.17778 17:-0.99 18:-0.96 19:-0.84 20:0.90099 21:-0.51155 22:-1 23:-1 24:-1 25:-1 26:-0.91 
10 1:-0.9375 2:1 3:-0.33203 4:-0.68164 5:0.26667 6:-0.22381 7:-0.52664 8:0.12807 9:0.24167 10:-0.575 11:0.1957 12:0.08125 13:0.02917 14:0.05208 15:0.01875 16:0.01875 17:1 18:-0.93333 19:-0.78286 20:0.56216 21:-0.56436 22:-1 23:-0.8 24:-1 25:-1 26:-0.93 
10 1:-0.95312 2:0.95199 3:-0.43945 4:-0.86914 5:-0.04333 6:0.11667 7:0.06382 8:0.33691 9:0.3775 10:0.1125 11:-0.98646 12:0.01944 13:0.03056 14:-0.01667 15:0.08056 16:0.05556 17:-0.98889 18:-0.936 19:-0.96 20:0.53069 21:-0.76403 22:-0.8 23:-1 24:-1 25:-1 26:-0.83 
8.441123043702282 1:-0.98438 2:0.99963 3:-0.91797 4:-0.88672 5:-0.3 6:-0.03333 7:0.26562 8:-0.9375 9:0.5 10:0.5 11:-0.56669 14:-0.16667 15:-0.10833 16:0.00833 17:-0.98 18:-0.98 19:-0.96 20:-0.56436 21:-0.19802 22:-0.8 23:-1 24:-1 25:-1 26:-0.82 
10 1:-0.95703 2:0.99988 3:-0.60156 4:-0.80273 5:-0.02857 6:-0.15833 7:0.32515 8:1 9:0.01429 10:-0.325 11:-0.51666 12:-0.09091 13:-0.06667 14:-0.07576 15:-0.13333 16:-0.1 17:-0.99 18:-0.98286 19:-0.95 20:-0.10608 21:-0.46355 22:-0.8 23:-1 24:-1 25:-1 26:-0.93 
10 1:-0.98047 2:0.99843 3:-0.80664 4:-0.86914 5:0.1 6:0.11667 7:0.09049 8:0.72266 9:0.05833 10:0.1125 11:-0.66696 12:-0.10667 13:0.00667 14:0.10667 15:0.14667 16:-0.06 17:-0.99778 18:-0.92 19:-0.92 20:0.26073 21:-0.49307 22:-1 23:-0.8 24:-0.8 25:-1 26:-0.93 
10 1:-0.98438 2:1 3:-1 4:-0.82031 5:-1 6:-0.23333 7:-1 8:0.66195 9:-1 10:-0.275 11:0.84665 12:0.01667 13:-0.15833 14:-0.23333 15:-0.03333 16:-0.21667 17:-0.98 18:-1 19:-0.93 20:-1 21:0.22277 22:-1 23:-1 24:-1 25:-1 26:-0.91 
10 1:-0.98828 2:0.99996 3:-0.99609 4:-0.86523 5:-0.93333 6:0.15 7:-1 8:1 9:-0.275 10:0.5 11:-0.44576 12:-0.04444 13:-0.16667 14:-0.21111 15:-0.16667 16:-0.57778 17:-0.9 18:-0.8 19:-0.94 20:-0.74257 21:-0.27393 22:-0.8 23:-1 24:-1 25:-1 26:-0.78 
10 1:-0.98828 2:0.99963 3:-0.92773 4:-0.83594 5:0.23333 6:0.4 7:-1 8:-0.71777 9:0.5 10:0.5 11:-0.44576 12:0.31111 13:0.3 14:0.34444 15:0.18889 16:0.34444 17:-0.99 18:-1 19:-0.92 20:-0.24752 21:-0.33333 22:-1 23:-1 24:-1 25:-1 26:-0.81 
10 1:-0.96094 2:0.97558 3:-0.50391 4:-0.86133 5:0.20952 6:-0.21111 7:0.12807 8:0.76823 9:0.38929 10:-0.01667 11:-0.77751 12:0.10667 13:0.06333 14:0.08333 15:0.17 16:0.07667 17:-0.5064 18:-0.96571 19:-0.88 20:-0.11457 21:-0.61782 22:-1 23:-1 24:-1 25:-1 26:-0.9 
10 1:-0.98438 2:0.99963 3:-0.92969 4:-0.85938 5:-0.4 6:0.2 7:1 8:-0.97559 9:-0.275 10:0.0625 11:-0.56669 12:-0.09167 13:-0.15833 14:-0.1 15:-0.16667 16:-0.05833 17:-0.5 18:-0.98 19:-0.88 20:-0.10891 21:-0.08416 22:-1 23:-1 24:-0.8 25:-0.8 26:-0.55 
10 1:-0.98438 2:1 3:-0.92578 4:-0.83398 5:0.26667 6:-0.05556 7:-1 8:0.81055 9:-0.275 10:-0.39167 11:-0.12055 12:0.04167 13:-0.18333 14:0.025 15:-0.08333 16:0.03333 17:-0.87 18:-1 19:-0.92 20:-0.24752 21:-0.31683 22:-1 23:-1 24:-1 25:-1 26:-0.89 
10 1:-0.99219 2:0.99331 3:-1 4:-0.92383 5:-1 6:-0.35 7:-1 8:-0.80859 9:-1 10:0.1125 11:-0.03593 12:-0.3 13:-0.4 14:-0.35 15:-0.33333 16:-0.36667 17:-0.98 18:-1 19:-0.88 20:-1 21:0.76238 22:-1 23:-1 24:-1 25:-1 26:-0.79 
10 1:-0.34375 2:0.97799 3:-0.02344 4:-0.02344 5:-0.01724 6:-0.22609 7:0.80354 8:0.13721 9:0.06448 10:-0.43261 11:-1 12:0.1004 13:-0.01032 14:-0.04583 15:0.12183 16:0.10833 17:-0.95949 18:-0.96083 19:-0.63826 20:-0.03462 21:-0.8628 22:-1 23:-0.6 24:-1 25:-1 26:-0.89 
10 1:-0.86328 2:1 3:-0.02344 4:-0.64648 5:-0.18485 6:-0.5359 7:-0.39218 8:0.22368 9:0.18295 10:0.32115 11:0.59834 12:-0.01333 13:0.06952 14:-0.31524 15:-0.14476 16:-0.20286 17:-0.94306 18:-0.94364 19:-0.90769 20:-0.58056 21:-0.52758 22:-0.6 23:-1 24:-1 25:-1 26:-0.85 
10 1:-0.88672 2:0.74101 3:-0.02344 4:-0.74609 5:0.07467 6:0.08333 7:0.34878 8:-0.99089 9:0.262 10:-0.025 11:-0.99995 12:0.21839 13:0.1931 14:0.07586 15:0.14713 16:0.13333 17:-0.9964 18:-0.9776 19:-0.89 20:-0.1501 21:-0.99181 22:-0.8 23:-0.8 24:-1 25:-1 26:-0.59 
10 1:-0.94922 2:1 3:-0.68555 4:-0.83984 5:-0.23333 6:-0.54444 7:0.12891 8:1 9:-0.05357 10:-0.01667 11:0.10921 12:0.24615 13:0.13846 14:-0.37692 15:-0.19487 16:-0.47949 17:-0.94196 18:-0.93143 19:-0.81333 20:-0.34653 21:-0.64356 22:-0.8 23:-1 24:-1 25:-1 26:-0.97 
10 1:-0.94922 2:0.8225 3:-0.28906 4:-0.87891 5:0.10303 6:0.03333 7:0.88104 8:1 9:0.42955 10:0.1125 11:-0.99237 12:0.10769 13:0.05128 14:0.09231 15:0.01538 16:-0.05128 17:-0.99826 18:-0.97091 19:-0.94 20:0.08731 21:-0.83549 22:-1 23:-1 24:-1 25:-1 26:-0.96 
10 1:-0.95312 2:1 3:-1 4:-0.48047 5:-1 6:-0.26111 7:-1 8:-0.09501 9:-1 10:-0.675 11:1 12:-0.31111 13:-0.33611 14:-0.26111 15:-0.35278 16:-0.31111 17:-0.96222 18:-1 19:-0.94 20:-1 21:-0.02805 22:-0.8 23:-0.8 24:-1 25:-1 26:-0.97 
10 1:-0.98047 2:1 3:-1 4:-0.78711 5:-1 6:-0.27333 7:-1 8:0.59512 9:-1 10:-0.6 11:1 12:-0.28 13:-0.29333 14:-0.27333 15:-0.29333 16:-0.3 17:-0.9875 18:-1 19:-0.864 20:-1 21:0.32277 22:-1 23:-1 24:-1 25:-0.8 26:-0.82 
10 1:-0.98828 2:0.99963 3:-0.92383 4:-0.85938 5:0.3 6:0.2 7:-1 8:-0.99609 9:0.5 10:-0.275 11:-0.44576 12:0.12222 13:0.17778 14:0.23333 15:0.14444 16:0.11111 17:-0.9 18:-0.88 19:-0.96 20:-0.0099 21:-0.69637 22:-0.8 23:-1 24:-1 25:-1 26:-0.49 
4.229102347388451 1:-0.98828 2:0.99963 3:-0.92383 4:-0.86719 5:0.3 6:0.13333 7:-1 8:-0.4375 9:-0.275 10:0.5 11:-0.44576 12:0.16667 13:0.25556 14:0.18889 15:0.2 16:0.08889 17:-0.99 18:-1 19:-0.92 20:-0.58416 21:-0.40594 22:-0.8 23:-1 24:-1 25:-1 26:-0.83 
10 1:-0.96875 2:1 3:-0.82227 4:-0.78711 5:-0.24167 6:-0.09167 7:0.38411 8:-0.64193 9:-0.25 10:-0.325 11:-0.17935 12:-0.21667 13:-0.25417 14:-0.16667 15:-0.20417 17:-0.98 18:-0.91 19:-0.9 20:0.42574 21:-0.67327 22:-0.8 23:-0.8 24:-1 25:-1 26:-0.45 
10 1:-0.98438 2:0.99963 3:-0.91602 4:-0.85742 5:-0.28333 6:0.21667 7:1 8:0.48535 9:0.1125 10:0.5 11:-0.56669 12:-0.09167 13:-0.05833 14:-0.03333 15:-0.18333 16:-0.06667 17:-0.74 18:-0.88 19:-0.96 20:-0.27723 21:-0.39109 22:-1 23:-0.8 24:-1 25:-1 26:-0.91 
10 1:-0.98828 2:0.99996 3:-0.99609 4:-0.87305 5:-0.93333 6:0.08333 7:-1 8:1 9:-0.275 10:0.5 11:-0.44576 12:-0.28889 13:-0.3 14:-0.25556 15:-0.2 16:-0.15556 17:-0.9 18:-0.8 19:-0.94 20:0.34653 21:-0.28053 22:-1 23:-1 24:-1 25:-1 26:-0.95 
10 1:-0.98828 2:0.99963 3:-0.92773 4:-0.84961 5:0.23333 6:0.28333 7:-1 8:-0.52734 9:-0.275 10:0.5 11:-0.44576 12:0.18889 13:0.14444 14:0.26667 15:0.26667 16:0.27778 17:-0.9 18:-0.88 19:-0.92 20:0.56436 21:-0.11551 22:-1 23:-0.4 24:-1 25:-1 26:-0.71 
10 1:-0.94141 2:1 3:-0.62305 4:-0.76367 5:-0.19583 6:-0.42381 7:-0.32701 8:1 9:0.1125 10:-0.05357 11:0.31304 12:-0.09556 13:0.03111 14:-0.30222 15:0.25556 16:0.25556 17:-0.9864 18:-0.9 19:-0.81143 20:0.24752 21:-0.51815 22:-0.8 23:-0.6 24:-1 25:-1 26:-0.63 
10 1:-0.98828 2:0.99996 3:-1 4:-0.88086 5:-1 6:-0.32222 7:-1 8:0.53385 9:-1 10:-0.375 11:0.39994 12:-0.32222 13:-0.27778 14:-0.32222 15:-0.63333 16:-0.93333 17:-0.5 18:-1 19:-0.70667 20:-1 21:-0.22112 22:-0.8 23:-0.8 24:-1 25:-1 26:-0.73 
10 1:-0.98828 2:0.99331 3:-1 4:-0.92969 5:-1 6:-0.6 7:-1 8:-1 9:-1 10:-0.10833 11:0.39994 12:-0.43333 13:-0.54444 14:-0.6 15:-0.53333 16:-0.5 17:-0.5 18:-1 19:-0.68 20:-1 21:0.36634 22:-1 23:-1 24:-1 25:-1 26:-0.33 
10 1:-0.96875 2:0.99994 3:-0.72461 4:-0.81055 5:-0.06 6:0.07778 7:-0.43125 8:-0.28906 9:-0.335 10:-0.01667 11:-0.59397 12:0.14167 13:0.05833 14:-0.00833 15:0.07917 16:-0.13333 17:-0.8 18:-0.752 19:-0.81333 20:-0.6 21:-0.41337 22:-1 23:-1 24:-1 25:-1 26:-0.42 
10 1:-0.98047 2:0.99999 3:-0.87305 4:-0.80273 5:0.08333 6:0.12222 7:1 8:-0.9681 9:0.5 10:-0.2 11:-0.26373 12:-0.05333 13:0.02 14:0.10667 15:0.09333 16:0.04 17:-0.98889 18:-0.94 19:-0.93333 20:-0.41584 21:-0.38614 22:-0.8 23:-1 24:-1 25:-1 26:-0.79 
4.96439645466342 1:-0.86719 2:1 3:-0.10352 4:-0.66797 5:-0.1 6:-0.66667 7:-0.00537 8:0.09681 9:-0.09265 10:-0.275 11:1 12:-0.25392 13:-0.33137 14:-0.38333 15:-0.31863 16:-0.27353 17:-0.05062 18:-0.93412 19:-0.75294 20:0.68317 21:-0.44321 22:-0.4 23:-0.6 24:-1 25:-1 26:-0.09 
10 1:-0.98828 2:0.99996 3:-1 4:-0.89844 5:-1 6:-0.42222 7:-1 8:1 9:-1 10:-0.275 11:0.39994 12:-0.54444 13:-0.38889 14:-0.42222 15:-0.17778 16:-0.03333 17:-0.95 18:-1 19:-0.90667 20:-1 21:0.0231 22:-1 23:-1 24:-1 25:-1 26:-0.37 
10 1:-0.98047 2:0.99921 3:-0.89258 4:-0.87891 5:-0.08333 6:-0.31111 7:0.5625 8:1 9:-0.425 10:0.24167 11:-0.26373 12:-0.28667 13:-0.22 14:-0.22 15:-0.19333 16:-0.13333 17:-0.98889 18:-0.82 19:-0.94667 20:0.0099 21:-0.26337 22:-1 23:-1 24:-1 25:-1 26:-0.92 
10 1:-0.89062 2:0.8609 3:-0.02344 4:-0.73047 5:0.025 6:0.15 7:-0.10624 8:-0.83984 9:-0.20104 10:-0.275 11:-0.99991 12:0.08333 13:-0.08571 14:0.04286 15:-0.06667 16:-0.00595 17:-0.97017 18:-0.85667 19:-0.87 20:0.33251 21:-0.76803 22:-1 23:-1 24:-1 25:-1 26:-0.49 
10 1:-0.98828 2:0.99996 3:-1 4:-0.89258 5:-1 6:-0.38889 7:-1 8:1 9:-1 10:-0.34167 11:0.39994 12:-0.41111 13:-0.33333 14:-0.38889 15:-0.63333 16:-0.65556 17:-0.95 18:-1 19:-0.81333 20:-1 21:0.0495 22:-1 23:-1 24:-0.8 25:-1 26:-0.66 
10 1:-0.92969 2:1 3:-0.52148 4:-0.79492 5:-0.18333 6:-0.5625 7:-0.8428 8:-0.63117 9:0.005 10:-0.125 11:0.39971 12:-0.05556 13:-0.1037 14:-0.35185 15:-0.17407 16:-0.16481 17:-0.9875 18:-0.912 19:-0.75 20:-0.75446 21:-0.72387 22:-0.8 23:-0.8 24:-1 25:-1 26:-0.89 
10 1:-0.90234 2:0.99879 3:-0.02344 4:-0.72461 5:-0.10526 6:-0.21667 7:0.10934 8:1 9:0.04342 10:-0.24583 11:-0.96013 12:-0.02133 13:-0.14 14:-0.132 15:-0.19333 16:-0.05333 17:-0.9756 18:-0.93895 19:-0.74667 20:0.17353 21:-0.7402 22:-1 23:-1 24:-1 25:-1 26:-0.74 
10 1:-0.98047 2:0.99843 3:-0.76758 4:-0.87109 5:0.32222 6:0.1 7:0.05534 8:-0.23438 9:0.5 10:0.5 11:-0.66696 12:0.1 13:0.28667 14:0.23333 15:0.18667 16:0.32667 17:-0.95 18:-0.96 19:-0.92 20:-0.63036 21:-0.62772 22:-1 23:-1 24:-1 25:-1 26:-0.91 
10 1:-0.96875 2:0.99998 3:-0.82812 4:-0.84375 5:-0.02222 6:-0.46667 7:0.86393 8:1 9:-0.01667 10:-0.18 11:0.25719 12:-0.08333 13:-0.11667 14:-0.3 15:-0.15 16:-0.1875 17:-0.99639 18:-0.96 19:-0.816 20:-0.61716 21:-0.29455 22:-0.8 23:-0.4 24:-1 25:-1 26:-0.65 
10 1:-0.98828 2:0.99963 3:-0.93359 4:-0.85938 5:0.13333 6:0.2 7:-1 8:0.41016 9:-0.275 10:0.5 11:-0.44576 12:0.18889 13:0.07778 14:0.17778 15:0.06667 16:0.21111 17:-0.99 18:-1 19:-0.92 20:-0.36634 21:-0.70957 22:-1 23:-1 24:-1 25:-1 26:-0.95 
10 1:-0.96094 2:1 3:-0.64648 4:-0.80078 5:0.00556 6:-0.15 7:-0.66296 8:0.02783 9:-0.0625 10:-0.31875 11:-0.4072 12:0.18667 13:0.16333 14:-0.05667 15:-0.05333 16:0.02333 17:-0.99 18:-0.89333 19:-0.94 20:0.60066 21:-0.37228 22:-0.4 23:-1 24:-1 25:-1 26:-0.67 
10 1:-0.97656 2:0.99843 3:-0.79492 4:-0.87109 5:0.16667 6:-0.26667 7:1 8:1 9:-0.01667 10:0.5 11:-0.37788 12:0.02778 13:-0.1 14:-0.05 15:0.14444 16:0.12778 17:-0.95889 18:-0.97333 19:-0.96 20:0.45215 21:-0.38614 22:-1 23:-0.8 24:-1 25:-1 26:-0.83 
10 1:-0.92578 2:0.941 3:-0.02344 4:-0.80469 5:0.32667 6:-0.16667 7:0.53724 8:0.37549 9:0.5 10:-0.08125 11:-0.98228 12:-0.01754 13:0.21579 14:0.22281 15:0.08947 16:0.18947 17:-0.18992 18:-0.97867 19:-0.72 20:0.2132 21:-0.74883 22:-1 23:-1 24:-0.8 25:-1 26:-0.98 
10 1:-0.98828 2:0.99996 3:-1 4:-0.88281 5:-1 6:-0.33333 7:-1 8:1 9:-1 10:0.5 11:0.39994 12:-0.14444 13:-0.14444 14:-0.33333 15:-0.27778 16:-0.28889 17:-0.95 18:-1 19:-0.92 20:-1 21:0.21452 22:-1 23:-0.8 24:-1 25:-1 26:-0.83 
7.990699611711865 1:-0.79688 2:1 3:-0.02344 4:-0.33789 5:-0.03496 6:0.02727 7:0.57791 8:0.21683 9:-0.01707 10:-0.46591 11:-0.99967 12:-0.00705 13:-0.00064 14:-0.02179 15:0.06026 16:0.04615 17:1 18:-0.98537 19:-0.61091 20:0.04226 21:-0.85644 22:-0.6 23:-0.8 24:-1 25:-1 26:-0.94 
10 1:-0.98047 2:0.99921 3:-0.83008 4:-0.86719 5:-0.03333 6:0.13333 7:1 9:0.24167 10:0.5 11:-0.66696 12:0.20667 13:0.11333 14:0.03333 15:0.1 16:0.18667 17:-0.98889 18:-0.94667 19:-0.94 20:0.05611 21:-0.4297 22:-1 23:-1 24:-1 25:-1 26:-0.97 
10 1:-0.94141 2:1 3:-0.64648 4:-0.79688 5:-0.1381 6:-0.56667 7:0.41518 8:1 9:0.01429 10:-0.08125 11:0.75223 12:0.23778 13:0.22889 14:-0.36667 15:-0.15556 16:-0.38222 17:-0.98816 18:-0.96571 19:-0.795 20:-0.27298 21:-0.50363 22:-0.8 23:-1 24:-1 25:-1 26:-0.87 
10 1:-0.98828 2:0.99963 3:-0.96094 4:-0.86133 5:-0.33333 6:0.18333 7:-1 8:1 9:-0.275 10:-0.275 11:-0.44576 12:-0.05556 13:0.06667 14:0.01111 15:0.07778 16:0.06667 17:-0.99889 18:-0.96 19:-0.94 20:0.56436 21:-0.33333 22:-0.6 23:-0.4 24:-1 25:-1 26:-0.64 
10 1:-0.92969 2:0.44333 3:-0.11719 4:-0.86523 5:-0.05833 6:0.15 7:0.65455 8:0.12891 9:0.14219 10:0.1125 11:-0.99959 12:-0.03704 13:-0.11852 14:-0.03519 15:-0.19815 16:-0.09074 17:-0.98 18:-0.9375 19:-0.92 20:-0.10767 21:-0.93179 22:-1 23:-1 24:-1 25:-1 26:-0.98 
10 1:-0.97656 2:0.99687 3:-0.75195 4:-0.86133 5:0.05833 6:0.18333 7:-0.12695 8:-1 9:-0.08125 10:0.5 11:-0.75634 12:0.13889 13:0.22222 14:0.1 15:0.11111 16:0.25 17:-0.98889 18:-0.92 19:-0.96 20:-0.71287 21:-0.9868 22:-0.8 23:-1 24:-1 25:-1 26:-0.9 
10 1:-0.94141 2:0.99232 3:-0.08594 4:-0.80273 5:0.3 6:0.12222 7:0.00395 8:0.86784 9:0.1125 10:-0.375 11:-0.97948 12:0.06889 13:0.02667 14:0.26444 15:0.07778 16:0.14222 17:-0.9575 18:-0.98 19:-0.73333 20:-0.25248 21:-0.8363 22:-1 23:-0.8 24:-1 25:-1 26:-0.75 
10 1:-0.83594 2:-0.18327 3:-0.02344 4:-0.66992 5:0.17748 6:0.12667 7:0.51731 8:0.90957 9:0.04392 10:0.035 11:-1 12:0.20714 13:0.23095 14:0.17143 15:0.0746 16:0.08413 17:-0.9924 18:-0.95027 19:-0.936 20:0.1057 21:-0.89816 22:-0.2 23:-1 24:-1 25:-1 26:-0.73 
10 1:-0.98438 2:0.99963 3:-0.93945 4:-0.85156 5:-0.48333 6:0.26667 7:-0.9209 8:1 9:0.5 10:-0.275 11:-0.56669 12:-0.15833 13:-0.16667 14:-0.10833 15:-0.14167 16:-0.175 17:-0.5 18:-0.96 19:-0.94 20:-0.47525 21:-0.36139 22:-0.8 23:-0.6 24:-1 25:-1 26:-0.93 
10 1:-0.96484 2:0.99988 3:-0.58789 4:-0.83398 5:0.17222 6:-0.05556 7:0.40059 8:1 9:0.37083 10:-0.21667 11:-0.69155 12:0.05556 13:0.2 14:0.0963 15:0.30741 16:0.33333 17:-0.9875 18:-0.94667 19:-0.85333 20:-0.37624 21:-0.73597 22:-1 23:-0.6 24:-1 25:-1 26:-0.64 
10 1:-0.97656 2:0.99998 3:-0.80859 4:-0.80078 5:0.08889 6:0.13333 7:1 8:1 9:-0.11667 10:-0.49167 11:-0.37788 12:-0.05 13:0.13889 14:0.11111 15:0.00556 16:0.15556 17:-0.5075 18:-0.96 19:-0.73333 20:0.37294 21:-0.47525 22:-1 23:-1 24:-1 25:-1 26:-0.87 
10 1:-0.98438 2:1 3:-1 4:-0.80469 5:-1 6:-0.16667 7:-1 8:1 9:-1 10:-0.6375 11:0.84665 12:0.025 13:0.05 14:-0.16667 15:0.025 16:0.04167 17:-0.99 18:-1 19:-0.88 20:-1 21:0.29703 22:-0.8 23:-0.6 24:-1 25:-1 26:-0.8 
10 1:-0.98047 2:0.99999 3:-0.88867 4:-0.81445 5:-0.05 6:0.05556 7:-0.97559 8:0.16602 9:-0.4375 10:-0.325 11:-0.26373 12:0.02667 13:0.16 14:0.01333 16:0.05333 17:-0.71 18:-0.96 19:-0.90667 20:0.67327 21:-0.09703 22:-1 23:-0.6 24:-0.8 25:-1 26:-0.97 
10 1:-0.99219 2:0.99331 3:-1 4:-0.92969 5:-1 6:-0.4 7:-1 8:0.12891 9:-1 10:0.5 11:-0.03593 12:-0.33333 13:-0.35 14:-0.4 15:-0.33333 16:-0.35 17:-0.98 18:-1 19:-0.94 20:-1 21:-0.42574 22:-1 23:-1 24:-1 25:-1 26:-0.98 
10 1:-0.97656 2:0.99843 3:-0.7832 4:-0.8457 5:-0.075 6:0.31667 7:1 8:-0.99609 9:0.30625 10:-0.275 11:-0.75634 12:-0.13333 13:-0.18889 14:0.05556 15:-0.02222 16:-0.23333 17:-0.99 18:-1 19:-0.96 20:-0.38119 21:-0.76898 22:-1 23:-1 24:-1 25:-1 26:-0.83 
10 1:-0.98828 2:0.99996 3:-1 4:-0.86719 5:-1 6:-0.24444 7:-1 8:-0.19466 9:-1 10:-0.39167 11:0.39994 12:-0.1 13:-0.12222 14:-0.24444 15:-0.14444 16:-0.11111 17:-0.98889 18:-1 19:-0.93333 20:-1 21:0.33993 22:-1 23:-0.6 24:-1 25:-1 26:-0.56 
3.072565282269564 1:-0.98047 2:0.99843 3:-0.79883 4:-0.86914 5:0.14444 6:0.11667 7:0.90299 8:-0.38965 9:0.24167 10:0.5 11:-0.66696 13:0.24 14:0.13333 15:-0.02 16:-0.06 17:-0.98889 18:-0.98667 19:-0.94 20:0.12211 21:-0.74257 22:-1 23:-1 24:-1 25:-1 26:-0.52 
10 1:-0.98047 2:1 3:-0.96875 4:-0.76562 5:-0.46667 7:-1 8:0.63086 9:-0.025 10:-0.49375 11:0.22404 12:0.06667 13:-0.10667 14:-0.09333 15:-0.08667 16:0.08 17:-0.1 18:-0.72 19:-0.84 20:-0.50495 21:-0.5802 22:-1 23:-1 24:-1 25:-0.8 26:-0.79 
10 1:-0.98438 2:0.99963 3:-0.92383 4:-0.85938 5:-0.35 6:0.2 7:1 8:1 9:0.5 10:0.5 11:-0.56669 12:0.275 13:-0.11667 14:-0.075 15:-0.18333 16:-0.175 17:-0.98 18:-0.94 19:-0.94 20:0.12871 21:-0.45545 22:-1 23:-1 24:-1 25:-1 26:-1 
10 1:-0.98828 2:0.99963 3:-0.9375 4:-0.86719 5:0.06667 6:0.13333 7:-1 8:-0.12109 9:-0.575 10:0.5 11:-0.44576 12:0.07778 13:0.15556 14:0.11111 15:0.03333 16:0.22222 17:-0.99 18:-0.88 19:-0.92 20:-0.78218 21:-0.74917 22:-0.8 23:-1 24:-1 25:-1 26:-0.75 
10 1:-0.93359 2:1 3:-0.61133 4:-0.8125 5:-0.26296 6:-0.6 7:-0.53689 8:-0.00338 9:0.06944 10:0.01562 11:0.51719 12:0.22745 13:0.22353 14:-0.42157 15:-0.12549 16:-0.10196 17:-0.9704 18:-0.92 19:-0.82 20:-0.68097 21:-0.58649 22:-0.6 23:-1 24:-1 25:-1 26:-0.85 
10 1:-0.94531 2:0.8225 3:-0.23242 4:-0.86719 5:0.09167 6:0.13333 7:-0.21788 8:1 9:0.37083 10:0.5 11:-0.99572 12:0.04524 13:0.02143 14:0.09762 15:0.06905 16:-0.06429 17:-0.9875 18:-0.98 19:-0.96 20:0.37789 21:-0.85856 22:-0.8 23:-1 24:-1 25:-1 26:-0.88 
10 1:-0.94141 2:0.90668 3:-0.27148 4:-0.86914 5:-0.04359 6:0.11667 7:0.31831 8:-0.17871 9:0.14231 10:0.5 11:-0.99761 12:0.00222 13:-0.17333 14:-0.02222 15:0.08667 16:-0.08 17:-0.66 18:-0.93538 19:-0.92 20:-0.08606 21:-0.79538 22:-1 23:-1 24:-1 25:-1 26:-0.97 
10 1:-0.98438 2:0.99921 3:-0.85742 4:-0.86914 5:0.21667 6:0.11667 7:-0.60938 8:1 9:0.1125 10:0.5 11:-0.56669 12:0.14167 13:0.025 14:0.16667 15:0.00833 16:0.28333 17:-0.74 18:-0.8 19:-0.94 20:0.60396 21:-0.32673 22:-1 23:-1 24:-1 25:-1 26:-0.93 
10 1:-0.99219 2:0.99331 3:-1 4:-0.92188 5:-1 6:-0.33333 7:-1 8:1 9:-1 10:0.5 11:-0.03593 12:0.03333 13:-0.03333 14:-0.33333 15:-0.28333 16:-0.36667 17:-0.98 18:-1 19:-0.96 20:-1 21:-0.33663 22:-0.8 23:-1 24:-1 25:-1 26:-0.73 
10 1:-0.93359 2:0.96991 3:-0.02344 4:-0.80469 5:0.25952 6:0.11111 7:0.28349 8:0.73633 9:0.16786 10:0.5 11:-0.99344 12:0.10196 13:0.25294 14:0.23333 15:0.26471 16:0.15882 17:-0.99778 18:-0.98286 19:-0.94667 20:-0.38755 21:-0.90914 22:-1 23:-1 24:-1 25:-1 26:-1 
10 1:-0.87109 2:1 3:-0.02344 4:-0.71289 5:-0.14127 6:-0.59167 7:-0.77097 8:-0.38654 9:0.26429 10:-0.23542 11:0.39413 12:-0.14902 13:-0.32451 14:-0.30588 15:-0.05196 16:0.01471 17:-0.99625 18:-0.95619 19:-0.72 20:-0.75295 21:-0.75158 22:-1 23:-0.6 24:-1 25:-1 26:-0.9 
10 1:-0.71484 2:1 3:-0.02344 4:-0.40039 5:0.10942 6:-0.62099 7:0.60272 8:0.89799 9:0.26413 10:-0.02778 11:1 12:0.14795 13:0.05708 14:-0.16073 15:0.22009 16:0.23151 17:-0.98686 18:-0.96696 19:-0.86963 20:-0.13603 21:-0.58117 22:-0.4 23:-0.8 24:-1 25:-1 26:-0.77 
10 1:-0.99219 2:0.99996 3:-1 4:-0.85156 5:-1 6:0.26667 7:-1 8:-0.64746 9:-1 10:0.5 11:-0.03593 12:0.21667 13:0.3 14:0.26667 15:0.2 16:-0.2 17:-0.98 18:-1 19:-0.92 20:-1 21:-0.29703 22:-1 23:-0.8 24:-1 25:-1 26:-0.87 
10 1:-0.96484 2:1 3:-0.69727 4:-0.83594 5:0.03333 6:-0.3 7:-0.38906 8:-0.20394 9:0.345 10:-0.08125 11:-0.29428 12:0.06667 13:0.08148 14:-0.11481 15:-0.13704 16:-0.09259 17:-0.98556 18:-1 19:-0.81 20:-0.59208 21:-0.60616 22:-1 23:-1 24:-0.8 25:-1 26:-0.99 
10 1:-0.95312 2:0.90668 3:-0.27539 4:-0.86133 5:0.23667 6:0.18333 7:0.53724 8:-0.97559 9:0.5 10:0.1125 11:-0.98646 12:0.075 13:0.20833 14:0.22778 15:0.12222 16:0.075 17:-0.98 18:-0.976 19:-0.92 20:0.16436 21:-0.74092 22:-1 23:-1 24:-1 25:-0.8 26:-0.97 
10 1:-0.98438 2:1 3:-0.93359 4:-0.81445 5:0.13333 6:0.05556 7:-1 8:1 9:-0.275 10:-0.41667 11:-0.12055 12:-0.1 13:-0.05 14:0.075 15:-0.075 16:-0.13333 17:-0.42 18:-0.8 19:-0.82667 20:0.58416 21:-0.43564 22:-1 23:-0.8 24:-1 25:-1 26:-0.75 
10 1:-0.98828 2:1 3:-1 4:-0.84961 5:-1 6:-0.14444 7:-1 8:1 9:-1 10:-0.48333 11:0.39994 12:-0.04444 13:-0.1 14:-0.14444 15:0.01111 16:-0.18889 17:-0.98889 18:-1 19:-0.96 20:-1 21:0.17492 22:-0.6 23:-1 24:-1 25:-1 26:-0.98 
10 1:-0.97266 2:1 3:-0.93945 4:-0.67773 5:0.03333 6:-0.08333 7:-1 8:-0.32077 10:-0.3625 11:0.97193 12:0.0381 13:-0.00476 14:-0.06667 15:0.00476 16:-0.02857 17:-0.9 18:-0.92 19:-0.88 20:0.14851 21:-0.3239 22:-0.8 23:-1 24:-1 25:-1 26:-0.87 
10 1:-0.98047 2:0.99999 3:-0.9043 4:-0.83984 5:-0.18333 6:-0.08889 7:-0.60938 8:0.14518 9:-0.1875 10:-0.425 11:-0.26373 12:-0.04 13:-0.01333 14:-0.12667 15:-0.04667 16:0.01333 17:-0.71 18:-0.84 19:-0.82667 20:-0.06931 21:-0.21188 22:-1 23:-0.8 24:-1 25:-1 26:-0.67 
10 1:-0.97266 2:1 3:-0.90234 4:-0.79102 5:-0.16667 6:-0.28667 7:1 8:0.60488 9:-0.7375 10:-0.485 11:0.37695 12:-0.34762 13:-0.22857 14:-0.25238 15:-0.17619 16:-0.12381 17:-0.9875 18:-0.96 19:-0.88 20:0.19802 21:-0.34653 22:-1 23:-0.6 24:-1 25:-1 26:-0.81 
10 1:-0.99219 2:0.99996 3:-1 4:-0.87305 5:-1 6:0.08333 7:-1 8:-0.83496 9:-1 10:-0.45 11:-0.03593 12:0.08333 13:-0.01667 14:0.08333 15:0.03333 16:0.15 17:-0.98 18:-1 19:-0.96 20:-1 21:-0.67327 22:-1 23:-1 24:-1 25:-1 26:-0.93 
10 1:-0.97656 2:1 3:-0.87305 4:-0.8125 5:0.08333 6:-0.2 7:-0.85938 8:0.03776 9:-0.1875 10:-0.58125 11:0.05469 12:0.03889 13:0.02778 14:-0.10556 15:0.05 16:0.09444 17:-0.99529 18:-1 19:-0.95 20:-0.40594 21:-0.43234 22:-0.6 23:-0.6 24:-1 25:-1 26:-0.79 
10 1:-0.97656 2:0.99843 3:-0.82031 4:-0.85547 5:-0.23333 6:0.23333 7:0.55859 8:-0.99121 9:0.21875 10:0.5 11:-0.75634 12:-0.01111 13:0.01667 14:-0.07778 15:0.14444 16:0.11667 17:-0.9 18:-0.94 19:-0.96 20:-0.18812 21:-0.80528 22:-1 23:-0.4 24:-0.8 25:-1 26:-0.81 
10 1:-0.98828 2:0.99963 3:-0.93164 4:-0.85547 5:0.16667 6:0.23333 7:-1 8:-1 9:0.5 10:-0.275 11:-0.44576 12:0.06667 13:0.23333 14:0.21111 15:-0.02222 17:-0.66 18:-0.88 19:-0.82 20:0.80198 21:-0.80198 22:-0.8 23:-1 24:-1 25:-1 26:-0.89 
10 1:-0.98828 2:0.99996 3:-1 4:-0.89648 5:-1 6:-0.41111 7:-1 8:0.86784 9:-1 10:-0.01667 11:0.39994 12:-0.55556 13:-0.54444 14:-0.41111 15:-0.12222 16:0.08889 17:-0.98889 18:-1 19:-0.81333 20:-1 21:0.28053 22:-0.6 23:0.8 24:-1 25:-1 26:-0.43 
7.042411106321697 1:-0.97656 2:0.99687 3:-0.74219 4:-0.86328 5:0.1 6:0.16667 7:0.62158 8:-0.28809 9:0.5 10:0.5 11:-0.75634 12:0.23333 13:0.27222 14:0.12222 15:0.23333 16:0.03333 17:-0.98 18:-0.98 19:-0.94 20:0.00495 21:-0.42904 22:-1 23:-1 24:-1 25:-1 26:-0.87 
10 1:-0.64062 2:0.99146 3:-0.02344 4:-0.46289 5:-0.04865 6:-0.49074 7:0.64848 8:0.71117 9:0.26182 10:-0.1625 11:-1 12:-0.14275 13:-0.225 14:-0.13514 15:0.10072 16:0.07645 17:-0.97903 18:-0.9627 19:-0.78 20:-0.06449 21:-0.7882 22:-1 23:-1 24:-1 25:-1 26:-0.93 
10 1:-0.47656 2:1 3:-0.02344 4:-0.2207 5:-0.14912 6:-0.65897 7:0.51604 8:0.21129 9:0.26526 10:0.075 11:0.38586 12:-0.1903 13:-0.15224 14:-0.29751 15:0.15622 16:0.19577 17:-0.9997 18:-0.95579 19:-0.86462 20:0.15435 21:-0.75174 22:-1 23:-0.8 24:-1 25:-1 26:-0.77 
10 1:-0.94531 2:1 3:-0.54883 4:-0.8418 5:-0.0375 6:-0.55 7:-0.79133 8:0.79355 9:0.30625 10:0.1125 11:-0.00773 12:0.23571 13:0.22619 14:-0.25714 15:0.05952 16:0.01429 17:-0.9875 18:-0.98 19:-0.88667 20:-0.77475 21:-0.64781 22:-0.8 23:-0.8 24:-1 25:-1 26:-0.98 
10 1:-0.66016 2:1 3:-0.02344 4:-0.4668 5:-0.20242 6:-0.71562 7:0.25342 8:0.52558 9:0.16 10:-0.13203 11:1 12:-0.37395 13:-0.26169 14:-0.39119 15:-0.0682 16:-0.05939 17:-0.99715 18:-0.95055 19:-0.7925 20:0.36454 21:-0.6834 22:-1 23:-0.8 24:-1 25:-1 26:-0.66 
10 1:-0.98047 2:0.99843 3:-0.79688 4:-0.85742 5:0.15556 6:0.21667 7:0.33073 8:-0.83496 9:-0.01667 10:0.5 11:-0.66696 12:0.18667 13:0.24667 14:0.18 15:-0.03333 16:0.10667 17:-0.98889 18:-0.96 19:-0.94 20:-0.20132 21:-0.30693 22:-1 23:-1 24:-1 25:-1 26:-0.94 
10 1:-0.98047 2:0.99843 3:-0.80664 4:-0.87109 5:0.1 6:0.1 7:1 8:1 9:-0.01667 10:0.5 11:-0.66696 12:0.19333 13:0.18 14:0.1 15:0.04667 16:0.01333 17:-0.98889 18:-0.92 19:-0.92 20:-0.34653 21:-0.67921 22:-1 23:-1 24:-1 25:-1 26:-0.91 
10 1:-0.97656 2:0.99999 3:-0.89648 4:-0.84375 5:-0.41111 6:-0.11111 7:0.11198 8:0.91862 9:-0.49167 10:-0.23333 11:-0.37788 12:-0.23333 13:-0.13889 14:-0.26111 15:-0.07778 16:-0.1 17:-0.99639 18:-0.8 19:-0.93333 20:0.55116 21:-0.52805 22:-1 23:-0.8 24:-1 25:-1 26:-0.91 
10 1:-0.98047 2:0.99843 3:-0.83789 4:-0.85547 5:-0.07778 6:0.23333 7:1 8:-0.99902 9:-0.01667 10:-0.0375 11:-0.66696 12:0.01333 13:-0.1 14:0.04667 15:0.12667 16:0.08667 17:-0.5 18:-0.85333 19:-0.88 20:-0.10231 21:-0.54455 22:-0.8 23:-0.8 24:-1 25:-1 26:-0.85 
10 1:-0.98047 2:0.99843 3:-0.75586 4:-0.88281 5:0.38889 7:-0.43294 8:1 9:0.05 10:0.1125 11:-0.66696 12:0.01333 13:0.20667 14:0.23333 15:0.26667 16:0.31333 17:-0.95 18:-0.98667 19:-0.94 20:-0.51815 21:-0.80198 22:-1 23:-0.6 24:-1 25:-1 26:-0.75 
9.819494838126017 1:-0.89453 2:1 3:-0.15039 4:-0.81055 5:-0.19444 6:-0.64074 7:1 8:0.08111 9:0.1125 10:0.15556 11:-0.21505 12:-0.28889 13:-0.29136 14:-0.34321 15:-0.08148 16:-0.08395 17:-0.99868 18:-0.94444 19:-0.84889 20:0.18372 21:-0.70664 22:-0.8 23:-0.4 24:-1 25:-1 26:-0.67 
10 1:-0.98828 2:0.99963 3:-0.91992 4:-0.85938 5:0.36667 6:0.2 7:-1 8:0.48535 9:0.5 10:0.5 11:-0.44576 12:0.37778 13:0.34444 14:0.25556 15:0.38889 16:0.48889 17:-0.99 18:-1 19:-0.94 20:-0.80198 21:-0.67657 22:-1 23:-0.4 24:-1 25:-1 26:-0.59 
3.236345828014769 1:-0.90625 2:0.99998 3:-0.02344 4:-0.70117 5:0.01765 6:-0.27143 7:-0.17064 8:0.04743 9:-0.23676 10:-0.31786 11:-0.69592 12:0.08333 13:0.07361 14:-0.06667 15:-0.21944 16:0.01806 17:-0.97532 18:-0.95294 19:-0.66286 20:-0.27897 21:-0.69719 22:-0.4 23:-1 24:-1 25:-1 26:-0.52 
10 1:-0.98828 2:0.99963 3:-0.92969 4:-0.86328 5:0.2 6:0.16667 7:-1 8:-0.4834 9:0.5 10:0.5 11:-0.44576 12:0.27778 13:0.13333 14:0.17778 15:0.11111 16:0.12222 17:-0.9 18:-0.88 19:-0.94 20:0.58416 21:-0.71617 22:-1 23:-1 24:-1 25:-0.8 26:-0.89 
10 1:-0.67969 2:1 3:-0.02344 4:-0.46094 5:0.03457 6:-0.67143 7:0.67082 8:0.24021 9:0.16435 10:-0.10089 11:1 12:-0.22561 13:-0.19919 14:-0.2065 15:0.13374 16:0.12439 17:-0.95999 18:-0.97185 19:-0.82571 20:0.03557 21:-0.67013 22:-1 23:-0.8 24:-1 25:-1 26:-0.97 
10 1:-0.98047 2:0.99843 3:-0.80859 4:-0.86719 5:0.08889 6:0.13333 7:1 8:-0.4834 9:-0.11667 10:0.5 11:-0.66696 12:0.1 13:0.16667 14:0.10667 15:0.26 16:0.32667 17:-0.9875 18:-0.96 19:-0.96 20:-0.40594 21:-0.54455 22:-1 23:-0.8 24:-1 25:-1 26:-0.92 
10 1:-0.9375 2:0.98766 3:-0.66016 4:-0.86523 5:-0.35556 6:-0.67143 7:0.0332 8:0.14676 9:0.06944 10:-0.05357 11:0.1957 12:-0.27917 13:-0.45208 14:-0.49375 15:-0.15833 16:-0.225 17:-0.3375 18:-0.89778 19:-0.81714 20:0.39934 21:-0.60891 22:-1 23:-0.8 24:-1 25:-1 26:-0.89 
10 1:-0.96094 2:1 3:-0.78516 4:-0.71094 5:0.22222 6:-0.29524 7:-0.97982 8:0.37267 9:-0.23333 10:-0.59286 11:0.90075 12:-0.14 13:0.1 14:-0.14 15:-0.19 16:-0.15333 17:-0.96 18:-0.94667 19:-0.90857 20:-0.55116 21:-0.37822 22:-1 23:-1 24:-1 25:-1 26:-0.81 
10 1:-0.96094 2:1 3:-0.79102 4:-0.73438 5:0.18889 6:-0.35238 7:-0.97982 8:0.37267 9:-0.23333 10:-0.59286 11:0.90075 12:0.1 13:-0.14 14:-0.19 15:-0.15333 16:-0.01667 17:-0.96 18:-0.94667 19:-0.90857 20:-0.53135 21:-0.36436 22:-0.8 23:-1 24:-1 25:-1 26:-0.87 
10 1:-0.95703 2:0.99951 3:-0.47852 4:-0.77148 5:0.1125 6:0.3 7:0.02846 8:-0.74805 9:-0.13125 10:-0.00833 11:-0.84837 12:0.12424 13:0.09394 14:0.16364 15:0.06364 16:0.03939 17:-0.92 18:-0.955 19:-0.92 20:-0.0297 21:-0.82178 22:-0.8 23:-1 24:-1 25:-1 26:-0.91 
10 1:-0.98828 2:1 3:-1 4:-0.81445 5:-1 6:0.05556 7:-1 8:-0.77279 9:-1 10:-0.575 11:0.39994 12:-0.15556 13:0.06667 14:0.05556 15:0.02222 16:-0.11111 17:-0.95 18:-1 19:-0.90667 20:-1 21:-0.63696 22:-1 23:-1 24:-1 25:-1 26:-0.93 
10 1:-0.94922 2:1 3:-0.61719 4:-0.73438 5:-0.27407 6:0.13333 7:1 8:-0.81706 9:-0.44722 10:-0.33125 11:-0.71534 12:-0.04872 13:-0.13846 14:-0.14872 15:-0.06923 16:-0.04872 17:-0.99556 18:-0.96 19:-0.93 20:-0.06711 21:-0.63138 22:-1 23:-0.6 24:-1 25:-1 26:-0.83 
10 1:-0.95312 2:1 3:-0.66211 4:-0.70703 5:-0.17619 7:0.32673 8:-0.68301 9:-0.43929 10:-0.585 11:-0.20958 12:-0.04167 13:0.01944 14:-0.10278 15:-0.13333 16:-0.1 17:-0.97222 18:-0.96571 19:-0.856 20:-0.37482 21:-0.71617 22:-0.8 23:-0.8 24:-1 25:-1 26:-0.93 
10 1:-0.94531 2:1 3:-0.67773 4:-0.6543 5:-0.21429 6:-0.15714 7:0.32673 8:-0.10231 9:-0.43929 10:-0.63929 11:0.43047 12:-0.2 14:-0.18571 15:-0.11667 16:-0.14286 17:-0.9964 18:-0.96571 19:-0.88571 20:-0.21641 21:-0.68883 22:-1 23:-0.8 24:-1 25:-1 26:-0.93 
10 1:-0.98828 2:1 3:-1 4:-0.82617 5:-1 6:-0.01111 7:-1 8:1 9:-1 10:-0.575 11:0.39994 12:-0.08889 13:-0.15556 14:-0.01111 16:-0.07778 17:-0.95 18:-1 19:-0.90667 20:-1 21:-0.12211 22:-0.8 23:-1 24:-1 25:-0.8 26:-0.96 
3.757219813538917 1:-0.97656 2:1 3:-1 4:-0.75195 5:-1 6:-0.29444 7:-1 8:-0.64342 9:-1 10:-0.63333 11:1 12:-0.27778 13:-0.05556 14:-0.29444 15:-0.31111 16:-0.22222 17:-0.93556 18:-1 19:-0.83333 20:-1 21:0.40924 22:-1 23:-1 24:-1 25:-1 26:-0.99 
10 1:-0.98047 2:1 3:-1 4:-0.66211 5:-1 6:0.15333 7:-1 8:0.11582 9:-1 10:-0.57 11:1 12:0.02667 13:-0.03333 14:0.15333 15:0.08 16:-0.1 17:-0.96222 18:-1 19:-0.856 20:-1 21:0.23564 22:-0.6 23:-1 24:-1 25:-1 26:-0.96 
10 1:-0.98828 2:1 3:-1 4:-0.79688 5:-1 6:0.15556 7:-1 8:-0.78125 9:-1 10:-0.375 11:0.39994 12:-0.13333 13:0.06667 14:0.15556 15:-0.01111 16:0.03333 17:-0.95 18:-1 19:-0.90667 20:-1 21:0.38614 22:-1 23:-0.8 24:-1 25:-1 26:-0.97 
10 1:-0.92969 2:1 3:-0.44531 4:-0.62305 5:-0.21111 6:0.07222 7:-0.32903 8:0.66302 9:-0.43333 10:-0.57917 11:-0.46508 12:-0.22037 13:-0.16667 14:-0.11667 15:-0.2 16:-0.06296 17:-0.98889 18:-0.92 19:-0.88 20:-0.22937 21:-0.58856 22:-0.8 23:-1 24:-1 25:-1 26:-0.95 
10 1:-0.97266 2:1 3:-1 4:-0.63867 5:-1 6:-0.11905 7:-1 8:1 9:-1 10:-0.62857 11:1 12:0.01905 13:-0.18095 14:-0.11905 15:-0.05714 16:-0.17619 17:-0.63 18:-1 19:-0.92571 20:-1 21:0.03253 22:-1 23:-0.8 24:-1 25:-1 26:-0.95 
10 1:-0.99219 2:0.99996 3:-1 4:-0.87891 5:-1 6:0.03333 7:-1 8:-0.4375 9:-1 10:-0.425 11:-0.03593 12:-0.01667 13:0.03333 14:0.03333 15:0.13333 16:-0.03333 17:-0.98 18:-1 19:-0.86 20:-1 21:0.62376 22:-0.8 23:-1 24:-1 25:-1 26:-0.92 
10 1:-0.92578 2:0.88593 3:-0.02344 4:-0.83398 5:0.075 6:-0.05556 7:0.1807 8:-0.875 9:0.23906 10:0.24167 11:-0.99795 12:0.24912 13:0.2386 14:0.05439 15:0.21404 16:0.11579 17:-0.95926 18:-0.9575 19:-0.89333 20:-0.48267 21:-0.88119 22:-0.8 23:-1 24:-1 25:-1 26:-0.97 
10 1:-0.98047 2:0.99921 3:-0.88281 4:-0.8418 6:-0.1 7:-0.28809 8:1 9:0.1125 10:-0.275 11:-0.26373 12:0.17333 14:-0.06 15:0.12 16:-0.31333 17:-0.5 18:-0.96 19:-0.72 20:0.55446 21:-0.18416 22:-1 23:-1 24:-1 25:-1 26:-0.67 
10 1:-0.83984 2:0.99999 3:-0.02344 4:-0.70703 5:-0.20123 6:-0.64286 7:0.8413 8:0.26478 9:0.24907 10:0.06964 11:0.33263 12:0.07236 13:0.05772 14:-0.35203 15:-0.1935 16:-0.27805 17:-0.92152 18:-0.9363 19:-0.86 20:-0.09204 21:-0.55518 22:-0.6 23:-1 24:-1 25:-1 26:-0.79 
10 1:-0.97656 2:1 3:-0.88086 4:-0.74023 5:0.01667 6:0.10833 7:-0.99121 8:1 9:-0.425 10:-0.45 11:0.05469 12:-0.07222 13:-0.10556 14:0.07778 15:0.08889 16:-0.06111 17:-0.98 18:-0.8 19:-0.9 20:0.39604 21:-0.46865 22:-1 23:-1 24:-1 25:-0.8 26:-0.9 
10 1:-0.79688 2:1 3:-0.02344 4:-0.5918 5:-0.10345 6:-0.6971 7:-0.01596 8:0.52888 9:-0.04483 10:-0.14022 11:1 12:-0.40566 13:-0.33208 14:-0.36541 15:0.03585 16:0.08428 17:-0.0974 18:-0.94759 19:-0.85043 20:0.31581 21:-0.60434 22:-1 23:-0.8 24:-1 25:-1 26:-0.97 
10 1:-0.97266 2:1 3:-0.99609 4:-0.84961 5:-0.93333 6:-0.57222 7:-1 8:0.93652 9:-0.275 10:-0.01667 11:0.97193 12:-0.62857 13:-0.62381 14:-0.62381 15:-0.05714 16:-0.0619 17:-0.85556 18:-0.76 19:-0.72667 20:-0.56436 21:-0.15983 22:-1 23:-0.8 24:-1 25:-1 26:-0.81 
10 1:-0.98047 2:0.99921 3:-0.83594 4:-0.85547 5:-0.06667 6:0.23333 7:0.54883 8:-0.12109 9:0.5 10:0.5 11:-0.66696 12:0.00667 14:0.05333 15:0.14 16:0.06667 17:-0.98889 18:-0.97333 19:-0.94 20:0.34653 21:-0.84158 22:-0.8 23:-1 24:-1 25:-1 26:-0.88 
10 1:-0.97266 2:0.99998 3:-0.82227 4:-0.78711 5:0.01111 6:-0.09167 7:0.62956 8:0.6263 9:0.5 10:-0.225 11:-0.06324 12:0.00952 13:0.09048 14:-0.04762 16:-0.06667 17:-0.95 18:-0.94667 19:-0.87 20:-0.51155 21:-0.5587 22:-1 23:-1 24:-1 25:-1 26:-0.85 
10 1:-0.98047 2:0.99921 3:-0.8418 4:-0.86523 5:-0.1 6:0.15 7:0.29362 8:0.48535 9:0.5 10:0.5 11:-0.66696 12:-0.07333 13:0.04 15:-0.07333 16:-0.05333 17:-0.98889 18:-0.96 19:-0.92 20:0.0429 21:-0.59208 22:-1 23:-1 24:-1 25:-1 26:-0.93 
10 1:-0.92188 2:0.99969 3:-0.05469 4:-0.75977 5:0.07556 6:-0.18 7:-0.43019 8:0.79199 9:0.29333 10:0.19 11:-0.92388 12:0.15167 13:0.11 14:0.01167 15:0.04167 16:0.115 17:-0.80551 18:-0.92 19:-0.832 20:0.3703 21:-0.63861 22:0.2 23:-1 24:-1 25:-1 26:-0.73 
10 1:-0.89453 2:0.98121 3:-0.02344 4:-0.74414 5:-0.01449 6:0.09167 7:-0.53979 8:-0.96354 9:0.04891 10:0.16875 11:-0.99983 12:0.06049 13:-0.04691 14:0.00123 15:0.08148 16:0.09012 17:-0.99313 18:-0.94783 19:-0.9 20:-0.52647 21:-0.71837 22:-1 23:-0.6 24:-1 25:-1 26:-0.93 
10 1:-0.98047 2:0.99843 3:-0.81445 4:-0.88477 5:0.05556 6:-0.01667 7:-0.31185 8:1 9:0.24167 10:0.1125 11:-0.66696 12:0.14667 13:0.06 14:0.02667 15:-0.01333 16:-0.05333 17:-0.5 18:-0.93333 19:-0.94 20:-0.05611 21:-0.64752 22:-0.6 23:-1 24:-1 25:-1 26:-0.96 
10 1:-0.98828 2:0.99963 3:-0.92578 4:-0.8457 5:0.26667 6:0.31667 7:-1 8:1 9:0.5 10:0.5 11:-0.44576 12:0.11111 13:0.14444 14:0.3 15:0.23333 16:0.18889 17:-0.99 18:-1 19:-0.94 20:0.40594 21:-0.23432 22:-1 23:-1 24:-1 25:-1 26:-0.93 
10 1:-0.97656 2:1 3:-0.93359 4:-0.7793 5:0.13333 6:-0.24667 7:-1 8:-0.04336 9:-0.275 10:-0.175 11:0.58703 12:0.02778 13:-0.08333 14:-0.18333 15:-0.20556 16:-0.17778 17:-0.88222 18:-0.8 19:-0.896 20:-0.86139 21:-0.46535 22:-0.4 23:-1 24:-1 25:-1 26:-0.55 
10 1:-0.98438 2:0.99963 3:-0.93359 4:-0.85547 5:-0.43333 6:0.23333 7:1 8:-0.97559 9:0.1125 10:0.5 11:-0.56669 12:-0.00833 13:-0.01667 14:-0.1 16:-0.11667 17:-0.98 18:-0.96 19:-0.92 20:0.22772 21:-0.40099 22:-1 23:-1 24:-1 25:-1 26:-0.81 
10 1:-0.98047 2:0.99963 3:-0.92773 4:-0.86133 5:-0.38333 6:-0.21111 7:1 8:1 9:-0.275 10:-0.275 11:-0.26373 12:-0.32 13:-0.32 14:-0.28 15:-0.47333 16:-0.35333 17:-0.26 18:-0.9 19:-0.85333 20:-0.08911 21:-0.2 22:-1 23:-1 24:-1 25:-1 26:-0.57 
5.687005519717938 1:-0.94531 2:0.99687 3:-0.7793 4:-0.86328 5:-0.37222 6:-0.70833 7:0.53359 8:0.3705 9:-0.01667 10:-0.17812 11:0.86977 12:-0.65476 13:-0.69286 14:-0.56429 15:-0.31429 16:-0.3881 17:-0.61556 18:-0.90667 19:-0.78 20:0.50495 21:-0.28006 22:-1 23:-1 24:-1 25:-1 26:-0.69 
10 1:-0.99219 2:0.99996 3:-1 4:-0.89258 5:-1 6:-0.08333 7:-1 8:-0.96484 9:-1 10:0.15 11:-0.03593 12:0.15 13:0.18333 14:-0.08333 15:0.11667 16:0.1 17:-0.98 18:-1 19:-0.94 20:-1 21:0.68317 22:-0.8 23:-1 24:-1 25:-1 26:-0.83 
10 1:-0.98047 2:0.99999 3:-0.89648 4:-0.8125 5:-0.11667 6:0.06667 7:-0.99121 8:1 9:-0.375 10:-0.45833 11:-0.26373 12:-0.00667 13:-0.10667 14:-0.00667 15:-0.14667 16:0.08 17:-0.98889 18:-1 19:-0.94667 20:-0.65347 21:-0.59208 22:-1 23:-1 24:-1 25:-1 26:-0.89 
10 1:-0.57422 2:0.99999 3:-0.02344 4:-0.43555 5:-0.18039 6:-0.59861 7:0.70696 8:0.95312 9:0.05588 10:-0.02917 11:-1 12:0.08073 13:0.05443 14:-0.27248 15:-0.18043 16:-0.28502 17:-0.99099 18:-0.93176 19:-0.85167 20:0.05183 21:-0.77128 22:-0.8 23:-1 24:-1 25:-1 26:-0.75 
10 1:-0.98828 2:1 3:-1 4:-0.86133 5:-1 6:-0.21111 7:-1 8:1 9:-1 10:-0.45833 11:0.39994 12:-0.16667 13:-0.1 14:-0.21111 15:-0.14444 16:-0.2 17:-0.98889 18:-1 19:-0.90667 20:-1 21:0.0495 22:-1 23:-1 24:-1 25:-1 26:-0.93 
10 1:-0.97656 2:1 3:-0.89648 4:-0.85938 5:-0.11667 6:-0.4 7:0.41016 8:-0.47852 9:0.5 10:0.0375 11:0.05469 12:0.20556 13:0.26667 14:-0.30556 15:-0.05556 16:0.05 17:-0.99 18:-0.96 19:-0.85 20:-0.60396 21:-0.53135 22:-0.8 23:-0.4 24:-1 25:-1 26:-0.97 
10 1:-0.97656 2:0.99843 3:-0.7832 4:-0.87109 5:-0.075 6:0.1 7:0.17627 8:1 9:0.5 10:0.1125 11:-0.75634 12:0.04444 13:-0.05 14:-0.01667 15:-0.05 16:-0.04444 17:-0.98 18:-0.97 19:-0.94 20:0.15347 21:-0.56766 22:-1 23:-1 24:-1 25:-1 26:-0.95 
10 1:-0.98047 2:0.99963 3:-0.91602 4:-0.8457 5:-0.28333 6:-0.12222 7:0.6416 8:-0.94076 9:0.1125 10:-0.23333 11:-0.26373 12:0.02 13:-0.04 14:-0.18667 15:0.00667 16:0.02 17:-0.95 18:-0.94 19:-0.82667 20:-0.21782 21:0.07723 22:-1 23:-1 24:-1 25:-1 26:-0.78 
10 1:-0.73828 2:0.99998 3:-0.02344 4:-0.47656 5:0.05146 6:-0.10667 7:0.53671 8:0.41903 9:-0.08509 10:-0.455 11:-1 12:-0.05423 13:-0.10697 14:0.02786 15:0.02537 16:-0.11542 17:-0.18527 18:-0.89544 19:-0.644 20:-0.00504 21:-0.79932 22:-1 23:-1 24:-1 25:-1 26:-0.84 
10 1:-0.69531 2:0.99784 3:-0.02344 4:-0.37695 5:0.13231 6:-0.18205 7:0.45092 8:0.94732 9:-0.00923 10:-0.32692 11:-1 12:-0.13248 13:0.05256 14:0.07991 15:0.10598 16:0.09573 17:0.44386 18:-0.93477 19:-0.75692 20:-0.0556 21:-0.85402 22:-1 23:-0.8 24:-1 25:-1 26:-0.72 
10 1:-0.98438 2:0.99921 3:-0.88281 4:-0.87109 6:0.1 7:1 8:0.41016 9:0.5 10:0.5 11:-0.56669 12:0.21667 13:0.23333 14:0.05 15:0.225 16:0.25833 17:-0.98 18:-0.94 19:-0.94 20:0.36634 21:-0.59406 22:-1 23:-1 24:-1 25:-1 26:-0.9 
10 1:-0.94141 2:0.99613 3:-0.32031 4:-0.76953 5:-0.03333 6:0.31111 7:0.21501 8:1 9:0.15208 10:-0.275 11:-0.97948 12:0.14 13:0.12889 14:0.03556 15:0.14444 16:0.22 17:-0.9575 18:-0.95333 19:-0.65333 20:-0.29868 21:-0.73597 22:-1 23:-0.6 24:-1 25:-1 26:-0.83 
10 1:-0.98047 2:1 3:-0.92773 4:-0.81836 5:0.23333 6:-0.225 7:-1 8:1 9:0.5 10:-0.08125 11:0.22404 12:-0.18 13:-0.22 14:-0.13333 15:0.01333 16:-0.18667 17:-0.19 18:-1 19:-0.53 20:0.72277 21:-0.35446 22:-1 23:-1 24:-1 25:-1 26:-0.59 
10 1:-0.98047 2:0.99843 3:-0.75195 4:-0.85742 5:0.41111 6:0.21667 7:1 8:0.6416 9:0.5 10:0.5 11:-0.66696 12:0.33333 13:0.18 14:0.33333 15:0.25333 16:0.11333 17:-0.95 18:-0.96 19:-0.96 20:-0.28713 21:-0.6396 22:-1 23:-1 24:-1 25:-1 26:-0.88 
0.4919569735609941 1:-0.98828 2:0.99996 3:-1 4:-0.90039 5:-1 6:-0.43333 7:-1 8:-0.99805 9:-1 10:-0.275 11:0.39994 12:-0.25556 13:-0.3 14:-0.43333 15:-0.28889 16:-0.21111 17:-0.5 18:-1 19:-0.72 20:-1 21:0.64356 22:-0.4 23:0.8 24:-1 25:-1 26:-0.13 
10 1:-0.90234 2:0.98121 3:-0.02344 4:-0.72656 5:0.20159 6:0.16667 7:-0.10147 8:-0.24284 9:0.20476 10:-0.35 11:-0.99946 12:0.23467 13:0.19867 14:0.196 15:0.032 16:0.09467 17:-0.9871 18:-0.95048 19:-0.8 20:-0.23527 21:-0.86535 22:-0.8 23:-1 24:-1 25:-1 26:-0.89 
10 1:-0.74219 2:1 3:-0.02344 4:-0.58398 5:-0.28148 6:-0.40833 7:0.42112 8:1 9:0.17407 10:0.17708 11:-1 12:0.15758 13:0.11919 14:-0.30455 15:-0.17828 16:-0.30101 17:-0.99721 18:-0.95259 19:-0.93667 20:-0.20462 21:-0.81308 23:-1 24:-1 25:-1 26:-0.45 
10 1:-0.97266 2:0.99998 3:-0.79297 4:-0.82227 5:-0.11667 6:0.01111 7:-0.17008 8:-0.82227 9:-0.15625 10:-0.19167 11:-0.48844 12:-0.12857 13:-0.12857 14:-0.0619 15:-0.00952 16:-0.17619 17:-0.87 18:-0.93 19:-0.86667 20:-0.36139 21:-0.37199 22:-1 23:-1 24:-1 25:-1 26:-0.75 
10 1:-0.98047 2:0.99843 3:-0.78906 4:-0.86133 5:0.2 6:0.18333 7:1 8:1 9:0.5 10:0.5 11:-0.66696 12:0.17333 13:0.26 14:0.19333 15:0.14667 16:0.10667 17:-0.98889 18:-0.94667 19:-0.96 20:-0.35314 21:-0.54455 22:-1 23:-1 24:-1 25:-1 26:-0.71 
10 1:-0.96484 2:0.97558 3:-0.47852 4:-0.85938 5:0.27143 6:0.2 7:0.55776 8:1 9:0.38929 10:0.1125 11:-0.93152 12:0.08519 13:0.22963 14:0.25556 15:0.04074 16:0.11852 17:-0.99 18:-0.97714 19:-0.96 20:0.17397 21:-0.67437 22:-1 23:-1 24:-0.8 25:-0.8 26:-0.91 
10 1:-0.98828 2:0.99963 3:-0.95508 4:-0.85352 5:-0.23333 6:0.25 7:-1 8:1 9:-0.275 10:0.5 11:-0.44576 12:0.08889 13:0.17778 14:0.08889 15:0.21111 16:0.16667 17:-0.99 18:-1 19:-0.92 20:-0.9604 21:-0.24092 22:-0.8 23:-1 24:-1 25:-1 26:-0.87 
10 1:-0.98438 2:0.99996 3:-1 4:-0.84961 5:-1 6:-0.35833 7:-1 8:1 9:-1 10:0.1125 11:0.84665 12:-0.25 13:-0.23333 14:-0.35833 15:-0.40833 16:-0.425 17:-0.9 18:-1 19:-0.77 20:-1 21:-0.09901 22:-0.8 23:-1 24:-1 25:-1 26:-0.93 
10 1:-0.86719 2:0.99522 3:-0.02344 4:-0.77539 5:-0.22121 6:-0.68056 7:-0.17253 8:0.38511 9:0.25341 10:0.04792 11:0.27673 12:0.08039 13:0.08529 14:-0.38333 15:-0.07353 16:0.03824 17:-0.99776 18:-0.94727 19:-0.88 20:-0.56346 21:-0.74549 22:-0.4 23:-0.4 24:-1 25:-1 26:-0.51 
10 1:-0.99219 2:0.99996 3:-1 4:-0.89062 5:-1 6:-0.06667 7:-1 8:-0.96484 9:-1 10:-0.2875 11:-0.03593 12:-0.05 13:-0.2 14:-0.06667 15:-0.16667 16:0.05 17:-0.98 18:-1 19:-0.96 20:-1 21:0.44554 22:-1 23:-1 24:-1 25:-1 26:-0.85 
10 1:-0.97656 2:1 3:-0.85742 4:-0.74219 5:0.21667 6:0.1 7:-0.97559 8:-0.79362 9:0.1125 10:-0.45 11:0.05469 12:0.27222 13:0.15 14:0.13889 15:-0.01111 16:0.14444 17:-0.18889 18:-1 19:-0.73 20:-0.13861 21:-0.68977 22:-0.8 23:-1 24:-1 25:-1 26:-0.92 
10 1:-0.95312 2:1 3:-0.62109 4:-0.68359 5:0.29333 6:-0.22857 7:0.62441 8:0.44773 9:0.19 10:-0.48571 11:0.66547 12:-0.075 13:0.02778 14:-0.01111 15:0.05278 16:-0.08333 17:1 18:-0.984 19:-0.79429 20:-0.26337 21:-0.44884 22:-1 23:-1 24:-1 25:-1 26:-0.91 
10 1:-0.94922 2:1 3:-0.67969 4:-0.62695 5:-0.08889 6:-0.09048 7:0.71673 8:0.64025 9:0.05417 10:-0.48571 11:0.54796 12:-0.0641 13:0.01282 14:-0.08974 15:-0.14103 16:-0.07179 17:1 18:-0.97333 19:-0.79429 20:-0.0462 21:-0.54303 22:-1 23:-1 24:-1 25:-1 26:-0.91 
10 1:-0.84375 2:1 3:-0.02344 4:-0.39258 5:0.15517 6:-0.05758 7:0.21183 8:0.48026 9:0.28276 10:-0.58409 11:-0.78494 12:0.15917 13:0.10917 14:0.09667 15:0.1 16:0.05917 17:-0.93876 18:-0.96828 19:-0.84727 20:-0.29942 21:-0.71634 22:-0.4 23:-1 24:-1 25:-1 26:-0.39 
10 1:-0.61719 2:1 3:-0.02344 4:-0.36328 5:-0.07042 6:-0.59753 7:0.39224 8:0.58027 9:0.27077 10:-0.04815 11:-0.62272 12:-0.17313 13:-0.05442 14:-0.21565 15:0.21395 16:0.2449 17:-0.96579 18:-0.96225 19:-0.82963 20:0.08242 21:-0.72944 22:-1 23:-0.8 24:-1 25:-1 26:-0.75 
6.613441663034493 1:-0.98047 2:0.99843 3:-0.77148 4:-0.87695 5:0.3 6:0.05 7:-0.60742 8:1 9:0.24167 10:-0.275 11:-0.66696 12:0.24 13:0.14667 14:0.2 15:-0.06667 16:0.05333 17:-0.99778 18:-0.98667 19:-0.92 20:0.08911 21:-0.57624 22:-1 23:-1 24:-1 25:-1 26:-0.95 
10 1:-0.91016 2:0.99879 3:-0.0957 4:-0.72461 5:-0.18772 6:0.175 7:1 8:-0.97477 9:-0.14211 10:0.1125 11:-0.99824 12:-0.1913 13:-0.17101 14:-0.12464 15:-0.08116 16:-0.13188 17:-0.9 18:-0.97684 19:-0.91 20:0.01824 21:-0.97848 22:-1 23:-1 24:-0.4 25:-1 26:-0.78 
10 1:-0.91406 2:0.99879 3:-0.14453 4:-0.72461 5:-0.18889 6:0.175 7:1 8:-0.97477 9:-0.17778 10:0.1125 11:-0.99685 12:-0.08788 13:-0.04242 14:-0.12273 15:0.07273 16:0.05 17:-0.91633 18:-0.97778 19:-0.91 20:0.0055 21:-0.9703 22:-1 23:-0.6 24:-0.2 25:-1 26:-0.72 
10 1:-0.73438 2:0.99885 3:-0.02344 4:-0.60938 5:-0.19645 6:-0.68254 7:0.67603 8:0.64016 9:0.2133 10:0.04286 11:0.23486 12:-0.15 13:-0.15735 14:-0.34657 15:0.01863 16:0.02157 17:-0.99314 18:-0.95489 19:-0.84571 20:0.01074 21:-0.68928 22:-0.8 23:-0.4 24:-1 25:-1 26:-0.65 
10 1:-0.98438 2:0.99921 3:-0.85352 4:-0.85547 5:0.25 6:0.23333 7:-0.23438 8:-0.68359 9:0.1125 10:0.5 11:-0.56669 12:0.20833 13:0.125 14:0.24167 15:0.20833 16:0.13333 17:-0.98889 18:-1 19:-0.92 20:0.66337 21:-0.73267 22:-1 23:-0.8 24:-1 25:-1 26:-0.93 
10 1:-0.98438 2:0.99921 3:-0.83594 4:-0.86523 5:0.4 6:0.15 7:-0.33984 8:1 9:0.5 10:0.5 11:-0.56669 12:0.13333 13:0.35833 14:0.275 15:0.11667 16:0.13333 17:-0.74 18:-0.92 19:-0.94 20:0.12871 21:-0.27723 22:-1 23:-0.2 24:-1 25:-1 26:-0.9 
10 1:-0.98047 2:0.99921 3:-0.87695 4:-0.86523 5:-0.3 6:0.15 7:-0.36458 8:-0.28809 9:-0.01667 10:0.5 11:-0.66696 12:-0.17333 13:-0.22667 14:-0.12 15:-0.10667 16:-0.09333 17:-0.98889 18:-0.96 19:-0.94 20:-0.13531 21:-0.67129 22:-1 23:-0.8 24:-1 25:-1 26:-0.93 
3.53667985743333 1:-0.98047 2:0.99921 3:-0.88477 4:-0.86719 5:-0.34444 6:0.13333 7:-0.4349 8:-0.64746 9:0.5 10:0.5 11:-0.66696 12:-0.08667 13:-0.21333 14:-0.15333 15:0.02667 16:-0.02 17:-0.95 18:-0.96 19:-0.94 20:-0.57756 21:-0.69505 22:-1 23:-1 24:-1 25:-1 26:-0.87 
10 1:-0.98828 2:0.99996 3:-1 4:-0.87109 5:-1 6:-0.26667 7:-1 8:1 9:-1 10:-0.375 11:0.39994 12:-0.25556 13:-0.33333 14:-0.26667 15:0.11111 16:-0.04444 17:-0.5 18:-1 19:-0.74667 20:-1 21:-0.14191 22:-1 23:-1 24:-1 25:-1 26:-0.93 
10 1:-0.98438 2:0.99921 3:-0.85547 4:-0.85938 5:0.23333 6:0.2 7:0.80566 8:-0.75 9:0.5 10:-0.275 11:-0.56669 12:0.18333 13:0.25 14:0.21667 15:0.13333 16:0.21667 17:-0.98 18:-1 19:-0.78 20:0.29703 21:-0.66337 22:-0.8 23:-0.8 24:-1 25:-1 26:-0.93 
10 1:-0.85156 2:1 3:-0.02344 4:-0.37305 5:0.14487 6:-0.10833 7:0.25175 8:0.84387 9:0.11538 10:-0.5 11:-0.19032 12:-0.06053 13:0.02632 14:0.06491 15:0.01316 16:0.04649 17:-0.58889 18:-0.95846 19:-0.84667 20:0.14014 21:-0.59562 22:-1 23:-0.6 24:-1 25:-1 26:-0.91 
10 1:-0.97266 2:0.99687 3:-0.7207 4:-0.875 5:0.19167 6:-0.28889 7:1 8:1 9:0.30625 10:-0.375 11:-0.48844 12:0.02857 13:-0.04762 14:-0.01429 15:-0.03333 16:-0.0619 17:-0.99529 18:-0.99 19:-0.93333 20:-0.06931 21:-0.55587 22:-1 23:-1 24:-1 25:-1 26:-0.72 
10 1:-0.98828 2:0.99963 3:-0.94922 4:-0.86523 5:-0.13333 6:0.15 7:-1 8:-0.88184 9:-0.375 10:0.5 11:-0.44576 12:0.15556 13:0.12222 14:0.05556 15:-0.11111 16:0.02222 17:-0.9 18:-0.88 19:-0.9 20:-0.24752 21:-0.28053 22:-0.8 23:-1 24:-1 25:-1 26:-0.93 
10 1:-0.96484 2:1 3:-0.85156 4:-0.73047 5:-0.15556 6:-0.23333 7:-0.70508 8:0.79017 9:-0.475 10:-0.425 11:0.57882 12:-0.18889 13:-0.1963 14:-0.20741 15:-0.21481 16:-0.18889 17:-0.26 18:-0.58667 19:-0.52667 20:0.58416 21:-0.56656 22:-1 23:-1 24:-1 25:-1 26:-0.87 
10 1:-0.98828 2:0.99963 3:-0.91797 4:-0.86914 5:0.4 6:0.11667 7:-1 8:-0.68359 9:0.5 10:-0.275 11:-0.44576 12:0.24444 13:0.1 14:0.21111 15:0.11111 16:0.15556 17:-0.75 18:-1 19:-0.96 20:0.72277 21:-0.16832 22:-1 23:-1 24:-1 25:-1 26:-0.75 
10 1:-0.98047 2:0.99843 3:-0.7832 4:-0.86523 5:0.23333 6:0.15 7:1 8:-0.85938 9:0.24167 10:0.5 11:-0.66696 12:0.02 13:0.09333 14:0.2 15:0.24667 16:0.19333 17:-0.95 18:-0.92 19:-0.96 20:-0.13531 21:-0.39802 22:-1 23:-0.8 24:-1 25:-1 26:-0.83 
10 1:-0.97656 2:1 3:-0.94336 4:-0.8125 5:-0.67778 6:0.06667 7:1 8:0.91862 9:-0.575 10:0.24167 11:-0.37788 12:-0.22778 13:-0.28333 14:-0.30556 15:-0.23333 16:-0.15 17:-0.95889 18:-0.88 19:-0.94667 20:0.28053 21:-0.63036 22:-1 23:-0.6 24:-1 25:-1 26:-0.66 
10 1:-0.97266 2:0.99843 3:-0.82227 4:-0.85352 5:-0.24167 6:-0.16667 7:1 8:-0.95052 9:0.30625 10:-0.01667 11:-0.48844 12:-0.22381 13:-0.21429 14:-0.20952 15:-0.04286 16:-0.03333 17:-0.42 18:-0.91 19:-0.88 20:0.09901 21:-0.28147 22:-1 23:-1 24:-1 25:-1 26:-0.87 
10 1:-0.98047 2:0.99843 3:-0.76758 4:-0.86328 5:0.32222 6:0.16667 7:1 8:-0.06152 9:0.24167 10:0.5 11:-0.66696 12:0.22 13:0.30667 14:0.26 15:0.20667 16:0.36667 17:-0.98889 18:-1 19:-0.96 20:0.35314 21:-0.35446 22:-1 23:-1 24:-1 25:-1 26:-0.83 
10 1:-0.97266 2:0.99378 3:-0.64453 4:-0.86133 5:0.21333 6:0.18333 7:0.46621 8:-0.60938 9:0.345 10:0.5 11:-0.83142 12:0.24286 13:0.09524 14:0.20476 15:0.2381 16:0.12857 17:-0.9896 18:-1 19:-0.94 20:0.12475 21:-0.83593 22:-1 23:-1 24:-1 25:-0.8 26:-0.99 
10 1:-0.49219 2:0.9812 3:-0.02344 4:-0.09375 5:0.15089 6:-0.14074 7:0.45172 8:0.01964 9:0.22679 10:-0.33472 11:-1 12:0.09564 13:0.04564 14:0.11051 15:0.06641 16:-0.03949 17:-0.99788 18:-0.9675 19:-0.85778 20:-0.11917 21:-0.87951 22:-0.4 23:-1 24:-1 25:-1 26:-0.95 
10 1:-0.97656 2:0.99843 3:-0.7832 4:-0.86523 5:-0.075 6:0.15 7:1 9:0.30625 10:0.5 11:-0.75634 12:0.01667 13:-0.01667 15:0.12778 16:0.02778 17:-0.9 18:-0.94 19:-0.96 20:-0.17327 21:-0.75578 22:-1 23:-0.8 24:-1 25:-1 26:-0.69 
10 1:-0.98828 2:0.99996 3:-0.99609 4:-0.87109 5:-0.93333 6:0.1 7:-1 8:1 9:-0.275 10:0.5 11:-0.44576 12:-0.17778 13:-0.26667 14:-0.24444 15:-0.23333 16:-0.33333 17:-0.9 18:-0.68 19:-0.96 20:-0.06931 21:-0.41254 22:-1 23:-0.8 24:-1 25:-1 26:-0.88 
10 1:-0.78516 2:1 3:-0.02344 4:-0.58594 5:-0.25161 6:-0.70556 7:0.63687 8:0.78582 9:0.16694 10:0.08021 11:1 12:-0.34606 13:-0.36545 14:-0.4497 15:0.11818 16:0.1497 17:-0.98224 18:-0.93548 19:-0.855 20:0.35228 21:-0.55572 22:-1 23:-0.8 24:-1 25:-1 26:-0.88 
10 1:-0.98828 2:0.99331 3:-1 4:-0.9082 5:-1 6:-0.47778 7:-1 8:1 9:-1 10:0.24167 11:0.39994 12:-0.2 13:-0.24444 14:-0.47778 15:-0.3 16:-0.18889 17:-0.5 18:-1 19:-0.88 20:-1 21:0.12211 22:-0.6 23:-1 24:-1 25:-0.6 26:-0.85 
10 1:-0.98828 2:0.99996 3:-0.99609 4:-0.86914 5:-0.93333 6:0.11667 7:-1 8:-0.83496 9:-0.275 10:0.5 11:-0.44576 12:-0.23333 13:-0.17778 14:-0.23333 15:-0.12222 16:-0.26667 17:-0.9 18:-0.68 19:-0.94 20:0.82178 21:-0.38614 22:-1 23:-1 24:-1 25:-1 26:-0.79 
10 1:-0.98828 2:0.99996 3:-1 4:-0.89648 5:-1 6:-0.41111 7:-1 8:0.14844 9:-1 10:-0.275 11:0.39994 12:-0.32222 13:-0.3 14:-0.41111 15:-0.27778 16:-0.25556 17:-0.5 18:-1 19:-0.78667 20:-1 21:-0.18812 22:-1 23:-1 24:-1 25:-1 26:-0.93 
3.465797706392252 1:-0.98438 2:1 3:-1 4:-0.8418 5:-1 6:-0.325 7:-1 8:0.97445 9:-1 10:-0.5625 11:0.84665 12:-0.45833 13:-0.275 14:-0.325 15:-0.28333 16:-0.28333 17:-0.9 18:-1 19:-0.76 20:-1 21:0.18317 22:-1 23:-1 24:-1 25:-1 26:-0.82 
3.330648156639804 1:-0.98828 2:1 3:-1 4:-0.88086 5:-1 6:-0.32222 7:-1 8:0.76367 9:-1 10:-0.49167 11:0.39994 12:-0.3 13:-0.42222 14:-0.32222 15:-0.35556 16:-0.41111 17:-0.98889 18:-1 19:-0.93333 20:-1 21:-0.22772 22:-1 23:-1 24:-1 25:-1 26:-0.99 
10 1:-0.99219 2:0.99996 3:-1 4:-0.91016 5:-1 6:-0.23333 7:-1 8:-0.95215 9:-1 10:0.075 11:-0.03593 12:-0.36667 13:-0.21667 14:-0.23333 15:-0.03333 16:-0.16667 17:-0.98889 18:-1 19:-0.94 20:-1 21:-0.41584 22:-0.8 23:-1 24:-1 25:-1 26:-0.91 
10 1:-0.96094 2:1 3:-0.81445 4:-0.64062 5:-0.20833 6:0.02222 7:1 8:-0.87917 9:-0.35 10:-0.50833 11:0.46123 12:-0.04667 13:-0.02333 14:-0.07 15:-0.09667 16:0.03333 17:0.6936 18:-0.95 19:-0.6 20:0.08911 21:-0.71089 22:-1 23:-1 24:-1 25:-1 26:-0.48 
10 1:-0.96484 2:1 3:-0.86914 4:-0.58594 5:0.11667 6:0.00952 7:-0.52734 8:-0.51042 9:-0.275 10:-0.525 11:1 12:-0.05185 13:-0.16667 14:0.03333 16:0.02963 17:1 18:-0.98 19:-0.62286 20:-0.32673 21:-0.44554 22:-1 23:-1 24:-1 25:-1 26:-0.4 
10 1:-0.96484 2:1 3:-0.87305 4:-0.58398 5:0.08333 6:0.01429 7:-0.52734 8:-0.51042 9:-0.275 10:-0.525 11:1 12:0.03333 14:0.02963 15:-0.01481 16:-0.15926 17:1 18:-0.98 19:-0.62286 20:-0.28713 21:-0.41474 22:-1 23:-1 24:-1 25:-0.8 26:-0.45 
1.085061559863243 1:-0.96484 2:1 3:-0.81641 4:-0.66406 5:0.04444 6:-0.04444 7:-0.17773 8:-0.87917 9:-0.39167 10:-0.50833 11:0.57882 13:0.02963 14:-0.01481 15:-0.15926 16:-0.18519 17:0.69111 18:-0.90667 19:-0.6 20:-0.46535 21:-0.41474 22:-1 23:-1 24:-1 25:-1 26:-0.45 
10 1:-0.80469 2:1 3:-0.02344 4:-0.57227 5:-0.31444 6:-0.635 7:0.63328 8:0.742 9:0.1125 10:-0.035 11:1 12:-0.4098 13:-0.35817 14:-0.44052 15:-0.24444 16:-0.17908 17:-0.98947 18:-0.94667 19:-0.854 20:-0.46469 21:-0.58257 22:-1 23:-0.4 24:-1 25:-1 26:-0.67 
10 1:-0.98047 2:1 3:-0.95117 4:-0.75586 5:-0.16667 6:0.04167 7:-1 8:0.03174 9:0.075 10:-0.4875 11:0.22404 12:-0.08 13:0.03333 15:-0.04 16:-0.02667 17:-0.9 18:-0.88 19:-0.89 20:-0.48515 21:-0.37822 22:-0.8 23:-1 24:-1 25:-1 26:-0.89 
10 1:-0.86328 2:1 3:-0.02344 4:-0.68359 5:-0.05467 6:-0.46 7:0.08859 8:0.24846 9:0.116 10:0.01 11:-0.67596 12:0.19143 13:0.17429 14:-0.17048 15:0.00857 16:0.12381 17:-0.98438 18:-0.9808 19:-0.856 20:-0.40119 21:-0.67808 22:-0.2 23:-0.8 24:-1 25:-1 26:-0.88 
10 1:-0.94531 2:0.99805 3:-0.31836 4:-0.80859 5:0.16333 6:-0.18333 7:0.15211 8:-0.98893 9:0.035 10:0.0375 11:-0.79765 12:-0.00238 13:-0.02857 14:0.06429 16:0.15238 17:-0.9 18:-0.984 19:-0.87 20:-0.05149 21:-0.97454 22:-1 23:-1 24:-1 25:-1 26:-0.93 
10 1:-0.86328 2:1 3:-0.14844 4:-0.69727 5:-0.33939 6:-0.60256 7:0.94382 8:0.23172 9:0.21818 10:-0.03654 11:0.59834 12:-0.27524 13:-0.39143 14:-0.43714 15:0.08286 16:0.18952 17:-0.96 18:-0.95273 19:-0.86154 20:0.30693 21:-0.56719 22:-1 23:-0.8 24:-1 25:-1 26:-0.91 
7.156139622963511 1:-0.97656 2:0.99996 3:-1 4:-0.88281 5:-1 6:-0.66667 7:-1 8:0.86016 9:-1 10:-0.19583 11:1 12:0.07778 13:0.18889 14:-0.66667 15:-0.68333 16:-0.87222 17:-0.9896 18:-1 19:-0.66667 20:-1 21:0.0495 22:-1 23:-1 24:-1 25:-0.8 26:-0.51 
10 1:-0.98828 2:0.99996 3:-0.99609 4:-0.89844 5:-0.93333 6:-0.13333 7:-1 8:0.97754 9:-0.275 10:0.5 11:-0.44576 12:-0.18889 13:-0.26667 14:-0.4 15:-0.41111 16:-0.32222 17:-0.9 18:-0.92 19:-0.92 20:-0.78218 21:-0.39934 22:-1 23:-1 24:-1 25:-1 26:-0.75 
10 1:-0.99219 2:0.99331 3:-1 4:-0.91797 5:-1 6:-0.3 7:-1 8:1 9:-1 10:0.5 11:-0.03593 12:-0.05 13:-0.3 14:-0.3 15:-0.33333 16:-0.38333 17:-0.98 18:-1 19:-0.92 20:-1 21:-0.32673 22:-0.8 23:-1 24:-1 25:-1 26:-0.93 
10 1:-0.97266 2:1 3:-0.92969 4:-0.77344 5:-0.4 6:-0.22667 7:-0.97559 8:-0.02207 9:-0.175 10:-0.52 11:0.37695 12:-0.1381 13:-0.30952 14:-0.27619 15:-0.30476 16:-0.08571 17:-0.9896 18:-0.96 19:-0.912 20:-0.57426 21:-0.64356 22:-1 23:-1 24:-0.8 25:-1 26:-0.88 
10 1:-0.98828 2:0.99963 3:-0.92188 4:-0.87305 5:0.33333 6:0.08333 7:-1 8:-0.64746 9:0.5 10:0.5 11:-0.44576 12:0.12222 13:0.25556 14:0.16667 16:0.07778 17:-0.9 18:-0.88 19:-0.96 20:0.70297 21:-0.17492 22:-1 23:-0.8 24:-1 25:-1 26:-0.99 
10 1:-0.50781 2:1 3:-0.02344 4:-0.35156 5:-0.16164 6:-0.44667 7:0.67195 8:0.53637 9:0.18656 10:-0.02 11:-1 12:-0.07302 13:-0.05714 14:-0.20688 15:0.01323 16:-0.02857 17:-0.99821 18:-0.95245 19:-0.804 20:-0.08052 21:-0.81424 22:-0.8 23:-0.8 24:-1 25:-1 26:-0.85 
10 1:-0.98828 2:0.99963 3:-0.93945 4:-0.85547 5:0.03333 6:0.23333 7:-1 8:1 9:0.5 10:0.5 11:-0.44576 12:0.21111 13:0.2 14:0.16667 15:0.13333 16:0.07778 17:-0.9 18:-0.88 19:-0.96 20:0.0495 21:-0.32013 22:-1 23:-1 24:-0.8 25:-1 26:-0.67 
10 1:-0.98828 2:0.99996 3:-0.99609 4:-0.85547 5:-0.93333 6:0.23333 7:-1 8:1 9:-0.275 10:0.5 11:-0.44576 12:-0.28889 13:-0.28889 14:-0.15556 15:0.23333 16:0.16667 17:-0.9 18:-0.88 19:-0.96 20:-0.42574 21:-0.14851 22:-1 23:-1 24:-1 25:-1 26:-0.95 
10 1:-0.98438 2:0.99921 3:-0.84961 4:-0.86719 5:0.28333 6:0.13333 7:1 8:0.72266 9:0.1125 10:0.5 11:-0.56669 12:0.15 13:0.13333 14:0.20833 15:0.10833 16:0.10833 17:-0.98 18:-1 19:-0.96 20:0.18812 21:-0.48515 22:-0.8 23:-1 24:-1 25:-1 26:-0.93 
10 1:-0.97656 2:0.99843 3:-0.76562 4:-0.86328 6:0.16667 7:1 8:0.12891 9:0.5 10:0.5 11:-0.75634 12:0.12778 13:-0.00556 14:0.05556 15:0.01667 16:0.22778 17:-0.18 18:-0.97 19:-0.92 20:-0.05941 21:-0.72277 22:-1 23:-1 24:-1 25:-1 26:-0.83 
10 1:-0.98438 2:1 3:-1 4:-0.79492 5:-1 6:-0.125 7:-1 8:1 9:-1 10:-0.5125 11:0.84665 12:-0.28333 13:-0.19167 14:-0.125 15:-0.18333 16:-0.11667 17:-0.9 18:-1 19:-0.78 20:-1 21:0.35644 22:-1 23:-1 24:-1 25:-1 26:-0.85 
3.119018851535225 1:-0.82812 2:1 3:-0.02344 4:-0.45117 5:-0.16162 6:-0.14848 7:0.79221 8:0.84979 9:-0.53485 10:-0.57955 11:-0.96623 12:-0.18106 13:-0.21894 14:-0.15833 15:-0.28333 16:-0.1947 17:-0.3875 18:-0.77212 19:-0.65455 20:-0.0075 21:-0.74797 22:-1 23:-1 24:-1 25:-1 26:-0.91 
10 1:-0.98047 2:0.99999 3:-0.88281 4:-0.80078 6:0.13333 7:-0.60938 8:-0.45833 9:-0.125 10:-0.44167 11:-0.26373 12:0.09333 13:-0.10667 14:0.08 15:-0.10667 16:-0.08667 17:-0.99778 18:-0.88 19:-0.62667 20:0.30693 21:-0.24356 22:-1 23:-1 24:-1 25:-1 26:-0.81 
10 1:-0.96875 2:1 3:-1 4:-0.64844 5:-1 6:-0.25 7:-1 8:0.13839 9:-1 10:-0.62812 11:1 12:-0.32917 13:-0.35417 14:-0.25 15:-0.31667 16:-0.33333 17:-0.5 18:-1 19:-0.71 20:-1 21:0.32673 22:-1 23:-1 24:-1 25:-1 26:-0.89 
10 1:-0.98828 2:1 3:-1 4:-0.84766 5:-1 6:-0.13333 7:-1 8:-0.90169 9:-1 10:-0.49167 11:0.39994 12:-0.1 13:-0.01111 14:-0.13333 15:-0.08889 17:-0.98889 18:-1 19:-0.90667 20:-1 21:0.26073 22:-1 23:-1 24:-1 25:-1 26:-1 
10 1:-0.98828 2:1 3:-1 4:-0.86133 5:-1 6:-0.21111 7:-1 8:1 9:-1 10:-0.34167 11:0.39994 12:-0.18889 13:-0.22222 14:-0.21111 15:-0.06667 16:-0.27778 17:-0.95 18:-1 19:-0.78667 20:-1 21:-0.45875 22:-0.8 23:-1 24:-1 25:-1 26:-0.95 
10 1:-0.96484 2:1 3:-0.97656 4:-0.86719 5:-0.9 6:-0.54667 7:-0.37891 8:0.96035 9:-0.425 10:-0.12 11:0.13988 12:-0.44444 13:-0.34444 14:-0.7037 15:-0.51481 16:-0.33333 17:-0.16222 18:-0.91 19:-0.76 20:0.06931 21:-0.40814 22:-0.6 23:-0.4 24:-1 25:-1 26:-0.45 
10 1:-0.98828 2:0.99963 3:-0.93359 4:-0.86719 5:0.13333 6:0.13333 7:-1 8:-0.17871 9:0.5 10:0.5 11:-0.44576 12:0.21111 13:0.23333 14:0.13333 15:0.1 16:0.24444 17:-0.9 18:-0.92 19:-0.96 20:0.38614 21:-0.39934 22:-1 23:-1 24:-1 25:-1 26:-0.87 
10 1:-0.98828 2:0.99963 3:-0.92383 4:-0.84766 5:0.3 6:0.3 7:-1 8:1 9:0.5 10:0.5 11:-0.44576 12:0.16667 13:0.3 14:0.3 15:0.24444 16:0.34444 17:-0.99 18:-1 19:-0.94 20:0.22772 21:-0.24752 22:-1 23:-1 24:-0.8 25:-1 26:-0.97 
10 1:-0.98828 2:0.99963 3:-0.92188 4:-0.86133 5:0.33333 6:0.18333 7:-1 8:0.41016 9:0.5 10:0.5 11:-0.44576 12:0.3 13:0.2 14:0.23333 15:0.22222 16:0.25556 17:-0.9 18:-1 19:-0.9 20:-0.32673 21:-0.45875 22:-0.8 23:-1 24:-1 25:-1 26:-0.94 
10 1:-0.98047 2:0.99921 3:-0.83984 4:-0.87305 5:0.36667 6:-0.27778 7:1 8:1 9:0.5 10:0.5 11:-0.26373 12:-0.10667 13:-0.1 14:-0.02 15:0.02667 16:0.06667 17:-0.95889 18:-1 19:-0.93333 20:-0.29703 21:-0.53267 22:-1 23:-0.8 24:-1 25:-1 26:-0.73 
