svm_type c_svc
kernel_type rbf
gamma 0.0384615
nr_class 2
total_sv 1769
rho -8.97067
label -1 1
probA -2.33421
probB 0.287391
nr_sv 902 867
SV
10 1:-0.989744 2:1 3:-1 4:-0.76 5:-1 6:0.333333 7:-1 8:-0.999796 9:-1 10:-0.107692 11:0.3084 12:0.139535 13:0.162791 14:0.287356 15:0.435294 16:0.523436 17:-0.98 18:-1 19:-0.470588 20:-1 21:0.0631579 22:-1 23:-0.777778 24:-1 25:-1 26:-0.954545 
10 1:-0.948718 2:0.9992 3:-0.7 4:-0.688 5:0.630435 6:-0.133333 7:-0.791042 8:-0.888311 9:1 10:-0.215385 11:0.44112 12:-0.1938 13:0.062014 14:0.0804598 15:-0.0117647 16:0.210935 17:-0.98 18:-0.95122 19:-0.75 20:-0.66 21:-0.557895 22:-1 23:-1 24:-1 25:-1 26:-0.681818 
10 1:-0.989744 2:1 3:-1 4:-0.728 5:-1 6:0.511111 7:-1 8:-0.994898 9:-1 10:-0.292308 11:0.3084 13:0.162791 14:0.471264 15:0.341176 16:0.429686 17:-0.74 18:-1 19:-0.764706 20:-1 21:-0.168421 22:-1 23:-1 24:-1 25:-1 26:-0.530303 
10 1:-0.241026 2:0.9956 3:1 4:0.252 5:0.265626 6:0.264644 7:-0.618841 8:-0.819336 9:0.703127 10:-0.309092 11:1 12:0.474107 13:0.217986 14:0.241991 15:0.301962 16:0.504372 17:-0.984898 18:-0.956556 19:-0.256682 20:0.189376 21:-0.794806 22:-1 23:-1 24:-1 25:-1 26:-0.893939 
10 1:-0.969231 2:0.9992 3:-0.7 4:-0.712 5:0.630435 6:0.6 7:-0.933884 8:-1 9:1 10:-0.107692 11:0.7526 12:0.360465 13:0.651163 14:0.597701 15:0.505882 16:0.76953 17:-0.748888 18:-1 19:-0.794118 20:-0.78 21:-0.852632 22:-1 23:-1 24:-1 25:-1 26:-0.924242 
5.002876350634036 1:-0.948718 2:0.9992 3:-0.68 4:-0.724 5:0.159422 6:0.0222222 7:-0.958236 8:-0.203755 9:0.655557 10:-0.107692 11:0.68566 12:0.0852698 13:0.0465116 14:0.0498069 15:-0.0745082 16:0.148437 17:-0.958888 18:-0.772356 19:-0.784312 20:0.813334 21:-0.694737 22:-0.111111 23:-1 24:-1 25:-1 26:0.0454545 
10 1:-0.979487 2:1 3:-1 4:-0.76 5:-1 6:-0.111111 7:-1 8:-1 9:-1 10:-0.107692 11:0.01468 12:-0.178293 13:0.147288 14:-0.172414 15:0.364706 16:0.71875 17:-0.5 18:-1 19:-0.372547 20:-1 21:-0.2 22:-1 23:-0.777778 24:-1 25:-1 26:-0.80303 
10 1:-0.989744 2:1 3:-1 4:-0.764 5:-1 6:0.311111 7:-1 8:-0.85124 9:-1 10:0.369231 11:0.3084 12:0.27907 13:0.604651 14:0.264368 15:0.364706 16:0.523436 17:-0.98 18:-1 19:-0.794118 20:-1 21:-0.610526 22:-1 23:-1 24:-1 25:-1 26:-0.712121 
10 1:-0.969231 2:0.9992 3:-0.748 4:-0.724 5:0.369565 6:0.533333 7:-0.970615 8:-0.705336 9:-0.0333333 10:0.846154 11:0.7526 12:0.534884 13:0.476744 14:0.425287 15:0.623529 16:0.464843 17:-0.98 18:-0.902439 19:-0.941176 20:-0.5 21:-0.484211 22:-0.777778 23:-1 24:-1 25:-1 26:-0.80303 
8.891552276459661 1:-0.989744 2:1 3:-1 4:-0.752 5:-1 6:0.377778 7:-1 8:-0.656974 9:-1 10:-0.292308 11:0.3084 12:0.418605 13:0.209302 14:0.333333 15:0.176471 16:0.429686 17:-0.98 18:-1 19:-0.823529 20:-1 21:0.0842105 22:-1 23:-1 24:-1 25:1 26:-0.166667 
10 1:-0.866667 2:0.9066 3:0.192 4:-0.704 5:0.0797087 6:0.644444 7:-0.566467 8:-0.640037 9:0.591667 10:0.846154 11:0.9956 12:0.169437 13:0.106312 14:0.12972 15:0.119327 16:0.0412945 17:-0.98 18:-0.97561 19:-0.852941 20:-0.058334 21:-0.819549 22:-1 23:-1 24:-1 25:-1 26:-0.893939 
10 1:-0.979487 2:1 3:-1 4:-0.652 5:-1 6:0.288889 7:-1 8:-0.936333 9:-1 10:-0.230769 11:0.01468 12:0.209302 13:-0.0852698 14:0.241379 15:0.427449 16:0.234372 17:-0.988888 18:-1 19:-0.647059 20:-1 21:0.642105 22:-1 23:-1 24:-1 25:-1 26:-0.5 
10 1:-0.979487 2:0.9996 3:-0.872 4:-0.704 5:0.391304 6:0.644444 7:-1 8:-0.892052 9:-0.433333 10:0.846154 11:0.66978 12:0.426358 13:0.410851 14:0.532566 15:0.552941 16:0.53125 17:-0.9 18:-0.902439 19:-0.852941 20:-0.84 21:-0.585964 22:-0.777778 23:-1 24:-1 25:-1 26:-0.954545 
10 1:-0.958974 2:0.9984 3:-0.532 4:-0.748 5:0.695652 6:0.4 7:-0.864912 8:-0.489848 9:0.4 10:0.369231 11:0.81468 12:0.469767 13:0.367442 14:0.563218 15:0.571765 16:0.471874 17:-0.95 18:-0.95122 19:-0.941176 20:-0.38 21:-0.486316 22:-1 23:-0.777778 24:-1 25:-1 26:-0.484848 
10 1:-0.948718 2:0.9984 3:-0.524 4:-0.752 5:0.724639 6:-0.08148 7:-0.48155 8:-0.304425 9:0.655557 10:0.528206 11:0.68566 12:0.162791 13:0.356591 14:0.295021 15:0.380391 16:0.421872 17:-0.958888 18:-1 19:-0.803924 20:-0.353334 21:-0.733333 22:-0.777778 23:-0.555556 24:-1 25:-1 26:-0.772727 
10 1:-0.876923 2:0.9066 3:0.412 4:-0.716 5:0.395257 6:0.577778 7:-0.750697 8:-0.489848 9:0.624243 10:0.846154 11:0.99302 12:0.391772 13:0.445437 14:0.407605 15:0.353845 16:0.427882 17:-0.997288 18:-0.977829 19:-0.941176 20:-0.232728 21:-0.867206 22:-1 23:-1 24:-1 25:-1 26:-0.954545 
10 1:-0.866667 2:0.9066 3:0.376 4:-0.728 5:0.359683 6:0.00740889 7:-0.756426 8:0.114308 9:0.624243 10:0.528206 11:0.98298 12:0.345516 13:0.149502 14:0.261085 15:0.253784 16:0.429686 17:-0.981112 18:-0.933483 19:-0.901959 20:-0.154546 21:-0.825564 22:-1 23:-1 24:-1 25:-1 26:-0.893939 
10 1:-0.979487 2:0.9996 3:-0.932 4:-0.708 5:-0.26087 6:0.622222 7:-1 8:-0.828385 9:1 10:0.846154 11:0.66978 12:0.410851 13:0.271316 14:0.287356 15:0.537256 16:0.703122 17:-0.9 18:-1 19:-0.911765 20:0.52 21:-0.249122 22:-1 23:-1 24:-1 25:-1 26:-0.909091 
4.18891056364124 1:-0.846154 2:0.9848 3:0.648 4:-0.64 5:0.377926 6:0.333333 7:-0.735003 8:-0.996191 9:0.44359 10:0.846154 11:0.99318 12:0.401163 13:0.488372 14:0.350575 15:0.505882 16:0.359374 17:-0.995 18:-0.973732 19:-0.901959 20:-0.156924 21:-0.615789 22:-1 23:-1 24:1 25:-1 26:-0.530303 
10 1:-0.969231 2:0.9992 3:-0.732 4:-0.696 5:0.456522 6:0.688889 7:-0.337006 8:-0.750026 9:1 10:0.846154 11:0.7526 12:0.488372 13:0.5 14:0.551724 15:0.517647 16:0.523436 17:-0.988888 18:-1 19:-0.911765 20:0.43 21:-0.331579 22:-1 23:-1 24:-0.5 25:-1 26:-0.772727 
10 1:-0.979487 2:1 3:-0.992 4:-0.692 5:-0.913043 6:0.711111 7:-1 8:-0.910009 9:-0.0333333 10:0.846154 11:0.66978 12:0.00775349 13:0.178293 14:0.118772 15:-0.450979 16:-0.359374 17:-0.9 18:-0.853659 19:-0.941176 20:-0.46 21:0.2 22:-1 23:-1 24:-1 25:-1 26:-0.939394 
10 1:-0.979487 2:0.9996 3:-0.868 4:-0.7 5:0.434783 6:0.666667 7:-1 8:-0.983471 9:1 10:0.846154 11:0.66978 12:0.922479 13:0.627907 14:0.563218 15:0.756861 16:0.859375 17:-0.99 18:-1 19:-0.882353 20:0.7 21:-0.445615 22:-0.555556 23:-1 24:-1 25:-1 26:-0.666667 
3.559078838479169 1:-0.466667 2:1 3:1 4:-0.264 5:0.191304 6:-0.370942 7:-0.647157 8:-0.706534 9:0.5675 10:0.230769 11:0.9998 12:0.477842 13:0.378674 14:0.0184322 15:0.203995 16:0.000292969 17:-0.948264 18:-0.923171 19:-0.742082 20:0.092 21:-0.707248 22:-0.777778 23:-1 24:-1 25:-1 26:-0.80303 
10 1:-0.958974 2:0.9992 3:-0.68 4:-0.724 5:0.159422 6:0.533333 7:-0.533517 8:-0.862055 9:0.655557 10:0.846154 11:0.81468 12:0.237209 13:0.311628 14:0.278161 15:0.185882 16:0.265624 17:-0.5 18:-0.934961 19:-0.911765 20:-0.24 21:-0.511579 22:-1 23:-0.777778 24:-1 25:-1 26:-0.727273 
10 1:-0.282051 2:1 3:1 4:-0.008 5:0.223187 6:-0.576067 7:-0.573422 8:-0.749873 9:0.623703 10:0.253255 11:0.45198 12:0.299707 13:0.356042 14:-0.111545 15:0.161228 16:0.132921 17:-0.949506 18:-0.927371 19:-0.789594 20:-0.164444 21:-0.630541 22:-0.555556 23:-0.777778 24:-1 25:-1 26:-0.742424 
10 1:-0.979487 2:0.9996 3:-0.904 4:-0.704 5:0.0434783 6:0.644444 7:-1 8:-0.941026 9:-0.0333333 10:0.846154 11:0.66978 12:0.271316 13:0.457363 14:0.409963 15:0.584315 16:0.562497 17:-0.99 18:-1 19:-0.911765 20:0.12 21:0.157895 22:-1 23:-0.777778 24:-1 25:-1 26:-0.893939 
10 1:-0.210256 2:0.9468 3:1 4:0.24 5:0.112374 6:0.0598311 7:-0.780396 8:-0.59552 9:0.0723067 10:-0.164498 11:1 12:0.273474 13:0.0309116 14:0.0679448 15:0.279525 16:0.296477 17:-0.958774 18:-0.900937 19:-0.407241 20:0.205846 21:-0.820783 22:-1 23:-0.777778 24:-1 25:-1 26:-0.863636 
10 1:-0.948718 2:1 3:-0.612 4:-0.596 5:0.405796 6:0.496298 7:-0.699486 8:-0.548481 9:1 10:0.846154 11:0.68566 12:0.503874 13:0.465116 14:0.425287 15:0.380391 16:0.429686 17:-0.92 18:-0.934961 19:-0.901959 20:-0.373334 21:-0.414036 22:-1 23:-1 24:-1 25:-1 26:-0.590909 
10 1:-0.989744 2:1 3:-1 4:-0.724 5:-1 6:0.533333 7:-1 8:0.305989 9:-1 10:0.846154 11:0.3084 12:0.27907 13:0.186047 14:0.494253 15:0.411765 16:0.499999 17:-0.98 18:-1 19:-0.911765 20:-1 21:0.0105263 22:-1 23:-0.777778 24:-1 25:-1 26:-0.893939 
10 1:-0.958974 2:0.9992 3:-0.736 4:-0.732 5:0.434783 6:-0.00740889 7:-0.360065 8:-0.742475 9:0.916667 10:0.846154 11:0.60734 12:-0.172093 13:-0.106977 14:0.131034 15:0.00705882 16:0.0968741 17:-0.95 18:-1 19:-0.901959 20:-0.24 21:-0.0652632 22:-1 23:-1 24:-1 25:-1 26:-0.984848 
10 1:-0.958974 2:0.9984 3:-0.52 4:-0.716 5:0.73913 6:0.577778 7:-0.927626 8:-0.892052 9:0.31111 10:0.846154 11:0.81468 12:0.525581 13:0.776744 14:0.664368 15:0.835294 16:0.818749 17:-0.9875 18:-1 19:-0.911765 20:-0.806666 21:-0.414737 22:-0.777778 23:-0.555556 24:-1 25:-1 26:-0.772727 
10 1:-0.958974 2:0.9984 3:-0.52 4:-0.704 5:0.73913 6:0.644444 7:-0.935925 8:-0.529844 9:0.31111 10:0.846154 11:0.81468 12:0.674419 13:0.637209 14:0.691954 15:0.515294 16:0.640624 17:-0.95 18:-0.934961 19:-0.911765 20:-0.5 21:-0.747368 22:-1 23:-1 24:-1 25:-1 26:-0.878788 
10 1:-0.948718 2:1 3:-0.608 4:-0.66 5:0.420291 6:0.259258 7:-0.860286 8:-0.467673 9:0.655557 10:-0.107692 11:0.68566 12:0.410851 13:0.379847 14:0.310345 15:0.411765 16:0.578125 17:-0.47 18:-0.88618 19:-0.176471 20:0.486666 21:-0.235088 22:-1 23:-1 24:-1 25:-1 26:-0.909091 
10 1:-0.958974 2:0.9992 3:-0.668 4:-0.712 5:0.804348 6:0.0666667 7:-0.750026 8:-1 9:1 10:-0.107692 11:0.60734 12:-0.209302 13:0.106977 14:0.333333 15:0.327059 16:0.518749 17:-0.5 18:-0.926829 19:-0.705882 20:0.05 21:-0.595789 22:-1 23:-1 24:-1 25:-1 26:-0.863636 
9.543081977591989 1:-0.969231 2:0.9992 3:-0.716 4:-0.712 5:0.543478 6:0.6 7:-0.979594 8:-0.979594 9:0.483333 10:0.846154 11:0.7526 12:0.686047 13:0.581395 14:0.551724 15:0.576471 16:0.722655 17:-0.988888 18:-1 19:-0.911765 20:-0.84 21:-0.147368 22:-0.111111 23:-1 24:-1 25:-1 26:-0.80303 
10 1:-0.958974 2:0.9984 3:-0.56 4:-0.74 5:0.594204 6:0.444444 7:-0.360746 8:-0.979594 9:0.655557 10:0.184615 11:0.81468 12:0.506977 13:0.302326 14:0.517241 15:0.44 16:0.415624 17:-0.9875 18:-1 19:-0.882353 20:-0.493334 21:-0.915789 22:-0.555556 23:-1 24:-1 25:-1 26:-0.954545 
0.3366765455618657 1:-0.958974 2:0.9996 3:-0.884 4:-0.756 5:-0.369565 6:-0.0962978 7:0.9598 8:-0.760705 9:-0.0333333 10:0.528206 11:0.60734 12:0.0976744 13:0.0883721 14:-0.264368 15:-0.181176 16:-0.146876 17:-0.988888 18:-0.853659 19:-0.921571 20:-0.02 21:-0.271579 22:-1 23:-1 24:-1 25:-1 26:-0.651515 
10 1:-0.917949 2:0.9876 3:-0.024 4:-0.684 5:0.768117 6:0.170369 7:-0.584423 8:-0.790634 9:1 10:0.282052 11:0.86836 12:0.395349 13:0.529716 14:0.55811 15:0.563398 16:0.406249 17:-0.998488 18:-0.959351 19:-0.705882 20:-0.106666 21:-0.803509 22:-0.777778 23:-1 24:-1 25:-1 26:-0.924242 
10 1:-0.958974 2:0.9996 3:-0.832 4:-0.704 5:-0.0869565 6:0.0962978 7:-0.720641 8:-0.451485 9:0.483333 10:0.846154 11:0.60734 12:0.274419 13:0.246512 14:-0.0252874 15:0.0541176 16:-0.0156258 17:-0.95 18:-1 19:-0.921571 20:-0.37 21:-0.456842 22:-0.777778 23:-0.777778 24:-1 25:-1 26:-0.727273 
10 1:-0.989744 2:1 3:-1 4:-0.772 5:-1 6:0.266667 7:-1 8:-0.975309 9:-1 10:-0.169231 11:0.3084 12:0.302326 13:0.348837 14:0.218391 15:0.411765 16:0.265624 17:-0.988888 18:-1 19:-0.882353 20:-1 21:-0.631579 22:-1 23:-1 24:-1 25:-1 26:-0.757576 
10 1:-0.989744 2:1 3:-1 4:-0.728 5:-1 6:0.511111 7:-1 8:-0.926334 9:-1 10:-0.323077 11:0.3084 12:0.488372 13:0.27907 14:0.471264 15:0.0352941 16:0.312499 17:-0.98 18:-1 19:-0.617647 20:-1 21:-0.631579 22:-1 23:-1 24:-0.5 25:-1 26:-0.712121 
10 1:-0.989744 2:1 3:-1 4:-0.74 5:-1 6:0.444444 7:-1 8:-0.816345 9:-1 10:-0.276923 11:0.3084 12:0.55814 13:0.418605 14:0.402299 15:0.388235 16:0.593749 17:-0.98 18:-1 19:-0.941176 20:-1 21:0.368421 22:-1 23:-1 24:-1 25:-1 26:-0.590909 
0.558173858267041 1:-0.887179 2:0.9066 3:0.3 4:-0.732 5:0.570048 6:-0.00740889 7:-0.759231 8:0.070503 9:0.885187 10:-0.107692 11:0.95902 12:0.496126 13:0.437986 14:0.409963 15:0.294118 16:0.382811 17:-0.994444 18:-0.983741 19:-0.843135 20:0.204444 21:-0.657895 22:-1 23:-1 24:-1 25:-1 26:-0.893939 
10 1:-0.928205 2:0.9938 3:-0.26 4:-0.728 5:0.340578 6:0.511111 7:-0.620991 8:-0.0564228 9:0.7 10:0.184615 11:0.93666 12:0.354651 13:0.313953 14:0.362069 15:0.235294 16:0.40039 17:-0.748888 18:-0.869917 19:-0.882353 20:0.033334 21:-0.689474 22:-1 23:-1 24:-1 25:-1 26:-0.590909 
10 1:-0.958974 2:0.9984 3:-0.536 4:-0.748 5:0.681161 6:0.4 7:-0.61623 8:-0.999184 9:0.655557 10:0.369231 11:0.81468 12:0.451163 13:0.534884 14:0.554023 15:0.28 16:0.481249 17:-0.958888 18:-0.934961 19:-0.911765 20:-0.046666 21:-0.646316 22:-1 23:-1 24:-1 25:-1 26:-0.80303 
10 1:-0.969231 2:1 3:-0.9 4:-0.62 5:0.0869565 6:0.407409 7:-1 8:-0.999456 9:-0.433333 10:-0.292308 11:0.49838 12:0.44186 13:0.22093 14:0.287356 15:0.329412 16:0.0312492 17:-0.998888 18:-0.853659 19:-0.901959 20:0.5 21:0.552632 22:-0.777778 23:-1 24:-1 25:-1 26:-0.893939 
10 1:-0.958974 2:0.9984 3:-0.544 4:-0.712 5:0.652174 6:0.6 7:-0.997143 8:-1 9:0.655557 10:0.369231 11:0.81468 12:0.748837 13:0.683721 14:0.618391 15:0.6 16:0.528124 17:-0.748888 18:-0.983741 19:-0.852941 20:0.24 21:-0.343158 22:-0.111111 23:-1 24:-1 25:-1 26:-0.5 
10 1:-0.989744 2:0.9934 3:-1 4:-0.844 5:-1 6:-0.133333 7:-1 8:-0.0284665 9:-1 10:-0.107692 11:0.3084 12:-0.325581 13:-0.162791 14:-0.195402 15:-0.2 16:-0.179688 17:-0.74 18:-1 19:-0.382353 20:-1 21:-0.0421053 22:-1 23:-1 24:-1 25:-1 26:-0.166667 
10 1:-0.979487 2:1 3:-0.992 4:-0.736 5:-0.913043 6:0.466667 7:-1 8:-0.990001 9:-0.0333333 10:0.184615 11:0.66978 12:-0.0387581 13:0.224805 14:-0.0498069 15:-0.152941 16:0.0156258 17:-0.908888 18:-0.658537 19:-0.882353 20:-0.44 21:-0.936842 22:-1 23:-1 24:-1 25:-1 26:-0.227273 
10 1:-0.805128 2:1 3:0.04 4:-0.448 5:0.130435 6:-0.386667 7:-0.6172 8:-0.566842 9:0.276667 10:-0.0492308 11:0.10514 12:0.344186 13:0.32093 14:-0.177011 15:0.195294 16:0.296093 17:-0.997052 18:-0.946341 19:-0.805882 20:-0.456 21:-0.487368 22:-0.555556 23:-0.333333 24:-1 25:-1 26:-0.409091 
10 1:-0.969231 2:1 3:-0.84 4:-0.684 5:0.73913 6:0.170369 7:-1 8:-0.460871 9:1 10:-0.497437 11:0.49838 12:0.139535 13:0.418605 14:0.275862 15:0.352941 16:0.289061 17:-0.908888 18:-1 19:-0.843135 20:-0.38 21:-0.115789 22:-1 23:-1 24:-1 25:-0.5 26:-0.893939 
10 1:-0.876923 2:0.8226 3:0.42 4:-0.704 5:0.543478 6:0.0962978 7:-0.773715 8:-0.462368 9:0.793333 10:0.846154 11:0.97342 12:0.577819 13:0.520572 14:0.425287 15:0.466061 16:0.481971 17:-0.9276 18:-0.965854 19:-0.882353 20:-0.066 21:-0.750606 22:-1 23:-0.777778 24:-1 25:-1 26:-0.80303 
10 1:-0.887179 2:0.9066 3:0.256 4:-0.7 5:0.516909 6:0.111111 7:-0.75549 8:-0.885182 9:0.0444433 10:0.282052 11:0.95902 12:0.410851 13:0.209302 14:0.398469 15:0.501962 16:0.230468 17:-0.979288 18:-0.913278 19:-0.901959 20:-0.117778 21:-0.707017 22:-1 23:-1 24:-1 25:-1 26:-0.590909 
10 1:-0.928205 2:1 3:-0.52 4:-0.516 5:0.304348 6:0.344444 7:-0.888855 8:-0.558957 9:0.0416667 10:-0.361538 11:0.61196 12:0.30814 13:0.290698 14:0.293103 15:0.264706 16:0.21289 17:-0.99 18:-0.865854 19:-0.852941 20:0.49 21:-0.284211 22:-1 23:-1 24:-1 25:-1 26:-0.712121 
10 1:-0.866667 2:1 3:-0.296 4:-0.656 5:-0.0434783 6:-0.362964 7:-0.896053 8:-0.927613 9:0.6125 10:0.728206 11:0.62004 12:0.292358 13:0.358805 14:-0.231526 15:0.0487388 16:-0.0792398 17:-0.998684 18:-0.987805 19:-0.921571 20:-0.6625 21:-0.451128 22:-0.777778 23:-1 24:-1 25:-1 26:-0.681818 
10 1:-0.917949 2:0.9876 3:-0.08 4:-0.724 5:0.42857 6:0.533333 7:-0.873832 8:-0.983471 9:0.85238 10:0.369231 11:0.95814 12:0.374679 13:0.390181 14:0.435503 15:0.270588 16:0.447916 17:-0.998888 18:-0.972127 19:-0.941176 20:-0.677142 21:-0.974269 22:-0.555556 23:-1 24:-1 25:-1 26:-0.818182 
10 1:-0.907692 2:0.9876 3:-0.108 4:-0.728 5:0.211957 6:0.511111 7:-0.570547 8:-1 9:0.354167 10:0.369231 11:0.97282 12:0.269767 13:0.237209 14:0.245977 15:0.237647 16:0.279687 17:-0.748888 18:-0.914634 19:-0.882353 20:-0.0925 21:-0.810526 22:-1 23:-1 24:-1 25:-1 26:-0.818182 
10 1:-0.907692 2:0.9876 3:-0.116 4:-0.72 5:0.201087 6:0.555556 7:-0.746294 8:-0.24069 9:0.225 10:0.369231 11:0.97282 12:0.227907 13:0.12093 14:0.245977 15:0.345882 16:0.0968741 17:-0.508888 18:-0.939024 19:-0.882353 20:-0.035 21:-0.808421 22:-1 23:-1 24:-1 25:-1 26:-0.166667 
10 1:-0.948718 2:0.9992 3:-0.684 4:-0.74 5:0.717391 6:-0.277778 7:-0.803898 8:-0.277251 9:0.616667 10:0.846154 11:0.44112 12:0.0697674 14:0.0114943 15:0.192155 16:0.132813 17:-0.98 18:-0.97561 19:-0.882353 20:0.23 21:-0.350878 22:-1 23:-1 24:-1 25:-1 26:-0.530303 
10 1:-0.979487 2:1 3:-1 4:-0.624 5:-1 6:0.392591 7:-1 8:-0.935381 9:-1 10:-0.405129 11:0.01468 12:0.240312 13:0.162791 14:0.348657 15:0.317647 16:0.203126 17:-0.95 18:-1 19:-0.7451 20:-1 21:0.754385 22:-1 23:-1 24:-1 25:-1 26:-0.893939 
10 1:-0.969231 2:1 3:-1 4:-0.776 5:-1 6:-0.377778 7:-1 8:-0.538993 9:-1 10:0.0384615 11:-0.29242 12:0.0116279 13:-0.0697674 14:-0.448276 15:0.470588 16:0.441405 17:-0.99 18:-1 19:-0.632353 20:-1 21:0.142105 22:-0.777778 23:-0.777778 24:-1 25:-1 26:-0.863636 
10 1:-0.979487 2:1 3:-1 4:-0.736 5:-1 6:-0.0222222 7:-1 8:-0.602354 9:-1 10:-0.107692 11:0.01468 12:-0.0542651 13:-0.100777 14:-0.0804598 15:0.239214 16:0.312499 17:-0.95 18:-1 19:-0.2549 20:-1 21:0.0245621 22:-1 23:-1 24:-1 25:-1 26:-0.69697 
10 1:-0.958974 2:0.9984 3:-0.6 4:-0.716 5:0.449274 6:0.577778 7:0.0117335 8:-0.164167 9:0.655557 10:-0.107692 11:0.81468 12:0.553488 13:0.534884 14:0.48046 15:0.392941 16:0.546874 17:-0.988888 18:-0.918698 19:-0.911765 20:-0.22 21:-0.503158 22:-0.111111 23:-0.333333 24:-1 25:-1 26:-0.5 
10 1:-0.702564 2:1 3:0.34 4:-0.416 5:-0.143222 6:-0.500853 7:-0.603993 8:-0.627291 9:0.262747 10:-0.0461538 11:0.21174 12:0.226358 13:0.192247 14:-0.354791 15:-0.369412 16:-2.34375e-06 17:-0.93991 18:-0.853659 19:-0.805429 20:-0.064706 21:-0.455438 22:-0.777778 23:-1 24:-1 25:-1 26:-0.939394 
10 1:-0.805128 2:1 3:0.032 4:-0.328 5:-0.0652174 6:-0.0666667 7:-0.950889 8:-0.799787 9:0.425 10:0.0807692 11:0.62808 12:0.359912 13:0.308972 14:-0.11549 15:0.212325 16:0.241071 17:-0.996822 18:-0.890244 19:-0.426471 20:-0.683334 21:-0.747368 22:1 23:-0.111111 24:-1 25:-1 26:0.515152 
10 1:-0.928205 2:0.9876 3:-0.128 4:-0.728 5:0.579709 6:0.511111 7:-0.627725 8:-1 9:0.13889 10:0.369231 11:0.93666 12:0.47093 13:0.389535 14:0.551724 15:0.347059 16:0.505858 17:-0.7496 18:-0.959351 19:-0.882353 20:0.363334 21:-0.578947 22:-1 23:-1 24:-1 25:-1 26:-0.848485 
10 1:-0.907692 2:0.9756 3:-0.008 4:-0.676 5:0.540374 6:0.2 7:-0.615161 8:-0.985988 9:0.595237 10:-0.02564 11:0.90826 12:0.218605 13:0.413953 14:0.42069 15:0.472941 16:0.406249 17:-0.9564 18:-0.986063 19:-0.921571 20:0.208572 21:-0.433684 22:-1 23:-0.777778 24:-0.5 25:-1 26:-0.772727 
10 1:-0.887179 2:0.9066 3:0.272 4:-0.716 5:0.382609 6:0.577778 7:-0.719172 8:-0.083971 9:0.826667 10:0.846154 11:0.98894 12:0.449614 13:0.468991 14:0.398469 15:0.407845 16:0.39453 17:-0.66 18:-0.95122 19:-0.882353 20:0.198 21:-0.833333 22:-1 23:-1 24:-1 25:-1 26:-0.833333 
10 1:-0.979487 2:0.9996 3:-0.836 4:-0.704 5:0.782609 6:0.644444 7:-1 8:-0.720641 9:1 10:0.846154 11:0.66978 12:0.565893 13:0.674419 14:0.670497 15:0.458824 16:0.671875 17:-0.9 18:-0.95122 19:-0.941176 20:0.68 21:-0.431579 22:-1 23:-0.555556 24:-1 25:-1 26:-0.924242 
10 1:-0.979487 2:1 3:-0.992 4:-0.708 5:-0.913043 6:0.622222 7:-1 8:-0.720641 9:1 10:0.846154 11:0.66978 12:0.0542651 13:0.147288 14:0.0574713 15:-0.0901976 16:0.671875 17:-0.9 18:-0.95122 19:-0.882353 20:-0.72 21:-0.628069 22:-1 23:-1 24:-1 25:-1 26:-0.80303 
10 1:-0.907692 2:0.9756 3:0.008 4:-0.756 5:0.369565 6:0.355556 7:-0.680798 8:-0.816345 9:0.870833 10:0.369231 11:0.97282 12:0.32093 13:0.4 14:0.347126 15:0.345882 16:0.157812 17:-0.95 18:-0.963415 19:-0.911765 20:0.4225 21:-0.646316 22:-1 23:-1 24:-1 25:-1 26:-0.924242 
10 1:-0.74359 2:0.9996 3:1 4:-0.368 5:0.590061 6:0.404444 7:-0.718126 8:-0.945801 9:0.753967 10:-0.255385 11:0.999 12:0.536674 13:0.373884 14:0.545536 15:0.567421 16:0.451319 17:-0.795432 18:-0.937283 19:-0.482353 20:-0.050476 21:-0.820242 22:-1 23:-0.777778 24:-1 25:-1 26:-0.757576 
10 1:-0.969231 2:1 3:-1 4:-0.536 5:-1 6:0.288889 7:-1 8:-0.865456 9:-1 10:-0.446154 11:-0.29242 12:0.372093 13:0.162791 14:0.241379 15:0.176471 16:0.218749 17:-0.9 18:-1 19:-0.852941 20:-1 21:0.526316 22:-1 23:-1 24:-1 25:-0.5 26:-0.939394 
10 1:-0.846154 2:1 3:0.688 4:-0.376 5:0.528987 6:0.733333 7:-0.777166 8:-0.78577 9:0.108333 10:0.0153846 11:0.974 12:0.273256 13:0.252907 14:0.568966 15:0.411765 16:0.58496 17:-0.9975 18:-0.890244 19:-0.897059 20:-0.24 21:-0.761842 22:-0.777778 23:-1 24:-1 25:-1 26:-0.954545 
10 1:-0.887179 2:0.9996 3:0.108 4:-0.664 5:0.338165 6:0.244444 7:-0.506706 8:-0.966398 9:0.266667 10:-0.02564 11:0.95902 12:0.224805 13:0.259688 14:0.291186 15:0.458824 16:0.253905 17:-0.4475 18:-0.9458 19:-0.843135 20:0.104444 21:-0.671931 22:-1 23:-1 24:-1 25:-0.5 26:-0.80303 
10 1:-0.846154 2:1 3:0.208 4:-0.536 5:0.0942043 6:0.288889 7:-0.632088 8:-0.868721 9:-0.122223 10:-0.230769 11:0.974 12:0.0843023 13:0.206395 14:0.109195 15:0.279412 16:0.426757 17:-0.9 18:-0.95122 19:-0.808824 20:0.305 21:-0.623684 22:-1 23:-0.777778 24:-1 25:-1 26:-0.954545 
10 1:-0.928205 2:0.9876 3:-0.152 4:-0.72 5:0.53623 6:0.555556 7:-0.651029 8:-0.828385 9:0.35 10:0.369231 11:0.93666 12:0.517442 13:0.715116 14:0.528736 15:0.552941 16:0.505858 17:-0.944444 18:-0.95122 19:-0.941176 20:0.033334 21:-0.902632 22:-1 23:-1 24:-1 25:-1 26:-0.893939 
10 1:-0.917949 2:1 3:-0.7 4:-0.328 5:0.0869565 6:0.244444 7:-0.679897 8:-0.827827 9:-0.433333 10:-0.507692 11:0.17904 12:0.0232558 13:0.245479 14:0.149425 15:0.166014 16:0.265624 17:-0.958888 18:-0.918698 19:-0.872547 20:-0.426666 21:-0.756724 22:-1 23:-0.555556 24:-1 25:-1 26:-0.833333 
10 1:-0.958974 2:0.9984 3:-0.64 4:-0.728 5:0.304348 6:0.511111 7:-0.964766 8:0.209877 9:0.655557 10:0.369231 11:0.81468 12:0.572093 13:0.227907 14:0.36092 15:0.411765 16:0.115624 17:-0.958888 18:-0.95122 19:-0.941176 20:0.733334 21:-0.583158 22:-1 23:-1 24:-1 25:-0.5 26:-0.5 
9.903391439414298 1:-0.866667 2:0.952 3:0.128 4:-0.716 5:0.114626 6:0.0518533 7:-0.520272 8:-0.467673 9:0.645453 10:0.846154 11:0.98298 12:0.152823 13:0.149502 14:0.0673241 15:0.20336 16:0.39955 17:-0.950488 18:-0.946785 19:-0.901959 20:0.272728 21:-0.649623 22:-1 23:-0.111111 24:-1 25:-1 26:-0.333333 
10 1:-0.446154 2:0.991 3:1 4:0.02 5:0.186865 6:0.416667 7:-0.683484 8:-0.734517 9:0.49929 10:-0.192308 11:1 12:0.355605 13:0.379279 14:0.193729 15:0.383529 16:0.344885 17:-0.986036 18:-0.904517 19:-0.654412 20:-0.019574 21:-0.878278 22:-0.777778 23:-0.777778 24:-1 25:-1 26:-0.848485 
10 1:-0.979487 2:1 3:-1 4:-0.74 5:-1 6:-0.0370356 7:-1 8:-0.0562868 9:-1 10:0.323077 11:0.01468 12:0.0387581 13:-0.131781 14:-0.0957839 15:-0.121567 16:-0.0781242 17:-0.988888 18:-1 19:-0.901959 20:-1 21:0.249122 22:-0.555556 23:-0.777778 24:-1 25:-1 26:-0.348485 
10 1:-0.897436 2:1 3:-1 4:0.336 5:-1 6:0.349493 7:-1 8:-0.819692 9:-1 10:-0.47972 11:-1 12:0.0148 13:0.179702 14:0.304074 15:0.411765 16:0.286929 17:-0.9416 18:-1 19:-0.737971 20:-1 21:0.389474 22:-1 23:-0.777778 24:-1 25:-1 26:-0.80303 
0.0185855783237962 1:-0.979487 2:0.9934 3:-0.992 4:-0.876 5:-0.913043 6:-0.311111 7:-1 8:-0.816345 9:-0.433333 10:0.846154 11:0.66978 12:-0.503874 13:-0.395349 14:-0.586207 15:-0.435294 16:-0.453124 17:-0.9 18:-0.756098 19:-0.882353 20:-0.62 21:-0.592983 22:-1 23:-1 24:-1 25:-1 26:-0.893939 
10 1:-0.979487 2:1 3:-0.992 4:-0.712 5:-0.913043 6:0.6 7:-1 8:-0.996735 9:1 10:0.846154 11:0.66978 12:0.116279 13:0.1938 14:0.0421471 15:0.145096 16:0.124999 17:-0.9 18:-0.902439 19:-0.941176 20:-0.92 21:-0.214036 22:-1 23:-0.555556 24:-1 25:-1 26:-0.939394 
10 1:-0.938462 2:0.9938 3:-0.224 4:-0.704 5:0.686957 6:0.644444 7:-0.330762 8:-0.640037 9:0.586667 10:0.369231 11:0.9065 12:0.62126 13:0.448507 14:0.668308 15:0.411765 16:0.593749 17:-0.962222 18:-0.95122 19:-0.705882 20:-0.188 21:-0.603008 22:-1 23:-1 24:-1 25:-0.5 26:-0.469697 
10 1:-0.979487 2:1 3:-0.992 4:-0.736 5:-0.913043 6:0.466667 7:-1 8:-0.803898 9:1 10:0.846154 11:0.66978 12:0.100777 13:0.0697674 14:-0.0498069 15:-0.0274494 16:0.156251 17:-0.9 18:-1 19:-0.941176 20:0.72 21:-0.122806 22:-0.777778 23:-1 24:-1 25:-1 26:-0.893939 
10 1:-0.979487 2:1 3:-0.992 4:-0.708 5:-0.913043 6:0.622222 7:-1 8:-0.996735 9:1 10:0.846154 11:0.66978 12:0.0232558 13:0.100777 14:0.0574713 15:0.160786 16:0.156251 17:-0.9 18:-0.902439 19:-0.852941 20:0.7 21:-0.480701 22:-0.777778 23:-0.555556 24:-1 25:-1 26:-0.621212 
10 1:-0.907692 2:0.952 3:0.188 4:-0.724 5:0.61413 6:0.533333 7:-0.816345 8:-1 9:0.741667 10:0.369231 11:0.97282 12:0.688372 13:0.604651 14:0.590805 15:0.496471 16:0.349999 17:-0.749796 18:-0.987805 19:-0.911765 20:0.36 21:-0.637895 22:-1 23:-1 24:-1 25:-0.5 26:-0.984848 
10 1:-0.979487 2:1 3:-1 4:-0.66 5:-1 6:0.259258 7:-1 8:-0.908445 9:-1 10:-0.476923 11:0.01468 12:0.255814 13:0.147288 14:0.210726 15:0.145096 16:0.250001 17:-0.95 18:-1 19:-0.901959 20:-1 21:0.0666674 22:-0.777778 23:-1 24:-1 25:-0.5 26:-0.530303 
10 1:-0.364103 2:1 3:1 4:0.348 5:0.247283 6:-0.00148 7:-0.632488 8:-0.700497 9:-0.139583 10:-0.561025 11:0.99998 12:0.125874 13:0.240312 14:0.15891 15:0.0890776 16:0.218749 17:-0.98679 18:-0.857722 19:-0.741176 20:0.02375 21:-0.74436 22:-0.777778 23:-1 24:-1 25:-1 26:-0.924242 
10 1:-0.897436 2:1 3:-0.352 4:-0.396 5:0.173913 6:0.342222 7:-0.82863 8:-0.580329 9:-0.322223 10:-0.403077 11:0.616 12:0.230442 13:0.112051 14:0.216299 15:0.236362 16:0.274146 17:-0.96712 18:-0.918698 19:-0.741176 20:0.55 21:-0.422011 22:-1 23:-1 24:-0.5 25:-1 26:-0.893939 
10 1:-0.958974 2:1 3:-1 4:-0.536 5:-1 6:0.0311111 7:-1 8:-0.597266 9:-1 10:-0.495385 11:-0.60592 12:-0.00465116 13:-0.153488 14:-0.0252874 15:-0.124706 16:-0.0250008 17:-0.962222 18:-1 19:-0.588235 20:-1 21:-0.107368 22:-1 23:-1 24:-1 25:-1 26:-0.954545 
10 1:-0.897436 2:0.9998 3:0.056 4:-0.644 5:0.434783 6:0.31852 7:-0.471373 8:-0.983539 9:0.870833 10:0.210255 11:0.93794 12:0.408033 13:0.467233 14:0.38349 15:0.351873 16:0.41051 17:-0.509796 18:-0.963415 19:-0.666665 20:-0.1575 21:-0.485168 22:-1 23:-0.555556 24:-1 25:-1 26:-0.954545 
10 1:-0.958974 2:0.9984 3:-0.596 4:-0.7 5:0.46377 6:0.666667 7:-0.843962 8:-0.992654 9:1 10:0.846154 11:0.81468 12:0.786047 13:0.534884 14:0.526437 15:0.675294 16:0.762499 17:-0.988888 18:-1 19:-0.941176 20:-0.226666 21:-0.604211 22:-1 23:-1 24:-1 25:-1 26:-0.621212 
10 1:-0.948718 2:0.9992 3:-0.712 4:-0.76 5:0.0434783 6:-0.111111 7:-0.979458 8:-0.508486 9:1 10:0.528206 11:0.68566 12:-0.062014 13:-0.0852698 14:-0.0804598 15:-0.176471 16:-0.21094 17:-0.92 18:-0.934961 19:-0.941176 20:0.533334 21:-0.333333 22:-1 23:-1 24:-1 25:-1 26:-0.590909 
10 1:-0.958974 2:0.9992 3:-0.704 4:-0.736 5:0.608696 6:-0.0222222 7:-0.24069 8:-0.588069 9:1 10:0.846154 11:0.60734 12:0.237209 13:0.209302 14:0.195402 15:0.223529 16:0.265624 17:-0.95 18:-0.926829 19:-0.843135 20:0.29 21:-0.435789 22:-1 23:-0.777778 24:-1 25:-1 26:-0.606061 
10 1:-0.979487 2:0.9996 3:-0.84 4:-0.736 5:0.73913 6:0.466667 7:-1 8:-0.975309 9:1 10:-0.107692 11:0.66978 12:0.612405 13:0.643409 14:0.532566 15:0.505882 16:0.53125 17:-0.998888 18:-1 19:-0.941176 20:0.72 21:-0.347368 22:-0.555556 23:-1 24:-1 25:-1 26:-0.484848 
10 1:-0.948718 2:0.9984 3:-0.624 4:-0.724 5:0.362317 6:0.0222222 7:-0.918784 8:-0.975377 9:0.177777 10:0.210255 11:0.68566 12:0.434107 13:0.341084 14:0.15709 15:0.40392 16:0.304685 17:-0.9575 18:-0.626015 19:-0.823529 20:0.68 21:-0.0491221 22:-0.333333 23:1 24:-1 25:-1 26:0.318182 
10 1:-0.6 2:0.9982 3:1 4:-0.292 5:0.295126 6:0.123809 7:-0.600825 8:-0.782141 9:0.59293 10:-0.191209 11:0.99998 12:0.363953 13:0.230233 14:0.241379 15:0.296471 16:0.25039 17:-0.9375 18:-0.84479 19:-0.563024 20:0.114546 21:-0.870526 22:-1 23:-1 24:-1 25:-1 26:-0.954545 
10 1:-0.958974 2:1 3:-0.736 4:-0.576 5:0.434783 6:0.570369 7:-0.083971 8:-0.99347 9:0.483333 10:-0.107692 11:0.60734 12:0.544186 13:0.525581 14:0.489655 15:0.618824 16:0.509374 17:-0.26 18:-0.731707 19:-0.431371 20:0.09 21:-0.709474 22:-1 23:-1 24:-1 25:-1 26:-0.0909091 
10 1:-0.958974 2:0.9992 3:-0.7 4:-0.744 5:0.0869565 6:0.422222 7:-0.352583 8:-1 9:0.655557 10:0.369231 11:0.81468 12:0.2 13:0.209302 14:0.186207 15:0.129412 16:0.256249 17:-0.748888 18:-0.983741 19:-0.911765 20:0.086666 21:-0.553684 22:-1 23:-1 24:-1 25:-1 26:-0.954545 
10 1:-0.774359 2:1 3:0.128 4:-0.44 5:-0.0568565 6:-0.377778 7:-0.885103 8:-0.906313 9:0.21282 10:0.107692 11:0.3802 12:0.490395 13:0.421637 14:-0.248377 15:0.227624 16:0.308421 17:-0.99742 18:-0.928707 19:-0.723529 20:-0.415384 21:-0.661326 22:-0.555556 23:-0.555556 24:-1 25:-1 26:-0.590909 
10 1:-0.958974 2:0.9992 3:-0.748 4:-0.756 5:0.369565 6:-0.0962978 7:-0.965514 8:-0.716628 9:0.283333 10:0.528206 11:0.60734 12:0.330233 13:0.218605 14:0.0482759 15:0.0635294 16:0.153124 17:-0.95 18:-0.926829 19:-0.901959 20:0.53 21:-0.246316 22:-0.111111 23:-1 24:-1 25:-1 26:-0.454545 
10 1:-0.948718 2:0.9984 3:-0.6 4:-0.74 5:0.449274 6:-0.0370356 7:-0.899194 8:-0.672959 9:0.31111 10:0.405129 11:0.68566 12:0.232558 13:0.1938 14:0.172414 15:0.498038 16:0.320313 17:-0.996388 18:-1 19:-0.862747 20:-0.5 21:-0.817543 22:-1 23:-1 24:-1 25:-0.5 26:-0.863636 
10 1:-0.979487 2:0.9996 3:-0.856 4:-0.716 5:0.565217 6:0.577778 7:-1 8:-0.998163 9:1 10:-0.107692 11:0.66978 12:0.705428 13:0.44186 14:0.547894 15:0.568626 16:0.4375 17:-0.75 18:-0.902439 19:-0.764706 20:0.94 21:-0.670175 22:-1 23:-1 24:-1 25:-0.5 26:-0.5 
10 1:-0.928205 2:0.9876 3:-0.06 4:-0.712 5:0.7029 6:0.6 7:-0.594586 8:-0.750026 9:0.827777 10:0.846154 11:0.93666 12:0.319767 13:0.313953 14:0.672414 15:0.488235 16:0.693358 17:-0.748888 18:-0.894307 19:-0.941176 20:0.056666 21:-0.797368 22:-0.777778 23:-0.777778 24:-1 25:-1 26:-0.727273 
10 1:-0.107692 2:1 3:1 4:0.204 5:0.222135 6:-0.594613 7:-0.662937 8:-0.78724 9:0.417577 10:0.167366 11:0.12004 12:0.0216698 13:0.104651 14:-0.126961 15:0.235831 16:0.191051 17:-0.981028 18:-0.922839 19:-0.746882 20:0.259272 21:-0.617703 22:-1 23:-0.777778 24:-1 25:-1 26:-0.712121 
10 1:-0.979487 2:1 3:-1 4:-0.752 5:-1 6:-0.08148 7:-1 8:-0.701935 9:-1 10:-0.251283 11:0.01468 12:-0.0852698 13:-0.224805 14:-0.141761 15:-0.105882 16:-0.156251 17:-0.5 18:-1 19:-0.509806 20:-1 21:-0.0456147 22:-1 23:-0.777778 24:-1 25:-1 26:-0.712121 
10 1:-0.979487 2:1 3:-0.992 4:-0.736 5:-0.913043 6:0.466667 7:-1 8:-0.901235 9:-0.6 10:0.846154 11:0.66978 12:0.100777 13:0.0387581 14:-0.0498069 15:0.0509788 16:0.0468726 17:-0.9 18:-0.756098 19:-0.911765 20:0.6 21:-0.284211 22:-1 23:-1 24:-1 25:-1 26:-0.818182 
10 1:-0.979487 2:0.9996 3:-0.88 4:-0.7 5:0.304348 6:0.666667 7:-1 8:-0.918376 9:1 10:0.846154 11:0.66978 12:0.829456 13:0.829456 14:0.517241 15:0.678433 16:0.749997 17:-0.99 18:-0.95122 19:-0.911765 20:-0.44 21:-0.775438 22:-0.777778 23:-0.777778 24:-1 25:-1 26:-0.590909 
10 1:-0.846154 2:1 3:0.648 4:-0.564 5:0.492752 6:0.211111 7:-0.671094 8:-0.396422 9:0.741667 10:-0.384615 11:0.974 12:0.450581 13:0.569767 14:0.405172 15:0.447059 16:0.666991 17:-0.989876 18:-0.959351 19:-0.735294 20:-0.268334 21:-0.690789 22:-1 23:-1 24:-1 25:-1 26:-0.954545 
10 1:-0.948718 2:0.9984 3:-0.572 4:-0.688 5:0.163043 6:0.733333 7:-0.864129 8:-0.21559 9:1 10:-0.107692 11:0.86606 12:0.465116 13:0.356591 14:0.325669 15:0.458824 16:0.281247 17:-0.9 18:-0.97561 19:-0.823529 20:-0.405 21:-0.614036 22:-1 23:-1 24:-1 25:-1 26:-0.954545 
10 1:-0.979487 2:1 3:-1 4:-0.66 5:-1 6:0.259258 7:-1 8:-0.815121 9:-1 10:-0.271794 11:0.01468 12:0.333335 13:0.47287 14:0.210726 15:0.411765 16:0.499999 17:-0.988888 18:-1 19:-0.862747 20:-1 21:0.473684 22:-0.777778 23:-0.555556 24:-1 25:-1 26:-0.939394 
10 1:-0.917949 2:1 3:-1 4:0.048 5:-1 6:0.293827 7:-1 8:-0.996009 9:-1 10:-0.415385 11:-1 12:0.452195 13:0.46253 14:0.246487 15:0.411765 16:0.374997 17:-0.989796 18:-1 19:-0.901959 20:-1 21:0.377777 22:-1 23:-1 24:-1 25:-1 26:-0.969697 
10 1:-0.928205 2:1 3:-0.328 4:-0.688 5:0.46087 6:0.155556 7:-0.735007 8:-0.973336 9:0.38 10:0.528206 11:0.81754 12:0.447674 13:0.593023 14:0.321839 15:0.505882 16:0.341796 17:-0.994444 18:-0.990244 19:-0.901959 20:-0.108 21:-0.813158 22:-1 23:-1 24:-0.5 25:-1 26:-0.69697 
10 1:-0.989744 2:1 3:-1 4:-0.676 5:-1 6:0.8 7:-1 8:-0.970615 9:-1 10:0.846154 11:0.3084 12:0.72093 13:0.744186 14:0.770115 15:0.788235 16:0.499999 17:-0.98 18:-1 19:-0.941176 20:-1 21:-0.2 22:-1 23:-0.777778 24:-1 25:-1 26:-0.969697 
10 1:-0.846154 2:0.9848 3:1 4:-0.58 5:0.685617 6:0.555556 7:-0.542197 8:-0.760024 9:0.76154 10:0.210255 11:0.99318 12:0.43314 13:0.645349 14:0.658046 15:0.620588 16:0.807616 17:-0.94347 18:-0.876171 19:-0.686276 20:-0.006154 21:-0.838158 22:-1 23:-1 24:-1 25:-1 26:-0.939394 
10 1:-0.958974 2:0.9984 3:-0.552 4:-0.716 5:0.623187 6:0.577778 7:-0.994694 8:-0.750026 9:0.655557 10:0.846154 11:0.81468 12:0.618605 13:0.553488 14:0.590805 15:0.665882 16:0.724999 17:-0.9875 18:-1 19:-0.941176 20:-0.42 21:-0.431579 22:-1 23:-1 24:-1 25:-1 26:-0.742424 
10 1:-0.989744 2:1 3:-1 4:-0.752 5:-1 6:0.377778 7:-1 8:-0.791042 9:-1 10:-0.292308 11:0.3084 12:0.27907 13:0.27907 14:0.333333 15:0.458824 16:0.429686 17:-0.74 18:-1 19:-0.411765 20:-1 21:-0.578947 22:-1 23:-0.777778 24:-1 25:-1 26:-0.0757576 
10 1:0.548718 2:0.9998 3:1 4:1 5:0.274687 6:0.217391 7:-0.651328 8:-0.674154 9:0.460983 10:-0.155852 11:1 12:0.451958 13:0.364749 14:0.242589 15:0.272447 16:0.325451 17:-0.996504 18:-0.969371 19:-0.601024 20:-0.017364 21:-0.854432 22:-0.777778 23:-0.777778 24:-1 25:-1 26:-0.924242 
10 1:-0.85641 2:0.9962 3:0.612 4:-0.604 5:0.460143 6:0.466667 7:-0.596182 8:-0.985308 9:0.569443 10:-0.107692 11:0.9892 12:0.43566 13:0.348837 14:0.446745 15:0.380391 16:0.384372 17:-0.998488 18:-0.959351 19:-0.784312 20:-0.08 21:-0.650526 22:-1 23:-0.777778 24:-1 25:-1 26:-0.80303 
10 1:-0.85641 2:0.9962 3:0.492 4:-0.6 5:0.351448 6:0.48148 7:-0.596182 8:-0.985308 9:0.569443 10:-0.107692 11:0.9892 12:0.463567 13:0.36434 14:0.357853 15:0.289412 16:0.421872 17:-0.998488 18:-0.959351 19:-0.784312 20:-0.04 21:-0.642105 22:-1 23:-0.777778 24:-1 25:-1 26:-0.80303 
10 1:-0.948718 2:1 3:-0.744 4:-0.664 5:0.391304 6:-0.0666667 7:-0.828385 8:-0.539911 9:0.483333 10:-0.123077 11:0.44112 12:0.310079 13:0.286823 14:0.0421471 15:0.239214 16:0.109376 17:-0.18 18:-0.902439 19:-0.455882 20:0.47 21:-0.452632 22:-0.333333 23:-1 24:-1 26:-0.80303 
10 1:-0.866667 2:0.8226 3:0.476 4:-0.708 5:0.4585 6:0.08148 7:-0.67633 8:-0.705744 9:0.718183 10:0.405129 11:0.98298 12:0.362126 13:0.392028 14:0.359605 15:0.485713 16:0.309152 17:-0.954898 18:-0.946785 19:-0.862747 20:0.06909 21:-0.738345 22:-1 23:-1 24:-1 25:-1 26:-0.863636 
10 1:-0.128205 2:1 3:1 4:0.028 5:0.260222 6:-0.398831 7:-0.653816 8:-0.652949 9:0.525373 10:0.123886 11:1 12:-0.00216279 13:0.140074 14:0.083669 15:0.419426 16:0.504907 17:-0.91 18:-0.920639 19:-0.647059 20:0.104478 21:-0.758874 22:-1 23:-0.777778 24:-1 25:-1 26:-0.833333 
10 1:-0.825641 2:0.9848 3:0.788 4:-0.524 5:0.494983 6:0.0577778 7:-0.639482 8:-0.357698 9:0.76154 10:0.0830769 11:0.96074 12:0.31266 13:0.514214 14:0.353766 15:0.307191 16:0.315105 17:0.3 18:-0.913698 19:-0.588235 20:0.115384 21:-0.68772 22:-1 23:-1 24:-1 25:-1 26:-0.954545 
10 1:-0.948718 2:0.9968 3:-0.54 4:-0.74 5:0.25 6:0.444444 7:-0.727545 8:-0.979594 9:0.808333 10:0.369231 11:0.86606 12:0.534884 13:0.410851 14:0.287356 15:0.709802 16:0.710936 17:-0.908888 18:-0.926829 19:-0.911765 20:-0.245 21:-0.410526 22:-0.555556 23:-0.777778 24:-1 25:-1 26:-0.878788 
0.6437968762877387 1:-0.958974 2:0.9984 3:-0.556 4:-0.74 5:0.608696 6:0.444444 7:-0.542768 8:-0.489848 9:1 10:0.846154 11:0.81468 12:0.386047 13:0.432558 14:0.526437 15:0.628235 16:0.546874 17:-0.5 18:-0.95122 19:-0.911765 20:0.046666 21:-0.461053 22:-1 23:-1 24:-1 25:-1 26:-0.893939 
10 1:-0.979487 2:0.9996 3:-0.856 4:-0.712 5:0.565217 6:0.6 7:-1 8:-0.862055 9:1 10:0.846154 11:0.66978 12:0.844963 13:0.813953 14:0.563218 15:0.850979 16:0.656247 17:-0.9 18:-0.95122 19:-0.882353 20:0.46 21:0.0947368 22:-0.555556 23:-1 24:-1 25:-1 26:-0.712121 
0.2307756416315409 1:-0.958974 2:0.9984 3:-0.628 4:-0.72 5:0.347826 6:0.555556 7:-0.75091 8:-0.941026 9:0.31111 10:0.846154 11:0.81468 12:0.47907 13:0.451163 14:0.406897 15:0.618824 16:0.612499 17:-0.5 18:-0.78862 19:-0.852941 20:0.446666 21:-0.254737 22:-1 23:-0.555556 24:-1 25:-1 26:0.0454545 
10 1:-0.876923 2:0.9066 3:0.352 4:-0.712 5:0.33597 6:0.6 7:-0.579731 8:-1 9:0.718183 10:0.369231 11:0.99302 12:0.373884 13:0.402502 14:0.358092 15:0.238009 16:0.308894 17:-0.7016 18:-0.95122 19:-0.882353 20:0.323636 21:-0.734413 22:-1 23:-1 24:-1 25:-0.5 26:-0.833333 
10 1:-0.702564 2:1 3:1 4:-0.264 5:0.387522 6:0.168253 7:-0.79372 8:-0.720437 9:0.865217 10:-0.397803 11:0.99754 12:0.389149 13:0.488372 14:0.314943 15:0.447845 16:0.559375 17:-0.982788 18:-0.953341 19:-0.823529 20:0.151304 21:-0.607017 22:-1 23:-1 24:-1 25:-1 26:-0.848485 
10 1:-0.938462 2:0.9968 3:-0.464 4:-0.724 5:0.165217 6:0.533333 7:-0.405244 8:-0.529844 9:0.793333 10:0.369231 11:0.9065 12:0.315614 13:0.435214 14:0.241379 15:0.263864 16:0.406249 17:-0.962222 18:-0.95122 19:-0.911765 20:-0.228 21:-0.837594 22:-1 23:-1 24:-1 25:-0.5 26:-0.939394 
3.795480057067111 1:-0.876923 2:0.6754 3:0.684 4:-0.72 5:0.66403 6:0.555556 7:-0.641714 8:-0.337006 9:0.930303 10:0.846154 11:0.99302 12:0.542037 13:0.695884 14:0.644561 15:0.567421 16:0.572116 17:-0.989376 18:-0.982263 19:-0.882353 20:-0.438182 21:-0.846154 22:-0.777778 23:-1 24:-1 25:-1 26:-0.893939 
10 1:-0.302564 2:0.993 3:1 4:-0.132 5:0.332804 6:-0.311111 7:-0.651132 8:-0.623512 9:0.597577 10:0.00219692 11:1 12:0.141219 13:0.270642 14:0.176078 15:0.514066 16:0.49728 17:-0.974644 18:-0.954766 19:-0.840335 20:0.079272 21:-0.787339 22:-1 23:-0.777778 24:-1 25:-1 26:-0.681818 
10 1:-0.774359 2:1 3:-0.024 4:-0.492 5:-0.0355739 6:-0.529631 7:-0.754162 8:-0.646134 9:0.154547 10:0.0435908 11:-0.16568 12:0.209302 13:0.284126 14:-0.350326 15:0.000512941 16:-0.0991851 17:-0.877376 18:-0.84479 19:-0.764706 20:-0.636364 21:-0.4746 22:-0.555556 23:-1 24:-1 25:-1 26:-0.166667 
10 1:-0.989744 2:1 3:-1 4:-0.772 5:-1 6:0.266667 7:-1 8:-0.965514 9:-1 10:-0.323077 11:0.3084 12:0.465116 13:0.372093 14:0.218391 15:0.505882 16:0.499999 17:-0.98 18:-1 19:-0.852941 20:-1 21:0.105263 22:-0.333333 23:-0.777778 24:-1 25:-1 26:-0.181818 
10 1:-0.866667 2:0.9996 3:0.076 4:-0.652 5:0.169565 6:-0.0333333 7:-0.719172 8:-0.917185 9:0.196667 10:0.0384615 11:0.9392 12:0.0664465 13:0.0863767 14:0.077177 15:0.156301 16:0.185266 17:-0.9576 18:-0.84878 19:-0.823529 20:0.002 21:-0.475187 22:-1 23:-1 24:-1 25:-1 26:-0.439394 
10 1:-0.948718 2:1 3:-1 4:-0.596 5:-1 6:-0.251853 7:-1 8:-0.661626 9:-1 10:-0.358975 11:-0.92258 12:-0.232558 13:-0.0465116 14:-0.318009 15:-0.137256 16:-0.148437 17:-0.935556 18:-1 19:-0.803924 20:-1 21:0.0421053 22:-1 23:-1 24:-0.5 25:-1 26:-0.227273 
7.721134089950915 1:-0.538462 2:-0.9156 3:1 4:-0.264 5:0.653261 6:0.362964 7:-0.707952 8:-0.61642 9:0.619167 10:0.528206 11:1 12:0.301316 13:0.524772 14:0.612193 15:0.531459 16:0.564199 17:-0.997592 18:-0.947561 19:-0.911765 20:0.26 21:-0.789474 22:-1 23:-0.555556 24:-1 25:-1 26:-0.954545 
10 1:-0.815385 2:0.886 3:1 4:-0.532 5:0.442935 6:0.733333 7:-0.70546 8:-0.919464 9:0.483333 10:0.528206 11:0.99832 12:0.461447 13:0.446758 14:0.476106 15:0.580184 16:0.502464 17:-0.9975 18:-0.97561 19:-0.941176 20:-0.49375 21:-0.937949 22:-0.555556 23:-0.777778 24:-1 25:-1 26:-0.727273 
10 1:-0.958974 2:0.9992 3:-0.74 4:-0.748 5:0.413043 6:-0.0666667 7:-0.803898 8:-0.730096 9:0.283333 10:0.528206 11:0.60734 12:0.227907 13:0.0790698 14:0.0850575 15:0.298824 16:0.228124 17:-0.95 18:-0.97561 19:-0.882353 20:-0.27 21:-0.410526 22:-1 23:-0.111111 24:-1 25:-1 26:-0.348485 
10 1:-0.938462 2:0.9984 3:-0.56 4:-0.712 5:-0.0434783 6:0.6 7:-0.454137 8:-0.901235 9:0.38 10:0.846154 11:0.9065 12:-0.0232558 13:0.0498326 14:0.103448 15:0.0957976 16:0.325891 17:-0.9896 18:-0.970732 19:-0.882353 20:-0.44 21:-0.723307 22:-0.555556 23:-1 24:-1 25:-0.5 26:-0.893939 
10 1:-0.948718 2:0.9992 3:-0.68 4:-0.712 5:0.73913 6:-0.2 7:-0.970615 8:-0.38173 9:1 10:0.369231 11:0.44112 12:0.131781 13:0.0697674 14:0.0727954 15:0.0745082 16:0.0859382 17:-0.908888 18:-1 19:-0.882353 20:0.18 21:-0.189474 22:-1 23:-0.777778 24:-1 25:-1 26:-0.984848 
10 1:-0.979487 2:0.9996 3:-0.856 4:-0.708 5:0.565217 6:0.622222 7:-1 8:-0.791042 9:1 10:-0.107692 11:0.66978 12:0.44186 13:0.410851 14:0.578543 15:0.333332 16:0.453124 17:-0.9 18:-0.95122 19:-0.882353 20:0.62 21:-0.550878 22:-1 23:-1 24:-1 26:-0.590909 
10 1:-0.948718 2:0.9968 3:-0.452 4:-0.708 5:0.48913 6:0.622222 7:-0.795293 8:-0.98694 9:0.641667 10:-0.107692 11:0.86606 12:0.465116 13:0.379847 14:0.517241 15:0.474508 16:0.374997 17:-0.99 18:-0.939024 19:-0.852941 20:0.245 21:-0.361404 22:-1 23:-1 24:-1 25:-1 26:-0.863636 
8.71437002471218 1:-0.979487 2:0.9996 3:-0.84 4:-0.7 5:0.73913 6:0.666667 7:-1 8:-0.640037 9:1 10:0.846154 11:0.66978 12:0.736433 13:0.72093 14:0.670497 15:0.39608 16:0.656247 17:-0.99 18:-1 19:-0.911765 20:0.12 21:-0.368421 22:-0.555556 23:-1 24:-1 25:-1 26:-0.863636 
10 1:-0.641026 2:1 3:0.344 4:-0.208 5:-0.188404 6:-0.511111 7:-0.655807 8:-0.65848 9:0.12963 10:0.0512831 11:-0.6067 12:0.409563 13:0.348837 14:-0.409963 15:-0.0222212 16:-0.104168 17:-0.997778 18:-0.94038 19:-0.774512 20:-0.304444 21:-0.461987 22:-0.777778 23:-1 24:-1 25:-1 26:-0.712121 
10 1:-0.948718 2:1 3:-0.524 4:-0.644 5:0.724639 6:0.31852 7:-0.291093 8:-0.876611 9:0.31111 10:0.528206 11:0.68566 12:0.496126 13:0.651163 14:0.501917 15:0.39608 16:0.617186 17:-0.9575 18:-0.95122 19:-0.823529 20:0.1 21:-0.428069 22:-1 23:-1 24:-1 25:-1 26:-0.757576 
10 1:-0.682051 2:1 3:1 4:-0.324 5:0.538043 6:-0.0611111 7:-0.774779 8:-0.237053 9:0.483333 10:0.157692 11:0.99618 12:0.42587 13:0.373544 14:0.37069 15:0.375002 16:0.502929 17:-0.998854 18:-0.969512 19:-0.852941 20:-0.135 21:-0.796712 22:-1 23:-1 24:-1 25:1 26:-0.378788 
10 1:-0.979487 2:1 3:-1 4:-0.684 5:-1 6:0.170369 7:-1 8:-0.274632 9:-1 10:-0.37436 11:0.01468 12:0.36434 13:0.317828 14:0.118772 15:0.223529 16:0.124999 17:-0.988888 18:-1 19:-0.784312 20:-1 21:0.192983 22:-0.777778 23:-0.777778 24:-1 25:-1 26:-0.621212 
10 1:-0.989744 2:1 3:-1 4:-0.76 5:-1 6:0.333333 7:-1 8:-0.828385 9:-1 10:-0.230769 11:0.3084 12:0.186047 13:-0.162791 14:0.287356 15:0.294118 16:0.218749 17:-0.98 18:-1 19:-0.823529 20:-1 21:-0.357895 22:-1 23:-1 24:-0.5 25:-1 26:-0.742424 
10 1:-0.928205 2:0.9938 3:-0.28 4:-0.712 5:0.565217 6:0.0666667 7:-0.92462 8:-0.819474 9:0.38 10:0.528206 11:0.81754 12:0.343023 13:0.162791 14:0.356322 15:0.388235 16:0.476561 17:-0.971112 18:-0.931707 19:-0.882353 20:-0.176 21:-0.823684 22:-1 23:-0.777778 24:-1 25:-1 26:-0.5 
6.097461042551291 1:-0.958974 2:0.9992 3:-0.748 4:-0.736 5:-0.0869565 6:0.466667 7:-0.307282 8:0.273544 9:0.31111 10:0.846154 11:0.81468 12:-0.106977 13:0.0325581 14:0.0942529 15:0.195294 16:0.0124992 17:-0.5 18:-0.78862 19:-0.941176 20:0.106666 21:-0.524211 22:-1 23:-1 24:-1 25:-1 26:-0.893939 
10 1:-0.979487 2:1 3:-0.992 4:-0.692 5:-0.913043 6:0.711111 7:-1 8:-0.791042 9:1 10:0.846154 11:0.66978 12:0.131781 13:0.116279 14:0.118772 15:0.0196094 16:-2.34375e-06 17:-0.9 18:-0.902439 19:-0.941176 20:-0.9 21:-0.2 22:-1 23:-1 24:-1 25:-1 26:-0.818182 
10 1:-0.897436 2:0.952 3:0.228 4:-0.716 5:0.483091 6:0.577778 7:-0.61759 8:-0.828385 9:1 10:0.369231 11:0.9826 12:0.463 13:0.348837 14:0.487982 15:0.557219 16:0.453124 17:-0.989376 18:-0.983741 19:-0.911765 20:0.02 21:-0.703349 22:-0.777778 23:-1 24:-1 25:-1 26:-0.924242 
10 1:-0.815385 2:1 3:0.144 4:-0.604 5:0.130435 6:-0.45 7:-0.70288 8:-0.840024 9:0.624243 10:0.442308 11:0.54612 12:0.525093 13:0.436963 14:-0.160313 15:-0.00185882 16:0.184212 17:-0.982018 18:-0.915741 19:-0.75 20:-0.154546 21:-0.604432 22:-0.777778 23:-1 24:-1 25:-1 26:-0.863636 
10 1:-0.958974 2:0.9984 3:-0.552 4:-0.736 5:0.623187 6:0.466667 7:-0.451349 8:-1 9:0.655557 10:0.369231 11:0.81468 12:0.47907 13:0.460465 14:0.544828 15:0.477647 16:0.640624 17:-0.748888 18:-0.934961 19:-0.852941 20:0.366666 21:-0.578947 22:-0.777778 23:-1 24:-1 25:-1 26:-0.954545 
10 1:-0.979487 2:1 3:-0.992 4:-0.692 5:-0.913043 6:0.711111 7:-1 8:-0.933884 9:-0.0333333 10:0.846154 11:0.66978 12:-0.00775349 13:-0.0232558 14:0.118772 15:0.0980376 16:0.109376 17:-0.99 18:-0.95122 19:-0.882353 20:0.9 21:-0.214036 22:-0.777778 23:-1 24:-1 25:-0.5 26:-0.681818 
10 1:-0.958974 2:0.9992 3:-0.68 4:-0.72 5:0.159422 6:0.555556 7:-0.404551 8:-0.622692 9:1 10:0.369231 11:0.81468 12:0.6 13:0.293023 14:0.287356 15:0.261176 16:0.406249 17:-0.996388 18:-1 19:-0.941176 20:-0.12 21:-0.465263 22:-0.777778 23:-1 24:-1 25:-1 26:-0.80303 
10 1:-0.979487 2:0.9996 3:-0.868 4:-0.716 5:0.434783 6:0.577778 7:-1 8:-0.996735 9:-0.0333333 10:0.846154 11:0.66978 12:0.565893 13:0.612405 14:0.501917 15:0.411765 16:0.515622 17:-0.99 18:-1 19:-0.941176 20:1 21:-0.0315789 22:-1 23:-1 24:-1 25:-0.5 26:-0.590909 
10 1:-0.948718 2:1 3:-0.704 4:-0.688 5:0.0724652 6:0.155556 7:-0.590926 8:-0.599089 9:0.655557 10:-0.107692 11:0.68566 12:0.286823 13:0.341084 14:0.0727954 15:-0.0117647 16:0.0312492 17:-0.958888 18:-0.967478 19:-0.725488 20:-0.113334 21:-0.519299 22:-0.777778 23:-0.555556 24:-1 25:-1 26:-0.136364 
10 1:-0.969231 2:0.9992 3:-0.732 4:-0.736 5:0.456522 6:0.466667 7:-0.586777 8:-0.872462 9:1 10:-0.107692 11:0.7526 12:0.186047 13:0.430233 14:0.436782 15:0.529412 16:0.617186 17:-0.748888 18:-0.853659 19:-0.882353 20:-0.45 21:-0.731579 22:-0.777778 23:-0.555556 24:-1 25:-1 26:-0.575758 
10 1:-0.979487 2:0.9996 3:-0.848 4:-0.724 5:0.652174 6:0.533333 7:-1 8:-0.996735 9:1 10:-0.107692 11:0.66978 12:0.658916 13:0.534884 14:0.547894 15:0.584315 16:0.562497 17:-0.99 18:-0.95122 19:-0.764706 20:0.92 21:-0.480701 22:-1 23:-1 24:-1 25:-1 26:-0.863636 
10 1:-0.846154 2:1 3:0.368 4:-0.348 5:0.652174 6:0.03492 7:-0.901087 8:-0.764281 9:0.655557 10:-0.476923 11:0.54186 12:0.415698 13:0.343023 14:0.359195 15:0.344118 16:0.338866 17:1 18:-0.918698 19:-0.680671 20:0.577778 21:-0.536842 22:-1 23:-0.777778 24:-1 25:-1 26:-0.893939 
10 1:-0.887179 2:0.952 3:0.148 4:-0.732 5:0.247826 6:0.488889 7:-0.777705 8:-0.720641 9:0.836667 10:0.369231 11:0.98894 12:0.329456 13:0.344963 14:0.264368 15:0.431374 16:0.390625 17:-0.988888 18:-0.921951 19:-0.941176 20:0.546 21:-0.749122 22:-0.777778 23:-1 24:-1 25:-1 26:-0.742424 
10 1:-0.887179 2:0.9876 3:-0.148 4:-0.716 5:0.028987 6:0.0518533 7:-0.925008 8:-0.191783 9:-0.0333333 10:0.210255 11:0.95902 12:-0.00775349 13:-0.0116279 14:-0.00382989 15:-0.0666682 16:-0.132813 17:-0.935 18:-0.7832 19:-0.823529 20:0.473334 21:-0.624562 22:-1 23:-1 24:-1 25:-1 26:-0.636364 
10 1:-0.897436 2:0.9998 3:-0.184 4:-0.596 5:0.267083 6:0.122222 7:-0.723099 8:-0.445907 9:0.35238 10:-0.169231 11:0.82036 12:0.175474 13:0.209302 14:0.182864 15:0.129412 16:0.171874 17:-0.99 18:-0.979093 19:-0.926471 20:-0.097142 21:-0.429665 22:-0.777778 23:-1 24:-1 25:-1 26:-0.893939 
10 1:-0.917949 2:1 3:-0.52 4:-0.668 5:-0.130435 6:0.229631 7:-0.929204 8:-0.53583 9:0.305557 10:0.128206 11:0.86836 12:0.0646 13:-0.0129209 14:-0.0549149 15:0.0509788 16:-0.0781242 17:-0.748888 18:-0.918698 19:-0.843135 20:0.386666 21:-0.637427 22:-0.777778 23:-1 24:-1 25:-1 26:-0.848485 
9.182255422635274 1:-0.958974 2:0.9984 3:-0.604 4:-0.732 5:0.434783 6:0.488889 7:-0.772132 8:-0.640037 9:0.41111 10:0.369231 11:0.81468 12:0.153488 13:0.311628 14:0.434483 15:0.524706 16:0.228124 17:-0.997778 18:-0.902439 19:-0.882353 20:0.273334 21:-0.461053 22:-1 23:-0.777778 24:-0.5 25:-1 26:-0.893939 
10 1:-0.969231 2:1 3:-1 4:-0.632 5:-1 6:0.0222222 7:-1 8:-0.652722 9:-1 10:-0.107692 11:-0.29242 12:0.325581 13:0.0813953 14:-0.0344828 15:0.270588 16:0.00781171 17:-0.98 18:-1 19:-0.897059 20:-1 21:0.3 22:-1 23:-1 24:-1 25:-1 26:-0.863636 
10 1:-0.682051 2:1 3:0.396 4:-0.224 5:0.264491 6:-0.568889 7:-0.607427 8:-0.878277 9:0.741667 10:0.0569231 11:-1 12:-0.0654047 13:0.0377907 14:-0.311779 15:0.0661741 16:-0.0112289 17:-0.999396 18:-0.959351 19:-0.735294 20:-0.541666 21:-0.571053 22:-1 23:-0.777778 24:-1 25:-1 26:-0.757576 
10 1:-0.979487 2:1 3:-0.992 4:-0.724 5:-0.913043 6:0.533333 7:-1 8:-0.360065 9:-0.0333333 10:0.846154 11:0.66978 12:0.240312 13:0.0697674 14:-0.00382989 15:0.0823529 16:-0.499999 17:-0.9 18:-0.756098 19:-0.911765 20:-0.74 21:-0.228069 22:-0.777778 23:-1 24:-1 25:-1 26:-0.666667 
10 1:-0.979487 2:0.9996 3:-0.852 4:-0.664 5:0.608696 6:0.866667 7:-1 8:-0.941026 9:1 10:0.846154 11:0.66978 12:0.736433 13:0.72093 14:0.762451 15:0.584315 16:0.796872 17:-0.99 18:-1 19:-0.882353 20:-0.24 21:-0.291227 22:-1 23:-1 24:-1 25:-1 26:-0.712121 
10 1:-0.989744 2:1 3:-1 4:-0.78 5:-1 6:0.222222 7:-1 8:-0.360065 9:-1 10:-0.292308 11:0.3084 12:0.418605 13:0.232558 14:0.172414 15:0.388235 16:0.312499 17:-0.98 18:-1 19:-0.705882 20:-1 21:0.305263 22:-0.777778 23:-0.777778 24:-1 25:-1 26:-0.954545 
10 1:-0.907692 2:0.9756 3:0.016 4:-0.716 5:0.577639 6:0.0518533 7:-0.764281 8:-0.630514 9:0.85238 10:0.210255 11:0.90826 12:0.451163 13:0.390698 14:0.402299 15:0.557647 16:0.420311 17:-0.5064 18:-0.95819 19:-0.823529 20:-0.105714 21:-0.593684 22:-1 23:-1 24:-1 25:-1 26:-0.848485 
10 1:-0.969231 2:0.9996 3:-0.856 4:-0.712 5:-0.217391 6:0.6 7:-0.111111 8:-0.994898 9:-0.0333333 10:0.307692 11:0.7526 12:0.174419 13:0.0813953 14:0.149425 15:0.0823529 16:0.230468 17:-0.5 18:-0.97561 19:-0.823529 20:-0.1 21:-0.0263158 22:-1 23:-1 24:-0.5 25:-0.5 26:-0.318182 
10 1:-0.969231 2:1 3:-0.848 4:-0.66 5:0.652174 6:0.259258 7:-1 8:-0.621671 9:-0.0333333 10:-0.251283 11:0.49838 12:0.360465 13:0.0465116 14:0.321839 15:0.2 16:0.359374 17:-0.87 18:-1 19:-0.882353 20:-0.24 21:-0.273684 22:-1 23:-1 24:-1 25:-1 26:-0.833333 
10 1:-0.989744 2:0.9934 3:-1 4:-0.844 5:-1 6:-0.133333 7:-1 8:-0.960004 9:-1 10:0.369231 11:0.3084 12:-0.116279 13:-0.255814 14:-0.195402 15:-0.152941 16:-0.203126 17:-0.98 18:-1 19:-0.823529 20:-1 21:0.873684 22:-1 23:-1 24:-1 25:-1 26:-0.681818 
10 1:0.712821 2:0.978 3:1 4:1 5:0.281861 6:0.0318844 7:-0.623136 8:-0.762372 9:0.41931 10:-0.301671 11:1 12:0.442414 13:0.28793 14:0.224138 15:0.489638 16:0.464843 17:-0.959488 18:-0.952229 19:-0.468029 20:-0.024966 21:-0.854135 22:-1 23:-0.555556 24:-1 25:-1 26:-0.833333 
10 1:-0.989744 2:0.9934 3:-1 4:-0.868 5:-1 6:-0.266667 7:-1 8:0.147842 9:-1 10:-0.107692 11:0.3084 12:-0.325581 13:-0.186047 14:-0.333333 15:-0.2 16:-0.320313 17:-0.98 18:-1 19:-0.705882 20:-1 21:0.0210526 22:-1 23:-1 24:-1 25:-1 26:-0.712121 
10 1:-0.651282 2:1 3:1 4:-0.276 5:0.0632391 6:-0.381196 7:-0.872991 8:-0.744301 9:0.577273 10:0.626037 11:0.64792 12:0.283721 13:0.399335 14:-0.147453 15:0.113275 16:0.027232 17:-0.943056 18:-0.931263 19:-0.864253 20:-0.576364 21:-0.497745 22:-0.555556 23:-1 24:-1 25:-1 26:-0.772727 
10 1:-0.712821 2:0.741 3:1 4:-0.48 5:0.401739 6:0.444444 7:-0.718161 8:-0.998095 9:0.682667 10:0.2 11:0.99994 12:0.607056 13:0.571772 14:0.391995 15:0.525355 16:0.499999 17:-0.9964 18:-0.972683 19:-0.838235 20:-0.1416 21:-0.991288 22:-0.777778 23:-0.777778 24:-1 25:-1 26:-0.378788 
10 1:-0.928205 2:0.9876 3:-0.056 4:-0.72 5:0.710143 6:0.555556 7:-0.930388 8:-0.992654 9:0.827777 10:0.846154 11:0.93666 12:0.406977 13:0.5 14:0.666667 15:0.664706 16:0.570311 17:-0.7496 18:-0.97561 19:-0.941176 20:-0.683334 21:-0.984211 22:-1 23:-1 24:-1 25:-1 26:-0.969697 
10 1:-0.887179 2:1 3:-1 4:0.064 5:-1 6:-0.0148133 7:-1 8:-0.810894 9:-1 10:-0.6 11:-1 12:-0.131781 13:-0.166665 14:-0.0727954 15:-0.180391 16:-0.124999 17:-0.962222 18:-1 19:-0.911765 20:-1 21:0.0333326 22:-0.777778 23:-0.777778 24:-1 25:-1 26:-0.954545 
10 1:-0.958974 2:1 3:-1 4:-0.564 5:-1 6:-0.0311111 7:-1 8:-0.666687 9:-1 10:-0.507692 11:-0.60592 12:-0.0883721 13:-0.106977 14:-0.0896552 15:-0.0964706 16:-0.109376 17:-0.9875 18:-1 19:-0.8 20:-1 21:0.406316 22:-1 23:-1 24:-1 25:-0.5 26:-0.727273 
10 1:-0.979487 2:0.9996 3:-0.844 4:-0.712 5:0.695652 6:0.6 7:-1 8:-0.999184 9:1 10:-0.107692 11:0.66978 12:0.47287 13:0.550386 14:0.609195 15:0.521567 16:0.468747 17:-0.9 18:-0.853659 19:-0.941176 21:-0.677194 22:-0.777778 23:-1 24:-1 25:-1 26:-0.227273 
9.034598878621171 1:-0.979487 2:0.9934 3:-1 4:-0.852 5:-1 6:-0.451853 7:-1 8:-0.975105 9:-1 10:-0.107692 11:0.01468 12:-1 13:-1 14:-0.524906 15:-0.560786 16:-0.640624 17:-0.5 18:-1 19:-0.627453 20:-1 21:0.221053 22:-0.333333 23:-0.555556 24:-1 25:-1 26:-0.621212 
10 1:-0.928205 2:1 3:-0.636 4:-0.564 5:-0.0108696 6:0.211111 7:-0.710778 8:-0.925178 10:-0.169231 11:0.61196 13:-0.0523256 14:0.0574713 15:0.0294118 16:0.312499 17:-0.98 18:-0.890244 19:-0.852941 20:0.44 21:-0.652632 22:-0.777778 23:-0.777778 24:-1 25:-1 26:-0.166667 
10 1:-0.969231 2:0.9996 3:-0.828 4:-0.708 5:-0.0652174 6:0.622222 7:-0.382716 8:-0.689624 9:0.483333 10:0.846154 11:0.7526 12:0.174419 13:0.22093 14:0.241379 15:0.0588235 16:0.218749 17:-0.74 18:-0.853659 19:-0.941176 20:-0.27 21:-0.352632 22:-1 23:-0.777778 24:-1 25:-1 26:-0.863636 
10 1:-0.979487 2:1 3:-0.992 4:-0.74 5:-0.913043 6:0.444444 7:-1 8:-0.51005 9:-0.0333333 10:0.846154 11:0.66978 12:-0.100777 13:-0.116279 14:-0.0651356 15:0.0352941 16:0.0937476 17:-0.9 18:-0.756098 19:-0.911765 20:0.36 21:-0.235088 22:-1 23:-1 24:-1 25:-1 26:-0.924242 
10 1:-0.979487 2:0.9996 3:-0.852 4:-0.692 5:0.608696 6:0.711111 7:-1 8:-0.901235 9:-0.0333333 10:0.846154 11:0.66978 12:0.565893 13:0.503874 14:0.655172 15:0.694118 16:0.703122 17:-0.9 18:-0.853659 19:-0.882353 20:0.58 21:-0.0596484 22:-1 23:-0.333333 24:-1 25:-1 26:-0.560606 
10 1:-0.85641 2:1 3:-0.228 4:-0.516 5:0.048913 6:-0.231747 7:-0.859373 8:-0.416328 9:0.483333 10:0.164834 11:0.4556 12:0.168991 13:0.345735 14:-0.129503 15:0.678433 16:0.671875 17:-0.9864 18:-0.878049 19:-0.722688 20:0.26 21:-0.48772 22:-0.777778 23:-0.555556 24:-1 25:-1 26:-0.439394 
10 1:-0.846154 2:1 3:-0.432 4:-0.7 5:-0.118013 6:-0.629631 7:-0.698145 8:-0.718827 9:0.557143 10:0.275212 11:0.00728 12:-0.226744 13:-0.186047 14:-0.468391 15:0.0411765 16:0.0107414 17:-0.909796 18:-0.811849 19:-0.862747 20:0.408572 21:-0.275 22:-1 23:-0.555556 24:-1 25:-1 26:-0.80303 
10 1:-0.979487 2:1 3:-1 4:-0.756 5:-1 6:-0.0962978 7:-1 8:-0.679489 9:-1 10:-0.230769 11:0.01468 12:-0.147288 13:-0.0852698 14:-0.15709 15:-0.576471 16:-1 17:-0.5 18:-1 19:-0.568629 20:-1 21:-0.171931 22:-0.777778 23:-0.777778 24:-1 25:-1 26:-0.590909 
10 1:-0.958974 2:0.9984 3:-0.552 4:-0.732 5:0.623187 6:0.488889 7:-0.969663 8:-0.750026 9:0.31111 10:0.369231 11:0.81468 12:0.665116 13:0.674419 14:0.554023 15:0.637647 16:0.640624 17:-0.996388 18:-0.934961 19:-0.911765 20:0.706666 21:-0.330526 22:-0.777778 23:-0.777778 24:-1 25:-1 26:-0.439394 
10 1:-0.979487 2:0.9934 3:-1 4:-0.856 5:-1 6:-0.466667 7:-1 8:-1 9:-1 10:0.0974369 11:0.01468 12:-0.302326 13:-0.457363 14:-0.54023 15:-0.435294 16:-0.390625 17:-0.5 18:-1 19:-0.529412 20:-1 21:0.452632 22:-1 23:-1 24:-1 25:-1 26:0.0151515 
10 1:-0.928205 2:1 3:-0.436 4:-0.612 5:0.226087 6:0.437036 7:-0.881155 8:-0.851444 9:-0.113333 10:0.210255 11:0.81754 12:0.5 13:0.383721 14:0.275862 15:0.429412 16:0.124999 17:-0.8 18:-0.697561 19:-0.725488 20:-0.596 21:-0.376316 22:-1 23:-1 24:-1 25:-1 26:-0.121212 
10 1:-0.958974 2:1 3:-0.74 4:-0.596 5:0.413043 6:0.496298 7:-0.469238 8:-0.993334 9:1 10:-0.0153846 11:0.60734 12:0.227907 13:0.330233 14:0.434483 15:0.449412 16:0.368749 17:-0.988888 18:-0.926829 19:-0.901959 20:-0.41 21:-0.347368 22:-0.777778 23:-1 24:-1 25:-1 26:-0.681818 
1.81855396115674 1:-0.661538 2:1 3:0.836 4:-0.32 5:0.173913 6:-0.555556 7:-0.792164 8:-0.770813 9:0.209803 10:-0.107692 11:-0.51748 12:-0.0519814 13:-0.160056 14:-0.241379 15:-0.132179 16:-0.0721523 17:-0.050618 18:-0.919654 19:-0.636676 20:0.7 21:-0.408051 22:-0.333333 23:-0.555556 24:-1 25:-1 26:0.378788 
6.799421786700874 1:-0.958974 2:1 3:-0.74 4:-0.656 5:0.413043 6:0.274076 7:-0.44822 8:-0.595007 9:1 10:-0.353846 11:0.60734 12:0.395349 13:0.311628 14:0.296552 15:0.232941 16:0.162499 17:-0.95 18:-0.97561 19:-0.333335 20:0.04 21:-0.309474 22:-1 23:-1 24:-1 25:-1 26:-0.590909 
10 1:-0.979487 2:1 3:-1 4:-0.792 5:-1 6:-0.229631 7:-1 8:-0.337891 9:-1 10:-0.107692 11:0.01468 12:-0.457363 13:-0.240312 14:-0.295021 15:0.0666682 16:0.265624 17:-0.95 18:-1 19:-0.862747 20:-1 21:0.08772 22:-1 23:-1 24:-1 25:-1 26:-0.0454545 
10 1:-0.958974 2:0.9992 3:-0.78 4:-0.752 5:0.195652 6:-0.08148 7:-0.673503 8:-0.1809 9:-0.233333 10:0.528206 11:0.60734 12:-0.0976744 13:-0.00465116 14:-0.016092 15:0.0447059 16:0.124999 17:-0.988888 18:-0.780488 19:-0.921571 20:0.02 21:-0.216842 22:-1 23:-1 24:-1 25:-1 26:-0.878788 
0.5030789828137946 1:-0.723077 2:0.8608 3:1 4:-0.448 5:0.336957 6:0.533333 7:-0.813241 8:-0.966534 9:0.0652767 10:-0.107692 11:0.9999 12:0.418605 13:0.182726 14:0.346469 15:0.223529 16:0.304127 17:-0.970166 18:-0.825205 19:-0.808824 20:0.345834 21:-0.753383 22:-1 23:-1 24:-1 25:-1 26:-0.227273 
10 1:-0.805128 2:1 3:0.584 4:-0.392 5:0.147826 6:0.351111 7:-0.746914 8:-0.939476 9:-0.113333 10:-0.181538 11:0.98374 12:0.300112 13:0.131781 14:0.151614 15:0.167506 16:0.124999 17:-0.997418 18:-0.541463 19:-0.694118 20:0.037334 21:-0.854737 22:-1 23:-0.777778 24:-1 25:-1 26:-0.212121 
10 1:-0.979487 2:1 3:-1 4:-0.78 5:-1 6:-0.185187 7:-1 8:-0.409448 9:-1 10:-0.189745 11:0.01468 12:-0.271316 13:-0.162791 14:-0.249044 15:-0.576471 16:-0.609377 17:-0.95 18:-1 19:-0.725488 20:-1 21:0.115789 22:-1 23:-1 24:-0.5 25:-1 26:-0.484848 
10 1:-0.753846 2:0.9988 3:1 4:-0.436 5:0.167048 6:0.0444444 7:-0.768194 8:-0.401258 9:0.391227 10:-0.0717938 11:0.99364 12:0.272558 13:0.106977 14:0.105287 15:0.0447059 16:0.237499 17:-0.9756 18:-0.925546 19:-0.627453 20:0.185264 21:-0.723789 22:-1 23:-1 24:-1 25:-1 26:-0.606061 
10 1:-0.928205 2:1 3:-0.648 4:-0.68 5:0.275361 6:-0.288889 7:-0.610516 8:-0.541679 9:0.31111 10:0.00923077 11:0.35744 12:0.186047 13:0.139535 14:-0.126437 15:0.105882 16:0.0488273 17:-0.996388 18:-0.95122 19:-0.729412 20:-0.613334 21:-0.25 22:-0.777778 23:-0.333333 24:-1 25:-1 26:-0.469697 
10 1:-0.979487 2:0.9996 3:-0.864 4:-0.712 5:0.478261 6:0.6 7:-1 8:-0.705336 9:-0.0333333 10:0.846154 11:0.66978 12:0.565893 13:0.410851 14:0.532566 15:0.411765 16:0.609372 17:-0.99 18:-1 19:-0.882353 20:-0.36 21:-0.691227 22:-1 23:-1 24:-1 25:-1 26:-0.924242 
10 1:-0.825641 2:1 3:0.032 4:-0.5 5:0.246378 6:-0.382716 7:-0.684035 8:-0.927479 9:0.425927 10:-0.148717 11:0.19312 12:0.281656 13:0.0439256 14:-0.113664 15:0.142485 16:0.208333 17:-0.812018 18:-0.95122 19:-0.470588 20:-0.044444 21:-0.307602 22:-0.111111 23:-0.777778 24:-1 25:-1 26:-0.212121 
10 1:-0.907692 2:1 3:-0.276 4:-0.592 5:0.311596 6:0.133333 7:-0.929572 8:-0.785226 9:0.25 10:-0.161538 11:0.7595 12:0.562791 13:0.530233 14:0.209195 15:0.242353 16:0.345311 17:-0.99 18:-0.869917 19:-0.911765 20:0.616666 21:-0.332632 22:-0.333333 23:-1 24:-1 25:-1 26:-0.5 
10 1:-0.948718 2:0.9984 3:-0.58 4:-0.736 5:0.521739 6:-0.0222222 7:-0.571744 8:-0.11356 9:0.31111 10:0.846154 11:0.68566 12:0.341084 13:0.162791 14:0.218391 15:0.521567 16:0.492185 17:-0.958888 18:-0.967478 19:-0.941176 20:0.466666 21:-0.347368 22:-1 23:-0.777778 24:-1 25:-1 26:-0.742424 
10 1:-0.979487 2:1 3:-1 4:-0.76 5:-1 6:-0.111111 7:-1 8:-0.326463 9:-1 10:0.846154 11:0.01468 12:0.100777 13:0.100777 14:-0.172414 15:-0.0745082 16:-0.0937523 17:-0.95 18:-1 19:-0.882353 20:-1 21:0.291227 22:-1 23:-0.777778 24:-1 25:-1 26:-0.742424 
10 1:-0.476923 2:1 3:1 4:0.356 5:0.258748 6:0.369698 7:-0.670284 8:-0.745733 9:0.31057 10:-0.342658 11:0.99998 12:0.292488 13:0.301433 14:0.257297 15:0.402715 16:0.377402 17:1 18:-0.982151 19:-0.427806 20:0.052682 21:-0.847368 22:-0.555556 23:-0.777778 24:-1 25:-1 26:-0.909091 
10 1:-0.979487 2:0.9934 3:-0.992 4:-0.832 5:-0.913043 6:-0.0666667 7:-1 8:-0.705336 9:-0.0333333 10:0.369231 11:0.66978 12:-0.47287 13:-0.395349 14:-0.417623 15:-0.560786 16:-0.656252 17:-0.66 18:-0.756098 19:-0.735294 20:-0.28 21:-0.522806 22:-0.333333 23:-1 24:-1 25:-0.5 26:-0.333333 
10 1:-0.85641 2:1 3:-0.276 4:-0.584 5:0.124222 6:-0.422222 7:-0.704287 8:-0.476788 9:0.35238 10:0.130769 11:0.18846 12:0.634107 13:0.621707 14:-0.218391 15:0.0980376 16:-0.225002 17:-0.988164 18:-0.95819 19:-0.698529 20:-0.265714 21:-0.47228 22:-0.777778 23:-1 24:-1 25:-1 26:-0.80303 
10 1:-0.979487 2:0.9996 3:-0.92 4:-0.716 5:-0.130435 6:0.577778 7:-1 8:0.0874401 9:-0.0333333 10:-0.107692 11:0.66978 12:0.224805 13:0.395349 14:0.30268 15:0.427449 16:0.406249 17:-0.998888 18:-0.95122 19:-0.911765 20:0.58 21:-0.291227 22:-0.555556 23:-0.333333 24:-1 25:-1 26:-0.454545 
10 1:-0.948718 2:0.9968 3:-0.492 4:-0.716 5:0.380435 6:0.577778 7:-0.81757 8:-1 9:0.225 10:0.846154 11:0.86606 12:0.496126 13:0.612405 14:0.425287 15:0.474508 16:0.664061 17:-0.988888 18:-0.902439 19:-0.941176 20:-0.71 21:-0.985964 22:-0.777778 23:-1 24:-1 25:-1 26:-0.848485 
10 1:-0.579487 2:-0.1832 3:1 4:-0.324 5:0.535839 6:0.502222 7:-0.682946 8:-0.600979 9:0.391893 10:0.273846 11:1 12:0.591363 13:0.624586 14:0.523811 15:0.422969 16:0.430802 17:-0.992398 18:-0.939356 19:-0.905882 20:0.116756 21:-0.891728 22:-0.111111 23:-1 24:-1 25:-1 26:-0.590909 
10 1:-0.969231 2:0.9996 3:-0.876 4:-0.696 5:-0.326087 6:0.688889 7:-0.983471 8:-0.54923 9:1 10:-0.107692 11:0.7526 12:0.0813953 13:0.0697674 14:0.137931 15:0.117647 16:0.0664054 17:-0.5 18:-0.95122 19:-0.911765 20:-0.47 21:-0.321053 22:-0.777778 23:-0.555556 24:-1 25:-1 26:-0.893939 
10 1:-0.917949 2:0.9998 3:-0.156 4:-0.66 5:0.528987 6:0.259258 7:-0.707336 8:-0.517192 9:0.827777 10:-0.0358985 11:0.86836 12:0.379847 13:0.581395 14:0.420179 15:0.751633 16:0.781249 17:-0.9875 18:-0.934961 19:-0.784312 20:-0.37 21:-0.719299 22:-1 23:-0.555556 24:-1 25:-1 26:-0.454545 
10 1:-0.948718 2:1 3:-0.608 4:-0.592 5:0.420291 6:0.511111 7:-0.428494 8:-0.231099 9:0.177777 10:-0.37436 11:0.68566 12:0.232558 13:0.496126 14:0.440611 15:0.325492 16:0.53125 17:-0.5075 18:-0.95122 19:-0.607841 20:0.386666 21:-0.442105 22:-1 23:-1 24:-1 25:-1 26:-0.80303 
10 1:-0.969231 2:1 3:-1 4:-0.6 5:-1 6:0.111111 7:-1 8:-0.571608 9:-1 10:-0.553846 11:-0.29242 12:0.337209 13:0.372093 14:0.0574713 15:0.352941 16:0.371093 17:-0.99 18:-1 19:-0.823529 20:-1 21:0.378947 22:-0.777778 23:-0.555556 24:-1 25:-1 26:-0.69697 
10 1:-0.958974 2:1 3:-0.772 4:-0.62 5:0.23913 6:0.407409 7:-0.994898 8:-0.756351 9:-0.25 10:-0.169231 11:0.60734 12:0.339535 13:0.525581 14:0.305747 15:0.317647 16:0.387499 17:-0.71 18:-0.95122 19:-0.862747 20:0.69 21:-0.04 22:-1 23:-0.555556 24:-0.5 25:-1 26:-0.954545 
10 1:-0.989744 2:0.9934 3:-1 4:-0.856 5:-1 6:-0.2 7:-1 8:-0.764106 9:-1 10:0.846154 11:0.3084 12:-0.162791 13:-0.186047 14:-0.264368 15:-0.152941 16:-0.179688 17:-0.98 18:-1 19:-0.911765 20:-1 21:-0.389474 22:-1 23:-1 24:-1 25:-1 26:-0.969697 
10 1:-0.948718 2:0.9984 3:-0.556 4:-0.684 5:0.206522 6:0.755556 7:-0.395606 8:-0.999184 9:0.741667 10:-0.107692 11:0.86606 12:0.116279 13:0.0387581 14:0.363986 15:0.286273 16:-0.0156258 17:-0.99 18:-1 19:-0.941176 20:-0.375 21:-0.754385 22:-1 23:-1 24:-1 25:-1 26:-0.742424 
10 1:-0.979487 2:1 3:-1 4:-0.728 5:-1 6:0.00740889 7:-1 8:-0.831718 9:-1 10:-0.251283 11:0.01468 12:0.162791 13:0.131781 14:-0.0498069 15:0.113727 16:0.156251 17:-0.988888 18:-1 19:-0.901959 20:-1 21:0.424562 22:-1 23:-0.555556 24:-1 25:-1 26:-0.333333 
10 1:-0.958974 2:1 3:-0.936 4:-0.52 5:-0.304348 6:0.333333 7:-1 8:-0.659218 9:0.3 10:-0.376923 11:0.3012 12:0.395349 13:0.153488 14:0.158621 15:0.195294 16:0.424999 17:-0.1 18:-0.658537 19:-0.764706 20:-0.5 21:-0.553684 22:-1 23:-1 24:-1 25:-0.5 26:-0.681818 
10 1:-0.958974 2:1 3:-1 4:-0.568 5:-1 6:-0.04 7:-1 8:-0.946536 9:-1 10:-0.452308 11:-0.60592 12:0.162791 13:0.153488 14:-0.0988506 15:0.0541176 16:0.0406242 17:0.22 18:-1 19:-0.717647 20:-1 21:-0.0105263 22:-0.555556 23:-1 24:-1 25:-1 26:-0.575758 
10 1:-0.917949 2:1 3:-0.368 4:-0.668 5:0.373913 6:-0.0777778 7:-0.348515 8:-0.918784 9:0.173333 10:0.130769 11:0.68942 12:-0.0335907 13:0.1938 14:0.139209 15:0.563398 16:0.567705 17:-0.9875 18:-0.95122 19:-0.735294 20:-0.312 21:-0.340352 22:-1 23:-0.555556 24:-1 25:-1 26:-0.621212 
10 1:-0.979487 2:0.9996 3:-0.872 4:-0.728 5:0.391304 6:0.511111 7:-1 8:-0.816345 9:-0.433333 10:0.846154 11:0.66978 12:0.410851 13:0.519381 14:0.440611 15:0.364706 16:0.625 17:-0.99 18:-0.853659 19:-0.882353 20:-0.78 21:-0.733333 22:-0.777778 23:-1 24:-1 25:-1 26:-0.621212 
10 1:-0.917949 2:0.9756 3:0.068 4:-0.732 5:0.658387 6:0.488889 7:-0.538162 8:-0.828385 9:0.85238 10:0.369231 11:0.95814 12:0.617572 13:0.57106 14:0.614303 15:0.453595 16:0.739581 17:-0.7275 18:-0.979093 19:-0.823529 20:0.448572 21:-0.707602 22:-1 23:-1 24:-1 25:-1 26:-0.727273 
2.303108531191629 1:-0.85641 2:0.9066 3:0.492 4:-0.732 5:0.247491 6:0.488889 7:-0.724528 8:-0.828385 9:0.523077 10:0.846154 11:0.99724 12:0.305428 13:0.0604651 14:0.256703 15:0.44 16:0.199999 17:-0.66 18:-0.9212 19:-0.882353 20:-0.076924 21:-0.782457 22:-1 23:-1 24:-1 25:-1 26:-0.954545 
10 1:-0.876923 2:0.952 3:-0.06 4:-0.676 5:0.0217391 6:0.2 7:-0.630872 8:-0.895521 9:0.236667 10:0.210255 11:0.97342 12:0.148479 13:0.28086 14:0.0256414 15:0.288687 16:0.294471 17:-0.4776 18:-0.917073 19:-0.823529 20:-0.354 21:-0.922267 22:-1 23:-0.555556 24:-1 25:-1 26:-0.424242 
10 1:-0.969231 2:0.9992 3:-0.708 4:-0.732 5:0.586957 6:0.488889 7:-0.918376 8:-0.568207 9:0.483333 10:0.846154 11:0.7526 12:0.5 13:0.337209 14:0.517241 15:0.329412 16:0.710936 17:-0.74 18:-0.756098 19:-0.911765 20:0.62 21:-0.284211 22:-1 23:-1 24:-1 25:-1 26:-0.893939 
10 1:-0.989744 2:0.9934 3:-1 4:-0.84 5:-1 6:-0.111111 7:-1 8:-0.083971 9:-1 10:0.846154 11:0.3084 12:0.348837 13:0.255814 14:-0.172414 15:-0.0823529 16:-0.203126 17:-0.98 18:-1 19:-0.941176 20:-1 21:-0.294737 22:-0.777778 23:-1 24:-1 25:-1 26:-0.590909 
2.965835652865239 1:-0.938462 2:0.9938 3:-0.336 4:-0.704 5:0.443478 6:0.644444 7:-0.818263 8:-0.586777 9:0.793333 10:0.846154 11:0.9065 12:0.362126 13:0.415284 14:0.4844 15:0.485713 16:0.178573 17:-0.9875 18:-0.980488 19:-0.882353 20:0.068 21:-0.672181 22:-1 23:-1 24:-1 25:-1 26:-0.984848 
10 1:-0.835897 2:0.97 3:1 4:-0.6 5:0.642857 6:0.48148 7:-0.731804 8:-0.63718 9:0.557143 10:0.846154 11:0.9957 12:0.444595 13:0.655265 14:0.609195 15:0.691351 16:0.535844 17:-0.997778 18:-0.979093 19:-0.921571 20:-0.381428 21:-0.903406 22:-1 23:-1 24:-1 25:-1 26:-1 
10 1:-0.261538 2:1 3:1 4:0.228 5:0.44707 6:-0.494649 7:-0.665098 8:-0.603399 9:0.685507 10:0.196582 11:0.36742 12:0.508763 13:0.381967 14:0.0656598 15:0.628362 16:0.638055 17:-0.986856 18:-0.959702 19:-0.808276 20:-0.127392 21:-0.554722 22:-0.333333 23:-0.777778 24:-1 25:-1 26:-0.651515 
10 1:-0.989744 2:1 3:-1 4:-0.696 5:-1 6:0.688889 7:-1 8:-0.926334 9:-1 10:0.846154 11:0.3084 12:0.604651 13:0.72093 14:0.655172 15:0.6 16:0.0312492 17:-0.98 18:-1 19:-0.882353 20:-1 21:-0.252632 22:-1 23:-0.777778 24:-1 25:-1 26:-0.80303 
10 1:-0.723077 2:1 3:0.112 4:-0.552 5:-0.194204 6:-0.617093 7:-0.613132 8:-0.690476 9:0.44889 10:0.332545 11:0.02612 12:0.064786 13:0.126247 14:-0.451559 15:-0.342856 16:-0.457591 17:-0.944376 18:-0.931707 19:-0.751129 20:-0.281334 21:-0.490977 22:-0.333333 23:-1 24:-1 25:-1 26:-0.621212 
10 1:-0.917949 2:1 3:-0.38 4:-0.664 5:0.347826 6:-0.0666667 7:-0.87234 8:-0.833656 9:0.793333 10:0.130769 11:0.68942 12:0.395349 13:0.416019 14:0.128993 15:0.124184 16:0.18229 17:-0.985556 18:-1 19:-0.720588 20:-0.588 21:-0.581286 22:-1 23:-1 24:-0.5 25:-1 26:-0.984848 
10 1:-0.887179 2:0.9066 3:0.484 4:-0.716 5:0.613043 6:0.577778 7:-0.678781 8:-0.994898 9:1 10:0.369231 11:0.98894 12:0.406977 13:0.593023 14:0.601531 15:0.490198 16:0.417968 17:-0.98 18:-0.970732 19:-0.882353 20:0.176 21:-0.724562 22:-1 23:-1 24:-1 25:-0.5 26:-0.954545 
10 1:-0.969231 2:1 3:-0.864 4:-0.62 5:0.478261 6:0.407409 7:-1 8:-0.558004 9:-0.0333333 10:-0.282052 11:0.49838 12:0.162791 13:0.232558 14:0.390805 15:0.211765 16:0.124999 17:-0.42 18:-0.756098 19:-0.7451 20:0.6 21:-0.4 22:-1 23:-0.777778 24:-1 25:-1 26:-0.621212 
10 1:-0.979487 2:1 3:-1 4:-0.692 5:-1 6:0.140742 7:-1 8:-0.393395 9:-1 10:-0.364102 11:0.01468 12:0.240312 13:0.162791 14:0.0881241 15:0.333332 16:0.0468726 17:-0.988888 18:-1 19:-0.941176 20:-1 21:0.249122 22:-0.555556 23:-1 24:-1 25:-1 26:-0.969697 
10 1:-0.938462 2:1 3:-0.876 4:-0.34 5:0.347826 6:0.222222 7:-1 8:-0.858069 9:0.333333 10:-0.215385 11:-0.1643 12:0.355484 13:0.295679 14:0.195402 15:0.324372 16:0.272322 17:-0.9 18:-0.902439 19:-0.823529 20:0.16 21:-0.281202 22:-0.777778 23:-1 24:-1 25:-1 26:-0.80303 
10 1:-0.938462 2:1 3:-0.8 4:-0.572 5:0.0869565 6:-0.0488889 7:-0.137843 8:-0.664646 9:-0.65 10:-0.366154 11:0.26418 12:-0.182726 13:-0.0166093 14:-0.060754 15:0.0689082 16:0.138391 17:-0.9875 18:-0.95122 19:-0.823529 20:0.21 21:-0.305263 22:-1 23:-0.555556 24:-1 25:-1 26:-0.712121 
10 1:-0.989744 2:1 3:-1 4:-0.74 5:-1 6:0.444444 7:-1 8:-0.965514 9:-1 10:-0.323077 11:0.3084 12:0.418605 13:0.27907 14:0.402299 15:0.364706 16:0.523436 17:-0.98 18:-1 19:-0.941176 20:-1 21:-0.652632 22:-1 23:-1 24:-1 25:-1 26:-0.893939 
10 1:-0.948718 2:1 3:-0.74 4:-0.616 5:0.413043 6:0.0666667 7:-0.970615 8:-0.783151 9:0.0833333 10:-0.484615 11:0.44112 12:0.356591 13:0.341084 14:0.141761 15:0.388235 16:0.44531 17:-0.995288 18:-1 19:-0.926471 20:-0.4 21:-0.396491 22:-0.555556 23:-0.555556 24:-1 25:-1 26:-0.681818 
10 1:-0.989744 2:1 3:-1 4:-0.804 5:-1 6:0.0888889 7:-1 8:-0.999796 9:-1 10:-0.107692 11:0.3084 12:0.116279 13:0.116279 14:0.0344828 15:0.0588235 16:0.171874 17:-0.74 18:-1 19:-0.323529 20:-1 21:0.884211 22:-0.777778 23:-1 24:-1 25:-1 26:-0.439394 
2.434927235044444 1:-0.989744 2:1 3:-1 4:-0.804 5:-1 6:0.0888889 7:-1 8:-0.999796 9:-1 10:-0.107692 11:0.3084 12:0.116279 13:0.0465116 14:0.0344828 15:0.176471 16:0.0312492 17:-0.74 18:-1 19:-0.323529 20:-1 21:0.905263 22:-1 23:-0.777778 24:-1 25:-1 26:-0.590909 
10 1:-0.979487 2:0.9996 3:-0.86 4:-0.704 5:0.521739 6:0.644444 7:-1 8:-1 9:1 10:-0.107692 11:0.66978 12:0.395349 13:0.627907 14:0.578543 15:0.286273 16:0.312499 17:-0.66 18:-0.853659 19:-0.735294 20:0.82 21:-0.789474 22:-0.777778 23:-1 24:-1 25:-1 26:-0.833333 
10 1:-0.979487 2:1 3:-1 4:-0.788 5:-1 6:-0.214813 7:-1 8:-0.6097 9:-1 10:0.210255 11:0.01468 12:-0.47287 13:-0.457363 14:-0.279692 15:0.145096 16:0.4375 17:-0.988888 18:-1 19:-0.725488 20:-1 21:0.361404 22:-0.555556 23:1 24:-1 25:-1 26:-0.136364 
10 1:-0.907692 2:0.9756 3:0.088 4:-0.752 5:0.478261 6:0.377778 7:-0.910242 8:-0.289664 9:0.483333 10:0.369231 11:0.97282 12:0.744186 13:0.67907 14:0.443678 15:0.52 16:0.457811 17:-0.997778 18:-0.957317 19:-0.941176 20:-0.235 21:-0.833684 22:-0.777778 23:-1 24:-1 25:-0.5 26:-0.863636 
10 1:-0.0666667 2:0.9914 3:1 4:0.1 5:0.240891 6:-0.320987 7:-0.655536 8:-0.642437 9:0.682433 10:0.0307692 11:1 12:0.103135 13:-0.0116279 14:0.100952 15:0.459845 16:0.420007 17:-0.979032 18:-0.954517 19:-0.676471 20:-0.055136 21:-0.774827 22:-1 23:-1 24:-1 25:-1 26:-0.893939 
10 1:0.364103 2:1 3:1 4:0.596 5:0.109839 6:-0.545298 7:-0.683212 8:-0.746892 9:0.687017 10:0.323077 11:0.99998 12:0.0367907 13:0.0898977 14:-0.123007 15:0.538193 16:0.5878 17:-0.9997 18:-0.946083 19:-0.800906 20:0.165894 21:-0.736057 22:-1 23:-0.777778 24:-1 25:-1 26:-0.651515 
10 1:-0.866667 2:1 3:-0.076 4:-0.676 5:0.255435 6:-0.4 7:-0.956397 8:-0.625222 9:0.741667 10:0.369231 11:0.62004 12:0.631228 13:0.61794 14:-0.0673241 15:0.40168 16:0.33259 17:-0.9875 18:-0.97561 19:-0.833335 20:-0.7725 21:-0.625564 22:-0.777778 23:-0.777778 24:-1 25:-1 26:-0.969697 
4.152775327690215 1:-0.948718 2:0.9968 3:-0.472 4:-0.712 5:0.434783 6:0.6 7:-0.917185 8:-0.840016 9:0.483333 10:0.846154 11:0.86606 12:0.550386 13:0.333335 14:0.471264 15:0.521567 16:0.367188 17:-0.98 18:-0.97561 19:-0.911765 20:0.585 21:-0.438596 22:-1 23:-1 24:-1 25:-1 26:-0.80303 
10 1:-0.958974 2:0.9984 3:-0.584 4:-0.708 5:0.507248 6:0.622222 7:-0.721933 8:-0.965514 9:0.31111 10:0.846154 11:0.81468 12:0.562791 13:0.646512 14:0.535632 15:0.270588 16:0.462499 17:-0.988888 18:-0.95122 19:-0.911765 20:-0.193334 21:-0.263158 22:-1 23:-1 24:-1 25:-1 26:-0.909091 
10 1:-0.948718 2:1 3:-0.788 4:-0.68 5:-0.231883 6:0.185187 7:-0.767643 8:-0.599089 9:-0.322223 10:-0.0564092 11:0.68566 12:-0.0232558 13:0.108526 14:-0.0727954 15:0.207845 16:0.171874 17:-0.996388 18:-0.756098 19:-0.901959 20:0.566666 21:-0.498246 22:-1 23:-0.777778 24:-1 25:-1 26:-0.863636 
10 1:-0.958974 2:0.9984 3:-0.668 4:-0.704 5:0.2029 6:0.644444 7:-0.367275 8:-0.999796 9:0.31111 10:0.184615 11:0.81468 12:0.32093 13:0.162791 14:0.351724 15:0.496471 16:0.434374 17:-0.5 18:-0.821137 19:-0.823529 20:-0.093334 21:-0.515789 22:-0.777778 23:-0.777778 24:-1 25:-1 26:-0.772727 
3.310440141547669 1:-0.958974 2:0.9984 3:-0.5 4:-0.76 5:0.811596 6:0.333333 7:-0.881509 8:-0.529844 9:0.4 10:0.369231 11:0.81468 12:0.32093 13:0.590698 14:0.609195 15:0.694118 16:0.753124 17:-0.95 18:-0.983741 19:-0.911765 20:-0.513334 21:-0.789474 22:-1 23:-0.555556 24:-1 25:-1 26:-0.621212 
3.58863859943164 1:-0.979487 2:0.9996 3:-0.836 4:-0.712 5:0.782609 6:0.6 7:-1 8:-0.689624 9:1 10:0.846154 11:0.66978 12:0.829456 13:0.782944 14:0.639848 15:0.866668 16:1 17:-0.99 18:-1 19:-0.911765 20:-0.8 21:-0.656141 22:-1 23:-0.333333 24:-1 25:-1 26:-0.378788 
10 1:-0.835897 2:1 3:-0.188 4:-0.572 5:0.103261 6:-0.471604 7:-0.373475 8:-0.783582 9:0.483333 10:-0.124788 11:0.10044 12:-0.157321 13:-0.127223 14:-0.253549 15:-0.219379 16:-0.451286 17:-0.86493 18:-0.810976 19:-0.483659 20:0.03 21:-0.593808 22:-0.555556 23:-1 24:-1 25:-1 26:-0.712121 
10 1:-0.169231 2:1 3:1 4:0.104 5:0.349435 6:-0.561907 7:-0.650869 8:-0.740847 9:0.55247 10:0.106594 11:0.83188 12:-0.0124791 13:0.0243907 14:0.00252414 15:0.506456 16:0.487422 17:-0.959992 18:-0.965673 19:-0.7437 20:0.045926 21:-0.649295 22:-1 23:-0.777778 24:-1 25:-1 26:-0.954545 
10 1:-0.958974 2:0.9984 3:-0.608 4:-0.728 5:0.420291 6:0.511111 7:-0.580043 8:-0.892052 9:0.177777 10:0.846154 11:0.81468 12:0.44186 13:0.534884 14:0.434483 15:0.684706 16:0.771874 17:-0.9875 18:-0.95122 19:-0.941176 20:-0.4 21:-0.515789 22:-1 23:-0.777778 24:-1 25:-1 26:-0.878788 
10 1:-0.907692 2:1 3:-0.56 4:-0.408 5:0.594204 6:-0.0603156 7:-0.995783 8:-0.713168 9:0.0222233 10:-0.498902 11:-0.00234 12:0.106977 13:0.44186 14:0.0942529 15:0.0494118 16:0.0968741 17:-0.96 18:-0.934961 19:-0.865547 20:-0.546666 21:-0.338947 22:-1 23:-1 24:-1 25:-1 26:-0.712121 
10 1:-0.907692 2:1 3:-0.572 4:-0.456 5:0.550726 6:-0.136507 7:-0.995783 8:-0.713168 9:0.0222233 10:-0.498902 11:-0.00234 12:0.44186 13:0.106977 14:0.0252874 15:0.101176 16:0.289061 17:-0.96 18:-0.934961 19:-0.865547 20:-0.526666 21:-0.324211 22:-0.777778 23:-1 24:-1 25:-1 26:-0.80303 
10 1:-0.897436 2:0.9996 3:0.068 4:-0.532 5:0.451087 6:0.733333 7:-0.785095 8:-0.947352 9:0.158333 10:0.220514 11:0.93794 12:0.475688 13:0.433405 14:0.513062 15:0.407487 16:0.367896 17:-0.92 18:-0.945122 19:-0.882353 20:-0.02 21:-0.810526 22:-0.777778 23:-1 24:-1 25:-1 26:-0.863636 
10 1:-0.979487 2:1 3:-1 4:-0.62 5:-1 6:0.407409 7:-1 8:-0.952522 9:-1 10:-0.476923 11:0.01468 12:0.0852698 13:0.395349 14:0.363986 15:0.349021 16:0.156251 17:-0.95 18:-1 19:-0.862747 20:-1 21:-0.614036 22:-1 23:-1 24:-1 25:-1 26:-0.893939 
10 1:-0.876923 2:1 3:-0.216 4:-0.456 5:-0.0531391 6:0.511111 7:-0.469601 8:-0.961773 9:-0.262963 10:-0.176923 11:0.90998 12:0.234349 13:0.109126 14:0.0822299 15:0.219911 16:0.243991 17:-0.995556 18:-0.95122 19:-0.897059 20:-0.057778 21:-0.608097 22:-1 23:-0.555556 24:-1 25:-1 26:-0.742424 
10 1:-0.887179 2:1 3:-0.308 4:-0.4 5:0.0745348 6:0.333333 7:-0.722769 8:-0.933762 9:-0.25238 10:-0.489231 11:0.69314 12:0.244186 13:0.329456 14:0.145595 15:0.129412 16:0.171874 17:-0.972222 18:-0.95819 19:-0.788235 20:-0.368572 21:-0.698246 22:-0.777778 23:-0.777778 24:-1 25:-1 26:-0.893939 
10 1:-0.866667 2:1 3:-0.34 4:-0.292 5:0.0248435 6:0.123809 7:-0.722769 8:-0.81242 9:-0.25238 10:-0.556043 11:0.36658 12:0.0232558 13:0.302326 14:0.0312 15:0.152941 16:0.111607 17:-0.9964 18:-0.95819 19:-0.831935 20:-0.208572 21:-0.669173 22:-1 23:-0.777778 24:-1 25:-1 26:-0.893939 
10 1:-0.979487 2:1 3:-1 4:-0.644 5:-1 6:0.31852 7:-1 8:-0.0203721 9:-1 10:-0.476923 11:0.01468 12:0.178293 13:0.0852698 14:0.272032 15:0.317647 16:0.203126 17:-0.95 18:-1 19:-0.862747 20:-1 21:-0.0666674 22:-0.777778 23:-1 24:-1 25:-0.5 26:-0.939394 
10 1:-0.958974 2:1 3:-1 4:-0.308 5:-1 6:0.537778 7:-1 8:-0.76684 9:-1 10:-0.470769 11:-0.60592 12:0.339535 13:0.255814 14:0.498851 15:0.430588 16:0.171874 17:-0.962222 18:-1 19:-0.788235 20:-1 21:0.313684 22:-0.555556 23:-1 24:-1 25:-1 26:-0.939394 
10 1:-0.979487 2:1 3:-1 4:-0.584 5:-1 6:0.540742 7:-1 8:-0.95429 9:-1 10:-0.230769 11:0.01468 12:0.116279 13:0.395349 14:0.501917 15:0.301962 16:0.359374 17:-0.95 18:-1 19:-0.862747 20:-1 21:0.473684 22:-1 23:-0.777778 24:-1 25:-1 26:-0.954545 
10 1:-0.989744 2:1 3:-1 4:-0.772 5:-1 6:0.266667 7:-1 8:-0.313539 9:-1 10:-0.323077 11:0.3084 12:0.372093 13:0.395349 14:0.218391 15:0.341176 16:0.335936 17:-0.74 18:-1 19:-0.323529 20:-1 21:0.389474 22:-0.777778 23:-1 24:-1 25:-1 26:-0.893939 
10 1:-0.825641 2:1 3:0.136 4:-0.228 5:0.028987 6:0.429631 7:-0.859795 8:-0.652498 9:-0.244443 10:-0.482052 11:0.8751 12:-0.00516744 13:0.0697674 14:0.126437 15:0.0352941 16:0.223957 17:-0.988888 18:-0.902439 19:-0.823529 20:-0.221666 21:-0.562573 22:-0.777778 23:-1 24:-1 25:-1 26:-0.924242 
10 1:-0.938462 2:1 3:-1 4:-0.26 5:-1 6:0.174604 7:-1 8:-0.523936 9:-1 10:-0.542858 11:-1 12:0.328902 13:0.0498326 14:0.123154 15:0.236974 16:0.064732 17:-0.63 18:-1 19:-0.890759 20:-1 21:0.0977453 22:-1 23:-0.777778 24:-1 25:-1 26:-0.924242 
10 1:-0.989744 2:1 3:-1 4:-0.752 5:-1 6:0.377778 7:-1 8:-0.882461 9:-1 10:-0.292308 11:0.3084 12:0.27907 13:0.348837 14:0.333333 15:0.505882 16:0.265624 17:-0.98 18:-1 19:-0.794118 20:-1 21:0.726316 22:-0.777778 23:-1 24:-1 25:-1 26:-0.878788 
10 1:-0.958974 2:0.9992 3:-0.76 4:-0.676 5:0.304348 6:0.2 7:-0.85124 8:-0.493385 9:0.483333 10:-0.107692 11:0.60734 12:0.544186 13:0.302326 14:0.204598 15:0.487059 16:-0.128126 17:-0.5 18:-0.95122 19:-0.588235 20:0.57 21:-0.132632 22:-1 23:-1 24:-1 25:-1 26:-0.5 
10 1:-0.948718 2:1 3:-0.756 4:-0.468 5:0.326087 6:0.477778 7:-0.998163 8:-0.414652 9:-0.233333 10:-0.323077 11:0.44112 12:0.201549 13:0.155037 14:0.394634 15:0.443139 16:0.226563 17:-0.98 18:-0.756098 19:-0.852941 20:0.41 21:-0.435088 22:-1 23:-1 24:-1 25:-0.5 26:-0.848485 
10 1:-0.938462 2:1 3:-0.992 4:-0.692 5:-0.913043 6:-0.429631 7:-1 8:-0.595347 9:-0.0333333 10:0.210255 11:-0.1643 12:-0.574749 13:-0.568107 14:-0.573071 15:0.236974 16:0.225447 17:-0.855556 18:-0.707317 19:-0.598041 20:-0.56 21:-0.106766 22:-1 23:-0.777778 24:-1 25:-1 26:-0.712121 
10 1:-0.938462 2:1 3:-0.636 4:-0.564 5:0.318839 6:0.211111 7:-0.659491 8:-0.660171 9:1 10:-0.0461538 11:0.529 12:0.315614 13:0.428572 14:0.221674 15:0.317647 16:0.218749 17:-0.95 18:-0.934961 19:-0.808824 20:-0.506666 21:-0.530827 22:-1 23:-1 24:-1 25:-1 26:-0.772727 
10 1:-0.805128 2:0.9996 3:0.936 4:-0.508 5:0.4029 6:0.0933333 7:-0.880933 8:-0.625548 9:0.724443 10:0.464615 11:0.98374 12:0.513953 13:0.455814 14:0.303448 15:0.376471 16:0.474218 17:-0.80551 18:-0.902439 19:-0.752941 20:0.384 21:-0.615789 22:0.333333 23:-1 24:-1 25:-1 26:-0.590909 
10 1:-0.733333 2:0.9812 3:1 4:-0.476 5:0.285443 6:0.455556 7:-0.903835 8:-0.992382 9:0.39855 10:0.438462 11:0.99984 12:0.386735 13:0.236865 14:0.289057 15:0.432678 16:0.439235 17:-0.993134 18:-0.936376 19:-0.852941 20:-0.52174 21:-0.700585 22:-1 23:-0.555556 24:-1 25:-1 26:-0.893939 
10 1:-0.958974 2:0.9984 3:-0.62 4:-0.764 5:0.376813 6:0.311111 7:-0.856205 8:-0.137843 9:0.655557 10:0.369231 11:0.81468 12:0.506977 13:0.386047 14:0.324138 15:0.298824 16:0.237499 17:-0.5 18:-0.918698 19:-0.911765 20:-0.046666 21:-0.625263 22:-0.555556 23:-1 24:-1 25:-1 26:-0.939394 
10 1:-0.948718 2:1 3:-0.864 4:-0.548 5:0.478261 6:0.00444444 7:-1 8:-0.800102 9:-0.0333333 10:0.0153846 11:0.0806 12:0.341084 13:0.186047 14:0.0344828 15:0.0274494 16:0.0625007 17:-0.882222 18:-0.756098 19:-0.847059 20:-0.86 21:-0.431579 22:-0.333333 23:-1 24:-1 25:-1 26:-0.318182 
10 1:-0.969231 2:0.9996 3:-0.864 4:-0.704 5:-0.26087 6:0.644444 7:-0.111111 8:-0.994898 9:0.483333 10:0.846154 11:0.7526 12:0.290698 13:0.27907 14:0.149425 15:0.317647 16:0.148437 17:-0.98 18:-0.95122 19:-0.882353 20:0.24 21:-0.363158 22:-1 23:-1 24:-1 25:-1 26:-0.712121 
10 1:-0.958974 2:0.9996 3:-0.852 4:-0.716 5:-0.195652 6:0.0518533 7:-0.568207 8:-0.294222 9:-0.0333333 10:-0.107692 11:0.60734 12:-0.144186 13:-0.144186 14:-0.0988506 15:-0.350588 16:-0.184376 17:-0.26 18:-0.878049 19:-0.784312 20:-0.08 21:-0.149474 22:-1 23:-1 24:-1 25:-1 26:-0.348485 
10 1:-0.866667 2:0.9968 3:-0.548 4:-0.72 5:-0.181161 6:-0.611111 7:-0.679543 8:-0.713623 9:0.31111 10:0.0115385 11:0.09576 12:-0.611298 13:-0.664451 14:-0.49097 15:-0.126052 16:-0.233262 17:-0.615556 18:-0.88618 19:-0.676471 20:0.52 21:-0.234587 22:-1 23:-1 24:-1 25:-1 26:-0.530303 
1.792046216370382 1:-0.897436 2:0.9998 3:-0.04 4:-0.616 5:0.304348 6:0.422222 7:-0.746505 8:-0.253954 9:0.0416667 10:-0.343591 11:0.93794 12:0.18393 13:0.268498 14:0.312437 15:0.219252 16:0.346591 17:-0.9575 18:-0.981707 19:-0.803924 20:0.1125 21:-0.701436 22:-0.777778 23:-1 24:-1 25:-1 26:-1 
10 1:-0.989744 2:1 3:-1 4:-0.78 5:-1 6:0.222222 7:-1 8:-0.992654 9:-1 10:0.415385 11:0.3084 12:0.511628 13:0.55814 14:0.172414 15:0.482353 16:0.453124 17:-0.98 18:-1 19:-0.911765 20:-1 21:0.789474 22:-0.777778 23:-1 24:-1 25:-1 26:-0.742424 
10 1:-0.958974 2:1 3:-0.788 4:-0.616 5:0.152174 6:0.422222 7:-0.998163 8:-0.15995 9:-0.166667 10:-0.333332 11:0.60734 12:0.293023 13:0.153488 14:0.278161 15:0.110588 16:0.424999 17:-0.988888 18:-1 19:-0.921571 20:-0.65 21:-0.566316 22:-1 23:-1 24:-1 25:-1 26:-0.833333 
10 1:-0.928205 2:0.9876 3:-0.064 4:-0.728 5:0.695652 6:0.511111 7:-0.689923 8:-1 9:0.827777 10:0.369231 11:0.93666 12:0.616279 13:0.668605 14:0.643678 15:0.670588 16:0.640624 17:-0.748888 18:-0.983741 19:-0.823529 20:0.336666 21:-0.768421 22:-1 23:-1 24:-1 25:-1 26:-0.772727 
10 1:-0.979487 2:1 3:-1 4:-0.716 5:-1 6:0.0518533 7:-1 8:-0.416794 9:-1 10:-0.333332 11:0.01468 12:0.0697674 13:0.162791 14:-0.00382989 15:0.113727 16:0.0312492 17:-0.988888 18:-1 19:-0.862747 20:-1 21:0.115789 22:-1 23:-1 24:-1 25:-1 26:-0.893939 
10 1:-0.948718 2:0.9984 3:-0.556 4:-0.736 5:0.206522 6:0.466667 7:-0.754209 8:-0.382716 9:1 10:0.369231 11:0.86606 12:0.36434 13:0.232558 14:0.264368 15:0.247059 16:0.250001 17:-0.98 18:-0.963415 19:-0.911765 20:0.165 21:-0.540352 22:-1 23:-1 24:-1 25:-1 26:-0.924242 
10 1:-0.907692 2:0.9876 3:-0.124 4:-0.716 5:0.360248 6:0.0518533 7:-0.831932 8:-0.15995 9:0.409523 10:0.528206 11:0.90826 12:0.24186 13:0.24186 14:0.241379 15:0.571765 16:0.560936 17:-0.96 18:-0.930312 19:-0.823529 20:-0.357142 21:-0.717895 22:-1 23:-0.555556 24:-1 25:-1 26:-0.681818 
10 1:-0.958974 2:0.9996 3:-0.828 4:-0.684 5:-0.0652174 6:0.170369 7:-0.656974 8:-0.98762 9:0.483333 10:-0.0564092 11:0.60734 12:0.330233 13:0.246512 14:0.0298851 15:0.327059 16:0.340624 17:-0.95 18:-0.926829 19:-0.7451 20:-0.21 21:0.145263 22:-1 23:-1 24:-1 25:-1 26:-0.666667 
10 1:-0.938462 2:1 3:-0.616 4:-0.676 5:0.0434783 6:0.2 7:-0.658164 8:-0.983131 9:0.541667 10:-0.138462 11:0.75618 12:0.196014 13:0.169437 14:0.0706069 15:-0.0722682 16:-0.0357164 17:-0.9875 18:-0.926829 19:-0.823529 20:-0.015 21:-0.807518 22:-1 23:-1 24:-1 25:-1 26:-0.575758 
10 1:-0.928205 2:1 3:-0.36 4:-0.664 5:0.391304 6:0.244444 7:-0.49446 8:-0.983131 9:0.613333 10:-0.138462 11:0.81754 12:0.319767 13:0.226744 14:0.310345 15:0.147059 16:0.341796 17:-0.995 18:-0.941463 19:-0.823529 20:-0.096 21:-0.776316 22:-1 23:-1 24:-1 25:-1 26:-0.590909 
0.7086310277765135 1:-0.928205 2:1 3:-0.468 4:-0.688 5:0.156522 6:0.155556 7:-0.49446 8:-0.983131 9:0.613333 10:-0.138462 11:0.81754 12:0.226744 13:0.325581 14:0.12069 15:0.347059 16:0.429686 17:-0.995 18:-0.941463 19:-0.823529 20:-0.076 21:-0.768421 22:-0.777778 23:-0.777778 24:-1 25:-1 26:-0.621212 
8.643252720749484 1:-0.979487 2:0.9996 3:-0.908 4:-0.744 6:0.422222 7:-1 8:-0.999796 9:1 10:-0.107692 11:0.66978 12:0.379847 13:0.410851 14:0.241379 15:0.537256 16:0.578125 17:-0.998888 18:-0.95122 19:-0.882353 20:0.36 21:-0.768421 22:-1 23:-0.777778 24:-1 25:-1 26:-0.621212 
10 1:-0.323077 2:1 3:1 4:0.072 5:0.371474 6:0.191111 7:-0.678892 8:-0.703482 9:0.219883 10:-0.329231 11:1 12:0.226656 13:0.15307 14:0.325784 15:0.353468 16:0.150185 17:-0.185274 18:-0.872488 19:-0.476471 20:0.004912 21:-0.786646 22:-1 23:-1 24:-1 25:-1 26:-0.757576 
10 1:-0.210256 2:0.9978 3:1 4:0.276 5:0.476922 6:0.0906 7:-0.696818 8:-0.593092 9:0.321027 10:-0.171597 11:1 12:0.11747 13:0.37567 14:0.397582 15:0.467271 16:0.447114 17:0.443864 18:-0.920449 19:-0.642535 20:-0.046154 21:-0.844804 22:-1 23:-0.777778 24:-1 25:-1 26:-0.575758 
10 1:-0.85641 2:0.9962 3:0.392 4:-0.528 5:0.26087 6:0.748147 7:-0.746114 8:-0.578274 9:0.53611 10:-0.107692 11:0.9892 12:0.497674 13:0.482172 14:0.3364 15:0.521567 16:0.621874 17:-0.9575 18:-0.943088 19:-0.490194 20:-0.291666 21:-0.719299 22:-1 23:-0.555556 24:-1 25:-1 26:-0.742424 
10 1:-0.958974 2:1 3:-0.852 4:-0.628 5:0.608696 6:0.0333333 7:-1 8:-0.546611 9:1 10:0.130769 11:0.3012 12:0.0511628 13:-0.00465116 14:0.103448 15:0.336471 16:0.0499992 17:-0.19 18:-1 19:-0.308824 20:0.74 21:-0.313684 22:-1 23:-1 24:-1 25:-1 26:-0.378788 
10 1:-0.958974 2:0.9984 3:-0.492 4:-0.708 5:0.840578 6:0.622222 7:-0.572697 8:-0.656974 9:1 10:0.846154 11:0.81468 12:0.767442 13:0.553488 14:0.747126 15:0.675294 16:0.471874 17:-0.95 18:-0.95122 19:-0.941176 20:-0.28 21:-0.616842 22:-1 23:-1 24:-1 25:-1 26:-0.818182 
7.094854542141534 1:-0.45641 2:1 3:1 4:-0.112 5:0.141657 6:-0.571013 7:-0.582377 8:-0.623801 9:0.774193 10:0.137123 11:-0.30122 12:0.237726 13:0.0990512 14:-0.209876 15:0.519826 16:0.468747 17:-0.943252 18:-0.940205 19:-0.611253 20:0.045806 21:-0.566472 22:-0.777778 23:-0.777778 24:-1 25:-1 26:-0.484848 
3.566378635166504 1:-0.979487 2:1 3:-1 4:-0.796 5:-1 6:-0.244444 7:-1 8:-0.999592 9:-1 10:-0.107692 11:0.01468 12:-0.0542651 13:-0.116279 14:-0.310345 15:-0.0901976 16:0.0156258 17:-0.5 18:-1 19:-0.588235 20:-1 21:0.747368 22:-0.333333 23:1 24:-1 25:-1 26:0.318182 
10 1:-0.753846 2:0.9812 3:1 4:-0.44 5:0.567287 6:0.555556 7:-0.812245 8:-0.841785 9:0.60635 10:-0.2 11:0.9996 12:0.629767 13:0.579535 14:0.557701 15:0.362824 16:0.445624 17:-0.9871 18:-0.939605 19:-0.705882 20:-0.22762 21:-0.856842 22:-0.777778 23:-1 24:-1 25:-1 26:-0.833333 
5.848242145545423 1:-0.333333 2:1 3:1 4:-0.148 5:-0.0628 6:-0.211111 7:-0.703045 8:-0.565947 9:0.565433 10:0.448717 11:1 12:0.5222 13:0.468642 14:-0.132708 15:0.0659529 16:-0.110796 17:-0.997214 18:-0.942185 19:-0.906865 20:-0.196666 21:-0.801276 22:0.111111 23:-1 24:-1 25:-1 26:-0.166667 
10 1:-0.938462 2:1 3:-0.576 4:-0.636 5:0.152174 6:0.348147 7:-0.826582 8:-0.962861 9:0.125 10:-0.00512923 11:0.75618 12:0.122926 13:0.122926 14:0.201972 15:0.304202 16:0.064732 17:-0.87 18:-0.914634 19:-0.803924 20:-0.355 21:-0.332331 22:-1 23:-1 24:-1 25:-1 26:-0.621212 
10 1:-0.917949 2:0.9756 3:0.068 4:-0.712 5:0.658387 6:0.6 7:-0.674494 8:-0.489848 9:0.85238 10:0.369231 11:0.95814 12:0.421191 13:0.62274 14:0.639848 15:0.375162 16:0.479168 17:-0.99 18:-0.972127 19:-0.941176 20:0.185714 21:-0.653802 22:-1 23:-1 24:-0.5 25:-0.5 26:-0.863636 
10 1:-0.979487 2:0.9996 3:-0.908 4:-0.7 6:0.666667 7:-1 8:-0.337006 9:-0.0333333 10:0.846154 11:0.66978 12:0.426358 13:0.550386 14:0.409963 15:0.615685 16:0.546874 17:-0.99 18:-1 19:-0.882353 20:-0.96 21:-0.192983 22:-0.777778 23:-1 24:-1 25:-1 26:-0.80303 
10 1:-0.969231 2:1 3:-1 4:-0.692 5:-1 6:-0.144444 7:-1 8:-0.56535 9:-1 10:0.369231 11:-0.29242 12:-0.0465116 13:-0.0232558 14:-0.206897 15:-0.258824 16:-0.285157 17:-0.9 18:-1 19:-0.661765 20:-1 21:-0.0421053 22:-0.777778 23:-1 24:-1 25:-1 26:-0.893939 
10 1:-0.989744 2:1 3:-1 4:-0.776 5:-1 6:0.244444 7:-1 8:-0.992654 9:-1 10:-0.123077 11:0.3084 12:0.232558 13:0.0232558 14:0.195402 15:0.0823529 16:0.382811 17:-0.98 18:-1 19:-0.941176 20:-1 21:0.536842 22:-1 23:-1 24:-1 25:-1 26:-0.772727 
10 1:-0.948718 2:1 3:-0.708 4:-0.472 5:0.586957 6:0.466667 7:-0.994898 8:-0.956875 9:0.483333 10:-0.323077 11:0.44112 12:0.682172 13:0.511628 14:0.478929 15:0.301962 16:0.515622 17:-0.188888 18:-1 19:-0.602941 20:-0.13 21:-0.670175 22:-0.777778 23:-1 24:-1 25:-1 26:-0.878788 
10 1:-0.887179 2:1 3:-0.224 4:-0.352 5:0.686957 6:0.0285733 7:-0.660565 8:-0.697485 9:0.586667 10:-0.367034 11:0.18378 12:0.197674 13:0.341084 14:0.272032 15:0.392155 16:0.195312 17:1 18:-0.980488 19:-0.697476 20:-0.256 21:-0.414036 22:-1 23:-1 24:-1 25:-1 26:-0.863636 
10 1:-0.876923 2:1 3:-0.344 4:-0.236 5:0.188404 6:0.212698 7:-0.641275 8:-0.657256 9:0.405557 10:-0.367034 11:0.27578 12:0.212879 13:0.320214 14:0.163572 15:0.118551 16:0.21154 17:1 18:-0.967478 19:-0.697476 20:-0.036666 21:-0.514171 22:-1 23:-1 24:-1 25:-1 26:-0.863636 
10 1:-0.6 2:1 3:1 4:0.244 5:0.506748 6:0.256564 7:-0.746778 8:-0.690688 9:0.710343 10:-0.488111 11:0.99434 12:0.524419 13:0.454651 14:0.42069 15:0.458824 16:0.395702 17:-0.938756 18:-0.961312 19:-0.7754 20:-0.292414 21:-0.698421 22:-0.333333 23:-1 24:-1 25:-1 26:-0.0757576 
10 1:-0.00512821 2:1 3:1 4:0.304 5:0.212491 6:-0.463373 7:-0.70908 8:-0.66979 9:0.694367 10:0.171511 11:0.99996 12:0.0607488 13:0.226386 14:-0.0100874 15:0.619689 16:0.656885 17:-0.965788 18:-0.953966 19:-0.749453 20:0.09324 21:-0.712352 22:-1 23:-0.777778 24:-1 25:-1 26:-0.621212 
10 1:-0.774359 2:0.9988 3:0.852 4:-0.436 5:0.0594957 6:0.566667 7:-0.457773 8:-0.994728 9:0.14386 10:0.369231 11:0.99896 12:0.0353907 13:0.0637023 14:0.115444 15:0.203068 16:0.127038 17:-0.9 18:-0.971761 19:-0.867647 20:0.028422 21:-0.977116 22:-1 23:-1 24:0.5 25:-1 26:-0.666667 
10 1:-0.784615 2:0.9988 3:0.752 4:-0.436 5:0.0579696 6:0.566667 7:-0.483243 8:-0.994728 9:0.0962967 10:0.369231 11:0.99836 12:0.179702 13:0.24313 14:0.118078 15:0.42032 16:0.382811 17:-0.916326 18:-0.972898 19:-0.867647 20:0.015556 21:-0.968421 22:-1 23:-0.555556 24:1 25:-1 26:-0.575758 
10 1:-0.907692 2:0.952 3:0.148 4:-0.696 5:0.559783 6:0.688889 7:-0.859023 8:-0.965514 9:-0.05 10:0.369231 11:0.97282 12:0.288372 13:0.386047 14:0.577011 15:0.604706 16:0.481249 17:-0.998684 18:-0.993902 19:-0.941176 20:0.15 21:-0.631579 22:-1 23:-1 24:-1 25:-0.5 26:-0.454545 
10 1:-0.907692 2:0.9876 3:-0.128 4:-0.728 5:0.184783 6:0.511111 7:-0.676068 8:-0.289664 9:0.6125 10:0.846154 11:0.97282 12:0.265116 13:0.139535 14:0.222989 15:0.143529 16:0.214062 17:-0.615556 18:-0.890244 19:-0.852941 20:-0.08 21:-0.711579 22:-1 23:-1 24:-1 25:-1 26:-0.924242 
10 1:-0.928205 2:0.9876 3:-0.168 4:-0.724 5:0.507248 6:0.533333 7:-0.488433 8:-0.44822 9:0.827777 10:0.846154 11:0.93666 12:0.494186 13:0.465116 14:0.5 15:0.611765 16:0.576171 17:-0.998488 18:-0.959351 19:-0.941176 20:-0.346666 21:-0.821053 22:-1 23:-1 24:-1 25:-1 26:-0.712121 
10 1:-0.979487 2:1 3:-1 4:-0.736 5:-1 6:-0.0222222 7:-1 8:-0.508486 9:-1 10:-0.230769 11:0.01468 12:-0.0542651 13:-0.162791 14:-0.0804598 15:0.474508 16:0.250001 17:-0.5 18:-1 19:-0.627453 20:-1 21:-0.08772 22:-1 23:-1 24:-1 25:-1 26:-0.893939 
10 1:-0.969231 2:0.9992 3:-0.704 4:-0.712 5:0.608696 6:0.6 7:-0.622692 8:-0.94776 9:1 10:-0.107692 11:0.7526 12:0.55814 13:0.651163 14:0.586207 15:0.505882 16:0.617186 17:-0.98 18:-1 19:-0.676471 20:0.31 21:-0.642105 22:-0.777778 23:-0.777778 24:-1 25:-1 26:-0.893939 
10 1:-0.620513 2:1 3:1 4:0.284 5:0.493313 6:0.188889 7:-0.738437 8:-0.614708 9:0.48718 10:-0.384615 11:0.94848 12:0.21787 13:0.339047 14:0.376892 15:0.336221 16:0.377875 17:-0.588888 18:-0.949341 19:-0.774512 20:0.151538 21:-0.570082 22:-1 23:-0.555556 24:-1 25:-1 26:-0.863636 
10 1:-0.876923 2:0.999 3:0.068 4:-0.688 5:0.289857 6:-0.133333 7:-0.918738 8:-0.282658 9:0.0518533 10:0.0307692 11:0.90998 12:0.202149 13:0.277279 14:0.128207 15:0.183708 16:0.258415 17:-0.909376 18:-0.95122 19:-0.794118 20:0.157778 21:-0.621053 22:-0.777778 23:-0.777778 24:-1 25:-1 26:-0.893939 
10 1:-0.938462 2:0.9968 3:-0.428 4:-0.744 5:0.554348 6:-0.0518533 7:-0.497738 8:-0.37054 9:0.741667 10:-0.230769 11:0.75618 12:0.342191 13:0.235879 14:0.267651 15:0.270588 16:0.225447 17:-0.995288 18:-0.987805 19:-0.901959 20:-0.06 21:-0.527819 22:-1 23:-1 24:-1 25:-1 26:-0.575758 
10 1:-0.979487 2:0.9996 3:-0.896 4:-0.724 5:0.130435 6:0.533333 7:-1 8:-0.975309 9:-0.166667 10:0.846154 11:0.66978 12:0.519381 13:0.47287 14:0.363986 15:0.160786 16:0.343751 17:-0.9 18:-0.853659 19:-0.852941 20:-0.24 21:-0.235088 22:-0.777778 23:-1 24:-1 25:-1 26:-0.893939 
10 1:-0.917949 2:1 3:-0.696 4:-0.448 5:0.101448 6:0.0222222 7:-0.938374 8:-0.625929 9:-0.3 10:-0.292308 11:0.17904 12:0.0387581 13:0.0284233 14:0.00127816 15:0.0143812 16:0.0468726 17:-0.26 18:-0.495937 19:-0.303924 20:0.6 21:-0.539181 22:-1 23:-1 24:-1 25:-1 26:-0.80303 
10 1:-0.979487 2:0.9996 3:-0.832 4:-0.732 5:0.826087 6:0.488889 7:-1 8:-0.933884 9:1 10:-0.107692 11:0.66978 12:0.643409 13:0.44186 14:0.578543 15:0.474508 16:0.53125 17:-0.75 18:-1 19:-0.941176 20:0.74 21:-0.115789 22:-1 23:-1 24:-1 25:-1 26:-0.621212 
1.690327471719488 1:-0.958974 2:0.9984 3:-0.556 4:-0.724 5:0.608696 6:0.533333 7:-0.578682 8:-0.970615 9:0.655557 10:0.846154 11:0.81468 12:0.330233 13:0.432558 14:0.563218 15:0.665882 16:0.584374 17:-0.95 18:-0.902439 19:-0.941176 20:-0.126666 21:-0.36 22:-1 23:-0.777778 24:-1 25:-1 26:-0.742424 
10 1:-0.948718 2:1 3:-0.884 4:-0.616 5:-0.579709 6:0.422222 7:-0.581947 8:-0.599089 9:-0.433333 10:0.528206 11:0.68566 12:-0.0155023 13:-0.0930233 14:-0.134101 15:-0.0117647 16:0.101562 17:-0.958888 18:-0.853659 19:-0.921571 20:0.293334 21:-0.607017 22:-1 23:-0.555556 24:-1 25:-1 26:-0.484848 
10 1:-0.938462 2:0.9984 3:-0.636 4:-0.7 5:-0.0108696 6:0.111111 7:-0.542768 8:-0.989661 9:0.741667 10:0.210255 11:0.75618 12:-0.00996744 13:0.00332093 14:-0.00164138 15:0.257144 16:0.265624 17:-0.42 18:-0.890244 19:-0.823529 20:0.11 21:-0.236091 22:-1 23:-1 24:-1 25:-1 26:-0.80303 
10 1:-0.938462 2:0.9938 3:-0.212 4:-0.768 5:0.713043 6:0.288889 7:-0.596368 8:0.0286705 9:1 10:0.369231 11:0.9065 12:0.481726 13:0.641195 14:0.582924 15:0.418489 16:0.372766 17:-0.985556 18:-1 19:-0.911765 20:-0.28 21:-0.630076 22:-1 23:-1 24:-1 25:-1 26:-0.924242 
5.999641739883512 1:-0.958974 2:0.9984 3:-0.524 4:-0.72 5:0.724639 6:0.555556 7:-0.248512 8:-0.803898 9:0.655557 10:0.846154 11:0.81468 12:0.609302 13:0.730233 14:0.645977 15:0.609412 16:0.828124 17:-0.988888 18:-1 19:-0.941176 20:0.366666 21:-0.313684 22:-1 23:-1 24:-1 25:-1 26:-0.742424 
10 1:-0.938462 2:0.9938 3:-0.272 4:-0.716 5:0.582609 6:0.577778 7:-0.693623 8:-0.918376 9:0.793333 10:0.846154 11:0.9065 12:0.641195 13:0.435214 14:0.569789 15:0.653784 16:0.4933 17:-0.9896 18:-1 19:-0.911765 20:0.136 21:-0.825564 22:-1 23:-1 24:-1 25:-0.5 26:-0.984848 
10 1:-0.907692 2:0.952 3:0.156 4:-0.716 5:0.570652 6:0.577778 7:-0.691256 8:-0.999796 9:0.354167 10:0.215385 11:0.97282 12:0.386047 13:0.64186 14:0.563218 15:0.52 16:0.542186 17:-0.997778 18:-0.920732 19:-0.911765 20:-0.135 21:-0.585263 22:-1 23:-1 24:-1 25:-1 26:-0.484848 
10 1:-0.989744 2:1 3:-1 4:-0.78 5:-1 6:0.222222 7:-1 8:-0.965514 9:-1 10:-0.353846 11:0.3084 12:0.209302 13:0.186047 14:0.172414 15:-0.294118 16:-0.0156258 17:-0.98 18:-1 19:-0.794118 20:-1 21:0.0210526 22:-1 23:-1 24:-1 25:-1 26:-0.833333 
10 1:0.323077 2:0.9812 3:1 4:0.856 5:0.501165 6:0.14568 7:-0.696652 8:-0.786938 9:0.635713 10:-0.181197 11:1 12:0.435777 13:0.366009 14:0.439789 15:0.411402 16:0.256971 17:-0.99788 18:-0.960366 19:-0.790847 20:-0.110358 21:-0.871903 22:-0.333333 23:-1 24:-1 25:-1 26:-0.924242 
6.308751788235457 1:-0.979487 2:1 3:-0.992 4:-0.736 5:-0.913043 6:0.466667 7:-1 8:0.405775 9:-0.0333333 10:0.846154 11:0.66978 12:0.0542651 13:-0.0697674 14:-0.0498069 15:-0.0117647 16:-0.156251 17:-0.9 18:-0.609756 19:-0.941176 20:-0.06 21:-0.375438 22:-1 23:-0.777778 24:-1 25:-1 26:-0.818182 
1.33018598345794 1:-0.989744 2:1 3:-1 4:-0.756 5:-1 6:0.355556 7:-1 8:-0.983471 9:-1 10:-0.292308 11:0.3084 12:0.186047 13:0.255814 14:0.310345 15:0.482353 16:0.476561 17:-0.98 18:-1 19:-0.5 20:-1 21:0.673684 22:-0.777778 23:-1 24:-1 25:-1 26:-0.712121 
10 1:-0.948718 2:1 3:-0.62 4:-0.66 5:0.376813 6:0.259258 7:-0.26851 8:-1 9:0.133333 10:-0.107692 11:0.68566 12:0.449614 13:0.372093 14:0.287356 15:0.294118 16:0.546874 17:-0.47 18:-0.78862 19:-0.470588 20:0.113334 21:-0.0947368 22:-1 23:-1 24:-1 25:-1 26:-0.772727 
0.5429482916612927 1:-0.446154 2:1 3:1 4:-0.152 5:-0.0238435 6:-0.607409 7:-0.657962 8:-0.626838 9:0.555913 10:0.329486 11:-0.4843 12:-0.180549 13:-0.207609 14:-0.332915 15:0.484494 16:0.52301 17:-0.982242 18:-0.921322 19:-0.786765 20:0.365806 21:-0.527655 22:-1 23:-0.777778 24:-1 25:-1 26:-0.818182 
10 1:-0.979487 2:0.9934 3:-1 4:-0.812 5:-1 6:-0.303702 7:-1 8:-0.436248 9:-1 10:0.528206 11:0.01468 12:0.0232558 13:-0.0387581 14:-0.371646 15:-0.105882 16:0.0468726 17:-0.5 18:-1 19:-0.823529 20:-1 21:0.192983 22:-0.555556 23:-1 24:-1 26:-0.772727 
10 1:-0.979487 2:1 3:-0.992 4:-0.732 5:-0.913043 6:0.488889 7:-1 8:-0.965514 9:-0.0333333 10:0.846154 11:0.66978 12:-0.0232558 13:0.0542651 14:-0.0344828 15:0.145096 16:-0.0625007 17:-0.9 18:-0.609756 19:-0.911765 20:0.84 21:-0.347368 22:-1 23:-1 24:-1 25:-1 26:-0.681818 
10 1:-0.887179 2:0.9996 3:0.076 4:-0.588 5:0.299517 6:0.525924 7:-0.755966 8:-0.901643 9:0.77037 10:-0.230769 11:0.95902 12:0.224805 13:0.294572 14:0.333333 15:0.368626 16:0.25781 17:-0.322222 18:-0.89702 19:-0.529412 20:0.395556 21:-0.584211 22:-1 23:-1 24:-1 25:-1 26:-0.939394 
10 1:-0.979487 2:1 3:-1 4:-0.788 5:-1 6:-0.214813 7:-1 8:-0.760024 9:-1 10:-0.107692 11:0.01468 12:-0.147288 13:-0.116279 14:-0.279692 15:-0.0745082 16:-0.0468773 17:-0.5 18:-1 19:-0.686276 20:-1 21:-0.136842 22:-1 23:-1 24:-1 25:-1 26:-0.893939 
4.293652626310129 1:-0.979487 2:1 3:-0.992 4:-0.816 5:-0.913043 6:0.0222222 7:-1 8:-0.918376 9:-0.6 10:0.846154 11:0.66978 12:-0.286823 13:-0.302326 14:-0.356322 15:-0.278433 16:-0.359374 17:-0.9 18:-0.853659 19:-0.852941 20:0.86 21:-0.214036 22:-1 23:-0.777778 24:-1 25:-1 26:-0.924242 
10 1:-0.989744 2:1 3:-1 4:-0.816 5:-1 6:0.0222222 7:-1 8:-0.990001 9:-1 10:0.323077 11:0.3084 12:-0.209302 14:-0.0344828 15:0.270588 16:0.0781242 17:-0.988888 18:-1 19:-0.911765 20:-1 21:-0.378947 22:-0.777778 23:-1 24:-1 25:-1 26:-0.863636 
10 1:-0.907692 2:1 3:-0.62 4:-0.264 5:0.0326087 6:0.362964 7:-0.167976 8:-0.974751 9:-0.133333 10:-0.394871 11:0.27116 12:0.237209 13:0.269767 14:0.190805 15:0.181176 16:0.359374 17:0.6936 18:-0.939024 19:-0.411765 20:0.1 21:-0.692632 22:-1 23:-1 24:-1 25:-1 26:-0.212121 
10 1:-0.917949 2:1 3:-0.732 4:-0.152 5:0.456522 6:0.346031 7:-0.901235 8:-0.897698 9:-0.0333333 10:-0.415385 11:-0.10492 12:0.229972 13:0.0697674 14:0.333333 15:0.317647 16:0.354166 17:1 18:-0.97561 19:-0.445376 20:-0.32 21:-0.410526 22:-1 23:-1 24:-1 25:-1 26:-0.0909091 
10 1:-0.917949 2:1 3:-0.74 4:-0.148 5:0.413043 6:0.352382 7:-0.901235 8:-0.897698 9:-0.0333333 10:-0.415385 11:-0.10492 12:0.348837 13:0.302326 14:0.328225 15:0.296734 16:0.0885398 17:1 18:-0.97561 19:-0.445376 20:-0.28 21:-0.377777 22:-1 23:-1 24:-1 25:-0.5 26:-0.166667 
10 1:-0.917949 2:1 3:-0.624 4:-0.312 5:0.362317 6:0.274076 7:-0.828181 8:-0.974751 9:-0.18889 10:-0.394871 11:0.17904 12:0.302326 13:0.34367 14:0.266924 15:0.0928094 16:0.0520804 17:0.691112 18:-0.88618 19:-0.411765 20:-0.46 21:-0.377777 22:-1 23:-1 24:-1 25:-1 26:-0.166667 
10 1:-0.497436 2:1 3:1 4:-0.124 5:-0.105796 6:-0.513333 7:-0.658712 8:-0.635994 9:0.483333 10:0.187692 11:0.15196 12:-0.269493 13:-0.197447 14:-0.320262 15:-0.0274494 16:0.0606632 17:-0.98947 18:-0.934961 19:-0.785294 20:-0.459334 21:-0.556211 22:-1 23:-0.333333 24:-1 25:-1 26:-0.5 
10 1:-0.958974 2:1 3:-0.9 4:-0.5 5:0.0869565 6:0.388889 7:-1 8:-0.78441 9:0.433333 10:-0.369231 11:0.3012 12:0.190698 13:0.348837 14:0.287356 15:0.261176 16:0.274999 17:-0.9 18:-0.853659 19:-0.838235 20:-0.48 21:-0.338947 22:-0.777778 23:-1 24:-1 25:-1 26:-0.833333 
10 1:-0.866667 2:0.998 3:0.396 4:-0.608 5:0.517391 6:0.0888889 7:-0.759258 8:-0.997687 9:0.38 10:0.276923 11:0.9392 12:0.299005 13:0.26246 14:0.376028 15:0.317647 16:0.526783 17:-0.9 18:-0.980488 19:-0.808824 20:-0.042 21:-0.972933 22:-1 23:-1 24:-1 25:-1 26:-0.893939 
10 1:-0.651282 2:1 3:0.744 4:-0.38 5:-0.138339 6:-0.470084 7:-0.593822 8:-0.742622 9:0.624243 10:0.1858 11:0.64792 12:-0.0817256 13:-0.243856 14:-0.3156 15:0.434621 16:0.579016 17:-0.96 18:-0.942351 19:-0.796382 20:0.32 21:-0.539851 22:-1 23:-0.777778 24:-1 25:-1 26:-0.863636 
0.2057668263339443 1:-0.948718 2:1 3:-1 4:-0.76 5:-1 6:-0.555556 7:-1 8:-0.611305 9:-1 10:-0.0102554 11:-0.92258 12:0.410851 13:0.565893 14:-0.632184 15:-0.647059 16:-0.914064 17:-0.9896 18:-1 19:-0.509806 20:-1 21:0.115789 22:-1 23:-1 24:-1 25:-0.5 26:-0.257576 
10 1:-0.876923 2:0.999 3:0.248 4:-0.688 5:0.507248 6:-0.133333 7:-0.739879 8:-0.515049 9:0.885187 10:0.130769 11:0.90998 12:0.323791 13:0.438284 14:0.287356 15:0.342988 16:0.442305 17:-0.989796 18:-0.956639 19:-0.661765 20:-0.377778 21:-0.739272 22:-0.777778 23:-0.777778 24:-1 25:-1 26:-0.469697 
