svm_type c_svc
kernel_type rbf
gamma 0.01
nr_class 2
total_sv 4009
rho 29.3875
label 1 -1
probA -2.32793
probB -0.00230117
nr_sv 2002 2007
SV
10 1:-0.30642 2:0.6753 3:-0.2832 4:-0.84375 5:0.01944 6:0.33333 7:0.36522 8:1 9:-0.69231 10:0.30625 11:0.5 12:-0.99116 13:-0.34889 14:-0.99167 15:-0.9 16:0.04921 17:-0.83265 18:-0.4 19:-0.8 20:-1 21:-1 22:-0.73 23:-0.99571 24:-1 
10 1:0.16132 2:1 3:-0.02344 4:-0.02344 5:0.08803 6:-0.08409 7:0.8719 8:0.39845 9:0.0137 10:0.24679 11:0.32784 12:1 13:-0.99584 14:-0.98974 15:-0.90227 16:0.01294 17:-0.42697 18:-0.2 19:-0.8 20:-1 21:-1 22:-0.67 23:-0.98867 24:-1 
10 1:0.093 2:1 3:-0.02344 4:-0.02344 5:-0.11622 6:-0.01852 7:1 8:0.64 9:-0.07407 10:0.19865 11:-0.2787 12:1 13:-0.90868 14:-0.99189 15:-0.76667 16:-0.08417 17:-0.69226 18:-1 19:-0.8 20:-1 21:-1 22:-0.81 23:-0.97938 24:-1 
10 1:-0.24038 2:0.99998 3:-0.42383 4:-0.74219 5:-0.24359 6:-0.12 7:0.46034 8:1 9:-0.42857 10:0.15769 11:-0.025 12:-0.358 13:-0.97148 14:-1 15:-0.62 16:0.00513 17:-0.78836 18:-1 19:-1 20:-1 21:-1 22:-0.83 23:-0.97889 24:-1 
10 1:-0.3698 2:1 3:-0.58594 4:-0.72852 5:0.17778 6:-0.07333 7:0.15736 8:1 9:-0.09091 10:0.5 11:0.19 12:0.53245 13:-0.72222 14:-0.95 15:-0.84 16:0.0254 17:-0.54459 18:-0.8 19:-1 20:-1 21:-1 22:-0.87 23:-0.98 24:-1 
10 1:-0.3698 2:0.99988 3:-0.52539 4:-0.78906 5:0.0125 6:0.2 7:1 8:-0.89388 9:-0.33333 10:0.23438 11:0.05 12:-0.61404 13:-0.98889 14:-1 15:-0.9 16:-0.02857 17:-0.77316 18:-1 19:-0.8 20:-1 21:-1 22:-0.85 23:-0.99455 24:-1 
10 1:-0.3259 2:1 3:-0.63086 4:-0.625 5:0.05 6:-0.08571 7:0.94896 8:-0.0785 9:0.09091 10:0.37083 11:0.16786 12:1 13:-0.9996 14:-0.93333 15:-0.81429 16:0.07937 17:-0.4989 18:-1 19:-1 20:-1 21:-0.2 22:-0.68 23:-0.97385 24:-1 
10 1:-0.044 2:1 3:-0.02344 4:-0.37305 5:0.07738 6:0.07 7:0.21036 8:0.14586 9:-0.5 10:0.36161 11:0.3875 12:0.01206 13:-0.98889 14:-0.98929 15:-0.74 16:0.14286 17:-0.65564 18:-0.6 19:-1 20:-1 21:-1 22:-0.61 23:-0.98474 24:-1 
10 1:-0.3698 2:0.99951 3:-0.4375 4:-0.78125 5:0.2 6:0.24444 7:0.71537 8:0.97331 9:-0.45455 10:0.30625 11:0.24167 12:-0.61404 13:-0.95889 14:-1 15:-0.9 16:0.30714 17:-0.62424 18:-1 19:-1 20:-1 21:-1 22:-0.73 23:-0.99455 24:-1 
10 1:-0.30642 2:0.6753 3:-0.14453 4:-0.85547 5:0.21667 6:0.23333 7:0.29948 8:1 9:-0.69231 10:0.32292 11:0.1125 12:-0.99116 13:-0.98889 14:-0.975 15:-0.9 16:0.15556 17:-0.88571 18:-1 19:-0.6 20:-1 21:-1 22:-0.79 23:-0.99286 24:-1 
10 1:-0.08108 2:1 3:-0.1543 4:-0.53711 5:-0.27833 6:-0.39231 7:0.50872 8:0.25113 9:-0.2 10:0.04625 11:-0.05577 12:1 13:-0.9 14:-0.995 15:-0.92308 16:0.04 17:-0.72179 18:-0.8 19:-1 20:-1 21:-1 22:-0.73 23:-0.99333 24:-1 
10 1:-0.24038 2:1 3:-0.99219 4:-0.20117 5:-0.93333 6:-0.14792 7:-0.33984 8:-0.10437 9:1 10:0.1125 11:-0.05156 12:1 13:-0.98 14:-0.95 15:-0.84375 16:0.12381 17:-0.49524 18:-0.6 19:-1 20:-1 21:-1 22:-0.72 23:-0.97111 24:-1 
10 1:-0.18764 2:0.941 3:-0.04102 4:-0.80273 5:-0.09074 6:-0.15833 7:0.73295 8:0.37549 9:-0.66667 10:0.06944 11:0.1125 12:-0.98166 13:-0.95 14:-1 15:-0.9 16:-0.04233 17:-0.80866 18:-0.8 19:-0.8 20:-1 21:-1 22:-0.91 23:-0.99636 24:-1 
10 1:-0.30642 2:1 3:-0.5957 4:-0.53906 5:-0.01429 6:0.12381 7:1 8:-0.85045 9:0.07692 10:0.38929 11:0.27857 12:1 13:-0.9775 14:-0.98571 15:-0.9 16:0.33878 17:-0.5932 18:-1 19:-1 20:-1 21:-0.8 22:-0.99 23:-0.98857 24:-1 
10 1:-0.48859 2:0.99999 3:-0.85352 4:-0.78516 5:-0.16667 6:-0.08333 7:-0.92122 8:0.09163 9:0.2 10:0.24167 11:0.5 12:0.45712 13:-0.51 14:-1 15:-0.825 16:0.15556 17:-0.70884 18:-0.8 19:-1 20:-1 21:-1 22:-0.91 23:-0.98 24:-1 
10 1:-0.07323 2:1 3:-0.02344 4:-0.41992 5:0.11212 6:-0.175 7:1 8:0.69283 9:-0.33333 10:0.35909 11:-0.275 12:1 13:-0.83521 14:-0.99091 15:-0.90833 16:0.01039 17:-0.61681 18:-0.8 19:-1 20:-1 21:-1 22:-0.91 23:-0.99235 24:-1 
10 1:0.09708 2:1 3:-0.02344 4:-0.02344 5:-0.07222 6:-0.19143 7:0.40675 8:0.65894 9:0.07407 10:0.3 11:-0.06 12:1 13:-0.96565 14:-0.98333 15:-0.83429 16:-0.02413 17:-0.57861 18:-0.6 19:-1 20:-1 21:-1 22:-0.77 23:-0.98062 24:-1 
10 1:-0.39485 2:0.99975 3:-0.48438 4:-0.7832 5:0.25714 6:0.23333 7:0.82468 8:0.28581 9:-0.4 10:0.38929 11:0.5 12:-0.49992 13:-0.9975 14:-1 15:-0.9 16:-0.5483 17:-0.74667 18:-0.8 19:-1 20:-1 21:-1 22:-0.79 23:-0.994 24:-1 
10 1:0.06256 2:1 3:-0.02344 4:-0.02344 5:-0.0069 6:-0.07619 7:0.97649 8:0.00916 10:0.24914 11:0.0125 12:1 13:-0.99965 14:-0.9931 15:-0.83929 16:-0.1803 17:-0.59666 18:-1 19:-1 20:-1 21:-0.8 22:-0.85 23:-0.98351 24:-1 
10 1:-0.22617 2:0.99232 3:-0.13867 4:-0.80859 5:0.05 6:-0.34667 7:1 8:1 9:-0.6 10:0.16786 11:0.035 12:-0.47923 13:-0.81531 14:-0.99286 15:-0.86 16:0.08027 17:-0.7203 18:-1 19:-1 20:-1 21:-1 22:-0.67 23:-0.99158 24:-1 
10 1:-0.4535 2:0.99994 3:-0.66992 4:-0.81641 5:0.12667 6:0.04444 7:0.70176 8:-0.50716 9:-0.25 10:0.5 11:0.24167 12:-0.25541 13:-0.9575 14:-1 15:-0.86667 16:0.0781 17:-0.41667 18:-1 19:-1 20:-1 21:-1 22:-0.83 23:-0.99 24:-1 
10 1:0.10894 2:1 3:-1 4:-0.02344 5:-1 6:-0.28507 7:-1 8:0.25006 9:1 10:-1 11:0.11269 12:1 13:-0.99 14:-1 15:-0.86269 16:-1 17:0.13547 18:-1 19:-1 20:-1 21:-1 22:-0.93 23:-0.97254 24:-1 
10 1:-0.21269 2:1 3:-0.18359 4:-0.67578 5:-0.07111 6:0.10667 7:1 8:0.16934 9:-0.41176 10:0.44833 11:0.385 12:-0.59471 13:-0.98188 14:-0.98667 15:-0.88 16:-0.16317 17:-0.63714 18:-1 19:-0.2 20:-1 21:-1 22:-0.83 23:-0.992 24:-1 
10 1:-0.16477 2:1 3:-0.53125 4:-0.35938 5:-0.27273 6:-0.15897 7:0.50948 8:0.79693 9:0.11111 10:0.5 11:0.23846 12:1 13:-0.97837 14:-1 15:-0.92308 16:0.11169 17:-0.52302 18:-1 19:-0.2 20:-1 21:-1 22:-0.59 23:-0.99167 24:-1 
10 1:-0.39485 2:0.99994 3:-0.64844 4:-0.80273 6:-0.15833 7:1 8:0.60596 9:-0.25 10:0.40417 11:0.1125 12:0.07278 13:-0.9896 14:-0.98333 15:-0.9 16:-0.09206 17:-0.5219 18:-1 19:-0.8 20:-1 21:-1 22:-0.9 23:-0.99 24:-1 
10 1:-0.63567 2:1 3:-1 4:-0.79492 5:-1 6:-0.125 7:-1 8:0.03564 9:1 10:-1 11:0.1125 12:1 13:-0.99 14:-1 15:-0.9 16:-1 17:0.2619 18:-1 19:-1 20:-1 21:-1 22:-0.73 23:-0.98 24:-1 
10 1:-0.22617 2:1 3:-0.11914 4:-0.6875 5:0.15641 6:-0.11111 7:-0.3298 8:0.18255 9:-0.44444 10:0.26154 11:0.24167 12:0.09512 13:-0.99 14:-1 15:-0.9 16:-0.50769 17:-0.70927 18:-0.6 19:-1 20:-1 21:-1 22:-0.83 23:-0.99368 24:-1 
10 1:-0.30642 2:1 3:-0.64062 4:-0.74219 5:-0.38667 6:0.1 7:1 8:-0.37581 9:-0.27273 10:0.055 11:0.30625 12:-0.42974 13:-0.98889 14:-0.98 15:-0.8 16:-0.24 17:-0.80816 18:-1 19:-1 20:-1 21:-1 22:-0.59 23:-0.98571 24:-1 
10 1:-0.42254 2:1 3:-0.89258 4:-0.64648 5:-0.08333 6:-0.1381 7:-0.28809 8:-0.44345 9:0.5 10:0.5 11:-0.06429 12:1 13:-0.9864 14:-1 15:-0.7 16:-0.07619 17:0.08783 18:-0.6 19:-0.8 20:-1 21:-1 22:-0.68 23:-0.95333 24:-1 
10 1:-0.42254 2:0.99988 3:-0.58008 4:-0.77148 5:0.19444 6:0.3 7:0.23965 8:1 9:-0.33333 10:0.37083 11:0.5 12:-0.37948 13:-0.95889 14:-1 15:-0.86667 16:0.30476 17:-0.6254 18:-1 19:-1 20:-1 21:-1 22:-0.74 23:-0.99111 24:-1 
10 1:-0.11503 2:1 3:-0.02344 4:-0.50781 5:-0.08421 6:-0.16 7:1 8:-0.04818 9:-0.30435 10:0.41842 11:0.2675 12:1 13:-0.96222 14:-1 15:-0.91 16:-0.1198 17:-0.61248 18:-1 19:-1 20:-1 21:-1 22:-0.73 23:-0.99379 24:-1 
10 1:-0.13381 2:1 3:-0.02344 4:-0.59961 5:0.03333 6:-0.14583 7:0.78712 8:0.23089 9:-0.41667 10:0.33684 11:0.19687 12:0.24549 13:-0.95331 14:-1 15:-0.9125 16:-0.09875 17:-0.82081 18:-1 19:-1 20:-1 21:-1 22:-0.87 23:-0.99481 24:-1 
10 1:-0.16477 2:1 3:-0.06641 4:-0.58984 5:-0.06275 7:0.16873 8:-0.1716 9:-0.36364 10:0.40882 11:-0.33214 12:0.04241 13:-0.9961 14:-0.98235 15:-0.47143 16:-0.03866 17:-0.65476 18:-1 19:-1 20:-1 21:-1 22:-0.96 23:-0.96667 24:-1 
10 1:-0.08108 2:1 3:-0.02344 4:-0.47461 5:0.14638 6:-0.10333 7:0.73525 8:-0.16398 9:-0.42857 10:0.4663 11:0.0525 12:0.65269 13:-0.90673 14:-0.98696 15:-0.77 16:-0.06832 17:-0.84069 18:-0.8 19:-1 20:-1 21:-1 22:-0.95 23:-0.98424 24:-0.78378 
10 1:0.16758 2:1 3:-0.02344 4:-0.02344 5:-0.15891 6:-0.22143 7:0.40225 8:0.45975 9:-0.04762 10:0.16221 11:0.11071 12:1 13:-0.9962 14:-0.97907 15:-0.90476 16:-0.01661 17:-0.60605 18:-1 19:-1 20:-1 21:-1 22:-0.95 23:-0.98847 24:-1 
10 1:0.19681 2:1 3:-0.02344 4:-0.02344 5:0.19167 6:0.05619 7:0.91287 8:0.32922 9:-0.26087 10:0.44833 11:0.07857 12:1 13:-0.99716 14:-0.90667 15:-0.75714 16:-0.04762 17:-0.66817 18:-1 19:-1 20:-1 21:-1 22:-0.97 23:-0.97032 24:-1 
10 1:-0.42254 2:1 3:-0.85938 4:-0.6875 5:0.2 6:-0.2381 7:-0.52734 8:0.68452 9:0.42857 10:0.5 11:0.16786 12:1 13:-0.99529 14:-1 15:-0.84286 16:-0.18095 17:-0.27196 18:-1 19:-1 20:-1 21:-1 22:-0.93 23:-0.97556 24:-1 
10 1:-0.42254 2:1 3:-0.82812 4:-0.62891 5:0.46667 6:-0.09524 7:-0.52734 8:0.59245 9:0.5 10:0.5 11:0.27857 12:1 13:-0.99529 14:-1 15:-0.82857 16:-0.02857 17:-0.36296 18:-1 19:-1 20:-0.8 21:-1 22:-0.83 23:-0.97333 24:-1 
10 1:-0.19986 2:1 3:-0.02344 4:-0.59375 5:0.18889 6:0.15556 7:0.34874 8:-0.21061 9:-0.47368 10:0.44833 11:0.5 12:-0.15945 13:-0.98326 14:-1 15:-0.91667 16:0.00698 17:-0.66168 18:-1 19:-1 20:-1 21:-1 22:-0.97 23:-0.99524 24:-1 
10 1:-0.42254 2:0.99997 3:-0.65039 4:-0.7832 5:0.19333 6:-0.075 7:0.74082 8:0.28255 9:-0.14286 10:0.5 11:0.23125 12:0.20071 13:-0.9875 14:-0.96 15:-0.925 16:0.3981 17:-0.50899 18:-0.6 19:-1 20:-1 21:-1 22:-0.91 23:-0.98889 24:-1 
10 1:-0.57702 2:0.99843 3:-0.80664 4:-0.88867 5:0.1 6:-0.05 7:0.29753 8:-0.95215 9:-0.2 10:0.5 11:0.5 12:-0.4508 13:-0.74889 14:-1 15:-0.9 16:-0.55556 17:-0.49333 18:-1 19:-1 20:-1 21:-1 22:-0.97 23:-0.992 24:-1 
10 1:0.05791 2:1 3:-0.02344 4:-0.05664 5:-0.29655 6:-0.4037 7:0.86701 8:0.93765 9:-0.09677 10:0.11552 11:-0.05648 12:1 13:-0.99185 14:-0.99655 15:-0.94444 16:0.04499 17:-0.47041 18:-0.8 19:-1 20:-1 21:-1 22:-0.64 23:-0.99429 24:-1 
10 1:-0.28829 2:1 3:-0.74023 4:-0.5957 5:-0.36667 6:-0.1375 7:0.5253 8:0.308 9:0.16667 10:-0.26071 11:-0.3 12:1 13:-0.51 14:-0.75714 15:-0.7625 16:0.00136 17:-0.61016 18:-1 19:-0.4 20:-1 21:-1 22:-0.83 23:-0.952 24:-1 
10 1:-0.34694 2:1 3:-0.59961 4:-0.74023 5:-0.02381 6:-0.11333 7:1 8:-0.83926 9:-0.11111 10:0.16786 11:0.19 12:0.40417 13:-0.61222 14:-1 15:-0.82 16:-0.12925 17:-0.82063 18:-0.8 19:-0.8 20:-1 21:-1 22:-0.73 23:-0.985 24:-1 
10 1:-0.57702 2:1 3:-1 4:-0.73047 5:-1 6:-0.08 7:-1 8:-0.00879 9:1 10:-1 11:0.035 12:1 13:-0.96222 14:-1 15:-0.82 16:-1 17:0.40952 18:-1 19:-1 20:-1 21:-1 22:-0.9 23:-0.964 24:-1 
10 1:0.28524 2:1 3:-0.02344 4:-0.02344 5:0.29708 6:0.14843 7:0.55814 8:0.37324 9:-0.19084 10:0.43219 11:0.09528 12:1 13:-0.99942 14:-0.9975 15:-0.7 16:-0.04429 17:-0.6696 18:-1 19:-1 20:-1 21:-1 22:-0.88 23:-0.97579 24:-1 
10 1:0.35435 2:1 3:-0.02344 4:-0.02344 5:0.12311 6:-0.05278 7:0.64424 8:0.10484 9:-0.5858 10:0.4781 11:-0.32847 12:-0.99871 13:-0.99782 14:-0.99562 15:-0.69167 16:-0.08085 17:-0.82659 18:-1 19:-0.8 20:-1 21:-1 22:-0.91 23:-0.98647 24:-1 
10 1:0.04835 2:1 3:-1 4:-0.02344 5:-1 6:-0.02284 7:-1 8:0.44661 9:1 10:-1 11:-0.25185 12:1 13:-0.98988 14:-1 15:-0.63519 16:-1 17:-0.17002 18:-1 19:-1 20:-0.8 21:-1 22:-0.96 23:-0.92704 24:-1 
10 1:-0.02403 2:1 3:-0.91016 4:-0.02344 5:0.53333 6:0.0275 7:-1 8:0.59272 9:0.95 10:0.5 11:0.175 12:1 13:-0.99331 14:-1 15:-0.8925 16:-0.10476 17:0.08246 18:-0.4 19:0.6 20:-1 21:-1 22:-0.77 23:-0.97902 24:-1 
10 1:-0.16477 2:1 3:-0.22461 4:-0.38281 5:0.01795 6:-0.04242 7:1 8:-0.14286 9:-0.1 10:0.14231 11:-0.16136 12:1 13:-0.98148 14:-1 15:-0.86364 16:-0.02857 17:-0.63016 18:-1 19:-0.6 20:-1 21:-1 22:-0.85 23:-0.9875 24:-1 
10 1:-0.3698 2:0.99951 3:-0.36133 4:-0.82812 5:0.3625 6:-0.02222 7:0.10589 8:-0.91341 9:-0.45455 10:0.5 11:0.24167 12:-0.61404 13:-0.95889 14:-1 15:-0.9 16:0.05238 17:-0.84069 18:-0.8 19:-0.6 20:-1 21:-1 22:-0.81 23:-0.99455 24:-1 
10 1:-0.044 2:1 3:-0.02344 4:-0.31055 5:0.17262 6:0.17667 7:0.46671 8:1 9:-0.48571 10:0.5 11:0.1525 12:0.01206 13:-0.9 14:-0.99643 15:-0.83 16:0.06803 17:-0.80301 18:-1 19:-0.8 20:-0.8 21:-1 22:-0.93 23:-0.99053 24:-1 
10 1:-0.24038 2:1 3:-0.69727 4:-0.66992 5:-0.35417 6:-0.43667 7:-0.6017 8:1 10:-0.02187 11:0.025 12:1 13:-0.98 14:-0.9875 15:-0.86 16:0.22381 17:-0.63386 18:-1 19:-1 20:-1 21:-1 22:-0.58 23:-0.98333 24:-1 
10 1:-0.34694 2:1 3:-0.38086 4:-0.70312 5:0.32083 6:0.26667 7:-0.46819 8:-0.25342 9:-0.33333 10:0.26875 11:0.30625 12:-0.18153 13:-0.9898 14:-0.875 15:-0.775 16:-0.00952 17:-0.58889 18:-1 19:-1 20:-1 21:-0.8 22:-0.64 23:-0.96833 24:-1 
10 1:0.03843 2:1 3:-0.99609 4:-0.02344 5:-0.93333 6:0.12418 7:-1 8:0.19651 9:1 10:0.5 11:0.11863 12:1 13:-0.90824 14:-1 15:-0.90588 16:-0.9619 17:0.11136 18:-0.8 19:0.4 20:-1 21:-1 22:-0.51 23:-0.98154 24:-1 
10 1:-0.5291 2:0.99998 3:-0.76758 4:-0.76367 5:0.32222 6:0.34444 7:0.79883 8:0.61393 10:0.30833 11:0.24167 12:-0.00218 13:-0.99639 14:-1 15:-0.86667 16:-0.27619 17:-0.39683 18:-1 19:-1 20:-1 21:-1 22:-0.95 23:-0.98667 24:-1 
10 1:0.28721 2:1 3:-0.02344 4:-0.02344 5:0.13434 6:0.02598 7:0.55696 8:0.59042 10:0.26515 11:0.0136 12:1 13:-0.9991 14:-0.99394 15:-0.83088 16:0.01501 17:-0.47974 18:-0.6 19:-1 20:-1 21:-1 22:-0.58 23:-0.98224 24:-1 
10 1:0.0174 2:1 3:-0.02344 4:-0.17578 5:-0.01111 6:-0.06222 7:0.70537 8:0.60971 9:-0.3913 10:0.17121 11:-0.12 12:1 13:-0.99355 14:-1 15:-0.68 16:0.16364 17:-0.67143 18:-1 19:-1 20:-1 21:-1 22:-0.53 23:-0.98 24:-1 
10 1:-0.5291 2:0.99687 3:-0.71484 4:-0.8457 5:0.21667 6:0.31667 7:-0.50651 8:-0.80859 9:-0.33333 10:0.30625 11:0.5 12:-0.56795 13:-0.98 14:-0.975 15:-0.85 16:-0.14286 17:-0.81587 18:-1 19:-0.6 20:-1 21:-1 22:-0.56 23:-0.98667 24:-1 
10 1:-0.4535 2:1 3:-0.81055 4:-0.68555 5:-0.19167 6:0.34167 7:-0.42318 8:-0.83415 9:0.33333 10:0.30625 11:0.30625 12:0.32885 13:-0.98 14:-1 15:-0.8 16:-0.25714 17:-0.84048 18:-1 19:-1 20:-1 21:-1 22:-0.81 23:-0.98 24:-1 
10 1:-0.42254 2:0.99998 3:-0.77344 4:-0.80859 5:-0.03333 6:-0.34667 7:-0.09066 8:1 10:-0.08125 11:0.035 12:0.78913 13:-0.97222 14:-1 15:-0.94 16:0.17619 17:-0.57249 18:-1 19:-1 20:-1 21:-1 22:-0.33 23:-0.99333 24:-1 
10 1:-0.39485 2:0.99988 3:-0.63477 4:-0.76953 5:0.03889 6:-0.01667 7:0.80371 8:1 9:-0.33333 10:0.37083 11:0.5 12:0.07278 13:-0.9996 14:-1 15:-0.925 16:-0.34286 17:-0.61905 18:-1 19:-1 20:-0.8 21:-1 22:-0.87 23:-0.994 24:-1 
10 1:-0.4535 2:0.99998 3:-0.7793 4:-0.79492 5:0.25556 6:-0.3 7:-0.17708 8:-0.47031 10:0.5 11:-0.025 12:0.91754 13:-0.8 14:-1 15:-0.94 16:0.2254 17:0.00238 18:-1 19:-1 20:-1 21:-1 22:-0.59 23:-0.9925 24:-1 
10 1:-0.2554 2:0.99613 3:-0.26758 4:-0.76562 5:-0.10714 6:0.33333 7:1 8:-0.68685 9:-0.57143 10:0.44464 11:0.5 12:-0.97642 13:-0.71 14:-0.97857 15:-0.9 16:0.08435 17:-0.74678 18:-1 19:-1 20:-1 21:-1 22:-0.83 23:-0.99294 24:-1 
10 1:0.29303 2:1 3:-0.02344 4:-0.02344 5:-0.12394 6:-0.13636 7:0.63993 8:0.55415 9:-0.0678 10:0.26585 11:0.24053 12:1 13:-0.99509 14:-0.99296 15:-0.91364 16:-0.00577 17:-0.53299 18:-0.2 19:-0.8 20:-1 21:-1 22:-0.47 23:-0.99095 24:-1 
10 1:-0.42254 2:0.99988 3:-0.58984 4:-0.75391 5:0.16667 6:0.4 7:1 8:0.23633 9:-0.33333 10:0.37083 11:0.5 12:-0.37948 13:-0.5096 14:-1 15:-0.9 16:-0.26349 17:-0.63175 18:-1 19:-1 20:-1 21:-1 22:-0.89 23:-0.99333 24:-1 
10 1:-0.14373 2:1 3:-0.02344 4:-0.48633 5:0.30556 6:0.09583 7:0.20387 8:0.58339 9:-0.38462 10:0.5 11:0.01562 12:0.37367 13:-0.95889 14:-0.99444 15:-0.8375 16:-0.39894 17:-0.72381 18:-0.8 19:-0.6 20:-1 21:-1 22:-0.92 23:-0.98923 24:-1 
10 1:-0.57702 2:0.99999 3:-0.875 4:-0.75586 5:0.06667 6:0.38889 7:-0.78027 8:-0.1556 9:0.2 10:0.5 11:0.5 12:0.12615 13:-0.95889 14:-1 15:-0.9 16:-0.51429 17:-0.76762 18:-1 19:-1 20:-1 21:-1 22:-0.75 23:-0.988 24:-1 
10 1:-0.48859 2:0.99378 3:-0.61719 4:-0.875 5:0.30667 6:0.06667 7:1 8:-0.90234 9:-0.42857 10:0.345 11:-0.0375 12:-0.67657 13:-0.97111 14:-0.98 15:-0.8 16:-0.21905 17:-0.80952 18:-1 19:-0.4 20:-1 21:-1 22:-0.71 23:-0.98571 24:-1 
10 1:0.12758 2:1 3:-0.02344 4:-0.02344 5:0.0845 6:-0.00222 7:0.57452 8:0.16694 9:-0.18182 10:0.40988 11:-0.09917 12:1 13:-0.98166 14:-0.99302 15:-0.75667 16:0.09369 17:-0.62348 18:-0.6 19:-1 20:-1 21:-1 22:-0.73 23:-0.97918 24:-1 
10 1:-0.24038 2:1 3:-0.31836 4:-0.70508 5:0.16333 6:-0.37083 7:-0.17142 8:0.65723 9:-0.23077 10:0.19 11:-0.08125 12:1 13:-0.99796 14:-0.99 15:-0.9375 16:-0.18667 17:-0.60847 18:-0.8 19:-0.8 20:-1 21:-1 22:-0.87 23:-0.99333 24:-1 
10 1:-0.02403 2:1 3:-0.02344 4:-0.17773 5:0.004 6:-0.12292 7:-0.04883 8:0.05404 9:-0.26316 10:0.239 11:-0.37344 12:1 13:-0.93158 14:-0.988 15:-0.9125 16:0.15048 17:-0.60418 18:-0.8 19:-1 20:-1 21:-1 22:-0.85 23:-0.99171 24:-1 
10 1:-0.24038 2:0.99992 3:-0.14844 4:-0.69141 5:0.21111 6:-0.12222 7:0.08801 8:1 9:-0.5 10:0.30625 11:0.24167 12:0.22309 13:-0.99948 14:-0.99167 15:-0.93333 16:-0.00635 17:-0.6 18:-1 19:-0.8 20:-1 21:-1 22:-0.81 23:-0.99444 24:-1 
10 1:-0.39485 2:0.99975 3:-0.48633 4:-0.79492 5:0.25238 6:0.16667 7:-0.38058 8:1 9:-0.4 10:0.5 11:0.5 12:-0.49992 13:-0.99529 14:-1 15:-0.9 16:0.21633 17:-0.67238 18:-1 19:-0.4 20:-1 21:-1 22:-0.55 23:-0.994 24:-1 
10 1:-0.3698 2:0.97558 3:-0.43359 4:-0.86328 5:0.07407 6:0.16667 7:0.07086 8:1 9:-0.55556 10:0.17778 11:0.1125 12:-0.94601 13:-0.9275 14:-1 15:-0.85 16:-0.22963 17:-0.82165 18:-0.8 19:-1 20:-1 21:-1 22:-0.62 23:-0.99455 24:-1 
10 1:0.13469 2:1 3:-0.02344 4:-0.02344 5:0.13987 6:0.04861 7:0.75268 8:-0.54027 9:-0.34286 10:0.41275 11:-0.40417 12:1 13:-0.98622 14:-0.99412 15:-0.77917 16:-0.06853 17:-0.74349 18:-1 19:-1 20:-1 21:-1 22:-0.63 23:-0.98507 24:-1 
10 1:-0.4535 2:0.99998 3:-0.74805 4:-0.80078 5:0.43333 6:-0.32 7:-0.80469 8:1 10:0.5 11:0.345 12:0.91754 13:-0.97111 14:-0.93333 15:-0.9 16:-0.40952 17:-0.4119 18:-1 19:-0.4 20:-1 21:-1 22:-0.99 23:-0.9825 24:-1 
10 1:-0.3698 2:1 3:-0.78906 4:-0.63672 5:-0.1 6:-0.11429 7:1 8:0.25093 9:0.25 10:0.30625 11:0.16786 12:1 13:-0.9064 14:-0.975 15:-0.9 16:0.00952 17:-0.21039 18:-1 19:-0.8 20:-1 21:-1 22:-0.75 23:-0.98545 24:-1 
10 1:-0.48859 2:0.99997 3:-0.71484 4:-0.84375 5:0.21667 6:-0.11111 7:0.14258 8:0.49023 9:-0.14286 10:0.1125 11:-0.11667 12:-0.12934 13:-0.95 14:-1 15:-0.86667 16:0.22857 17:-0.51837 18:-0.6 19:-1 20:-1 21:-1 22:-0.63 23:-0.98857 24:-1 
10 1:-0.01151 2:1 3:-0.02344 4:-0.19727 5:0.05278 6:-0.27895 7:0.44519 8:0.13244 9:-0.24324 10:0.43542 11:0.29605 12:1 13:-0.94875 14:-0.9875 15:-0.85789 16:-0.27143 17:-0.68151 18:-1 19:-1 20:-1 21:-1 22:-0.66 23:-0.98605 24:-1 
10 1:-0.27133 2:1 3:-0.1875 4:-0.61914 5:0.38667 6:0.08333 7:0.22528 8:-0.70879 9:-0.25 10:0.4225 11:0.1125 12:0.47952 13:-0.94372 14:-0.98 15:-0.86667 16:-0.11048 17:-0.83214 18:-1 19:-0.8 20:-1 21:-1 22:-0.91 23:-0.9875 24:-1 
10 1:-0.42254 2:0.97558 3:-0.47461 4:-0.85156 5:0.28095 6:0.26667 7:0.18741 8:0.48535 9:-0.55556 10:0.5 11:0.5 12:-0.84984 13:-0.9864 14:-0.98571 15:-0.8 16:0.22721 17:-0.86243 18:-1 19:-1 20:-1 21:-1 22:-0.96 23:-0.98889 24:-1 
10 1:0.16758 2:1 3:-0.02344 4:-0.02344 5:0.25774 6:0.06782 7:0.59129 8:-0.07711 9:-0.3012 10:0.44286 11:-0.31552 12:1 13:-0.98325 14:-0.99107 15:-0.16207 16:0.0068 17:-0.66431 18:-1 19:-1 20:-1 21:-1 22:-0.91 23:-0.94165 24:-1 
10 1:-0.3698 2:1 3:-0.52148 4:-0.68555 5:0.36111 6:0.07333 7:0.59017 8:-0.14316 9:-0.2 10:0.37083 11:0.11 12:0.53245 13:-0.83 14:-1 15:-0.92 16:-0.03175 17:-0.73853 18:-1 19:-0.8 20:-1 21:-1 22:-0.95 23:-0.99273 24:-1 
10 1:-0.28829 2:0.99996 3:-0.15039 4:-0.73047 5:0.31818 6:0.15 7:-0.3592 8:1 9:-0.46667 10:0.35909 11:0.30625 12:-0.54797 13:-0.66889 14:-0.99091 15:-0.9 16:-0.3316 17:-0.72063 18:-1 19:-1 20:-1 21:-1 22:-0.98 23:-0.99333 24:-1 
10 1:-0.17595 2:0.61352 3:-0.02344 4:-0.79688 5:0.26333 6:0.15556 7:0.45043 8:0.23112 9:-0.71429 10:0.46125 11:-0.275 12:-0.99947 13:-0.50852 14:-0.985 15:-0.9 16:0.06476 17:-0.87246 18:-0.8 19:-0.8 20:-1 21:-1 22:-0.55 23:-0.99478 24:-1 
10 1:-0.39485 2:1 3:-0.5957 4:-0.73242 5:0.15 6:0.14167 7:0.69668 8:-0.19401 9:-0.2 10:0.24167 11:0.30625 12:0.07278 13:-0.85556 14:-0.98333 15:-0.8 16:-0.15238 17:-0.68762 18:-1 19:-1 20:-1 21:-1 22:-0.9 23:-0.982 24:-1 
10 1:-0.34694 2:1 3:-0.54297 4:-0.6875 5:-0.025 6:0.33333 7:1 8:-0.38493 9:-0.2 10:0.5 11:0.5 12:-0.18153 13:-0.99529 14:-1 15:-0.9 16:-0.17619 17:-0.74127 18:-0.2 19:-0.2 20:-1 21:-1 22:-0.73 23:-0.99333 24:-1 
10 1:-0.5291 2:1 3:-0.91797 4:-0.66992 5:0.4 6:0.12667 7:-1 8:-0.41465 9:0.66667 10:0.5 11:0.5 12:1 13:-0.9996 14:-1 15:-0.9 16:0.25714 17:-0.01905 18:-0.6 19:-1 20:-1 21:-1 22:-0.83 23:-0.98333 24:-1 
10 1:-0.27133 2:1 3:-0.31641 4:-0.63867 5:0.06061 6:0.23333 7:0.87944 8:0.83945 9:-0.33333 10:0.5 11:0.5 12:-0.10718 13:-0.97972 14:-1 15:-0.88 16:0.13247 17:-0.63452 18:-0.8 19:-0.8 20:-1 21:-1 22:-0.95 23:-0.9925 24:-1 
10 1:-0.15404 2:1 3:-0.02344 4:-0.60156 5:0.15556 6:-0.32 7:-0.05725 8:1 9:-0.33333 10:0.41 11:-0.15 12:1 13:-0.99656 14:-0.98667 15:-0.93 16:-0.20762 17:-0.53676 18:-0.6 19:-0.4 20:-1 21:-1 22:-0.56 23:-0.9928 24:-1 
10 1:0.02282 2:1 3:-0.7207 4:-0.04883 5:-0.70208 6:-0.50808 7:0.51562 8:0.42569 9:0.55556 10:-0.17812 11:0.0447 12:1 13:-0.17751 14:-1 15:-0.94848 17:-0.38076 18:-1 19:-1 20:-1 21:-0.8 22:-0.94 23:-0.99306 24:-1 
10 1:0.08887 2:1 3:-0.96094 4:-0.02344 5:-0.33333 6:0.06344 7:-1 8:0.05098 9:0.96825 10:0.5 11:-0.05927 12:1 13:-0.99415 14:-0.9 15:-0.74032 16:0.25714 17:0.03613 18:-1 19:-1 20:-1 21:-1 22:-0.85 23:-0.94857 24:-1 
10 1:0.18838 2:1 3:-0.02344 4:-0.02344 5:0.03333 6:-0.0899 7:0.6723 8:0.58888 9:-0.275 10:0.37754 11:-0.18864 12:1 13:-0.98335 14:-0.99153 15:-0.69394 16:-0.07119 17:-0.63416 18:-1 19:-1 20:-1 21:-1 22:-0.81 23:-0.97696 24:-1 
10 1:-0.57702 2:1 3:-0.99609 4:-0.75195 5:-0.93333 6:0.05833 7:-1 8:1 9:1 10:-0.275 11:0.1125 12:0.76733 13:-0.91 14:-0.9 15:-0.85 16:-0.9619 17:-0.04 18:-0.8 19:-1 20:-1 21:-1 22:-0.55 23:-0.972 24:-1 
10 1:-0.12426 2:1 3:-1 4:-0.22852 5:-1 6:-0.52976 7:-1 8:0.35147 9:1 10:-1 11:-0.01875 12:1 13:-0.98 14:-1 15:-0.95 16:-1 17:-0.1068 18:-0.6 19:-0.8 20:-1 21:-1 22:-0.69 23:-0.99 24:-1 
10 1:-0.27133 2:0.98477 3:-0.05273 4:-0.84766 5:0.24359 6:-0.13333 7:0.65773 8:-0.51758 9:-0.625 10:0.44038 11:-0.2 12:-0.95733 13:-0.47 14:-1 15:-0.66667 16:-0.13553 17:-0.92143 18:-1 19:-1 20:-1 21:-1 22:-0.94 23:-0.9875 24:-1 
10 1:-0.2554 2:1 3:-0.69531 4:-0.77734 5:-0.52727 6:-0.36667 7:0.75664 8:0.36536 9:-0.11111 10:-0.13409 11:-0.01667 12:0.35126 13:-0.82306 14:-0.9 15:-0.8 16:-0.25714 17:-0.66835 18:-0.4 19:-0.4 20:-1 21:-1 22:-0.09 23:-0.97294 24:-1 
10 1:-0.3698 2:1 3:-1 4:-0.56445 5:-1 6:-0.32424 7:-1 8:0.51254 9:1 10:-1 11:-0.06364 12:1 13:-0.66889 14:-1 15:-0.85455 16:-1 17:0.03377 18:-1 19:-0.8 20:-1 21:-1 22:-0.81 23:-0.97091 24:-1 
10 1:0.12396 2:1 3:-0.02344 4:-0.02344 5:0.12101 6:0.04744 7:0.23125 8:-0.05966 9:-0.28571 10:0.37826 11:0.07115 12:1 13:-0.99873 14:-0.99783 15:-0.81923 16:-0.20621 17:-0.74947 18:-0.8 19:-1 20:-1 21:-1 22:-0.87 23:-0.98667 24:-1 
10 1:-0.30642 2:0.99999 3:-0.32422 4:-0.70508 5:0.15333 6:0.25833 7:0.74499 8:1 9:-0.38462 10:0.2675 11:0.5 12:-0.42974 13:-0.98889 14:-1 15:-0.9 16:-0.22095 17:-0.76054 18:-1 19:-1 20:-1 21:-0.6 22:-0.91 23:-0.99429 24:-1 
10 1:-0.03717 2:1 3:-0.02344 4:-0.02344 5:0.10175 6:-0.09167 7:0.93144 8:0.39224 10:0.41842 11:-0.165 12:1 13:-0.9779 14:-1 15:-0.815 16:-0.18697 17:-0.66056 18:-0.2 19:-1 20:-1 21:-1 22:-0.77 23:-0.98103 24:-1 
10 1:0.11277 2:1 3:-0.02344 4:-0.02344 5:0.14539 6:0.0197 7:0.70776 8:-0.17796 9:-0.32308 10:0.42766 11:-0.21023 12:1 13:-0.98604 14:-0.99149 15:-0.63182 16:-0.08207 17:-0.73803 18:-1 19:-0.8 20:-1 21:-1 22:-0.75 23:-0.97536 24:-1 
10 1:-0.24038 2:1 3:-0.0293 4:-0.63477 5:0.27436 6:0.24667 7:0.04735 8:1 9:-0.44444 10:0.44038 11:0.5 12:-0.358 13:-0.99188 14:-0.98462 15:-0.9 16:-0.17949 17:-0.77884 18:-1 19:-1 20:-1 21:-1 22:-0.97 23:-0.99222 24:-1 
10 1:0.03333 2:1 3:-0.02344 4:-0.02344 5:-0.02262 6:0.02899 7:0.46806 8:-0.24148 9:-0.04348 10:0.36875 11:-0.10435 12:1 13:-0.96675 14:-0.98929 15:-0.71739 16:0.00272 17:-0.67171 18:-0.8 19:-0.8 20:-1 21:-1 22:-0.73 23:-0.97333 24:-1 
10 1:-0.27133 2:1 3:-0.36719 4:-0.57227 5:0.35 6:-0.0875 7:0.52898 8:0.08803 9:-0.06667 10:0.40312 11:0.1125 12:1 13:-0.98 14:-0.9125 15:-0.9125 16:0.24524 17:-0.40238 18:-1 19:-1 20:-1 21:-1 22:-0.95 23:-0.9825 24:-1 
10 1:-0.01151 2:1 3:-0.02344 4:-0.02344 5:0.168 6:-0.05556 7:0.69621 8:0.69199 9:-0.17073 10:0.407 11:-0.4125 12:1 13:-0.85224 14:-0.924 15:-0.55556 16:-0.00419 17:-0.6155 18:-1 19:-1 20:-0.6 21:-1 22:-0.77 23:-0.95395 24:-1 
10 1:-0.71127 2:1 3:-1 4:-0.82031 5:-1 6:0.02222 7:-1 8:0.20898 9:1 10:-1 11:-0.275 12:0.81567 13:-0.98889 14:-1 15:-0.8 16:-1 17:0.35238 18:-1 19:-0.8 20:-1 21:-1 22:-0.85 23:-0.96 24:-1 
10 1:-0.10612 2:1 3:-0.02344 4:-0.32227 5:0.01111 6:-0.03611 7:0.44506 8:0.7793 9:-0.24138 10:-0.07778 11:-0.20208 12:1 13:-0.99744 14:-0.73889 15:-0.71667 16:0.12169 17:-0.56952 18:-1 19:-1 20:-1 21:-1 22:-0.94 23:-0.946 24:-1 
10 1:-0.06561 2:1 3:-0.02344 4:-0.02344 5:0.12778 6:0.02353 7:0.02895 8:0.33429 10:0.38194 11:-0.32794 12:1 13:-0.94506 14:-1 15:-0.60588 16:0.26349 17:-0.50803 18:-1 19:-1 20:-1 21:-1 22:-0.72 23:-0.96171 24:-1 
10 1:0.19957 2:1 3:-0.02344 4:-0.02344 5:0.28685 6:-0.10533 7:0.44803 8:1 9:-0.48387 10:0.43451 11:-0.412 12:1 13:-0.97612 14:-0.99155 15:-0.66 16:0.01784 17:-0.71567 18:-0.8 19:-0.8 20:-1 21:-1 22:-0.93 23:-0.98104 24:-1 
10 1:-0.48859 2:1 3:-0.93164 4:-0.67969 5:-0.41667 6:0.09333 7:1 8:-0.45078 9:0.66667 10:0.5 11:0.19 12:1 13:-0.7496 14:-1 15:-0.88 16:-0.04762 17:0.00952 18:-1 19:-1 20:-1 21:-1 22:-0.89 23:-0.98286 24:-1 
10 1:-0.11503 2:1 3:-0.02344 4:-0.44922 5:0.20758 6:0.34286 7:0.43302 8:0.63439 9:-0.5 10:0.5 11:0.5 12:-0.57509 13:-0.99816 14:-1 15:-0.88571 16:-0.0329 17:-0.79836 18:-1 19:-1 20:-1 21:-1 22:-0.92 23:-0.99448 24:-1 
10 1:-0.4535 2:0.99994 3:-0.65234 4:-0.74805 5:0.18667 6:0.43333 7:0.75977 8:0.37305 9:-0.25 10:0.385 11:0.5 12:-0.25541 13:-0.96972 14:-1 15:-0.83333 16:-0.10476 17:-0.62143 18:-1 19:-1 20:-1 21:-0.8 22:-0.91 23:-0.9875 24:-1 
10 1:-0.15404 2:0.9999 3:-0.02344 4:-0.64062 5:0.27719 6:0.02222 7:0.70444 8:0.08236 9:-0.58333 10:0.5 11:0.24167 12:-0.63984 13:-0.74947 14:-1 15:-0.9 16:-0.02256 17:-0.83924 18:-1 19:-1 20:-1 21:-1 22:-0.99 23:-0.9952 24:-1 
10 1:-0.27133 2:1 3:-0.64258 4:-0.7207 5:-0.2375 6:-0.40417 7:1 8:1 10:0.33125 11:-0.17812 12:1 13:-0.85556 14:-1 15:-0.9375 16:-0.11429 17:-0.44643 18:-1 19:-1 20:-0.8 21:-1 22:-0.75 23:-0.99375 24:-1 
10 1:-0.42254 2:0.97558 3:-0.4707 4:-0.86523 5:0.29048 6:0.15 7:0.6184 8:1 9:-0.55556 10:0.38929 11:0.1125 12:-0.84984 13:-0.74816 14:-1 15:-0.9 16:-0.20816 17:-0.87513 18:-0.6 19:-1 20:-1 21:-1 22:-0.93 23:-0.99556 24:-1 
10 1:-0.34694 2:1 3:-0.76562 4:-0.60352 5:-0.2 6:-0.03333 7:-0.03164 8:-0.14146 9:0.2 10:0.19 11:0.20714 12:1 13:0.2136 14:-0.84 15:-0.81429 16:0.49714 17:-0.51905 18:-1 19:-1 20:-0.8 21:-1 22:-0.87 23:-0.965 24:-1 
10 1:-0.42254 2:1 3:-0.76172 4:-0.75 5:-0.18667 6:0.06667 7:1 8:1 9:0.14286 10:0.345 11:0.30625 12:0.20071 13:-0.96222 14:-1 15:-0.875 16:0.08571 17:-0.58095 18:-0.8 19:-1 20:-1 21:-1 22:-0.88 23:-0.98889 24:-1 
10 1:-0.71127 2:1 3:-1 4:-0.79492 5:-1 6:0.16667 7:-1 8:1 9:1 10:-1 11:-0.01667 12:0.81567 13:-0.98889 14:-1 15:-0.8 16:-1 17:-0.10476 18:-1 19:-1 20:-1 21:-1 22:-0.76 23:-0.96 24:-1 
10 1:-0.71127 2:1 3:-1 4:-0.78125 5:-1 6:0.24444 7:-1 8:1 9:1 10:-1 11:-0.01667 12:0.81567 13:-0.98889 14:-1 15:-0.8 16:-1 17:-0.08571 18:-1 19:-0.8 20:-1 21:-1 22:-0.75 23:-0.96 24:-1 
10 1:-0.3698 2:1 3:-0.68164 4:-0.72852 5:-0.09444 6:-0.07333 7:0.26484 8:-0.16953 9:-0.11111 10:-0.01667 11:0.19 12:0.53245 13:-0.9971 14:-1 15:-0.86 16:-0.1619 17:-0.50476 18:-1 19:-1 20:-1 21:-1 22:-0.9 23:-0.98727 24:-1 
10 1:-0.11503 2:1 3:-0.02344 4:-0.56641 5:0.19048 6:-0.075 7:0.97557 8:0.63557 9:-0.53846 10:0.4631 11:0.23125 12:-0.01023 13:-0.97603 14:-0.99048 15:-0.8125 16:0.28073 17:-0.70772 18:-0.8 19:-1 20:-1 21:-1 22:-0.97 23:-0.98828 24:-1 
10 1:0.07604 2:1 3:-0.02344 4:-0.02344 5:0.17928 6:-0.06232 7:0.87645 8:0.32243 9:-0.24528 10:0.31149 11:0.1163 12:1 13:-0.97417 14:-0.98649 15:-0.9 16:-0.00489 17:-0.61365 18:-1 19:-0.8 20:-1 21:-1 22:-0.89 23:-0.99067 24:-1 
10 1:-0.28829 2:0.99613 3:-0.22852 4:-0.77148 5:0.09722 6:0.3 7:1 8:-0.26497 9:-0.57143 10:0.29792 11:0.5 12:-0.92544 13:-0.8375 14:-1 15:-0.9 16:0.07143 17:-0.67492 18:-1 19:-1 20:-1 21:-1 22:-0.97 23:-0.996 24:-1 
10 1:-0.02403 2:1 3:-0.02344 4:-0.34375 5:0.20556 6:0.01818 7:0.40891 8:-0.29531 9:-0.48718 10:0.47417 11:0.00682 12:0.21502 13:-0.99629 14:-0.99 15:-0.81818 16:-0.12635 17:-0.7547 18:-1 19:-1 20:-1 21:-1 22:-0.93 23:-0.98878 24:-1 
10 1:0.00044 2:1 3:-0.02344 4:-0.11133 5:0.34 6:0.01111 7:0.25791 8:1 9:-0.36364 10:0.5 11:0.07333 12:1 13:-0.99836 14:-0.99333 15:-0.74 16:0.10222 17:-0.59746 18:-1 19:-1 20:-0.8 21:-0.8 22:-0.77 23:-0.98178 24:-1 
10 1:-0.28829 2:1 3:-1 4:-0.37109 5:-1 6:-0.28444 7:-1 8:0.40192 9:1 10:-1 11:-0.03667 12:1 13:-0.95551 14:-1 15:-0.94 16:-1 17:-0.09079 18:-1 19:-1 20:-1 21:-1 22:-0.93 23:-0.988 24:-1 
10 1:-0.63567 2:0.99921 3:-0.90039 4:-0.88086 5:-0.15 6:0.01667 7:1 8:0.89062 10:0.5 11:0.375 12:-0.32831 13:-0.98 14:-1 15:-0.85 16:-0.3619 17:-0.57143 18:-1 19:-1 20:-1 21:-1 22:-0.33 23:-0.985 24:-1 
10 1:-0.63567 2:1 3:-1 4:-0.77344 5:-1 6:-0.03333 7:-1 8:1 9:1 10:-1 11:0.30625 12:1 13:-0.98 14:-1 15:-0.925 16:-1 17:-0.28095 18:-0.4 19:-1 20:-1 21:-1 22:-0.77 23:-0.985 24:-1 
10 1:-0.48859 2:0.99687 3:-0.68359 4:-0.83203 5:0.35 6:-0.04444 7:0.48486 8:-0.92383 9:-0.33333 10:0.5 11:0.5 12:-0.12934 13:-0.99889 14:-1 15:-0.93333 16:-0.15714 17:-0.24082 18:-1 19:-1 20:-1 21:-1 22:-0.83 23:-0.99429 24:-1 
10 1:-0.14373 2:1 3:-0.02344 4:-0.61719 5:0.28889 6:-0.18333 7:0.51562 8:0.58691 9:-0.47826 10:0.41389 11:-0.11875 12:0.37367 13:-0.48914 14:-1 15:-0.75 16:0.25714 17:-0.65275 18:-1 19:-1 20:-1 21:-1 22:-0.83 23:-0.98462 24:-1 
10 1:-0.17595 2:0.99999 3:-0.02344 4:-0.63672 5:0.17255 6:0.03333 7:0.35109 8:1 9:-0.52381 10:0.45441 11:0.5 12:-0.40853 13:-0.93062 14:-0.98235 15:-0.9 16:-0.03641 17:-0.68447 18:-1 19:-1 20:-1 21:-1 22:-0.87 23:-0.99217 24:-1 
10 1:-0.5291 2:1 3:-1 4:-0.53125 5:-1 6:0.33333 7:-1 8:1 9:1 10:-1 11:0.37083 12:1 13:-0.9896 14:-1 15:-0.8 16:-1 17:-0.12381 18:0.6 19:-0.4 20:-1 21:-1 22:-0.45 23:-0.96 24:-1 
10 1:0.03843 2:1 3:-0.02344 4:-0.13672 5:0.20342 6:0.13333 7:0.83181 8:0.20252 9:-0.55102 10:0.48013 11:0.32115 12:-0.01826 13:-0.98679 14:-0.99487 15:-0.91538 16:0.13944 17:-0.69158 18:-1 19:-1 20:-0.8 21:-1 22:-0.87 23:-0.995 24:-1 
10 1:-0.28829 2:1 3:-0.36133 4:-0.70703 5:0.09 7:0.27537 8:0.64687 9:-0.33333 10:0.2675 11:0.075 12:0.0201 13:-0.99639 14:-1 15:-0.86 16:-0.27429 17:-0.76381 18:-1 19:-1 20:-1 21:-1 22:-0.88 23:-0.99067 24:-1 
10 1:-0.4535 2:0.99994 3:-0.70898 4:-0.75 5:-0.00667 6:0.42222 7:0.69277 8:-0.96289 9:-0.25 10:0.325 11:0.5 12:-0.25541 13:-0.9575 14:-1 15:-0.9 16:0.26095 17:-0.48571 18:-0.8 19:-1 20:-1 21:-1 22:-0.82 23:-0.9925 24:-1 
10 1:-0.06561 2:1 3:-1 4:-0.02344 5:-1 6:-0.16286 7:-1 8:-0.02553 9:1 10:-1 11:0.12071 12:1 13:-0.9851 14:-1 15:-0.87429 16:-1 17:0.25932 18:-1 19:-0.6 20:-1 21:-1 22:-0.47 23:-0.97486 24:-1 
10 1:-0.3259 2:1 3:-1 4:-0.35547 5:-1 6:-0.15385 7:-1 8:0.04259 9:1 10:-1 11:0.15577 12:1 13:-0.98889 14:-1 15:-0.79231 16:-1 17:0.18388 18:-0.8 19:-1 20:-1 21:-1 22:-0.95 23:-0.95846 24:-1 
10 1:-0.42254 2:1 3:-0.83984 4:-0.61133 5:0.36667 6:-0.05238 7:-0.28809 8:-0.06613 9:0.5 10:0.5 11:0.16786 12:1 13:-0.39 14:-1 15:-0.9 16:-0.55238 17:-0.19788 18:-1 19:-0.4 20:-1 21:-1 22:-0.55 23:-0.98444 24:-1 
10 1:0.02282 2:1 3:-0.02344 4:-0.04297 5:-0.0716 6:-0.25758 7:0.39547 8:0.81862 9:-0.19048 10:-0.10278 11:-0.22386 12:1 13:-0.99351 14:-0.98889 15:-0.91818 16:0.07795 17:-0.58017 18:-1 19:-1 20:-0.8 21:-1 22:-0.65 23:-0.99143 24:-1 
10 1:-0.5291 2:1 3:-1 4:-0.69727 5:-1 6:-0.13889 7:-1 8:1 9:1 10:-1 11:0.37083 12:1 13:-0.98 14:-1 15:-0.91667 16:-1 17:0.14921 18:-1 19:-1 20:-1 21:-1 22:-0.69 23:-0.98333 24:-1 
10 1:-0.27133 2:1 3:-1 4:-0.35938 5:-1 6:-0.31667 7:-1 8:0.84346 9:1 10:-1 11:0.20938 12:1 13:-0.94408 14:-1 15:-0.875 16:-1 17:0.09762 18:-1 19:-0.6 20:-1 21:-1 22:-0.63 23:-0.975 24:-1 
10 1:-0.30642 2:0.99998 3:-0.34961 4:-0.71289 5:0.11 6:0.225 7:0.85799 8:-0.70785 9:-0.42857 10:0.5 11:0.1125 12:-0.42974 13:-0.99 14:-0.99 15:-0.775 16:0.17714 17:-0.53605 18:-1 19:-1 20:-1 21:-1 22:-0.92 23:-0.98571 24:-1 
10 1:-0.2554 2:1 3:-0.26953 4:-0.68359 5:0.13333 6:-0.1 7:-0.08697 8:1 9:-0.29412 10:0.42955 11:0.37083 12:0.35126 13:-0.74938 14:-1 15:-0.88333 16:0.11515 17:-0.65154 18:-0.6 19:-1 20:-1 21:-1 22:-0.76 23:-0.99176 24:-1 
10 1:-0.18764 2:1 3:-0.25977 4:-0.31836 5:0.05278 6:0.16333 7:0.65341 8:-0.80069 9:-0.09091 10:-0.15833 11:0.0575 12:1 13:-0.96748 14:-0.75833 15:-0.75 16:-0.14286 17:-0.78701 18:-1 19:-1 20:-1 21:-1 22:-0.45 23:-0.95091 24:-1 
10 1:-0.21269 2:1 3:-0.29102 4:-0.63281 5:-0.13571 6:0.04444 7:0.5543 8:0.66719 9:-0.29412 10:-0.16786 11:-0.15417 12:-0.0325 13:-0.94516 14:-1 15:-0.86667 16:-0.0966 17:-0.68 18:-0.6 19:-0.8 20:-1 21:-1 22:-0.83 23:-0.992 24:-1 
10 1:-0.42254 2:1 3:-0.66602 4:-0.72461 5:0.14 6:0.175 7:1 8:-0.42399 10:0.5 11:0.30625 12:0.20071 13:1 14:-0.98 15:-0.9 16:-0.1581 17:-0.80741 18:-1 19:-0.8 20:-1 21:-1 22:-0.97 23:-0.98889 24:-1 
10 1:0.20229 2:1 3:-0.02344 4:-0.02344 5:-0.06742 6:-0.03396 7:0.82082 8:0.69983 9:0.10345 10:-0.00114 11:-0.04434 12:1 13:-0.97089 14:-0.86136 15:-0.77547 16:-0.08961 17:-0.52499 18:-1 19:-1 20:-1 21:-1 22:-0.9 23:-0.96289 24:-1 
10 1:-0.48859 2:0.99998 3:-0.78516 4:-0.78711 5:-0.08333 6:0.21111 7:-0.47868 8:-0.76302 10:0.30625 11:0.5 12:-0.12934 13:-0.51 14:-1 15:-0.9 16:0.54762 17:-0.82585 18:-0.8 19:-1 20:-1 21:-1 22:-0.75 23:-0.99143 24:-1 
10 1:-0.0177 2:1 3:-0.02344 4:-0.18945 5:0.03733 6:-0.18627 7:0.34628 8:0.43397 9:-0.24324 10:0.19 11:-0.08235 12:1 13:-0.99778 14:-0.996 15:-0.91176 16:0.11848 17:-0.65125 18:-1 19:-1 20:-1 21:-1 22:-0.53 23:-0.99238 24:-1 
10 1:-0.15404 2:1 3:-0.4668 4:-0.24414 5:0.1375 6:-0.24118 7:0.8864 8:0.84559 9:0.26316 10:-0.08125 11:-0.11618 12:1 13:-0.99249 14:-1 15:-0.92941 16:0.14524 17:-0.29067 18:-0.8 19:-1 20:-1 21:-1 22:-0.73 23:-0.9904 24:-1 
10 1:-0.15404 2:0.99995 3:-0.02344 4:-0.66016 5:0.11579 6:-0.03333 7:0.41468 8:0.2334 9:-0.56522 10:0.11711 11:0.37083 12:-0.63984 13:-0.99291 14:-0.98421 15:-0.9 16:-0.14787 17:-0.76914 18:-1 19:-1 20:-1 21:-1 22:-0.92 23:-0.9928 24:-1 
10 1:-0.4535 2:1 3:-0.72852 4:-0.75 5:0.15833 6:0.06667 7:0.92367 8:0.15283 10:-0.08125 11:0.1125 12:0.32885 13:-0.9864 14:-1 15:-0.875 16:-0.00476 17:-0.76905 18:-1 19:-1 20:-1 21:-1 22:-0.69 23:-0.9875 24:-1 
10 1:-0.044 2:1 3:-0.10352 4:-0.09961 5:-0.15 6:-0.23167 7:0.83055 8:0.02179 9:0.03448 10:0.28472 11:0.07375 12:1 13:-0.99444 14:-0.99444 15:-0.92 16:-0.18519 17:-0.70927 18:-1 19:-0.8 20:-1 21:-1 22:-0.29 23:-0.99105 24:-1 
10 1:-0.19986 2:0.99939 3:-0.13867 4:-0.70312 5:-0.08125 6:0.01333 7:0.6246 8:-0.41309 9:-0.57895 10:0.06406 11:-0.18 12:-0.70066 13:-0.9975 14:-1 15:-0.92 16:-0.23929 17:-0.68707 18:-1 19:-1 20:-1 21:-1 22:-0.77 23:-0.99619 24:-1 
10 1:-0.57702 2:0.99963 3:-0.91992 4:-0.86133 5:-0.31667 6:-0.21111 7:-0.97559 8:-0.55208 9:0.33333 10:0.1125 11:-0.375 12:0.12615 13:-0.98889 14:-1 15:-0.93333 16:-0.38095 17:-0.68762 18:-1 19:-0.4 20:-1 21:-1 22:-0.75 23:-0.992 24:-1 
10 1:-0.30642 2:1 3:-0.58594 4:-0.63281 5:0.00952 6:-0.10476 7:0.1131 8:0.16202 10:-0.17857 11:-0.31786 12:1 13:-0.9739 14:-0.98571 15:-0.91429 16:-0.34694 17:-0.69116 18:-1 19:-1 20:-1 21:-1 22:-0.77 23:-0.99 24:-1 
10 1:0.22561 2:1 3:-0.02344 4:-0.02344 5:-0.04872 6:-0.01667 7:0.57598 8:0.4195 9:-0.01099 10:0.175 11:-0.03241 12:1 13:-0.99226 14:-0.99231 15:-0.82593 16:-0.00586 17:-0.49039 18:-1 19:-1 20:-0.6 21:-1 22:-0.72 23:-0.98151 24:-1 
10 1:-0.34694 2:1 3:-1 4:-0.37891 5:-1 6:-0.11667 7:-1 8:-0.26475 9:1 10:-1 11:0.04792 12:1 13:-0.98988 14:-1 15:-0.90833 16:-1 17:0.04921 18:-1 19:-1 20:-1 21:-1 22:-0.67 23:-0.98167 24:-1 
10 1:0.13817 2:1 3:-0.99219 4:-0.02344 5:-0.93333 6:-0.10856 7:1 8:0.38226 9:1 10:-0.275 11:-0.13345 12:1 13:-0.74714 14:-0.9 15:-0.82568 16:0.00952 17:0.07018 18:-1 19:-1 20:-1 21:-0.6 22:-0.73 23:-0.96553 24:-1 
10 1:-0.30642 2:1 3:-0.70508 4:-0.64258 5:0.00667 6:-0.32222 7:-0.51895 8:1 9:0.2 10:0.345 11:0.03611 12:1 13:-0.80972 14:-1 15:-0.85556 16:-0.13143 17:-0.21224 18:-0.8 19:-1 20:-1 21:-1 22:-0.69 23:-0.98143 24:-1 
10 1:-0.48859 2:1 3:-1 4:-0.69141 5:-1 6:-0.24762 7:-1 8:0.48093 9:1 10:-1 11:0.05714 12:1 13:-0.9864 14:-1 15:-0.92857 16:-1 17:0.1102 18:-1 19:-0.6 20:-1 21:-1 22:-0.89 23:-0.98571 24:-1 
10 1:-0.34694 2:1 3:-0.71875 4:-0.56641 5:0.2 6:-0.075 7:0.63607 8:-0.78125 9:0.27273 10:-0.03125 11:-0.3125 12:1 13:-0.85556 14:-1 15:-0.9125 16:-0.05714 17:-0.30159 18:-1 19:-0.8 20:-1 21:-1 22:-0.85 23:-0.98833 24:-1 
10 1:-0.39485 2:1 3:-0.75391 4:-0.68359 5:-0.16 6:0.08 7:1 8:0.03184 9:0.11111 10:0.035 11:0.285 12:0.66078 13:-0.99516 14:-0.98 15:-0.9 16:-0.04762 17:-0.79429 18:-0.8 19:-0.8 20:-1 21:-1 22:-0.66 23:-0.988 24:-1 
10 1:0.10109 2:1 3:-0.02344 4:-0.02344 5:-0.02473 6:-0.20667 7:0.70335 8:0.53196 9:0.03571 10:0.04516 11:0.015 12:1 13:-0.99908 14:-0.96129 15:-0.90571 16:0.01382 17:-0.4632 18:-0.8 19:-0.4 20:-1 21:-1 22:-0.48 23:-0.98636 24:-1 
10 1:0.00044 2:1 3:-0.13281 4:-0.02344 5:-0.32727 6:-0.23913 7:0.65972 8:0.50567 9:0.1875 10:-0.13409 11:-0.22609 12:1 13:-0.95521 14:-0.98636 15:-0.9087 16:0.17749 17:-0.52212 18:-0.6 19:-1 20:-1 21:-1 22:-0.39 23:-0.98933 24:-0.95652 
10 1:-0.57702 2:0.99963 3:-0.91992 4:-0.88086 5:-0.54444 6:0.01667 7:1 8:1 9:0.33333 10:0.24167 11:0.1125 12:-0.4508 13:-0.98889 14:-0.96667 15:-0.9 16:-0.2127 17:-0.62667 18:-1 19:-1 20:-0.4 21:-1 22:-0.5 23:-0.988 24:-1 
10 1:-0.71127 2:1 3:-1 4:-0.78711 5:-1 6:0.21111 7:-1 8:-0.54232 9:1 10:-1 11:-0.01667 12:0.81567 13:-0.98889 14:-1 15:-0.9 16:-1 17:-0.11111 18:-0.8 19:-1 20:-1 21:-0.8 22:-0.9 23:-0.98 24:-1 
10 1:-0.24038 2:1 3:-0.35938 4:-0.70117 5:-0.08889 6:-0.15 7:0.24555 8:0.41829 9:-0.33333 10:0.17708 11:-0.14583 12:0.22309 13:-0.91778 14:-1 15:-0.91667 16:0.09683 17:-0.66878 18:-1 19:-1 20:-1 21:-1 22:-0.87 23:-0.99444 24:-1 
10 1:-0.10612 2:1 3:-0.32227 4:-0.375 5:-0.11026 6:-0.37255 7:1 8:1 9:-0.18182 10:-0.15577 11:-0.16176 12:1 13:-0.98395 14:-1 15:-0.94118 16:-0.14579 17:-0.5219 18:-0.8 19:-0.8 20:-1 21:-1 22:-0.73 23:-0.99333 24:-1 
10 1:-0.19986 2:1 3:-0.35742 4:-0.60352 5:-0.15641 6:-0.15417 7:0.8104 8:0.78683 9:-0.22222 10:-0.24038 11:-0.275 12:1 13:-0.98327 14:-0.99231 15:-0.9 16:0.07399 17:-0.50295 18:-0.8 19:-1 20:-1 21:-1 22:-0.72 23:-0.99143 24:-1 
10 1:-0.08916 2:1 3:-0.02344 4:-0.5625 5:0.0873 6:-0.32121 7:0.33896 8:-0.14538 9:-0.40741 10:0.31548 11:0.07727 12:1 13:-0.97528 14:-0.98571 15:-0.90909 16:0.16916 17:-0.78274 18:-1 19:-1 20:-1 21:-1 22:-0.88 23:-0.99188 24:-1 
10 1:0.05791 2:1 3:-0.02344 4:-0.02344 5:0.06847 6:-0.11579 7:0.6248 8:0.54392 9:-0.375 10:0.09122 11:-0.08421 12:1 13:-0.99331 14:-0.98378 15:-0.88947 16:-0.05019 17:-0.69932 18:-0.4 19:-0.2 20:-1 21:-1 22:-0.69 23:-0.99036 24:-1 
10 1:0.0174 2:1 3:-0.02344 4:-0.0293 5:-0.02333 6:-0.07963 7:0.69603 8:0.07238 9:-0.35 10:0.13833 11:-0.23889 12:1 13:-0.98595 14:-1 15:-0.85 16:0.06476 17:-0.54762 18:-0.8 19:-0.8 20:-1 21:-1 22:-0.43 23:-0.98875 24:-1 
10 1:0.27722 2:1 3:-0.02344 4:-0.02344 5:0.10547 6:-0.09731 7:0.72319 8:0.67379 9:-0.07438 10:0.13843 11:0.02742 12:1 13:-0.99958 14:-0.90896 15:-0.75 16:-0.17356 17:-0.58671 18:-1 19:-1 20:-1 21:-1 22:-0.75 23:-0.96651 24:-1 
10 1:-0.4535 2:1 3:-0.83203 4:-0.65234 5:-0.04444 6:0.18667 7:-0.70833 8:-0.61191 9:0.25 10:0.24167 11:-0.14 12:0.91754 13:-0.99849 14:-0.96667 15:-0.8 16:-0.04127 17:-0.41905 18:-1 19:-1 20:-1 21:-1 22:-0.81 23:-0.9725 24:-1 
10 1:-0.3698 2:1 3:-1 4:-0.43359 5:-1 6:-0.12121 7:-1 8:0.80352 9:1 10:-1 11:-0.20455 12:1 13:-0.9416 14:-1 15:-0.87273 16:-1 17:0.10476 18:-1 19:-1 20:-1 21:-1 22:-0.78 23:-0.97455 24:-1 
10 1:-0.30642 2:1 3:-0.5 4:-0.64648 5:-0.05185 6:0.20667 7:0.30295 8:-0.21641 9:-0.23077 10:0.06944 11:-0.12 12:0.14789 13:-0.9371 14:-0.97778 15:-0.9 16:-0.01164 17:-0.55238 18:-1 19:-0.2 20:-1 21:-1 22:-0.73 23:-0.99 24:-1 
10 1:-0.05101 2:1 3:-0.02344 4:-0.02344 5:0.06316 6:-0.05926 7:-0.21602 8:-0.65476 10:-0.10921 11:-0.21111 12:1 13:-0.99454 14:-0.84211 15:-0.80556 16:-0.53885 17:-0.22111 18:-1 19:-1 20:-1 21:-1 22:-0.46 23:-0.96486 24:-1 
10 1:-0.07323 2:1 3:-0.02344 4:-0.31641 5:0.03968 6:-0.10256 7:-0.11986 8:-0.47546 9:-0.25 10:-0.0881 11:-0.24615 12:1 13:-0.95802 14:-0.8619 15:-0.75385 16:-0.45397 17:-0.39048 18:-1 19:-0.8 20:-0.8 21:-1 22:-0.46 23:-0.96412 24:-1 
10 1:-0.21269 2:1 3:-1 4:-0.20117 5:-1 6:-0.31833 7:-1 8:0.26523 9:1 10:-1 11:-0.0425 12:1 13:-0.9275 14:-1 15:-0.935 16:-1 17:0.01524 18:-1 19:-1 20:-1 21:-1 22:-0.61 23:-0.987 24:-1 
10 1:0.08466 2:1 3:-1 4:-0.02344 5:-1 6:-0.1086 7:-1 8:0.52052 9:1 10:-1 11:-0.2879 12:1 13:-0.98998 14:-1 15:-0.79032 16:-1 17:-0.12934 18:-1 19:-0.8 20:-1 21:-1 22:-0.81 23:-0.95806 24:-1 
10 1:-0.3698 2:1 3:-0.58398 4:-0.76367 5:0.01429 6:0.00833 7:0.20247 8:0.98047 9:-0.2 10:0.05714 11:0.1125 12:-0.05475 13:-0.63 14:-0.95714 15:-0.9 16:0.00952 17:-0.57749 18:-1 19:-0.4 20:-0.8 21:-1 22:-0.65 23:-0.98727 24:-1 
10 1:-0.27133 2:1 3:-0.32812 4:-0.61914 5:0.04242 6:0.3 7:0.59261 8:-0.71348 9:-0.33333 10:0.00682 11:0.19 12:-0.10718 13:-0.99738 14:-0.99091 15:-0.88 16:-0.29004 17:-0.85595 18:-0.8 19:-1 20:-1 21:-1 22:-0.85 23:-0.99125 24:-1 
10 1:0.19122 2:1 3:-0.02344 4:-0.02344 5:-0.06264 6:0.1981 7:0.69902 8:0.10955 9:-0.21839 10:0.15603 11:-0.04714 12:1 13:-0.99947 14:-0.98966 15:-0.77714 16:0.05846 17:-0.5701 18:-0.6 19:-0.6 20:-1 21:-1 22:-0.69 23:-0.98194 24:-1 
10 1:0.08466 2:1 3:-0.02344 4:-0.02344 5:0.01802 6:-0.052 7:0.312 8:1 9:-0.16981 10:0.15676 11:-0.02 12:1 13:-0.99845 14:-0.98919 15:-0.824 16:0.17941 17:-0.58341 18:-1 19:-0.4 20:-1 21:-1 22:-0.75 23:-0.98452 24:-1 
6.878938070709805 1:0.04344 2:1 3:-0.02344 4:-0.02344 5:-0.18846 6:-0.10988 7:0.90468 8:0.62595 10:-0.06635 11:-0.10278 12:1 13:-0.97852 14:-0.91923 15:-0.91111 16:0.1685 17:-0.43612 18:-0.8 19:-1 20:-1 21:-1 22:-0.93 23:-0.98302 24:-1 
10 1:-0.19986 2:1 3:-0.37891 4:-0.51172 5:0.06 6:-0.24242 7:0.57563 8:0.54432 9:-0.11111 10:-0.0425 11:0.07727 12:1 13:-0.99938 14:-1 15:-0.91818 16:-0.22857 17:-0.46213 18:-1 19:-1 20:-1 21:-1 22:-0.69 23:-0.99143 24:-1 
10 1:0.0174 2:1 3:-0.02344 4:-0.23633 5:-0.12828 6:-0.13111 7:1 8:1 9:-0.33333 10:-0.0197 11:-0.18167 12:1 13:-0.9997 14:-0.97273 15:-0.74 16:-0.07071 17:-0.70238 18:-1 19:-1 20:-1 21:-1 22:-0.85 23:-0.98 24:-1 
10 1:-0.24038 2:1 3:-0.43945 4:-0.61523 5:-0.1303 6:-0.0619 7:0.51488 8:0.53413 9:-0.06667 10:0.14773 11:-0.13929 12:0.81156 13:-0.9949 14:-1 15:-0.75714 16:-0.18615 17:-0.48995 18:-0.6 19:-0.8 20:-1 21:-1 22:-0.67 23:-0.98111 24:-1 
10 1:-0.02403 2:1 3:-0.17383 4:-0.02344 5:-0.295 6:-0.18413 7:0.6598 8:0.31131 9:0.11111 10:0.07375 11:-0.17857 12:1 13:-0.90478 14:-0.975 15:-0.92381 16:-0.21619 17:-0.52102 18:-0.8 19:-1 20:-1 21:-1 22:-0.69 23:-0.98976 24:-1 
10 1:-0.30642 2:1 3:-0.6543 4:-0.60547 5:-0.01667 6:-0.15833 7:0.50156 8:0.16406 9:0.07692 10:-0.06667 11:-0.11875 12:1 13:-0.81111 14:-0.95 15:-0.9 16:0.21905 17:-0.37415 18:-0.8 19:-0.8 20:-1 21:-1 22:-0.63 23:-0.98429 24:-1 
10 1:-0.42254 2:1 3:-0.66211 4:-0.72266 5:0.15333 6:0.18333 7:0.83828 8:0.8182 9:-0.11111 10:0.035 11:-0.08125 12:0.20071 13:-0.96222 14:-1 15:-0.9 16:-0.31048 17:-0.58307 18:-1 19:-0.4 20:-1 21:-1 22:-0.65 23:-0.99111 24:-1 
10 1:0.093 2:1 3:-0.02344 4:-0.02344 5:0.13577 6:-0.11739 7:0.63225 8:0.2726 9:-0.28571 10:0.22805 11:0.02391 12:1 13:-0.98445 14:-0.99268 15:-0.9087 16:-0.02485 17:-0.6381 18:-1 19:-0.6 20:-1 21:-1 22:-0.76 23:-0.9925 24:-1 
10 1:0.08466 2:1 3:-0.02344 4:-0.02344 5:0.12 6:-0.13086 7:0.5599 8:0.70575 9:-0.12727 10:0.36714 11:-0.04722 12:1 13:-0.96969 14:-0.99714 15:-0.74815 16:-0.03728 17:-0.54347 18:-1 19:-0.8 20:-1 21:-1 22:-0.93 23:-0.97774 24:-1 
10 1:0.15165 2:1 3:-0.02344 4:-0.02344 5:0.15854 6:-0.0547 7:0.59014 8:0.66326 9:-0.0137 10:0.22134 11:0.02051 12:1 13:-0.98756 14:-0.99024 15:-0.77949 16:-0.00952 17:-0.49214 18:-0.8 19:-1 20:-1 21:-1 22:-0.96 23:-0.9775 24:-1 
10 1:0.00621 2:1 3:-0.93945 4:-0.02344 5:0.03333 6:0.12222 7:-1 8:0.63429 9:0.95455 10:-0.275 11:0.25889 12:1 13:-0.9016 15:-0.89333 16:0.29524 17:-0.28199 18:-1 19:-0.8 20:-1 21:-1 22:-0.91 23:-0.97478 24:-0.95745 
10 1:-0.10612 2:1 3:-0.73242 4:-0.02539 5:-0.34762 6:-0.27681 7:1 8:0.12451 9:0.52381 10:-0.16429 11:-0.03913 12:1 13:-0.46837 14:-1 15:-0.92609 16:-0.05034 17:-0.23683 18:-0.8 19:0.2 20:-1 21:-1 22:-0.28 23:-0.98867 24:-1 
10 1:-0.24038 2:1 3:-0.54492 4:-0.33203 5:0.10952 6:0.03636 7:0.34366 8:-0.17145 9:0.29412 10:0.27857 11:-0.02955 12:1 13:-0.948 14:-0.97143 15:-0.78182 16:0.36054 17:-0.20529 18:-1 19:-1 20:-1 21:-1 22:-0.88 23:-0.97111 24:-1 
10 1:0.05791 2:1 3:-0.02344 4:-0.02344 5:-0.09062 6:-0.1625 7:0.6597 8:0.10915 9:-0.09091 10:0.03984 11:-0.16042 12:1 13:-0.97637 14:-1 15:-0.90417 16:-0.04583 17:-0.6068 18:-1 19:-1 20:-1 21:-1 22:-0.81 23:-0.99179 24:-1 
10 1:0.31155 2:1 3:-0.02344 4:-0.02344 5:0.08 6:-0.00215 7:0.54058 8:0.62821 9:-0.18841 10:0.345 11:0.16129 12:1 13:-0.99886 14:-0.99294 15:-0.79839 16:-0.01983 17:-0.62954 18:-1 19:-1 20:-1 21:-1 22:-0.88 23:-0.98218 24:-1 
10 1:-0.24038 2:0.99998 3:-0.27539 4:-0.78125 5:0.03056 6:-0.37778 7:-0.04423 8:-0.16191 9:-0.42857 10:0.30625 11:0.1125 12:0.22309 13:-0.9875 14:-1 15:-0.93333 16:-0.33175 17:-0.75556 18:-0.8 19:-1 20:-1 21:-1 22:-0.93 23:-0.99556 24:-1 
10 1:0.20229 2:1 3:-0.02344 4:-0.02344 5:0.16 6:-0.11346 7:0.72209 8:0.47691 9:0.01205 10:0.12111 11:-0.0351 12:1 13:-0.99638 14:-0.92889 15:-0.85769 16:0.01333 17:-0.48238 18:-0.8 19:-1 20:-1 21:-1 22:-0.74 23:-0.97814 24:-1 
10 1:-0.05821 2:1 3:-0.24023 4:-0.39844 5:-0.38254 6:-0.31556 7:0.51438 8:1 9:-0.28571 10:0.04286 11:-0.08833 12:1 13:-0.99637 14:-0.99048 15:-0.93333 16:-0.15283 17:-0.6455 18:-0.2 19:-1 20:-1 21:-1 22:-0.18 23:-0.99333 24:-1 
10 1:-0.11503 2:1 3:-0.375 4:-0.22266 5:0.06667 6:-0.30175 7:-0.07431 8:1 9:0.21739 10:0.0825 11:-0.07105 12:1 13:-0.99566 14:-0.99 15:-0.91579 16:-0.34857 17:-0.40558 18:-1 19:-0.8 20:-1 21:-1 22:-0.87 23:-0.98828 24:-1 
10 1:-0.5291 2:0.99843 3:-0.83008 4:-0.875 5:-0.03333 6:-0.28889 7:-0.75781 8:0.87565 9:-0.2 10:-0.275 11:-0.375 12:-0.00218 13:-0.99778 14:-1 15:-0.86667 16:0.58095 17:-0.3746 18:-1 19:-0.4 20:-1 21:-1 22:-0.75 23:-0.98667 24:-1 
10 1:-0.34694 2:1 3:-1 4:-0.32422 5:-1 6:-0.03889 7:-1 8:0.10316 9:1 10:-1 11:-0.10833 12:1 13:-0.96222 14:-1 15:-0.725 16:-1 17:-0.22857 18:-1 19:-1 20:-1 21:-1 22:-0.91 23:-0.945 24:-1 
10 1:0.21806 2:1 3:-0.02344 4:-0.02344 5:0.12614 6:-0.17885 7:0.53566 8:0.84787 9:-0.03371 10:0.24167 11:0.07981 12:1 13:-0.99925 14:-0.99804 15:-0.89423 16:-0.0099 17:-0.55691 18:-1 19:-1 20:-1 21:-1 22:-0.43 23:-0.98913 24:-1 
10 1:0.21029 2:1 3:-0.02344 4:-0.02344 5:0.09851 6:0.01818 7:0.42868 8:0.85255 9:-0.2967 10:0.26866 11:-0.13182 12:1 13:-0.99076 14:-0.99552 15:-0.78485 16:-0.20256 17:-0.69924 18:-0.8 19:-1 20:-1 21:-1 22:-0.88 23:-0.9852 24:-1 
10 1:0.14834 2:1 3:-0.02344 4:-0.02344 5:-0.01491 6:-0.11707 7:0.70528 8:0.40412 9:-0.04225 10:0.10592 11:-0.06098 12:1 13:-0.99049 14:-0.99737 15:-0.90244 16:0.0787 17:-0.45437 18:-1 19:-1 20:-0.8 21:-1 22:-0.87 23:-0.98962 24:-1 
10 1:0.3043 2:1 3:-0.02344 4:-0.02344 5:0.00145 6:-0.09009 7:0.81387 8:0.49719 9:0.01695 10:0.24167 11:0.04932 12:1 13:-0.99526 14:-0.97536 15:-0.88378 16:-0.02333 17:-0.53313 18:-0.8 19:-1 20:-1 21:-1 22:-0.96 23:-0.98559 24:-0.98611 
10 1:0.24008 2:1 3:-0.02344 4:-0.02344 5:0.06351 6:-0.12456 7:0.59171 8:0.75689 9:-0.30612 10:0.13176 11:-0.03026 12:1 13:-0.98907 14:-0.99054 15:-0.90789 16:-0.05225 17:-0.71139 18:-1 19:-0.6 20:-1 21:-1 22:-0.97 23:-0.9925 24:-1 
10 1:0.13817 2:1 3:-0.02344 4:-0.02344 5:-0.02955 6:0.03854 7:0.77309 8:1 9:-0.2 10:0.13011 11:-0.18125 12:1 13:-0.99917 14:-0.99318 15:-0.83125 16:-0.06883 17:-0.55965 18:-0.6 19:-0.4 20:-1 21:-1 22:-0.63 23:-0.985 24:-1 
10 1:-0.18764 2:1 3:-0.66797 4:-0.25 5:-0.29167 6:-0.08571 7:0.86018 8:-0.24287 9:0.26316 10:-0.02187 11:0.00179 12:1 13:-0.99639 14:-0.9875 15:-0.9 16:-0.04524 17:-0.47186 18:-1 19:-1 20:-1 21:-1 22:-0.59 23:-0.98636 24:-1 
10 1:0.19957 2:1 3:-0.02344 4:-0.02344 5:0.11057 6:-0.21091 7:0.63838 8:0.59743 9:0.11905 10:0.19756 11:0.03818 12:1 13:-0.97851 14:-0.99512 15:-0.90364 16:-0.11591 17:-0.5256 18:-0.6 19:-1 20:-1 21:-1 22:-0.87 23:-0.98854 24:-1 
10 1:0.03333 2:1 3:-0.02344 4:-0.02344 5:-0.19167 6:-0.17037 7:0.62398 8:0.18121 9:-0.02564 10:0.30625 11:-0.14815 12:1 13:-0.99768 14:-1 15:-0.8963 16:-0.0246 17:-0.62054 18:-1 19:-1 20:-1 21:-1 22:-0.8 23:-0.98902 24:-1 
10 1:-0.044 2:1 3:-0.02344 4:-0.24023 5:-0.08571 6:-0.23725 7:0.73913 8:0.80322 9:-0.10345 10:0.10476 11:0.04412 12:1 13:-0.9907 14:-0.98571 15:-0.92353 16:-0.00317 17:-0.54837 18:-1 19:-0.2 20:-1 21:-1 22:-0.69 23:-0.99158 24:-1 
10 1:-0.12426 2:1 3:-0.46484 4:-0.32617 5:-0.39111 6:-0.11538 7:0.88064 8:0.33413 9:0.14286 10:0.325 11:-0.10577 12:1 13:-0.92778 14:-0.99333 15:-0.8 16:-0.01333 17:-0.6102 18:-0.8 19:-0.6 20:-1 21:-1 22:-0.63 23:-0.98071 24:-1 
10 1:-0.24038 2:1 3:-1 4:-0.28906 5:-1 6:-0.32593 7:-1 8:0.46628 9:1 10:-1 11:0.1125 12:1 13:-0.91633 14:-1 15:-0.92778 16:-1 17:0.19683 18:-1 19:-0.6 20:-0.8 21:-1 22:-0.87 23:-0.98556 24:-1 
10 1:0.03333 2:1 3:-0.02344 4:-0.21289 5:-0.17733 6:-0.48333 7:-0.14453 8:0.52768 9:-0.10345 10:0.125 11:-0.10096 12:1 13:-0.96862 14:-0.98 15:-0.88077 16:0.05524 17:-0.40205 18:-1 19:-0.8 20:-1 21:-1 22:-0.81 23:-0.98588 24:-1 
10 1:0.11277 2:1 3:-0.02344 4:-0.02344 5:0.09593 6:-0.15833 7:0.4311 8:0.29211 9:-0.32203 10:0.27317 11:0.22321 12:1 13:-0.99884 14:-0.99512 15:-0.92143 16:-0.12799 17:-0.64969 18:-1 19:-1 20:-1 21:-1 22:-0.95 23:-0.99304 24:-1 
10 1:0.23772 2:1 3:-0.02344 4:-0.02344 5:0.07407 6:-0.08655 7:0.77069 8:0.87675 9:-0.0303 10:0.27037 11:0.11404 12:1 13:-0.99999 14:-0.99444 15:-0.91053 16:-0.12804 17:-0.48692 18:-0.4 19:-1 20:-1 21:-0.8 22:-0.88 23:-0.99027 24:-1 
10 1:-0.15404 2:1 3:-0.02344 4:-0.42773 5:0.35641 6:-0.18611 7:-0.02404 8:0.59073 9:-0.13043 10:0.08269 11:-0.17083 12:1 13:-0.93166 14:-0.99231 15:-0.9 16:0.24249 17:-0.53829 18:-0.8 19:-1 20:-1 21:-1 22:-0.33 23:-0.9896 24:-1 
10 1:-0.24038 2:1 3:-1 4:-0.19141 5:-1 6:-0.23333 7:-1 8:0.77142 9:1 10:-1 11:0.06944 12:1 13:-0.95 14:-1 15:-0.9 16:-1 17:-0.03704 18:-0.4 20:-1 21:-1 22:-0.8 23:-0.98 24:-1 
10 1:0.02282 2:1 3:-0.98242 4:-0.02344 5:-0.85 6:-0.26241 7:-0.97559 8:0.4589 9:1 10:-0.275 11:0.05904 12:1 13:-0.73826 14:-0.95 15:-0.90426 16:-0.4381 17:0.07716 18:-1 19:-0.2 20:-1 21:-1 22:-0.48 23:-0.98122 24:-1 
10 1:-0.28829 2:1 3:-1 4:-0.39062 5:-1 6:-0.30667 7:-1 8:-0.12394 9:1 10:-1 11:-0.15833 12:1 13:-0.91889 14:-1 15:-0.92 16:-1 17:0.20762 18:-1 19:-1 20:-1 21:-1 22:-0.75 23:-0.984 24:-1 
10 1:-0.30642 2:0.99805 3:-0.37305 4:-0.79688 5:-0.02727 6:0.15556 7:0.03846 8:0.58398 9:-0.53846 10:0.35909 11:-0.01667 12:-0.87605 13:-0.99826 14:-0.99091 15:-0.9 16:-0.39221 17:-0.75918 18:-1 19:-1 20:-1 21:-1 22:-0.98 23:-0.99429 24:-1 
10 1:-0.09751 2:1 3:-0.43945 4:-0.07422 5:-0.04333 6:-0.24762 7:0.63186 8:0.41281 9:0.28 10:0.055 11:-0.05238 12:1 13:-0.87061 14:-1 15:-0.92381 16:-0.05143 17:-0.39908 18:-1 19:-1 20:-1 21:-1 22:-0.87 23:-0.98968 24:-1 
10 1:-0.5291 2:0.99843 3:-0.81836 4:-0.86914 5:-0.225 6:0.11667 7:-0.66602 8:-0.33984 9:-0.2 10:0.30625 11:-0.425 12:-0.56795 13:-0.98889 14:-1 15:-0.8 16:0.28571 17:-0.88571 18:-1 19:-1 20:-1 21:-1 22:-0.57 23:-0.98667 24:-1 
10 1:-0.19986 2:1 3:-0.04297 4:-0.55469 5:0.16667 6:0.08571 7:0.5717 8:-0.76469 9:-0.3 10:0.22321 11:0.05714 12:0.42659 13:-0.99331 14:-0.98571 15:-0.9 16:0.13061 17:-0.5483 18:-1 19:-1 20:-1 21:-1 22:-0.93 23:-0.99143 24:-1 
10 1:0.12028 2:1 3:-0.02344 4:-0.02344 5:0.1027 6:-0.03627 7:0.70043 8:0.37603 9:-0.04615 10:-0.11419 11:-0.06765 12:1 13:-0.99913 14:-0.84054 15:-0.83235 16:0.22162 17:-0.45889 18:-1 19:-0.6 20:-1 21:-1 22:-0.75 23:-0.96732 24:-1 
10 1:0.29303 2:1 3:-0.02344 4:-0.02344 5:0.04825 6:-0.04098 7:0.69136 8:0.59184 9:-0.12 10:0.07763 11:0.04262 12:1 13:-0.99898 14:-0.98684 15:-0.90164 16:-0.02556 17:-0.54411 18:-0.4 19:-1 20:-1 21:-1 22:-0.69 23:-0.98978 24:-1 
10 1:-0.24038 2:1 3:-0.31445 4:-0.66992 5:-0.025 6:-0.06111 7:0.09948 8:1 9:-0.375 10:0.24167 11:0.00417 12:0.22309 13:-0.99753 14:-0.99167 15:-0.83333 16:-0.31905 17:-0.76085 18:-1 19:-1 20:-1 21:-1 22:-0.99 23:-0.98778 24:-1 
10 1:-0.34694 2:1 3:-0.68359 4:-0.64258 5:-0.22857 6:0.22 7:0.8138 8:-0.61953 9:-0.09091 10:0.05714 11:0.19 12:0.40417 13:-0.9939 14:-1 15:-0.9 16:-0.10476 17:-0.40794 18:-0.8 19:-0.6 20:-1 21:-1 22:-0.78 23:-0.99167 24:-1 
10 1:-0.42254 2:1 3:-0.72656 4:-0.76172 5:-0.06667 6:0.01667 7:1 8:-0.94482 10:-0.12 11:-0.08125 12:0.20071 13:-0.96222 14:-1 15:-0.9 16:0.20762 17:-0.29524 18:-0.8 19:0.2 20:-1 21:-1 22:-0.51 23:-0.99111 24:-1 
10 1:-0.19986 2:1 3:-0.57227 4:-0.41016 5:-0.0875 6:-0.22564 7:0.3825 8:0.77945 9:0.25 10:0.1125 11:0.08269 12:1 13:-0.98889 14:-1 15:-0.92308 16:-0.06905 17:-0.4585 18:-1 19:-0.2 20:-1 21:-1 22:-0.66 23:-0.99048 24:-1 
10 1:-0.24038 2:1 3:-0.29102 4:-0.55859 5:0.21 6:-0.05833 7:-0.08678 8:-0.07701 9:-0.17647 10:0.345 11:0.01562 12:1 13:-0.86444 14:-0.99 15:-0.9125 16:-0.08 17:-0.54286 18:-0.8 19:-0.8 20:-1 21:-1 22:-0.77 23:-0.99111 24:-1 
10 1:-0.22617 2:1 3:-0.4082 4:-0.50781 5:0.12222 6:-0.16 7:0.25852 8:0.15714 10:0.06944 11:0.035 12:1 13:-0.98938 14:-0.98889 15:-0.9 16:-0.08783 17:-0.67218 18:-0.8 19:-0.8 20:-1 21:-1 22:-0.72 23:-0.98842 24:-1 
10 1:-0.11503 2:1 3:-0.07422 4:-0.35352 5:-0.07059 6:-0.08056 7:0.492 8:0.21915 9:-0.09091 10:0.36324 11:-0.12292 12:1 13:-0.95728 14:-0.99412 15:-0.78333 16:-0.04426 17:-0.56847 18:-1 19:-1 20:-1 21:-1 22:-0.84 23:-0.98138 24:-1 
10 1:-0.34694 2:1 3:-0.58398 4:-0.78125 5:0.01429 6:-0.25333 7:0.64351 8:0.01426 9:-0.2 10:0.125 11:-0.455 12:0.40417 13:-0.97306 14:-1 15:-0.86 16:0.01224 17:-0.74921 18:-0.6 19:-1 20:-1 21:-1 22:-0.72 23:-0.98833 24:-1 
10 1:-0.2554 2:1 3:-0.45312 4:-0.66406 5:0.03704 6:-0.28333 7:0.33192 8:1 9:-0.28571 10:0.15556 11:0.1125 12:1 13:-0.8975 14:-1 15:-0.9125 16:0.0709 17:-0.55742 18:-0.8 19:-1 20:-1 21:-0.8 22:-0.85 23:-0.99176 24:-1 
10 1:-0.71127 2:0.99963 3:-0.92578 4:-0.87305 5:0.26667 6:0.08333 7:-1 8:-0.52734 9:0.33333 10:0.5 11:0.1125 12:-0.18875 13:-0.9 14:-1 15:-0.85 16:0.61905 17:-0.09841 18:-1 19:-1 20:-0.8 21:-1 22:-0.72 23:-0.98 24:-1 
10 1:0.31686 2:1 3:-0.02344 4:-0.02344 5:0.00683 6:-0.1796 7:0.84847 8:0.66361 9:-0.088 10:0.16024 11:0.10112 12:1 13:-0.99866 14:-0.99036 15:-0.90896 16:-0.14286 17:-0.53422 18:-1 19:-1 20:-1 21:-1 22:-0.66 23:-0.9908 24:-1 
10 1:0.03333 2:1 3:-0.02344 4:-0.02344 5:0.10494 6:-0.22083 7:0.93223 8:0.8532 9:-0.21951 10:0.15556 11:0.01562 12:1 13:-0.98219 14:-0.98889 15:-0.9125 16:-0.06808 17:-0.54585 18:-1 19:-0.8 20:-1 21:-1 22:-0.79 23:-0.99059 24:-1 
10 1:-0.13381 2:1 3:-0.02344 4:-0.48047 5:0.1 6:-0.01481 7:0.25368 8:-0.33165 9:-0.33333 10:0.28472 11:-0.01667 12:0.834 13:-0.99533 14:-0.93889 15:-0.9 16:0.1619 17:-0.68395 18:-0.8 19:-1 20:-1 21:-1 22:-0.73 23:-0.98519 24:-1 
10 1:-0.19986 2:1 3:-0.48828 4:-0.56055 5:-0.32821 6:-0.0625 7:1 8:0.87329 11:0.05 12:1 13:-0.95889 14:-1 15:-0.8 16:-0.1033 17:-0.66893 18:-0.6 19:-1 20:-1 21:-1 22:-0.63 23:-0.98476 24:-1 
10 1:0.29303 2:1 3:-0.02344 4:-0.02344 5:0.07302 6:-0.09009 7:0.74198 8:0.42799 9:0.10569 10:-0.01825 11:0.02466 12:1 13:-0.99944 14:-0.98571 15:-0.9027 16:-0.1486 17:-0.49656 18:-1 19:-0.2 20:-1 21:-1 22:-0.39 23:-0.98818 24:-1 
10 1:-0.48859 2:1 3:-1 4:-0.69336 5:-1 6:-0.25238 7:-1 8:0.69001 9:1 10:-1 11:0.05714 12:1 13:-0.9 14:-1 15:-0.91429 16:-1 17:0.17279 18:-1 19:-0.8 20:-1 21:-1 22:-0.74 23:-0.98286 24:-1 
10 1:-0.044 2:0.99999 3:-0.02344 4:-0.63086 5:-0.12976 6:-0.37 7:0.25352 8:0.97155 9:-0.58621 10:-0.00893 11:-0.18 12:0.01206 13:-0.96198 14:-0.975 15:-0.87 16:0.19796 17:-0.74386 18:-0.8 19:-1 20:-1 21:-1 22:-0.91 23:-0.98947 24:-1 
10 1:0.1767 2:1 3:-0.02344 4:-0.02344 5:-0.08611 6:0.035 7:0.86411 8:0.29877 9:-0.02564 10:0.19115 11:0.04062 12:1 13:-0.99865 14:-0.99375 15:-0.845 16:-0.08651 17:-0.62727 18:-1 20:-1 21:-1 22:-0.76 23:-0.98523 24:-1 
10 1:-0.06561 2:1 3:-0.02344 4:-0.2168 5:0.0193 6:-0.16458 7:0.69861 8:0.57994 9:-0.16129 10:0.23947 11:-0.05156 12:1 13:-0.99947 14:-0.99474 15:-0.9125 16:0.05464 17:-0.68163 18:-0.8 19:-0.8 20:-1 21:-1 22:-0.82 23:-0.99143 24:-1 
10 1:-0.03717 2:1 3:-0.02344 4:-0.23633 5:-0.13175 6:-0.27593 7:-0.12243 8:0.25327 9:-0.26667 10:-0.10476 11:-0.09306 12:1 13:-0.95537 14:-0.88571 15:-0.9 16:-0.33878 17:-0.64689 18:-1 19:-0.8 20:-1 21:-1 22:-0.67 23:-0.97846 24:-1 
10 1:0.08887 2:1 3:-0.02344 4:-0.02344 5:0.04301 6:-0.22917 7:0.42628 8:0.73185 9:-0.09434 10:0.275 11:-0.00234 12:1 13:-0.99395 14:-0.9871 15:-0.91875 16:0.11336 17:-0.43885 18:-1 19:-1 20:-1 21:-1 22:-0.77 23:-0.99048 24:-1 
10 1:0.10894 2:1 3:-0.02344 4:-0.02344 5:-0.02417 6:0.10238 7:0.72645 8:-0.24976 9:-0.16667 10:0.16312 11:-0.07321 12:1 13:-0.99988 14:-0.9025 15:-0.81071 16:-0.03667 17:-0.67255 18:-1 19:-1 20:-1 21:-1 22:-0.75 23:-0.97294 24:-1 
10 1:-0.39485 2:1 3:-0.99609 4:-0.4668 5:-0.93333 6:0.01111 7:-1 8:-0.71137 9:1 10:-0.275 11:-0.01667 12:1 13:-0.90556 14:-1 15:-0.81111 16:-0.6381 17:0.0019 18:-1 19:-0.6 20:-1 21:-1 22:-0.81 23:-0.966 24:-1 
10 1:-0.22617 2:0.96991 3:-0.09961 4:-0.81641 5:-0.03958 6:0.04444 7:0.36533 8:0.79492 9:-0.64706 10:0.20938 11:-0.01667 12:-0.99318 13:-0.95947 14:-0.99375 15:-0.8 16:-0.15 17:-0.82256 18:-1 19:-1 20:-1 21:-1 22:-0.73 23:-0.99263 24:-1 
10 1:0.00044 2:1 3:-0.02344 4:-0.02344 5:-0.01667 6:-0.08551 7:0.0995 8:0.06176 9:0.1 10:0.35909 11:-0.15761 12:1 13:-0.94372 14:-0.98182 15:-0.82174 16:0.10043 17:-0.54794 18:-0.8 19:-0.8 20:-1 21:-1 22:-0.47 23:-0.98 24:-0.95652 
10 1:0.1767 2:1 3:-0.02344 4:-0.02344 5:0.07552 6:-0.25417 7:0.66107 8:0.13944 9:-0.48148 10:0.1832 11:-0.42708 12:1 13:-0.99596 14:-0.98906 15:-0.70417 16:-0.16012 17:-0.81299 18:-1 19:-1 20:-1 21:-1 22:-0.76 23:-0.98227 24:-1 
10 1:0.17967 2:1 3:-0.02344 4:-0.02344 5:-0.09531 6:-0.13733 7:0.66107 8:0.19891 9:-0.45 10:0.1832 11:-0.421 12:1 13:-0.99573 14:-0.98906 15:-0.708 16:-0.14107 17:-0.80995 18:-1 19:-1 20:-1 21:-1 22:-0.76 23:-0.98202 24:-1 
10 1:0.26039 2:1 3:-0.02344 4:-0.02344 5:-0.06316 6:-0.05481 7:0.60944 8:0.45316 9:-0.21818 10:0.17434 11:-0.06778 12:1 13:-0.9993 14:-0.98816 15:-0.79333 16:-0.03634 17:-0.68406 18:-1 19:-1 20:-1 21:-0.8 22:-0.83 23:-0.98314 24:-1 
10 1:-0.28829 2:1 3:-0.4668 4:-0.69531 5:-0.09 6:0.04 7:0.93003 8:1 9:-0.28571 10:0.2375 11:0.035 12:0.0201 13:-0.9672 14:-0.95 15:-0.9 16:-0.05143 17:-0.78286 18:-1 19:-0.6 20:-1 21:-1 22:-0.87 23:-0.98667 24:-1 
10 1:-0.42254 2:1 3:-1 4:-0.58594 5:-1 6:-0.21481 7:-1 8:0.87147 9:1 10:-1 11:-0.18889 12:1 13:-0.9275 14:-1 15:-0.92222 16:-1 17:-0.08148 18:-1 19:-1 20:-1 21:-1 22:-0.82 23:-0.98444 24:-1 
10 1:-0.39485 2:0.98766 3:-0.61133 4:-0.86914 5:-0.17083 6:0.11667 7:0.26786 8:-0.9209 9:-0.5 10:0.40312 11:0.1125 12:-0.9074 13:-0.95889 14:-1 15:-0.85 16:-0.01905 17:-0.90286 18:-1 19:-0.8 20:-1 21:-1 22:-0.95 23:-0.994 24:-1 
10 1:-0.16477 2:1 3:-0.19531 4:-0.72266 5:-0.27719 6:-0.05333 7:0.56065 8:1 9:-0.47368 10:-0.00263 11:0.035 12:-0.91818 13:-0.95782 14:-0.96316 15:-0.84 16:0.08471 17:-0.7627 18:-1 19:-0.4 20:-1 21:-1 22:-0.74 23:-0.9875 24:-1 
10 1:-0.5291 2:1 3:-1 4:-0.71875 5:-1 6:-0.2 7:-1 8:0.56517 9:1 10:-1 11:0.1125 12:1 13:-0.98 14:-1 15:-0.91667 16:-1 17:-0.0127 18:-1 19:-1 20:-1 21:-1 22:-0.57 23:-0.98333 24:-1 
10 1:0.21291 2:1 3:-0.99609 4:-0.02344 5:-0.93333 6:-0.12667 7:-1 8:0.74644 9:1 10:-0.275 11:0.0185 12:1 13:-0.90732 14:-0.3 15:-0.902 16:-0.35238 17:-0.04177 18:-1 19:-1 20:-1 21:-1 22:-0.81 23:-0.97921 24:-1 
10 1:-0.57702 2:1 3:-1 4:-0.74414 5:-1 6:-0.12667 7:-1 8:0.21055 9:1 10:-1 11:0.035 12:1 13:-0.96222 14:-1 15:-0.88 16:-1 17:0.24952 18:-1 19:-1 20:-1 21:-1 22:-0.79 23:-0.976 24:-1 
10 1:0.16758 2:1 3:-0.02344 4:-0.02344 5:0.16028 6:-0.00614 7:0.53521 8:0.59162 9:-0.12195 10:0.21968 11:0.01118 12:1 13:-0.99816 14:-0.99787 15:-0.75789 16:0.10111 17:-0.51373 18:-1 19:-1 20:-1 21:-0.8 22:-0.93 23:-0.97812 24:-1 
10 1:-0.63567 2:1 3:-1 4:-0.77344 5:-1 6:-0.03333 7:-1 8:-0.65316 9:1 10:-1 11:-0.3625 12:1 13:-0.9 14:-1 15:-0.9 16:-1 17:-0.64286 18:-1 19:-1 20:-1 21:-0.8 22:-0.52 23:-0.98 24:-1 
10 1:0.2155 2:1 3:-0.93359 4:-0.02344 5:-0.43333 6:0.03133 7:0.41016 8:0.43132 9:0.97826 10:-0.275 11:0.14825 12:1 13:-0.7484 14:-0.55 15:-0.904 16:-0.61905 17:-0.01008 18:-1 19:-0.8 20:-1 21:-1 22:-0.92 23:-0.97941 24:-1 
10 1:-0.22617 2:1 3:-0.19336 4:-0.66602 5:0.14722 6:-0.18571 7:0.11896 8:0.06752 9:-0.29412 10:0.30625 11:-0.05357 12:0.68321 13:-0.94972 14:-1 15:-0.84286 16:0.06667 17:-0.59499 18:-1 19:-1 20:-1 21:-1 22:-0.97 23:-0.98842 24:-1 
10 1:0.08466 2:1 3:-0.99219 4:-0.02344 5:-0.93333 6:-0.09222 7:1 8:0.38409 9:1 10:0.1125 11:0.04333 12:1 13:-0.9899 14:-1 15:-0.905 16:-0.25714 17:-0.11951 18:-0.4 19:-1 20:-1 21:-1 22:-0.67 23:-0.98161 24:-1 
10 1:-0.24038 2:1 3:-1 4:-0.08398 5:-1 6:-0.13148 7:-1 8:0.43546 9:1 10:-1 11:-0.29306 12:1 13:-0.96914 14:-1 15:-0.82222 16:-1 17:0.1164 18:-0.8 19:-0.8 20:-1 21:-1 22:-0.73 23:-0.96444 24:-1 
10 1:-0.39485 2:0.97558 3:-0.45117 4:-0.87109 5:0.17083 6:0.1 7:0.34511 8:-0.28809 9:-0.55556 10:0.5 11:0.375 12:-0.9074 13:-0.50889 14:-0.9875 15:-0.8 16:0.40714 17:-0.69333 18:-1 19:-1 20:-1 21:-1 22:-0.95 23:-0.99 24:-1 
10 1:-0.17595 2:1 3:-0.11133 4:-0.61328 5:-0.05208 6:-0.05714 7:-0.12761 8:1 9:-0.4 10:0.35469 11:-0.09643 12:0.17026 13:-0.9864 14:-1 15:-0.91429 16:-0.15357 17:-0.69275 18:-1 19:-1 20:-1 21:-1 22:-0.64 23:-0.99478 24:-1 
10 1:-0.28829 2:0.99951 3:-0.51562 4:-0.78125 5:-0.17333 6:-0.25333 7:1 8:0.2377 9:-0.45455 10:0.19 11:0.035 12:0.0201 13:-0.97039 14:-0.98 15:-0.94 16:-0.0381 17:-0.68381 18:-1 19:-0.8 20:-1 21:-1 22:-0.65 23:-0.99333 24:-1 
10 1:0.01187 2:1 3:-0.02344 4:-0.02344 5:0.14058 6:-0.14861 7:0.69596 8:0.19044 9:-0.07317 10:0.09565 11:-0.02917 12:1 13:-0.80061 14:-0.9913 15:-0.8375 16:0.01284 17:-0.54164 18:-1 19:-1 20:-1 21:-1 22:-0.71 23:-0.98255 24:-1 
10 1:0.1767 2:1 3:-0.02344 4:-0.02344 5:0.00591 6:-0.03974 7:0.7195 8:0.77237 9:-0.4 10:0.2875 11:-0.39038 12:1 13:-0.98415 14:-0.98226 15:-0.39231 16:-0.1192 17:-0.76688 18:-1 19:-1 20:-0.8 21:-1 22:-1 23:-0.96159 24:-1 
10 1:0.22312 2:1 3:-0.02344 4:-0.02344 5:0.07366 6:0.01806 7:0.74048 8:0.1314 9:-0.54 10:0.29167 11:-0.39792 12:-0.33818 13:-0.99617 14:-0.97654 15:-0.67083 16:-0.09536 17:-0.71193 18:-1 19:-1 20:-1 21:-1 22:-0.97 23:-0.98133 24:-1 
10 1:0.19681 2:1 3:-0.02344 4:-0.02344 5:0.01701 6:-0.02246 7:0.60072 8:0.59997 9:-0.04651 10:0.26276 11:-0.01848 12:1 13:-0.99664 14:-0.98776 15:-0.79783 16:-0.08805 17:-0.63368 18:-1 19:-0.8 20:-1 21:-1 22:-0.81 23:-0.97916 24:-1 
10 1:-0.06561 2:1 3:-0.02344 4:-0.44336 5:-0.076 6:-0.05 7:0.34051 8:0.32378 9:-0.4 10:0.345 11:0.005 12:0.39609 13:-0.90816 14:-0.992 15:-0.85 16:-0.056 17:-0.67347 18:-1 19:-0.8 20:-1 21:-1 22:-0.75 23:-0.99029 24:-1 
10 1:-0.48859 2:0.99998 3:-0.79297 4:-0.81445 5:0.17778 6:-0.20833 7:-0.17513 8:-0.53516 10:-0.01667 11:-0.275 12:0.45712 13:-0.90889 14:-0.96667 15:-0.85 16:-0.74603 17:-0.67347 18:-1 19:-1 20:-1 21:-1 22:-0.67 23:-0.98 24:-1 
10 1:0.21029 2:1 3:-0.02344 4:-0.02344 5:-0.11698 6:-0.13404 7:0.50966 8:0.59456 9:-0.04545 10:0.08302 11:0.08777 12:1 13:-0.99874 14:-0.98868 15:-0.90851 16:0.11518 17:-0.54895 18:-0.6 19:-1 20:-1 21:-1 22:-0.81 23:-0.9902 24:-1 
10 1:-0.07323 2:1 3:-0.29688 4:-0.22266 5:-0.25 6:-0.26296 7:0.48737 8:0.41113 9:-0.04 10:-0.23906 11:-0.28194 12:1 13:-0.9981 14:-0.99375 15:-0.92778 16:0.18571 17:-0.47115 18:-1 19:-0.6 20:-1 21:-1 22:-0.63 23:-0.99176 24:-1 
10 1:-0.22617 2:1 3:-1 4:-0.16016 5:-1 6:-0.24561 7:-1 8:0.43801 9:1 10:-1 11:-0.00526 12:1 13:-0.98859 14:-1 15:-0.91579 16:-1 17:0.13383 18:-1 19:-0.6 20:-1 21:-1 22:-0.66 23:-0.98316 24:-1 
10 1:-0.2554 2:1 3:-0.29883 4:-0.69922 5:0.08788 6:-0.14444 7:-0.0147 8:0.97715 9:-0.33333 10:0.00682 11:0.14583 12:0.35126 13:0.69062 14:-1 15:-0.91667 16:0.15152 17:-0.61345 18:-0.2 19:-1 20:-1 21:-1 22:-0.56 23:-0.99412 24:-1 
10 1:-0.63567 2:1 3:-1 4:-0.79688 5:-1 6:-0.13333 7:-1 8:1 9:1 10:-1 11:0.1125 12:1 13:-0.9 14:-1 15:-0.925 16:-1 17:0.12381 18:-1 19:-1 20:-1 21:-1 22:-0.77 23:-0.985 24:-1 
10 1:-0.27133 2:1 3:-0.22852 4:-0.65625 5:0.31667 6:-0.02222 7:1 8:1 9:-0.33333 10:0.19 11:0.1125 12:0.47952 13:-0.94444 14:-0.99 15:-0.81667 16:-0.15619 17:-0.67143 18:-1 19:-0.2 20:-1 21:-1 22:-0.69 23:-0.985 24:-1 
10 1:-0.34694 2:0.99988 3:-0.60742 4:-0.81641 5:-0.1625 6:-0.21667 7:0.31194 8:1 9:-0.33333 10:0.40312 11:0.0375 12:-0.18153 13:-0.99889 14:-0.9625 15:-0.9 16:-0.06667 17:-0.79841 18:-1 19:-1 20:-1 21:-1 22:-0.82 23:-0.98833 24:-1 
10 1:-0.17595 2:1 3:-0.05273 4:-0.57812 5:0.07778 6:-0.1 7:0.42647 8:0.65011 9:-0.4 10:0.035 11:0.01562 12:0.7586 13:-0.99729 14:-0.99333 15:-0.875 16:-0.25206 17:-0.6058 18:-0.6 19:-1 20:-1 21:-1 22:-0.69 23:-0.99043 24:-1 
10 1:0.12028 2:1 3:-0.02344 4:-0.02344 5:0.13725 6:-0.07928 7:0.36041 8:0.65732 10:0.21765 11:-0.2723 12:1 13:-0.98702 14:-0.99412 15:-0.76216 16:-0.11765 17:-0.53159 18:-1 19:-1 20:-1 21:-1 22:-0.89 23:-0.97465 24:-1 
10 1:0.00044 2:1 3:-0.02344 4:-0.13281 5:-0.15476 6:-0.12941 7:0.56648 8:0.07028 9:-0.17949 10:-0.02589 11:-0.19118 12:1 13:-0.94328 14:-0.99286 15:-0.89412 16:-0.16259 17:-0.70582 18:-1 19:-1 20:-1 21:-1 22:-0.88 23:-0.99111 24:-1 
10 1:0.24008 2:1 3:-0.02344 4:-0.02344 5:-0.07488 6:0.05349 7:0.46429 8:0.15991 9:-0.22772 10:0.18841 11:0.17558 12:1 13:-0.9993 14:-0.99855 15:-0.89302 16:0.10614 17:-0.58844 18:-0.2 19:-0.6 20:-1 21:-1 22:-0.69 23:-0.99161 24:-1 
10 1:-0.71127 2:1 3:-1 4:-0.8125 5:-1 6:0.06667 7:-1 8:0.09635 9:1 10:-1 11:-0.20833 12:0.81567 13:-0.95 14:-1 15:-0.9 16:-1 17:-0.28254 18:-1 19:-1 20:-1 21:-0.8 22:-0.81 23:-0.98 24:-1 
10 1:-0.34694 2:0.99975 3:-0.52734 4:-0.80859 5:0.00833 6:-0.18333 7:1 8:1 9:-0.4 10:-0.08125 11:-0.08125 12:-0.18153 13:-0.90889 14:-0.9875 15:-0.925 16:-0.02857 17:-0.66032 18:-1 19:-1 20:-1 21:-1 22:-0.8 23:-0.99333 24:-1 
10 1:0.19403 2:1 3:-0.02344 4:-0.02344 5:0.2599 6:0.01222 7:0.69305 8:0.32997 9:-0.34884 10:0.3125 11:-0.07167 12:1 13:-0.99736 14:-0.99375 15:-0.89333 16:0.10893 17:-0.65268 18:-0.8 19:-0.8 20:-1 21:-1 22:-0.87 23:-0.99234 24:-1 
10 1:0.2493 2:1 3:-0.02344 4:-0.02344 5:-0.09672 6:-0.24303 7:0.67167 8:0.82904 9:-0.07216 10:-0.03484 11:-0.03773 12:1 13:-0.99933 14:-0.9918 15:-0.91455 16:-0.12006 17:-0.56388 18:-0.8 19:-1 20:-1 21:-1 22:-0.46 23:-0.99103 24:-1 
10 1:-0.22617 2:1 3:-1 4:-0.18359 5:-1 6:-0.26667 7:-1 8:0.62413 9:1 10:-1 11:-0.15789 12:1 13:-0.9875 14:-1 15:-0.93158 16:-1 17:0.14286 18:-0.8 19:-1 20:-1 21:-1 22:-0.83 23:-0.98632 24:-1 
10 1:0.05791 2:1 3:-0.02344 4:-0.02344 5:0.02222 6:-0.13158 7:0.82152 8:0.76718 9:0.30612 10:-0.07778 11:0.02303 12:1 13:-0.99849 14:-0.93889 15:-0.90526 16:-0.15873 17:-0.42449 18:-1 19:-1 20:-0.2 21:-0.8 22:-0.66 23:-0.98321 24:-1 
10 1:-0.11503 2:1 3:-0.40234 4:-0.23828 5:-0.15 6:-0.23529 7:0.86557 8:-0.09378 9:0.15789 10:-0.04167 11:-0.15588 12:1 13:-0.7208 14:-0.96667 15:-0.91176 16:0.15079 17:-0.18621 18:-0.8 19:-1 20:-1 21:-1 22:-0.77 23:-0.9869 24:-1 
10 1:-0.39485 2:1 3:-1 4:-0.4043 5:-1 6:0.01667 7:-1 8:-0.75371 9:1 10:-1 11:0.035 12:1 13:-0.9 14:-1 15:-0.91 16:-1 17:-0.61714 18:-1 19:-1 20:-1 21:-1 22:-0.43 23:-0.982 24:-1 
10 1:0.12028 2:1 3:-0.02344 4:-0.02344 5:-0.10505 6:-0.05789 7:0.87145 8:0.85388 9:0.1 10:0.09167 11:0.05132 12:1 13:-0.98346 14:-0.99091 15:-0.90526 16:0.04877 17:-0.46935 18:-1 20:-1 21:-1 22:-0.18 23:-0.98901 24:-1 
10 1:0.04835 2:1 3:-0.02344 4:-0.02344 5:-0.0908 6:-0.10133 7:1 8:0.12648 10:0.00862 11:-0.012 12:1 13:-0.98599 14:-0.9931 15:-0.9 16:-0.1133 17:-0.52804 18:-0.2 19:-1 20:-1 21:-1 22:-0.74 23:-0.99 24:-1 
10 1:-0.34694 2:1 3:-1 4:-0.49414 5:-1 6:-0.28056 7:-1 8:0.31195 9:1 10:-1 11:0.04792 12:1 13:-0.98 14:-1 15:-0.93333 16:-1 17:0.28413 18:-1 19:-0.8 20:-1 21:-1 22:-0.69 23:-0.98667 24:-1 
10 1:-0.17595 2:1 3:-0.27344 4:-0.60742 5:-0.11429 6:-0.25556 7:0.75056 8:1 9:-0.3 10:0.16786 11:-0.28333 12:1 13:-0.9898 14:-0.95 15:-0.84444 16:-0.10748 17:-0.72008 18:-1 19:-0.8 20:-1 21:-1 22:-0.64 23:-0.98174 24:-1 
10 1:-0.18764 2:1 3:-1 4:-0.08984 5:-1 6:-0.29394 7:-1 8:0.57282 9:1 10:-1 11:-0.06705 12:1 13:-0.98521 14:-1 15:-0.9 16:-1 17:-0.1039 18:-0.8 19:-1 20:-1 21:-1 22:-0.34 23:-0.98 24:-1 
10 1:0.33051 2:1 3:-0.02344 4:-0.02344 5:0.14837 6:-0.00526 7:0.63973 8:0.57853 9:-0.04895 10:0.27561 11:0.09836 12:1 13:-0.99933 14:-0.9939 15:-0.81842 16:0.0151 17:-0.55033 18:-0.8 19:-1 20:-1 21:-0.8 22:-0.83 23:-0.9819 24:-1 
10 1:-0.09751 2:1 3:-0.14648 4:-0.5625 5:-0.14314 6:-0.46667 7:0.60462 8:0.89197 9:-0.36364 10:-0.04706 11:-0.04107 12:1 13:-0.98972 14:-0.99412 15:-0.87143 16:0.08123 17:-0.45868 18:-1 19:-0.8 20:-1 21:-1 22:-0.88 23:-0.98774 24:-1 
10 1:0.09708 2:1 3:-0.02344 4:-0.02344 5:-0.06068 6:-0.13077 7:0.49876 8:0.54702 9:-0.16 10:0.10256 11:0.02981 12:1 13:-0.99917 14:-0.99487 15:-0.83077 16:-0.17558 17:-0.64454 18:-1 19:-0.8 20:-1 21:-1 22:-0.75 23:-0.98585 24:-1 
10 1:-0.19986 2:1 3:-1 4:-0.02344 5:-1 6:-0.17143 7:-1 8:0.70224 9:1 10:-1 11:-0.19286 12:1 13:-0.94543 14:-1 15:-0.90476 16:-1 17:0.19274 18:-1 19:-1 20:-1 21:-0.4 22:-0.69 23:-0.98095 24:-0.90909 
10 1:-0.17595 2:1 3:-0.73633 4:-0.45312 5:-0.35714 6:-0.41667 7:0.70368 8:0.10387 9:0.41176 10:-0.525 11:-0.54531 12:1 13:1 14:-0.97143 15:-0.88125 16:-0.0585 17:-0.44845 18:-0.8 19:-0.8 20:-1 21:-1 22:-0.57 23:-0.98174 24:-1 
10 1:0.20229 2:1 3:-0.02344 4:-0.02344 5:0.10818 6:-0.02955 7:0.8926 8:0.23382 9:-0.06977 10:0.26038 11:0.22898 12:1 13:-0.99863 14:-0.99245 15:-0.90227 16:0.00234 17:-0.54345 18:-0.4 19:-1 20:-1 21:-1 22:-0.89 23:-0.99031 24:-1 
10 1:0.2493 2:1 3:-0.02344 4:-0.02344 5:0.06761 6:-0.01778 7:0.48663 8:0.84689 9:-0.17647 10:0.37993 11:0.05611 12:1 13:-0.99411 14:-0.99014 15:-0.81556 16:-0.03421 17:-0.5867 18:-0.6 19:-1 20:-1 21:-1 22:-0.74 23:-0.98448 24:-1 
10 1:0.23534 2:1 3:-0.02344 4:-0.02344 5:0.1803 6:-0.00985 7:0.41532 8:0.71331 9:-0.2233 10:0.37083 11:0.02841 12:1 13:-0.98092 14:-0.98636 15:-0.81591 16:0.00837 17:-0.56381 18:-1 19:-1 20:-1 21:-1 22:-0.66 23:-0.98364 24:-1 
10 1:-0.34694 2:1 3:-0.87109 4:-0.62305 5:-0.45 6:-0.19583 7:-0.74219 8:-0.03798 9:0.5 10:-0.275 11:-0.17812 12:1 13:-0.98 14:-1 15:-0.925 16:-0.04762 17:-0.43333 18:-0.8 19:-1 20:-1 21:-1 22:-0.81 23:-0.99 24:-1 
10 1:-0.17595 2:1 3:-0.22852 4:-0.32227 5:0.31667 6:-0.11026 7:0.94323 8:-0.40833 10:0.2675 11:0.02308 12:1 13:-0.98438 14:-0.97 15:-0.91538 16:0.23048 17:-0.51056 18:-1 19:-0.4 20:-1 21:-1 22:-0.65 23:-0.98783 24:-1 
10 1:0.13116 2:1 3:-0.02344 4:-0.13477 5:0.04746 6:-0.01556 7:0.54949 8:0.19085 9:-0.58824 10:0.25042 11:-0.435 12:-0.99297 13:-0.95891 14:-0.98814 15:-0.69333 16:-0.10864 17:-0.78378 18:-1 19:-0.8 20:-1 21:-1 22:-0.93 23:-0.98568 24:-1 
10 1:0.17066 2:1 3:-0.02344 4:-0.06445 5:0.01364 6:-0.20167 7:0.90384 8:0.25432 9:-0.6 10:0.28864 11:-0.44 12:-0.25719 13:0.36138 14:-0.99091 15:-0.66 16:-0.01732 17:-0.81838 18:-1 19:-1 20:-1 21:-1 22:-0.87 23:-0.98279 24:-1 
10 1:0.05791 2:1 3:-0.02344 4:-0.16602 5:0.00081 6:-0.05111 7:0.4666 8:0.34807 9:-0.48 10:0.16402 11:0.08667 12:0.64461 13:-0.99798 14:-0.97561 15:-0.88 16:0.1187 17:-0.76156 18:-1 19:-1 20:-1 21:-1 22:-0.87 23:-0.99 24:-1 
10 1:0.15814 2:1 3:-0.02344 4:-0.02344 5:0.21774 6:-0.13833 7:0.58016 8:1 9:-0.51351 10:0.25323 11:-0.21375 12:0.25174 13:-0.99806 14:-0.99355 15:-0.765 16:-0.01567 17:-0.72497 18:-1 19:-0.4 20:-0.8 21:-1 22:-0.65 23:-0.98756 24:-1 
10 1:0.14834 2:1 3:-0.02344 4:-0.02344 5:-0.00722 6:0.04912 7:0.47264 8:1 9:-0.49296 10:0.245 11:-0.25132 12:0.04864 13:-0.99857 14:-0.99333 15:-0.76316 16:0.02571 17:-0.73574 18:-0.8 19:-0.6 20:-1 21:-1 22:-0.53 23:-0.98759 24:-1 
10 1:0.1826 2:1 3:-0.02344 4:-0.02344 5:0.02275 6:-0.20123 7:0.39494 8:-0.21779 9:-0.42169 10:0.05992 11:-0.32778 12:1 13:-0.99838 14:-0.99841 15:-0.71852 16:-0.00408 17:-0.76275 18:-0.8 19:-0.6 20:-1 21:-1 22:-0.65 23:-0.98289 24:-1 
10 1:0.10109 2:1 3:-0.02344 4:-0.15234 5:0.02569 6:-0.1963 7:0.76557 8:0.66243 9:-0.44444 10:0.1224 11:-0.3 12:1 13:-0.991 14:-0.99167 15:-0.73889 16:0.05079 17:-0.63579 18:-0.6 19:-1 20:-1 21:-1 22:-0.95 23:-0.98455 24:-1 
10 1:0.145 2:1 3:-0.02344 4:-0.02344 5:0.14341 6:-0.08 7:0.78024 8:0.41606 9:-0.05556 10:0.30174 11:-0.155 12:1 13:-0.99799 14:-0.99767 15:-0.79714 16:-0.05515 17:-0.55629 18:-1 19:-1 20:-1 21:-1 22:-0.74 23:-0.98154 24:-1 
10 1:0.21029 2:0.99999 3:-0.02344 4:-0.19727 5:0.08795 6:-0.19412 7:0.58431 8:0.33253 9:-0.68889 10:-0.09157 11:-0.30735 12:-1 13:-0.96871 14:-0.92169 15:-0.75882 16:-0.14148 17:-0.80057 18:-1 19:-1 20:-1 21:-1 22:-0.96 23:-0.9788 24:-1 
10 1:0.20498 2:1 3:-0.02344 4:-0.02344 5:0.09956 6:-0.10435 7:0.48488 8:0.26461 9:-0.55556 10:0.045 11:-0.25326 12:-0.03431 13:-0.99868 14:-0.90267 15:-0.80435 16:0.12406 17:-0.85306 18:-1 19:-0.8 20:-1 21:-1 22:-0.83 23:-0.97592 24:-1 
10 1:0.12028 2:1 3:-0.92773 4:-0.02344 5:0.23333 6:-0.10238 7:-1 8:0.30225 9:0.9697 10:0.5 11:-0.19393 12:1 13:-0.90986 14:-1 15:-0.72 16:0.90476 17:-0.01113 18:-1 19:-1 20:-1 21:-1 22:-0.73 23:-0.94479 24:-1 
10 1:0.32716 2:1 3:-0.02344 4:-0.02344 5:0.0901 6:-0.05978 7:0.70223 8:0.63144 9:0.15862 10:0.2457 11:0.27364 12:1 13:-0.99958 14:-0.98906 15:-0.90217 16:-0.05506 17:-0.40208 18:-0.6 19:-0.4 20:-1 21:-1 22:-0.82 23:-0.98756 24:-1 
10 1:-0.08108 2:1 3:-0.02344 4:-0.22266 5:0.10556 6:-0.11556 7:0.18556 8:0.01949 9:-0.10345 10:0.05556 11:-0.08833 12:1 13:-0.95852 14:-0.98889 15:-0.80667 16:-0.0709 17:-0.71544 18:-1 19:-1 20:-1 21:-1 22:-0.78 23:-0.98121 24:-1 
10 1:-0.5291 2:1 3:-0.87695 4:-0.73828 5:0.05 6:0.11667 7:0.41016 8:0.15544 9:0.33333 10:-0.275 11:0.1125 12:0.58662 13:-0.98889 14:-1 15:-0.9 16:-0.61905 17:-0.10794 18:-0.6 19:-1 20:-1 21:-1 22:-0.39 23:-0.98667 24:-1 
10 1:0.30613 2:1 3:-0.02344 4:-0.02344 5:0.07468 6:0.00667 7:0.46866 8:0.40795 9:-0.04412 10:0.31614 11:0.345 12:1 13:-0.99935 14:-0.9962 15:-0.89692 16:-0.07366 17:-0.60093 18:-0.2 19:0.2 20:-1 21:-1 22:-0.67 23:-0.99028 24:-1 
10 1:-0.3698 2:1 3:-0.74805 4:-0.67969 5:-0.14 6:-0.08889 7:1 8:-0.29733 9:0.11111 10:-0.12 11:0.1125 12:1 13:-0.91778 14:-1 15:-0.91667 16:0.0819 17:-0.56537 18:-1 19:-1 20:-1 21:-1 22:-0.79 23:-0.99091 24:-1 
10 1:-0.11503 2:1 3:-1 4:-0.22461 5:-1 6:-0.54368 7:-1 8:0.36728 9:1 10:-1 11:-0.13966 12:1 13:-0.98931 14:-1 15:-0.95172 16:-1 17:0.08112 18:-1 19:-1 20:-1 21:-1 22:-0.42 23:-0.99034 24:-1 
10 1:-0.57702 2:1 3:-1 4:-0.67773 5:-1 6:0.1 7:-1 8:-0.1459 9:1 10:-1 11:0.035 12:1 13:-0.83 14:-1 15:-0.88 16:-1 17:0.26476 18:-1 19:-1 20:-1 21:-1 22:-0.85 23:-0.976 24:-1 
10 1:-0.18764 2:1 3:-0.61523 4:-0.42969 5:-0.17917 6:-0.30476 7:0.90845 8:1 9:0.25 10:0.20938 11:0.09107 12:1 13:-0.5 14:-0.9875 15:-0.91429 16:-0.04048 17:-0.29351 18:-1 19:-1 20:-1 21:-1 22:-0.8 23:-0.98818 24:-1 
10 1:-0.21269 2:1 3:-0.61914 4:-0.43555 5:-0.1875 6:-0.19722 7:1 8:0.54149 9:0.28571 10:0.30625 11:0.04792 12:1 13:-0.8924 14:-0.9875 15:-0.925 16:0.20952 17:-0.33905 18:-0.8 19:-0.2 20:-1 21:-1 22:-0.96 23:-0.99 24:-1 
10 1:-0.13381 2:1 3:-0.30078 4:-0.15625 5:-0.00556 6:-0.04 7:1 8:0.28041 9:0.04348 10:0.30625 11:-0.08833 12:1 13:-0.96301 14:-0.99167 15:-0.83333 16:0.02381 17:-0.41799 18:-0.6 19:-1 20:-1 21:-1 22:-0.81 23:-0.98074 24:-1 
10 1:-0.81783 2:0.99996 3:-1 4:-0.87695 5:-1 6:0.05 7:-1 8:-0.99902 9:1 10:-1 11:0.1125 12:0.24012 13:-0.98 14:-1 15:-0.8 16:-1 17:0.89524 18:-0.8 19:-1 20:-1 21:-1 22:-0.69 23:-0.96 24:-1 
10 1:0.06713 2:1 3:-0.02344 4:-0.02344 5:-0.06 6:-0.23838 7:1 8:0.21336 9:0.16 10:0.025 11:0.075 12:1 13:-0.99942 14:-0.988 15:-0.90303 16:0.10095 17:-0.38621 18:-0.8 19:-0.8 20:-1 21:-1 22:-0.57 23:-0.98793 24:-1 
10 1:-0.34694 2:1 3:-1 4:-0.38672 5:-1 6:-0.12778 7:-1 8:-0.18497 9:1 10:-1 11:0.08125 12:1 13:-0.96222 14:-1 15:-0.9 16:-1 17:-0.24286 18:-1 19:-1 20:-1 21:-1 22:-0.82 23:-0.98 24:-1 
10 1:0.15165 2:1 3:-1 4:-0.02344 5:-1 6:-0.14292 7:-1 8:0.31804 9:1 10:-1 11:-0.09062 12:1 13:-0.98951 14:-1 15:-0.7925 16:-1 17:-0.05762 18:-0.6 19:-1 20:-1 21:-1 22:-0.75 23:-0.9585 24:-1 
10 1:0.2155 2:1 3:-0.99219 4:-0.02344 5:-0.93333 6:-0.01133 7:1 8:0.65622 9:1 10:0.1125 11:-0.06925 12:1 13:-0.74998 14:-0.9 15:-0.79 16:-0.14286 17:-0.09823 18:-1 19:-1 20:-1 21:-1 22:-0.85 23:-0.95843 24:-1 
10 1:-0.5291 2:1 3:-1 4:-0.70117 5:-1 6:-0.15 7:-1 8:1 9:1 10:-1 11:-0.325 12:1 13:-0.98 14:-1 15:-0.91667 16:-1 17:0.12063 18:-1 19:-1 20:-1 21:-1 22:-0.74 23:-0.98333 24:-1 
10 1:-0.28829 2:1 3:-0.98438 4:-0.35352 5:-0.93333 6:0.00303 7:-0.78337 8:-0.35653 9:1 10:-0.275 11:-0.06364 12:1 13:-0.90988 14:-0.925 15:-0.9 16:-0.08095 17:0.01079 18:-1 19:0.2 20:-1 21:-1 22:-0.69 23:-0.98133 24:-1 
10 1:0.1416 2:1 3:-0.02344 4:-0.02344 5:0.02667 6:-0.20631 7:0.88807 8:0.48107 9:-0.04918 10:0.06 11:-0.02635 12:1 13:-0.99973 14:-0.995 15:-0.9027 16:-0.10905 17:-0.66902 18:-0.8 19:-1 20:-1 21:-1 22:-0.77 23:-0.99013 24:-1 
10 1:-0.044 2:1 3:-1 4:-0.02344 5:-1 6:-0.20877 7:-1 8:0.26232 9:1 10:-1 11:0.07171 12:1 13:-0.98771 14:-1 15:-0.91053 16:-1 17:-0.19148 18:-0.4 19:-0.8 20:-1 21:-1 22:-0.65 23:-0.98211 24:-1 
10 1:0.00621 2:1 3:-0.02344 4:-0.23438 5:-0.1977 6:-0.23137 7:0.97706 8:0.27528 9:-0.22581 10:-0.075 11:-0.09265 12:1 13:-0.99228 14:-1 15:-0.90588 16:0.1133 17:-0.51263 18:-1 19:-1 20:-1 21:-1 22:-0.67 23:-0.99304 24:-1 
10 1:-0.3698 2:1 3:-0.5957 4:-0.74219 5:-0.01429 6:0.1 7:0.83845 8:1 9:-0.2 10:0.5 11:0.30625 12:-0.05475 13:-0.8875 14:-1 15:-0.9 16:0.20816 17:-0.60346 18:-1 19:-1 20:-1 21:-1 22:-0.87 23:-0.99273 24:-1 
10 1:0.23772 2:1 3:-0.02344 4:-0.02344 5:0.19722 6:-0.06984 7:0.61444 8:0.19242 9:0.11765 10:0.24583 11:0.14008 12:1 13:-0.99475 14:-0.99167 15:-0.90159 16:0.14365 17:-0.4042 18:-1 19:-0.8 20:-1 21:-1 22:-0.73 23:-0.98811 24:-1 
10 1:-0.57702 2:0.99999 3:-0.86719 4:-0.82227 5:0.13333 6:0.01111 7:-0.98438 8:-0.95247 9:0.2 10:0.1125 11:-0.01667 12:0.12615 13:-0.71 14:-1 15:-0.9 16:-0.14286 17:-0.05524 18:-0.8 19:-1 20:-1 21:-1 22:-0.94 23:-0.988 24:-1 
10 1:-0.30642 2:1 3:-0.43359 4:-0.70703 5:-0.03333 6:0.25 7:0.4053 8:-0.66081 9:-0.33333 10:0.5 11:-0.08125 12:-0.42974 13:-0.9576 14:-0.98 15:-0.9 16:0.12 17:-0.92109 18:-1 19:-0.8 20:-1 21:-1 22:-0.91 23:-0.99143 24:-1 
10 1:-0.42254 2:0.99998 3:-0.75391 4:-0.77148 5:0.05 6:-0.22 7:0.53451 8:-0.15684 10:0.30625 11:0.345 12:0.78913 13:-0.9975 14:-1 15:-0.94 16:-0.28571 17:-0.72698 18:-1 19:-1 20:-1 21:-1 22:-0.75 23:-0.99333 24:-1 
10 1:-0.00547 2:1 3:-0.02344 4:-0.02344 5:0.14028 6:-0.13833 7:0.30926 8:0.25668 9:-0.15789 10:0.28438 11:-0.01875 12:1 13:-0.98 14:-0.97917 15:-0.9 16:0.19841 17:-0.51082 18:-1 19:-0.8 20:-1 21:-1 22:-0.91 23:-0.98864 24:-1 
10 1:-0.09751 2:1 3:-0.02344 4:-0.47266 5:-0.06667 6:-0.1 7:0.71614 8:-0.02396 9:-0.35714 10:0.17738 11:-0.28 12:0.9094 13:-0.99807 14:-1 15:-0.85 16:-0.07029 17:-0.61782 18:-0.8 19:-0.8 20:-1 21:-1 22:-0.58 23:-0.99032 24:-0.9375 
10 1:-0.11503 2:1 3:-0.02344 4:-0.51953 5:-0.04667 6:-0.08889 7:0.18081 8:1 9:-0.45455 10:0.22875 11:0.06944 12:0.57731 13:-0.9898 14:-0.995 15:-0.92222 16:-0.28476 17:-0.74844 18:-0.8 19:-0.4 20:-1 21:-1 22:-0.79 23:-0.99448 24:-1 
10 1:0.10894 2:1 3:-0.02344 4:-0.02344 5:0.0955 6:-0.07419 7:0.53126 8:0.64536 9:-0.14286 10:0.37973 11:0.25 12:1 13:-0.99159 14:-0.99189 15:-0.90323 16:0.0157 17:-0.48852 18:-0.6 19:0.4 20:-1 21:-1 22:-0.87 23:-0.99029 24:-1 
10 1:-0.3259 2:0.99999 3:-0.36523 4:-0.68945 5:0.2037 6:0.325 7:0.59901 8:1 9:-0.38462 10:0.41389 11:0.5 12:-0.30692 13:-0.99938 14:-0.98889 15:-0.9 16:-0.10053 17:-0.66007 18:-1 19:-1 20:-0.8 21:-1 22:-0.93 23:-0.99231 24:-1 
10 1:-0.34694 2:1 3:-0.58789 4:-0.74805 5:-0.12083 6:0.075 7:0.11984 8:0.7609 9:-0.2 10:0.20938 11:-0.08125 12:-0.18153 13:-0.96 14:-0.975 15:-0.9 16:-0.19524 17:-0.82698 18:-1 19:-1 20:-1 21:-1 22:-0.93 23:-0.99 24:-1 
10 1:-0.57702 2:1 3:-1 4:-0.7207 5:-1 6:-0.04667 7:-1 8:-0.0752 9:1 10:-1 11:-0.335 12:1 13:-0.83 14:-1 15:-0.74 16:-1 17:0.27619 18:-0.6 19:-1 20:-1 21:-1 22:-0.43 23:-0.948 24:-1 
10 1:0.02813 2:1 3:-0.02344 4:-0.10352 5:-0.04479 6:-0.15 7:0.51449 8:0.25886 9:-0.26316 10:0.24844 11:0.05278 12:1 13:-0.97538 14:-0.99375 15:-0.9 16:0.2381 17:-0.57638 18:-1 19:-1 20:-1 21:-1 22:-0.87 23:-0.992 24:-1 
10 1:-0.3698 2:1 3:-0.91797 4:-0.36914 5:0.4 6:0.07667 7:-1 8:-0.14347 9:0.8 10:0.5 11:0.2875 12:1 13:-0.9964 14:-1 15:-0.9 16:-0.54286 17:-0.03203 18:-1 19:-1 20:-1 21:-1 22:-0.87 23:-0.98182 24:-1 
10 1:-0.3698 2:1 3:-1 4:-0.49023 5:-1 6:-0.20909 7:-1 8:0.66673 9:1 10:-1 11:0.14773 12:1 13:-0.97222 14:-1 15:-0.91818 16:-1 17:0.04416 18:-1 19:-1 20:-1 21:-1 22:-0.83 23:-0.98364 24:-1 
10 1:0.15814 2:1 3:-0.99219 4:-0.02344 5:-0.93333 6:-0.11958 7:-0.9375 8:0.67222 9:1 10:0.5 11:-0.04094 12:1 13:-0.74826 14:-1 15:-0.90875 16:0.77143 17:-0.08897 18:-1 19:-0.6 20:-1 21:-1 22:-0.53 23:-0.9822 24:-1 
10 1:0.03333 2:1 3:-0.02344 4:-0.08789 5:-0.18 6:-0.40128 7:0.60275 8:0.55108 9:-0.08571 10:0.043 11:-0.11154 12:1 13:-0.98131 14:-0.972 15:-0.9 16:0.08114 17:-0.5761 18:-1 19:-1 20:-1 21:-1 22:-0.69 23:-0.98706 24:-1 
10 1:-0.14373 2:1 3:-1 4:-0.02344 5:-1 6:-0.34359 7:-1 8:0.43684 9:1 10:-1 11:-0.08942 12:1 13:-0.9729 14:-1 15:-0.90385 16:-1 17:0.0989 18:-1 19:-0.6 20:-1 21:-1 22:-0.71 23:-0.98077 24:-1 
10 1:-0.48859 2:0.99843 3:-0.82617 4:-0.87305 5:-0.40667 6:0.08333 7:0.725 8:-0.23438 9:-0.2 10:-0.12 11:-0.275 12:-0.67657 13:-0.97111 14:-1 15:-0.8 16:0.08952 17:-0.68435 18:-1 19:-1 20:-0.8 21:-1 22:-0.61 23:-0.98857 24:-1 
10 1:-0.48859 2:0.99843 3:-0.82227 4:-0.8457 5:-0.39333 6:0.31667 7:0.725 8:-0.23438 9:-0.2 10:-0.12 11:-0.275 12:-0.67657 13:-0.97111 14:-1 15:-0.8 16:0.10857 17:-0.67891 18:-1 19:-0.8 20:-0.6 21:-1 22:-0.61 23:-0.98857 24:-1 
10 1:0.24008 2:1 3:-0.02344 4:-0.02344 5:0.1006 6:-0.0381 7:0.49389 8:0.3576 9:-0.0101 10:0.08304 11:-0.05446 12:1 13:-0.99981 14:-0.91429 15:-0.81429 16:-0.12381 17:-0.55714 18:-1 19:-1 20:-1 21:-1 22:-0.78 23:-0.97286 24:-1 
10 1:0.05318 2:1 3:-0.02344 4:-0.02344 5:-0.13978 6:-0.2375 7:0.6318 8:0.49402 9:-0.2093 10:0.18065 11:0.04167 12:1 13:-0.99875 14:-0.99677 15:-0.92917 16:-0.14839 17:-0.53143 18:-0.8 19:-0.8 20:-1 21:-1 22:-0.73 23:-0.99345 24:-1 
10 1:0.04344 2:1 3:-0.02344 4:-0.02344 5:-0.02143 6:-0.13067 7:1 8:1 9:-0.08696 10:0.22321 11:-0.157 12:1 13:-0.99579 14:-0.91071 15:-0.844 16:-0.01973 17:-0.55184 18:-1 19:0.8 20:-1 21:-1 22:-0.93 23:-0.97585 24:-1 
10 1:0.07163 2:1 3:-0.02344 4:-0.02344 5:0.03333 6:0.03939 7:0.5598 8:0.79286 9:0.09434 10:0.20192 11:0.03561 12:1 13:-0.9896 14:-0.99615 15:-0.81515 16:-0.01245 17:-0.48281 18:-1 19:0.2 20:-1 21:-1 22:-0.55 23:-0.97898 24:-1 
10 1:-0.34694 2:0.99975 3:-0.58594 4:-0.79688 5:-0.11667 6:-0.13333 7:0.33897 8:1 9:-0.4 10:0.01562 11:0.5 12:-0.18153 13:-0.98 14:-0.9875 15:-0.925 16:0.05 17:-0.68413 18:-0.6 19:-0.8 20:-1 21:-1 22:-0.77 23:-0.99333 24:-1 
10 1:-0.48859 2:1 3:-0.91797 4:-0.73438 5:-0.3 6:-0.09333 7:1 8:0.30703 9:0.6 10:0.5 11:-0.18 12:1 13:-0.83 14:-0.95 15:-0.88 16:-0.17143 17:-0.3034 18:-0.8 19:-0.8 20:-1 21:-1 22:-0.59 23:-0.98 24:-1 
10 1:-0.21269 2:1 3:-0.66992 4:-0.38281 5:-0.29583 6:-0.12222 7:0.49969 8:0.48207 9:0.23077 10:0.30625 11:-0.22083 12:1 13:-0.9596 14:-1 15:-0.93333 16:-0.10238 17:-0.59429 18:-1 19:-1 20:-1 21:-1 22:-0.75 23:-0.992 24:-1 
10 1:-0.13381 2:1 3:-0.09375 4:-0.54688 5:-0.0902 6:-0.22667 7:0.03974 8:0.95202 9:-0.2381 10:0.08971 11:-0.0425 12:1 13:-0.98322 14:-0.99412 15:-0.85 16:-0.30868 17:-0.68183 18:-1 19:-0.8 20:-1 21:-1 22:-0.77 23:-0.98815 24:-1 
10 1:0.03333 2:1 3:-0.02344 4:-0.19336 5:-0.17677 6:-0.23519 7:0.7125 8:0.10558 9:-0.27778 10:0.02121 11:0.12222 12:1 13:-0.99868 14:-0.98485 15:-0.92778 16:0.13593 17:-0.58954 18:-0.8 19:-0.6 20:-1 21:-1 22:-0.68 23:-0.99294 24:-1 
10 1:-0.2554 2:1 3:-0.37109 4:-0.68359 5:-0.02424 6:-0.1 7:0.23448 8:1 9:-0.28571 10:0.21818 11:0.1125 12:0.35126 13:-0.97222 14:-1 15:-0.9 16:-0.32641 17:-0.59888 18:-1 19:-1 20:-1 21:-1 22:-0.88 23:-0.99294 24:-1 
10 1:0.11656 2:1 3:-0.02344 4:-0.02344 5:0.09756 6:-0.1023 7:0.57783 8:0.66928 9:-0.23333 10:-0.01037 11:-0.02672 12:1 13:-0.99913 14:-0.9561 15:-0.91034 16:0.11266 17:-0.49007 18:-0.6 19:-1 20:-1 21:-1 22:-0.67 23:-0.98743 24:-1 
10 1:-0.5291 2:0.99998 3:-0.82031 4:-0.76953 5:0.02222 6:0.31111 7:-0.38216 8:-0.42122 10:-0.01667 11:0.24167 12:-0.00218 13:-0.95889 14:-1 15:-0.9 16:0.01587 17:-0.68889 18:-0.6 19:-1 20:-1 21:-1 22:-0.64 23:-0.99 24:-1 
10 1:-0.15404 2:1 3:-0.38086 4:-0.50586 5:-0.03939 6:-0.39762 7:0.81868 8:0.2282 9:-0.11111 10:-0.02045 11:-0.09643 12:1 13:-0.95753 14:-0.99091 15:-0.84286 16:0.25368 17:-0.31657 18:-1 19:-1 20:-0.8 21:-0.8 22:-0.73 23:-0.9816 24:-1 
10 1:0.10109 2:1 3:-0.02344 4:-0.02344 5:-0.0186 6:-0.07681 7:0.719 8:0.85332 9:-0.35593 10:0.24767 11:0.05652 12:1 13:-0.99984 14:-0.99535 15:-0.84348 16:-0.09856 17:-0.6886 18:-1 19:-1 20:-1 21:-0.6 22:-0.87 23:-0.98848 24:-1 
10 1:-0.2554 2:1 3:-0.48633 4:-0.55664 5:0.09583 6:-0.15926 7:1 8:0.90923 9:-0.14286 10:0.20938 11:0.15556 12:1 13:-0.9404 14:-0.9875 15:-0.92222 16:0.28571 17:-0.54174 18:-1 19:-1 20:-1 21:-1 22:-0.94 23:-0.99059 24:-1 
10 1:-0.27133 2:1 3:-0.44336 4:-0.66211 5:-0.05 6:-0.03889 7:0.53214 8:0.3873 9:-0.28571 10:0.2675 11:0.2 12:0.47952 13:-0.99 14:-0.94 15:-0.9 16:0.1181 17:-0.49643 18:-1 19:-1 20:-1 21:-1 22:-0.92 23:-0.985 24:-1 
10 1:0.11656 2:1 3:-0.02344 4:-0.02344 5:-0.29612 6:-0.02469 7:0.55001 8:0.52286 9:-0.09804 10:0.05058 11:-0.08519 12:1 13:-0.90951 14:-0.99302 15:-0.91111 16:-0.01573 17:-0.57116 18:-1 19:-1 20:-0.8 21:-0.4 22:-0.77 23:-0.99229 24:-1 
10 1:-0.0177 2:1 3:-0.02344 4:-0.19336 5:0.16548 6:-0.01667 7:0.45076 8:-0.03434 9:-0.35 10:0.44464 11:-0.36071 12:1 13:-0.98975 14:-0.99286 15:-0.68571 16:-0.15714 17:-0.67256 18:-1 19:-1 20:-1 21:-0.8 22:-0.88 23:-0.9781 24:-1 
10 1:-0.34694 2:1 3:-0.70898 4:-0.63867 5:0.24167 6:-0.22917 7:0.40234 8:1 9:0.11111 10:0.1125 11:0.20938 12:1 13:-0.9564 14:-1 15:-0.925 16:-0.1619 17:-0.18095 18:-0.8 19:-0.8 20:-1 21:-1 22:-0.99 23:-0.99 24:-1 
10 1:0.18838 2:1 3:-0.02344 4:-0.02344 5:0.03955 6:0.04545 7:0.47311 8:0.26007 9:-0.30864 10:0.35551 11:0.17121 12:1 13:-0.99731 14:-0.99322 15:-0.90909 16:0.15997 17:-0.57619 18:-0.6 19:-0.2 20:-1 21:-1 22:-0.82 23:-0.99261 24:-1 
10 1:0.01187 2:1 3:-0.02344 4:-0.16992 5:0.09111 6:-0.16667 7:0.24791 8:0.78448 9:-0.35 10:0.17833 11:0.02647 12:1 13:-0.99836 14:-1 15:-0.91765 16:0.14349 17:-0.67052 18:-1 19:-0.8 20:-1 21:-1 22:-0.96 23:-0.99404 24:-1 
10 1:0.15491 2:1 3:-0.02344 4:-0.02344 5:0.11789 6:-0.11333 7:0.45849 8:0.25817 9:-0.0411 10:0.37256 11:0.20188 12:1 13:-0.99044 14:-0.99512 15:-0.905 16:0.16516 17:-0.50758 18:-1 19:-0.6 20:-1 21:-1 22:-0.91 23:-0.99012 24:-1 
10 1:0.24703 2:1 3:-0.02344 4:-0.02344 5:0.06471 6:0.04823 7:0.7137 8:0.52244 9:-0.15094 10:0.29338 11:-0.11489 12:1 13:-0.99966 14:-0.99412 15:-0.7234 16:-0.1381 17:-0.58145 18:-1 19:-1 20:-1 21:-1 22:-0.91 23:-0.9767 24:-1 
10 1:0.26894 2:1 3:-0.02344 4:-0.02344 5:0.00178 6:-0.028 7:0.44517 8:0.87205 9:-0.20354 10:0.261 11:0.042 12:1 13:-0.99876 14:-0.992 15:-0.738 16:-0.05803 17:-0.67451 18:-1 19:-1 20:-1 21:-1 22:-0.99 23:-0.97808 24:-1 
10 1:-0.48859 2:0.99378 3:-0.71484 4:-0.875 5:-0.02667 6:0.06667 7:-0.58457 8:-0.85938 9:-0.42857 10:0.035 11:-0.275 12:-0.67657 13:-0.97111 14:-1 15:-0.9 16:0.20381 17:-0.53197 18:-1 19:-1 20:-1 21:-1 22:-0.52 23:-0.99429 24:-1 
10 1:-0.13381 2:1 3:-0.02344 4:-0.48047 5:0.15 6:-0.01481 7:0.06791 8:0.69537 9:-0.33333 10:0.32778 11:-0.19444 12:0.834 13:-0.9898 14:-0.98333 15:-0.81111 16:0.10053 17:-0.67337 18:-1 19:-0.8 20:-1 21:-1 22:-0.91 23:-0.98519 24:-1 
10 1:-0.14373 2:1 3:-0.05469 4:-0.53516 5:-0.1037 6:-0.00833 7:1 8:0.35212 9:-0.33333 10:0.32778 11:0.30625 12:0.37367 13:-0.99778 14:-1 15:-0.9125 16:-0.14815 17:-0.84762 18:-0.8 19:-0.4 20:-1 21:-1 22:-0.79 23:-0.99462 24:-1 
10 1:-0.14373 2:1 3:-0.43945 4:-0.31641 5:-0.2641 6:-0.10256 7:0.62277 8:-0.06919 9:0.05263 10:0.32115 11:0.14231 12:1 13:-0.99326 14:-0.99231 15:-0.91538 16:-0.06227 17:-0.63736 18:-1 19:-0.4 20:-1 21:-1 22:-0.71 23:-0.99077 24:-1 
10 1:0.145 2:1 3:-0.02344 4:-0.02344 5:0.02531 6:-0.07778 7:0.4425 8:0.56417 9:-0.40845 10:0.10648 11:0.16354 12:1 13:-0.99921 14:-0.87222 15:-0.825 16:0.08713 17:-0.66813 18:-1 19:-1 20:-1 21:-0.8 22:-0.73 23:-0.97154 24:-1 
10 1:0.27103 2:-0.9967 3:-0.02344 4:-0.08008 5:0.11518 6:0.12143 7:0.55432 8:0.67771 9:-0.76068 10:0.34509 11:0.14286 12:-1 13:-0.99543 14:-0.97679 15:-0.85714 16:-0.18112 17:-0.89902 18:-1 19:-1 20:-1 21:-1 22:-0.99 23:-0.9927 24:-1 
10 1:-0.044 2:0.83086 3:-0.02344 4:-0.66406 5:0.14848 6:0.14667 7:0.79581 8:1 9:-0.71429 10:0.40606 11:0.19 12:-0.99999 13:-0.99492 14:-0.98788 15:-0.9 16:-0.11861 17:-0.87318 18:-1 19:-1 20:-1 21:-1 22:-0.95 23:-0.99526 24:-1 
10 1:0.18838 2:1 3:-0.02344 4:-0.02344 5:0.18213 6:0.03188 7:0.5489 8:0.92032 9:-0.52381 10:0.27826 11:0.10109 12:0.73434 13:-0.99837 14:-0.90725 15:-0.86087 16:-0.11636 17:-0.78923 18:-1 19:-1 20:-1 21:-1 22:-0.93 23:-0.97913 24:-1 
10 1:0.16132 2:1 3:-0.02344 4:-0.02344 5:0.08382 6:0.13778 7:0.71082 8:1 9:-0.61644 10:0.25257 11:0.19 12:-0.99998 13:-0.98927 14:-0.96471 15:-0.82667 16:-0.07003 17:-0.83133 18:-1 19:-0.8 20:-1 21:-1 22:-0.79 23:-0.98795 24:-1 
10 1:-0.48859 2:0.99843 3:-0.76562 4:-0.85938 6:-0.2 7:0.8182 8:-0.4974 9:-0.2 10:0.30625 11:-0.01667 12:-0.12934 13:-0.87 14:-0.975 15:-0.93333 16:-0.3 17:-0.78503 18:-1 19:-1 20:-1 21:-1 22:-0.85 23:-0.99143 24:-1 
10 1:-0.21269 2:0.99232 3:-0.32617 4:-0.75391 5:-0.04167 6:-0.475 7:0.23775 8:-0.1257 9:-0.6 10:0.04792 11:-0.21562 12:1 13:-0.98889 14:-0.99167 15:-0.925 16:0.26667 17:-0.54476 18:-0.8 19:-0.8 20:-1 21:-1 22:-0.91 23:-0.993 24:-0.90476 
10 1:-0.0177 2:1 3:-0.02344 4:-0.02344 5:0.04394 6:-0.135 7:0.6178 8:0.54315 9:-0.14286 10:0.42955 11:0.19 12:1 13:-0.98521 14:-1 15:-0.855 16:-0.10216 17:-0.6576 18:-1 19:-0.4 20:-1 21:-1 22:-0.81 23:-0.98619 24:-1 
10 1:-0.5291 2:1 3:-1 4:-0.63672 5:-1 6:0.03333 7:-1 8:-0.11895 9:1 10:-1 11:-0.06667 12:1 13:-0.98 14:-1 15:-0.9 16:-1 17:0.07619 18:-0.8 19:-1 20:-1 21:-1 22:-0.84 23:-0.98 24:-1 
10 1:0.0174 2:1 3:-0.02344 4:-0.02344 5:-0.17619 6:-0.13167 7:0.47524 8:0.28053 9:-0.15 10:0.22321 11:-0.0825 12:1 13:-0.99975 14:-1 15:-0.745 16:-0.09932 17:-0.59921 18:-0.8 19:-0.8 20:-1 21:-1 22:-0.8 23:-0.97875 24:-1 
10 1:0.05791 2:1 3:-1 4:-0.02344 5:-1 6:-0.0619 7:-1 8:-0.1209 9:1 10:-1 11:-0.19152 12:1 13:-0.98901 14:-1 15:-0.80714 16:-1 17:0.40408 18:-1 19:-1 20:-1 21:-1 22:-0.87 23:-0.96143 24:-1 
10 1:-0.2554 2:1 3:-0.65625 4:-0.62891 5:-0.1619 6:-0.36667 7:1 8:0.51207 9:0.16667 10:0.38929 11:-0.0425 12:1 13:-0.9451 14:-0.98571 15:-0.9 16:0.06939 17:-0.66162 18:-0.8 19:-1 20:-1 21:-1 22:-0.93 23:-0.98706 24:-1 
10 1:-0.3698 2:1 3:-0.61523 4:-0.7207 5:-0.0619 6:0.19167 7:-0.09635 8:-0.30029 9:-0.2 10:-0.05357 11:-0.35 12:-0.05475 13:-0.9928 14:-1 15:-0.85 16:-0.14286 17:-0.78009 18:-1 19:-1 20:-1 21:-1 22:-0.67 23:-0.98909 24:-1 
10 1:-0.17595 2:1 3:-0.14844 4:-0.50977 5:0.11795 6:-0.16333 7:0.29324 8:0.30382 9:-0.2381 10:0.14231 11:-0.025 12:1 13:-0.9276 14:-0.99231 15:-0.92 16:-0.29817 17:-0.62733 18:-1 19:-1 20:-1 21:-0.8 22:-0.73 23:-0.99217 24:-1 
10 1:-0.4535 2:1 3:-1 4:-0.74609 5:-1 6:-0.45833 7:-1 8:0.11761 9:1 10:-1 11:0.30625 12:1 13:-0.85556 14:-1 15:-0.95 16:-1 17:-0.5381 18:-1 19:-1 20:-0.2 21:-0.2 22:-0.64 23:-0.99 24:-1 
10 1:0.12758 2:1 3:-1 4:-0.02344 5:-1 6:-0.24018 7:-1 8:0.57874 9:1 10:-1 11:-0.03801 12:1 13:-0.98984 14:-1 15:-0.9 16:-1 17:-0.10137 18:-0.8 19:-1 20:-1 21:-1 22:-0.83 23:-0.98 24:-1 
10 1:-0.09751 2:1 3:-0.02344 4:-0.5332 5:-0.06667 6:-0.27576 7:0.26079 8:1 9:-0.3913 10:0.22375 11:0.28864 12:1 13:-0.98202 14:-0.98 15:-0.93636 16:-0.08476 17:-0.67435 18:-1 19:-1 20:-0.8 21:-1 22:-0.85 23:-0.9929 24:-1 
10 1:0.145 2:1 3:-0.97852 4:-0.02344 5:-0.63333 6:0.20649 7:-1 8:0.63326 9:0.97297 10:-0.275 11:0.19675 12:1 13:-1 14:-0.1 15:-0.8987 16:-0.92381 17:-0.16752 18:-0.2 19:-0.6 20:-1 21:-1 22:-0.69 23:-0.97769 24:-1 
10 1:-0.34694 2:1 3:-0.61719 4:-0.71875 5:-0.06667 6:-0.04 7:0.78116 8:0.05605 9:-0.11111 10:0.16786 11:0.345 12:0.40417 13:-0.9939 14:-1 15:-0.9 16:-0.15102 17:-0.51746 18:-0.8 19:-0.4 20:-1 21:-1 22:-0.83 23:-0.99167 24:-1 
10 1:0.07604 2:0.99989 3:-0.02344 4:-0.50977 5:0.12533 6:-0.16333 7:0.78704 8:-0.40929 9:-0.67273 10:0.2855 11:-0.525 12:-0.99998 13:-0.99826 14:-0.99 15:-0.72 16:-0.15962 17:-0.91429 18:-0.8 19:-1 20:-1 21:-1 22:-0.97 23:-0.989 24:-1 
10 1:-0.06561 2:1 3:-0.02344 4:-0.37695 5:-0.00247 6:0.32917 7:0.15555 8:0.10767 9:-0.54286 10:0.05833 11:0.01562 12:-0.72394 13:-0.9981 14:-0.98889 15:-0.8875 16:-0.24727 17:-0.81986 18:-1 19:-0.8 20:-1 21:-1 22:-0.58 23:-0.99314 24:-1 
10 1:-0.22617 2:1 3:-0.48633 4:-0.60938 5:-0.12333 6:-0.25926 7:1 8:0.03293 9:-0.07692 10:-0.18 11:-0.31944 12:1 13:-0.99372 14:-0.99 15:-0.86667 16:0.02286 17:-0.34937 18:-1 19:-1 20:-1 21:-1 22:-0.6 23:-0.98632 24:-1 
10 1:0.08039 2:1 3:-0.93555 4:-0.02344 5:0.1 7:-1 8:0.53185 9:0.96429 10:0.5 11:0.23917 12:1 13:-0.99968 14:-1 15:-0.905 16:-0.39048 17:-0.22779 18:-0.4 19:0.2 20:-1 21:-1 22:-0.55 23:-0.98131 24:-1 
10 1:0.25156 2:1 3:-0.02344 4:-0.02344 5:-0.0343 6:0.06389 7:0.53799 8:0.35621 9:-0.20755 10:0.1279 11:-0.0875 12:1 13:-0.99893 14:-0.9058 15:-0.825 16:-0.10117 17:-0.69182 18:-0.6 19:-0.8 20:-1 21:-1 22:-0.89 23:-0.97453 24:-1 
10 1:0.20765 2:1 3:-0.02344 4:-0.02344 5:0.05315 6:-0.25376 7:0.93789 8:0.3854 9:0.19512 10:-0.03986 11:0.04315 12:1 13:-0.99963 14:-0.99189 15:-0.90968 16:-0.24839 17:-0.49957 18:-0.8 19:-0.8 20:-1 21:-1 22:-0.25 23:-0.98808 24:-1 
10 1:0.23294 2:1 3:-0.02344 4:-0.02344 5:-0.01162 6:-0.15349 7:0.53444 8:0.40838 9:-0.25 10:0.10341 11:-0.01163 12:1 13:-0.99914 14:-0.99091 15:-0.87907 16:0.14488 17:-0.61643 18:-1 19:-0.8 20:-1 21:-1 22:-0.71 23:-0.98936 24:-1 
10 1:0.11277 2:1 3:-0.02344 4:-0.02344 5:0.11048 6:-0.15784 7:0.58426 8:0.56792 9:-0.08197 10:0.04071 11:-0.19265 12:1 13:-0.99689 14:-0.98 15:-0.88824 16:-0.24789 17:-0.6069 18:-1 19:-0.8 20:-1 21:-1 22:-0.77 23:-0.98696 24:-1 
10 1:0.16758 2:1 3:-0.02344 4:-0.02344 5:0.11181 6:-0.11712 7:0.42869 8:0.30076 9:-0.14286 10:0.33854 11:0.29595 12:1 13:-0.99379 14:-0.99583 15:-0.90811 16:0.0377 17:-0.52583 18:-1 20:-1 21:-1 22:-0.63 23:-0.99153 24:-1 
10 1:-0.3259 2:1 3:-0.61133 4:-0.61523 5:0.10556 6:-0.0619 7:0.21146 8:-0.62147 10:0.24167 11:0.05714 12:1 13:-0.9724 14:-1 15:-0.9 16:-0.28254 17:-0.71136 18:-1 19:-0.4 20:-1 21:-1 22:-0.95 23:-0.98923 24:-1 
10 1:-0.42254 2:1 3:-1 4:-0.47656 5:-1 6:-0.00741 7:-1 8:-0.02485 9:1 10:-1 11:0.24167 12:1 13:-0.9704 14:-1 15:-0.84444 16:-1 17:0.3418 18:-1 19:-1 20:-1 21:-0.8 22:-0.69 23:-0.96889 24:-1 
10 1:-0.4535 2:1 3:-0.92188 4:-0.67188 5:0.33333 6:-0.2 7:-1 8:0.02465 9:0.6 10:0.5 11:0.01429 12:1 13:-0.9775 14:-1 15:-0.94286 16:0.39048 17:0.00714 18:-1 19:-1 20:-1 21:-1 22:-0.87 23:-0.99 24:-1 
10 1:-0.34694 2:1 3:-0.64648 4:-0.72266 5:-0.1381 6:-0.05333 7:0.86096 8:0.15195 9:-0.11111 10:0.05714 11:0.035 12:0.40417 13:-0.94972 14:-1 15:-0.86 16:0.06939 17:-0.51111 18:-0.8 19:-0.8 20:-1 21:-1 22:-0.9 23:-0.98833 24:-1 
10 1:0.093 2:1 3:-0.02344 4:-0.02344 5:-0.05463 6:-0.16667 7:0.50686 8:0.87738 9:-0.19231 10:0.02292 11:-0.10268 12:1 13:-0.97964 14:-0.99722 15:-0.925 16:0.0127 17:-0.57976 18:-1 19:-1 20:-1 21:-1 22:-0.85 23:-0.99312 24:-1 
10 1:-0.42254 2:1 3:-0.82617 4:-0.6543 5:-0.01111 6:-0.01667 7:0.76823 8:0.31074 9:0.25 10:-0.375 11:0.07083 12:1 13:-0.9596 14:-1 15:-0.9 16:0.23175 17:-0.29524 18:-1 19:-0.8 20:-0.8 21:-1 22:-0.93 23:-0.98667 24:-1 
10 1:0.17369 2:1 3:-1 4:-0.02344 5:-1 6:-0.23487 7:-1 8:0.67063 9:1 10:-1 11:-0.03966 12:1 13:-0.98999 14:-1 15:-0.86897 16:-1 17:-0.14111 18:-0.4 19:-1 20:-1 21:-1 22:-0.73 23:-0.97379 24:-1 
10 1:-0.48859 2:1 3:-1 4:-0.6582 5:-1 6:-0.16667 7:-1 8:0.60268 9:1 10:-1 11:0.20714 12:1 13:-0.9675 14:-1 15:-0.84286 16:-1 17:-0.16735 18:-1 19:-1 20:-1 21:-1 22:-0.84 23:-0.96857 24:-1 
10 1:-0.34694 2:1 3:-0.4668 4:-0.73633 5:0.1375 6:0.125 7:0.24662 8:1 9:-0.27273 10:0.40312 11:-0.08125 12:-0.18153 13:-0.99889 14:-1 15:-0.875 16:-0.25 17:-0.65397 18:-1 19:-1 20:-1 21:-1 22:-0.89 23:-0.99167 24:-1 
10 1:-0.03052 2:1 3:-0.25195 4:-0.02344 5:-0.20208 6:-0.21667 7:1 8:0.42538 9:0.28571 10:0.16094 11:0.04792 12:1 13:-0.89222 14:-1 15:-0.9125 16:-0.08452 17:-0.43619 18:-0.8 19:-0.6 20:-1 21:-1 22:-0.59 23:-0.9895 24:-1 
10 1:-0.28829 2:1 3:-1 4:-0.36328 5:-1 6:-0.27556 7:-1 8:0.85644 9:1 10:-1 11:-0.005 12:1 13:-0.95551 14:-1 15:-0.87333 16:-1 17:-0.06159 18:-1 19:-1 20:-1 21:-1 22:-0.85 23:-0.97467 24:-1 
10 1:0.08039 2:1 3:-0.02344 4:-0.02344 5:-0.02626 6:-0.16429 7:0.74785 8:0.30242 9:-0.10204 10:0.11515 11:-0.12946 12:1 13:-0.97389 14:-0.98485 15:-0.88214 16:-0.0684 17:-0.54723 18:-1 19:-1 20:-1 21:-0.8 22:-0.93 23:-0.98754 24:-1 
10 1:0.08466 2:1 3:-0.02344 4:-0.02344 5:0.03889 6:-0.12821 7:0.71088 8:0.40249 9:-0.15385 10:0.12361 11:-0.02885 12:1 13:-0.98972 14:-0.99444 15:-0.90769 16:-0.00106 17:-0.58525 18:-0.6 19:-1 20:-1 21:-1 22:-0.83 23:-0.99161 24:-1 
10 1:-0.19986 2:1 3:-0.57617 4:-0.49219 5:-0.34242 6:-0.13333 7:0.59418 8:0.00575 9:0.14286 10:-0.04545 11:-0.12 12:1 13:-0.87566 14:-1 15:-0.9 16:0.06147 17:-0.46032 18:-1 19:-1 20:-1 21:-1 22:-0.67 23:-0.99048 24:-1 
10 1:-0.27133 2:1 3:-1 4:-0.24805 5:-1 6:-0.19792 7:-1 8:0.644 9:1 10:-1 11:-0.12969 12:1 13:-0.9864 14:-1 15:-0.9125 16:-1 17:0.17024 18:-1 19:-0.8 20:-1 21:-1 22:-0.53 23:-0.9825 24:-1 
10 1:-0.39485 2:1 3:-0.69141 4:-0.74805 5:-0.12222 6:0.075 7:1 8:-0.69987 10:0.24167 11:0.23125 12:0.07278 13:-0.9864 14:-1 15:-0.7 16:-0.22222 17:-0.61524 18:-1 19:-1 20:-1 21:-1 22:-0.96 23:-0.976 24:-1 
10 1:-0.06561 2:1 3:-1 4:-0.02344 5:-1 6:-0.25143 7:-1 8:0.42618 9:1 10:-1 11:0.01071 12:1 13:-0.98726 14:-1 15:-0.86857 16:-1 17:0.01007 18:-0.6 19:-1 20:-1 21:-1 22:-0.69 23:-0.97371 24:-1 
10 1:0.10504 2:1 3:-0.02344 4:-0.02344 5:-0.0219 6:-0.04063 7:0.66317 8:0.60977 9:-0.01587 10:0.24 11:-0.08516 12:1 13:-0.99838 14:-0.99429 15:-0.81875 16:0.13524 17:-0.50732 18:-1 19:-0.4 20:-1 21:-1 22:-0.59 23:-0.98209 24:-1 
10 1:-0.08916 2:1 3:-0.46094 4:-0.26562 5:-0.45882 6:-0.16444 7:1 8:-0.04524 9:0.14286 10:-0.18382 11:0.015 12:1 13:-0.99633 14:-1 15:-0.92 16:-0.15742 17:-0.46845 18:-1 19:-1 20:-1 21:-1 22:-0.58 23:-0.9925 24:-1 
10 1:0.12028 2:1 3:-0.02344 4:-0.02344 5:0.05484 6:-0.065 7:0.4171 8:0.5079 9:0.125 10:0.01694 11:-0.08125 12:1 13:-0.9985 14:-1 15:-0.9 16:-0.14101 17:-0.534 18:-1 19:-0.2 20:-1 21:-1 22:-0.58 23:-0.98873 24:-1 
10 1:0.03843 2:1 3:-0.02344 4:-0.50977 5:-0.1075 6:-0.30278 7:0.71059 8:0.2124 9:-0.53846 10:0.00062 11:-0.43333 12:-0.58219 13:-0.97222 14:-0.9925 15:-0.74167 16:-0.18143 17:-0.85165 18:-1 19:-0.8 20:-1 21:-1 22:-0.73 23:-0.98692 24:-1 
10 1:0.05791 2:1 3:-0.02344 4:-0.02344 5:-0.15802 6:-0.40115 7:0.4435 8:0.89915 9:-0.14286 10:0.11574 11:-0.03879 12:1 13:-0.98546 14:-0.99259 15:-0.93448 16:-0.06808 17:-0.5 18:-0.4 19:-1 20:-1 21:-1 22:-0.63 23:-0.9925 24:-1 
10 1:0.10894 2:1 3:-0.02344 4:-0.02344 5:0.01622 6:-0.0914 7:0.9623 8:0.25832 9:-0.12727 10:0.14392 11:0.06452 12:1 13:-0.9723 14:-1 15:-0.9 16:0.0749 17:-0.52661 18:-0.8 19:-0.8 20:-1 21:-1 22:-0.85 23:-0.99088 24:-1 
10 1:0.16132 2:1 3:-0.02344 4:-0.02344 5:-0.06383 6:-0.11852 7:0.55859 8:0.40296 9:-0.14286 10:0.19521 11:-0.1125 12:1 13:-0.9875 14:-0.99787 15:-0.83889 16:0.06261 17:-0.56351 18:-1 19:-1 20:-1 21:-1 22:-0.85 23:-0.98578 24:-0.97619 
10 1:0.28524 2:1 3:-0.02344 4:-0.02344 5:-0.05799 6:-0.05333 7:0.80621 8:0.34047 9:-0.10345 10:0.25582 11:0.00917 12:1 13:-0.99969 14:-0.99315 15:-0.90833 16:-0.02805 17:-0.543 18:-1 19:-1 20:-1 21:-1 22:-0.79 23:-0.99098 24:-1 
10 1:-0.34694 2:1 3:-0.4668 4:-0.75391 5:0.1375 6:0.05 7:-0.7093 8:-0.18229 9:-0.33333 10:0.01562 11:-0.08125 12:-0.18153 13:-0.9998 14:-1 15:-0.9 16:0.45952 17:-0.82857 18:-1 19:-1 20:-0.8 21:-1 22:-0.9 23:-0.99333 24:-1 
10 1:0.19403 2:1 3:-0.02344 4:-0.02344 5:-0.00069 6:-0.07029 7:0.58765 8:0.92732 9:-0.025 10:0.1125 11:-0.04185 12:1 13:-0.99997 14:-0.99167 15:-0.88696 16:-0.08333 17:-0.52016 18:-1 19:-0.4 20:-1 21:-1 22:-0.66 23:-0.98809 24:-1 
10 1:0.11656 2:1 3:-0.02344 4:-0.02344 5:-0.04833 6:-0.16889 7:0.54326 8:0.72953 9:-0.18033 10:0.33062 11:-0.08083 12:1 13:-0.99439 14:-0.995 15:-0.79 16:-0.29619 17:-0.61633 18:-1 19:-1 20:-1 21:-1 22:-0.94 23:-0.98143 24:-1 
10 1:-0.05821 2:1 3:-0.02344 4:-0.0918 5:0.16842 6:-0.08824 7:1 8:0.60218 9:-0.11765 10:0.18816 11:0.02647 12:1 13:-0.99918 14:-0.95263 15:-0.85294 16:0.07268 17:-0.60635 18:-0.8 19:-0.4 20:-1 21:-1 22:-0.48 23:-0.98111 24:-1 
10 1:-0.07323 2:1 3:-0.02344 4:-0.41016 5:-0.11905 6:-0.22564 7:1 8:0.41597 9:-0.12 10:0.19286 11:-0.05962 12:1 13:-0.96877 14:-0.97619 15:-0.89231 16:0.15102 17:-0.62745 18:-0.4 19:-1 20:-1 21:-1 22:-0.93 23:-0.98882 24:-1 
